tree
version=v4
num_class=1
num_tree_per_iteration=1
label_index=0
max_feature_idx=7
objective=regression
feature_names=wind_speed wind_speed_2 wind_speed_3 hour month is_daytime wind_lag_1h wind_lag_24h
feature_infos=[0.08187419650000001:21.5613417] [0.0067033840525206135:464.89145590415887] [0.00054883418313103908:10023.683534160053] [0:23] [1:12] [0:1] [0.08187419650000001:21.5613417] [0.08187419650000001:21.5613417]
tree_sizes=2688 2726 2732 2740 2731 2750 2727 2749 2737 2727 2744 2734 2777 2748 2751 2770 2742 2722 2775 2754 2736 2717 2768

Tree=0
num_leaves=31
num_cat=0
split_feature=6 6 6 3 0 6 4 0 4 4 7 3 4 4 6 3 7 3 4 3 3 7 4 4 4 0 3 3 4 4
split_gain=2.21926e+07 3.42818e+06 2.29295e+06 762986 550972 403072 386840 308138 299200 297405 450446 267577 244931 477458 243575 212967 189998 156794 140620 134803 132534 130084 116490 125591 108288 106100 100846 143520 97976.2 94894
threshold=8.0838374925000007 5.4383832070000002 9.3076770500000023 13.500000000000002 10.993872237500002 3.874434522500001 10.500000000000002 7.0304509550000009 10.500000000000002 11.500000000000002 13.794368652500003 14.500000000000002 10.500000000000002 5.5000000000000009 6.7189272250000007 14.500000000000002 10.782597100000002 5.5000000000000009 6.5000000000000009 9.5000000000000018 18.500000000000004 9.0124963565000016 6.5000000000000009 7.5000000000000009 1.5000000000000002 8.8582340650000031 7.5000000000000009 15.500000000000002 5.5000000000000009 9.5000000000000018
decision_type=2 2 2 2 2 2 2 2 2 2 2 2 2 2 2 2 2 2 2 2 2 2 2 2 2 2 2 2 2 2
left_child=1 5 6 7 12 -1 11 -3 -9 16 26 25 13 -4 21 -15 -6 -14 -13 -10 -7 -5 -17 -24 -16 -2 -11 -28 -27 -20
right_child=2 3 4 14 9 20 -8 8 19 10 -12 18 17 15 24 22 -18 -19 29 -21 -22 -23 23 -25 -26 28 27 -29 -30 -31
leaf_value=46.086446370816127 49.75270095611635 47.788405902582831 54.961038846342618 49.083167535143993 55.171769842929152 46.927821483116581 53.959245377942942 48.806619633791399 53.338338729075957 61.643717341253257 45.791392424958616 53.275462376550671 58.969567583407844 51.125396665014698 47.880472191902761 56.174681708057456 57.024278901189604 54.843357342481013 50.116877205459268 47.737187442918227 48.008713654375292 51.500506629676998 50.871509969228683 54.219935969964773 51.072862945808225 52.793970899692226 52.183025780250219 57.942568035656898 50.157838897693537 53.515858336289355
leaf_weight=7217 1281 4133 1111 2032 997 4946 513 2191 227 21 70 591 120 806 113 137 1245 396 343 53 1472 250 189 275 1780 266 116 69 300 108
leaf_count=7217 1281 4133 1111 2032 997 4946 513 2191 227 21 70 591 120 806 113 137 1245 396 343 53 1472 250 189 275 1780 266 116 69 300 108
internal_value=49.2146 47.6528 53.473 48.9855 54.7257 46.5992 51.4287 48.3166 49.2 55.8192 52.7217 50.9794 53.8181 53.4114 50.0437 52.1878 56.2005 55.8029 52.2607 52.2781 47.1757 49.348 53.6125 52.856 50.8823 50.2565 55.0766 54.3312 51.3967 50.9308
internal_weight=33368 24414 8954 10779 5552 13635 3402 6604 2471 2518 276 2889 3034 2518 4175 1407 2242 516 1042 280 6418 2282 601 464 1893 1847 206 185 566 451
internal_count=33368 24414 8954 10779 5552 13635 3402 6604 2471 2518 276 2889 3034 2518 4175 1407 2242 516 1042 280 6418 2282 601 464 1893 1847 206 185 566 451
is_linear=0
shrinkage=1


Tree=1
num_leaves=31
num_cat=0
split_feature=0 0 0 3 4 4 0 5 4 7 0 4 0 0 0 0 3 7 3 3 4 4 7 3 3 7 3 7 4 7
split_gain=1.79256e+07 2.87355e+06 1.81167e+06 647848 451878 380138 336872 277763 244362 210156 206773 198031 211336 192625 182332 180429 165706 156819 157342 141862 134190 167102 126811 117717 110557 99422.1 98410.7 95714.6 94132.1 90406.9
threshold=8.1202230350000004 5.4663840180000012 9.9818603865000011 14.500000000000002 10.500000000000002 5.5000000000000009 3.8362622000000006 1.0000000180025095e-35 11.500000000000002 9.0124963565000016 8.7568243500000023 11.500000000000002 12.553844025000002 6.9994801160000018 7.3287773015000006 13.794368652500003 13.500000000000002 2.7865736990000003 3.5000000000000004 18.500000000000004 10.500000000000002 4.5000000000000009 6.3480581400000009 14.500000000000002 16.500000000000004 8.1564998400000039 18.500000000000004 13.794368652500003 5.5000000000000009 6.872338462000001
decision_type=2 2 2 2 2 2 2 2 2 2 2 2 2 2 2 2 2 2 2 2 2 2 2 2 2 2 2 2 2 2
left_child=1 6 4 8 5 10 25 22 14 13 24 12 20 -5 -3 27 -7 -10 -19 -8 21 -9 -4 -23 -2 -1 -11 -13 -24 -21
right_child=2 3 7 9 -6 16 19 11 17 26 -12 15 -14 -15 -16 -17 -18 18 -20 29 -22 23 28 -25 -26 -27 -28 -29 -30 -31
leaf_value=-2.9028947627633546 1.1754386258242178 -1.1696319010277592 3.184578952422509 0.030347816473101898 4.8276429337830775 0.56958411232133332 -2.0729485853998035 5.61040267881764 -3.0100766112407049 0.9072852643687126 4.164955959723776 3.7014757215625274 6.7322937304825423 1.6802196089019727 0.029527248210240484 -5.04520122158912 2.2950641954673037 6.1611935179518618 1.2160147081468708 -1.4124035654374554 6.8560704434936373 2.5332918887566418 7.4705778934449469 5.1177189964420942 4.1072447828244592 -1.3218049467464219 3.5449093569856864 -3.535382423400879 5.9432772548072101 0.3669449861220857
leaf_weight=6653 510 4897 117 2141 735 1336 5114 462 57 221 1018 212 541 1057 1711 31 954 92 214 1187 199 628 701 245 172 423 393 20 951 376
leaf_count=6653 510 4897 117 2141 735 1336 5114 462 57 221 1018 212 541 1057 1711 31 954 92 214 1187 199 628 701 245 172 423 393 20 951 376
internal_value=0.0212264 -1.36937 3.8844 -0.147181 2.54913 2.1294 -2.32762 5.4206 -0.720368 0.901004 3.26226 4.70526 5.03291 0.575662 -0.859135 2.12017 1.28841 1.80574 2.7028 -1.81812 4.43358 4.07248 6.36604 3.25859 1.91484 -2.80838 2.59554 3.07761 6.59136 -0.984358
internal_weight=33368 24536 8832 10783 4725 3990 13753 4107 6971 3812 1700 2338 2075 3198 6608 263 2290 363 306 6677 1534 1335 1769 873 682 7076 614 232 1652 1563
internal_count=33368 24536 8832 10783 4725 3990 13753 4107 6971 3812 1700 2338 2075 3198 6608 263 2290 363 306 6677 1534 1335 1769 873 682 7076 614 232 1652 1563
is_linear=0
shrinkage=0.1


Tree=2
num_leaves=31
num_cat=0
split_feature=6 6 6 3 1 4 6 3 4 7 4 4 5 4 4 3 7 6 3 5 3 6 7 3 4 4 4 4 7 7
split_gain=1.46478e+07 1.94325e+06 1.93433e+06 462217 368752 312901 274406 220115 200702 355552 176497 325065 192232 172242 151698 149478 134552 129590 117046 116493 102486 101033 96646.7 146344 94561.8 94210.6 87664 90059.9 86729.7 85522.7
threshold=7.8471417310000007 5.4663840180000012 9.3076770500000023 13.500000000000002 120.86522715016567 10.500000000000002 3.874434522500001 14.500000000000002 11.500000000000002 13.794368652500003 10.500000000000002 5.5000000000000009 1.0000000180025095e-35 11.500000000000002 6.5000000000000009 13.500000000000002 10.782597100000002 6.2915546725000011 2.5000000000000004 1.0000000180025095e-35 16.500000000000004 13.387369195000003 2.7865736990000003 4.5000000000000009 9.5000000000000018 1.5000000000000002 6.5000000000000009 7.5000000000000009 6.8419574180000016 7.932138815000001
decision_type=2 2 2 2 2 2 2 2 2 2 2 2 2 2 2 2 2 2 2 2 2 2 2 2 2 2 2 2 2 2
left_child=1 6 5 13 10 7 -1 -2 16 19 11 -4 -12 18 -9 29 -6 -5 -3 -10 -8 -21 -15 -24 -16 -19 -17 -28 -22 -13
right_child=2 3 4 17 8 -7 20 14 9 -11 12 15 -14 22 24 26 -18 25 -20 21 28 -23 23 -25 -26 -27 27 -29 -30 -31
leaf_value=-2.5199676146097234 0.72787284340738312 -0.10591266614085595 4.6949706571627638 -0.14943654576663751 4.8461852945125807 3.7686245854320024 -1.8834349662169201 3.3025080099447424 8.655843474070231 -3.3031028420584541 7.7577627922847583 0.090069764566748117 3.8346315378323199 -2.6692369806005605 0.34402100291012266 5.5939667626235048 6.4051267733774999 -1.1896360509312911 -1.1725330579179294 4.5299041448701773 -1.3821927922787753 -2.8234592784534804 5.1202101047871249 0.29863365296394595 3.4039610681693944 1.2333449879030796 1.2247321085018272 3.9150658840059558 0.20453015558663298 2.2974569207836284
leaf_weight=7217 2324 1344 1111 1416 997 603 4603 732 60 70 212 292 304 47 410 152 1245 173 4387 124 1502 22 106 155 134 2216 204 319 447 440
leaf_count=7217 2324 1344 1111 1416 997 603 4603 732 60 70 212 292 304 47 410 152 1245 173 4387 124 1502 22 106 155 134 2216 204 319 447 440
internal_value=0.0191037 -1.32756 3.27884 -0.254672 4.50404 1.6604 -2.09461 1.30728 5.39863 2.85408 3.7616 3.41633 5.44646 -0.798588 2.36255 2.40669 5.71188 0.60859 -0.922396 4.94632 -1.62608 3.42186 1.50512 2.25682 1.09776 1.05788 3.48005 2.86568 -1.01828 1.41691
internal_weight=33368 23613 9755 9844 5552 4203 13769 3600 2518 276 3034 2518 516 6039 1276 1407 2242 3805 5731 206 6552 146 308 261 544 2389 675 523 1949 732
internal_count=33368 23613 9755 9844 5552 4203 13769 3600 2518 276 3034 2518 516 6039 1276 1407 2242 3805 5731 206 6552 146 308 261 544 2389 675 523 1949 732
is_linear=0
shrinkage=0.1


Tree=3
num_leaves=31
num_cat=0
split_feature=6 6 0 6 4 4 4 7 6 4 7 4 5 0 4 7 4 5 7 7 0 5 7 7 6 0 7 5 4 7
split_gain=1.18715e+07 1.91988e+06 1.32028e+06 316798 313685 188293 250244 188123 185505 170966 288417 155085 145476 139804 130047 144291 114948 99130.5 96581.2 93718.4 86214 86134.4 84886.6 83702.1 82096.9 81840.8 81359 79769.8 78315.9 78098.8
threshold=7.5798453980000007 9.2374930680000027 5.2595267280000009 11.211266945 10.500000000000002 4.5000000000000009 10.500000000000002 9.1198309875000021 3.7533302675000004 11.500000000000002 13.794368652500003 10.500000000000002 1.0000000180025095e-35 6.7189272250000007 5.5000000000000009 7.8946617525000002 2.5000000000000004 1.0000000180025095e-35 6.5484697050000014 6.096804241000001 6.2915546725000011 1.0000000180025095e-35 7.772295423500001 10.601157025000003 13.387369195000003 8.7568243500000023 9.4157764335000014 1.0000000180025095e-35 6.5000000000000009 3.4221764350000003
decision_type=2 2 2 2 2 2 2 2 2 2 2 2 2 2 2 2 2 2 2 2 2 2 2 2 2 2 2 2 2 2
left_child=2 4 8 5 14 -3 19 11 -1 16 17 20 18 29 15 -2 -5 -11 -8 -7 27 -17 -10 -18 26 -23 -19 -4 -9 -13
right_child=1 3 7 9 -6 6 12 28 22 10 -12 13 -14 -15 -16 21 23 24 -20 -21 -22 25 -24 -25 -26 -27 -28 -29 -30 -31
leaf_value=-2.3030386754507042 0.93838685521406129 4.6332635760248913 -0.63459930600478909 2.4809272239676545 3.2751160329688376 0.67712510866303433 0.29689131691342308 1.7895812131605198 -1.6899955656620964 8.0392970271277857 -2.9727926635742188 -2.4694379648400679 3.5031856629155826 2.2457386709900873 0.53167730837262661 3.9083164023438743 4.610581881901493 0.90392634258713833 7.4158425246916941 2.6921511867344794 -0.40130930684477573 0.77365434410607248 -0.59691039227915665 5.9790006868502639 -2.5411133679476654 3.9478001098309101 6.6439707694382513 -1.590279885232589 -0.034926290075164033 0.28208516610553896
leaf_weight=6784 1132 925 1932 140 717 269 21 503 5235 57 70 126 348 345 2419 339 728 43 206 1626 4351 271 822 1158 22 116 58 1594 442 569
leaf_count=6784 1132 925 1932 140 717 269 21 503 5235 57 70 126 348 345 2419 339 728 43 206 1626 4351 271 822 1158 22 116 58 1594 442 569
internal_value=0.0171934 2.7692 -1.27559 4.02827 1.33944 3.41631 2.96056 -0.405414 -1.9439 4.94111 2.47384 -0.547596 4.78784 0.600132 1.01494 1.64412 5.24557 4.59197 6.75726 2.40611 -0.69913 2.74452 -1.54165 5.45079 2.99443 1.72508 4.20019 -1.06663 0.936214 -0.216752
internal_weight=33368 10665 22703 5671 4994 3395 2470 9862 12841 2276 250 8917 575 1040 4277 1858 2026 180 227 1895 7877 726 6057 1886 123 387 101 3526 945 695
internal_count=33368 10665 22703 5671 4994 3395 2470 9862 12841 2276 250 8917 575 1040 4277 1858 2026 180 227 1895 7877 726 6057 1886 123 387 101 3526 945 695
is_linear=0
shrinkage=0.1


Tree=4
num_leaves=31
num_cat=0
split_feature=6 0 6 3 4 4 6 5 4 4 0 6 6 0 4 3 4 3 0 0 3 4 4 4 3 6 3 4 6 0
split_gain=9.65905e+06 1.52917e+06 995919 392348 238569 226911 185929 184880 153913 137718 132960 127076 125202 117517 107583 106568 105599 96549.9 95782.4 94436.3 83807.3 79216.1 96037.2 89313.9 83989.6 73505.3 69800.3 67146.4 63365.9 73696.1
threshold=8.1202230350000004 5.4663840180000012 9.9818603865000011 13.500000000000002 10.500000000000002 5.5000000000000009 4.0634098100000005 1.0000000180025095e-35 10.500000000000002 11.500000000000002 6.2634753770000007 8.7568243500000023 6.9994801160000018 12.553844025000002 10.500000000000002 14.500000000000002 4.5000000000000009 18.500000000000004 13.794368652500003 7.3287773015000006 14.500000000000002 5.5000000000000009 6.5000000000000009 2.5000000000000004 17.500000000000004 11.454686810000002 1.5000000000000002 9.5000000000000018 15.930215260000002 14.266342905000004
decision_type=2 2 2 2 2 2 2 2 2 2 2 2 2 2 2 2 2 2 2 2 2 2 2 2 2 2 2 2 2 2
left_child=1 6 4 8 5 11 -1 21 19 13 -10 -2 -5 14 16 -7 -9 -8 -11 26 -18 23 24 -4 -23 -16 -3 -17 29 -24
right_child=2 3 7 12 -6 15 17 9 10 18 -12 -13 -14 -15 25 27 20 -19 -20 -21 -22 22 28 -25 -26 -27 -28 -29 -30 -31
leaf_value=-2.023958598941217 1.3661213909129362 -0.082313578181023153 3.3859694138551371 0.23681816633507943 3.5315595624209934 0.37626806899408893 -1.5011474481865918 4.1101525432058086 -0.93967677254436743 1.9463550492993786 1.7900932120806627 3.1349642982476791 1.380488288751414 4.9418041213761583 3.9420118997647218 1.3400153721751007 1.6074460010590226 -0.54001900155605875 -3.9689467030186805 -0.10659726741245218 3.8040361834712968 -1.2170129999247465 4.7524079139312638 6.0672773011291374 3.5547705122402742 7.9072954099472259 -1.1835205819905761 3.5408199896928907 8.5958210292615398 1.7351458539019575
leaf_weight=7823 674 685 156 2661 722 1428 4571 463 288 234 469 1022 1495 541 130 682 609 1355 31 1596 243 55 733 610 112 73 3604 174 38 91
leaf_count=7823 674 685 156 2661 722 1428 4571 463 288 234 469 1022 1495 541 130 682 609 1355 31 1596 243 55 733 610 112 73 3604 174 38 91
internal_value=0.015474 -1.00444 2.85367 -0.113817 1.85916 1.55578 -1.7039 3.98894 -0.590635 3.40014 0.751555 2.43202 0.64822 3.67631 3.2253 0.905124 2.89454 -1.28138 1.25438 -0.763283 2.23394 4.75126 4.17809 5.52121 1.98323 5.36795 -1.00765 1.78738 4.60331 4.41919
internal_weight=33368 24547 8821 10798 4702 3980 13749 4119 6642 2324 757 1696 4156 2059 1518 2284 1315 5926 265 5885 852 1795 1029 766 167 203 4289 856 862 824
internal_count=33368 24547 8821 10798 4702 3980 13749 4119 6642 2324 757 1696 4156 2059 1518 2284 1315 5926 265 5885 852 1795 1029 766 167 203 4289 856 862 824
is_linear=0
shrinkage=0.1


Tree=5
num_leaves=31
num_cat=0
split_feature=0 0 0 4 3 0 7 4 7 3 7 3 0 4 4 7 4 4 7 4 7 7 4 5 4 7 7 3 3 7
split_gain=7.67297e+06 1.21629e+06 711033 267115 271673 241255 213768 137505 130607 128364 119411 110589 104316 100285 224879 229702 208646 129971 105585 96711.1 89991.2 87925.8 84480.7 83521.3 103754 75716.8 74680.4 76789.7 71991.7 79885
threshold=8.1202230350000004 6.0057540370000009 9.2374930680000027 10.500000000000002 11.500000000000002 4.0988175645000009 8.1980769800000015 6.5000000000000009 8.5413505870000019 15.500000000000002 7.6943623900000011 12.500000000000002 15.930215260000002 5.5000000000000009 7.5000000000000009 13.794368652500003 11.500000000000002 2.5000000000000004 13.073715525000003 10.500000000000002 5.6606247290000011 7.8469228375000011 4.5000000000000009 1.0000000180025095e-35 10.500000000000002 2.878809892500001 5.0363753150000017 1.5000000000000002 14.500000000000002 5.8187050225000014
decision_type=2 2 2 2 2 2 2 2 2 2 2 2 2 2 2 2 2 2 2 2 2 2 2 2 2 2 2 2 2 2
left_child=1 5 11 4 10 21 22 8 -6 -7 -3 19 13 17 18 23 -17 -8 -15 26 -11 -1 -4 24 -16 -5 -2 -28 29 -24
right_child=2 3 6 25 7 9 12 -9 -10 20 -12 -13 -14 14 15 16 -18 -19 -20 -21 -22 -23 28 -25 -26 -27 27 -29 -30 -31
leaf_value=-1.898918848041917 -0.90572800166004441 -0.98372833033023466 3.4309389907154051 -1.1535163122084406 0.64356435967917269 -1.3138290828464392 2.4973117711002031 -0.25692196760879532 2.6509804444885492 -0.99642207736754451 0.28865199993603391 2.0076175853750207 5.6413295474166203 1.0330558116664583 3.9728030176004903 4.6654522632177065 -3.4711997032165529 4.6767708451867431 4.7902903678805329 2.5850553905255951 0.15571797650134012 -0.66376714840412143 -0.1346799974957871 3.4242110732365796 6.6520275654740963 1.8891841231631721 3.2321485386275857 0.58274300209544705 3.0079545100260043 1.974892986136473
leaf_weight=7402 302 3151 460 90 1639 5339 364 1361 404 1487 963 1382 241 574 389 52 80 1102 86 261 1246 625 258 807 230 896 122 1059 368 590
leaf_count=7402 302 3151 460 90 1639 5339 364 1361 404 1487 963 1382 241 574 389 52 80 1102 86 261 1246 625 258 807 230 896 122 1059 368 590
internal_value=0.000123645 -0.903531 2.54769 0.0638833 -0.139083 -1.41455 3.22202 0.521777 1.04053 -1.02852 -0.685891 1.33946 3.62572 3.49386 3.06969 3.72505 -0.265852 4.13562 1.52263 0.809987 -0.471151 -1.80275 2.27661 4.09448 4.96831 1.61145 0.497584 0.856433 1.83994 1.33307
internal_weight=33330 24603 8727 8504 7518 16099 5601 3404 2043 8072 4114 3126 3925 3684 2218 1558 132 1466 660 1744 2733 8027 1676 1426 619 986 1483 1181 1216 848
internal_count=33330 24603 8727 8504 7518 16099 5601 3404 2043 8072 4114 3126 3925 3684 2218 1558 132 1466 660 1744 2733 8027 1676 1426 619 986 1483 1181 1216 848
is_linear=0
shrinkage=0.1


Tree=6
num_leaves=31
num_cat=0
split_feature=6 0 6 3 7 4 3 4 0 7 4 7 4 4 3 6 4 4 4 7 4 4 7 4 4 7 3 3 4 7
split_gain=6.23472e+06 934658 721537 254576 170402 169144 159367 152314 116511 99897.3 93260 115580 91878.7 100404 89711.2 84320.8 84302.4 81390.2 178726 190167 164479 102329 87125 74455.3 152415 72346.1 71754.4 69836.4 68993 114552
threshold=7.6159297750000015 9.2374930680000027 5.2595267280000009 15.500000000000002 8.1980769800000015 10.500000000000002 12.500000000000002 6.5000000000000009 2.9719812120000006 8.7140716350000034 1.5000000000000002 8.2394352800000021 6.5000000000000009 2.5000000000000004 2.5000000000000004 15.930215260000002 7.5000000000000009 5.5000000000000009 7.5000000000000009 13.794368652500003 11.500000000000002 2.5000000000000004 13.073715525000003 6.5000000000000009 9.5000000000000018 5.6961875100000006 14.500000000000002 18.500000000000004 11.500000000000002 2.9265559150000007
decision_type=2 2 2 2 2 2 2 2 2 2 2 2 2 2 2 2 2 2 2 2 2 2 2 2 2 2 2 2 2 2
left_child=2 5 8 14 23 6 10 -8 -1 -5 11 -2 13 -11 28 17 -9 21 22 -20 -21 -6 -19 26 -25 -12 -3 -10 -4 -30
right_child=1 4 3 9 15 -7 7 16 27 12 25 -13 -14 -15 -16 -17 -18 18 19 20 -22 -23 -24 24 -26 -27 -28 -29 29 -31
leaf_value=-1.8289274419520396 0.89679707767807448 2.1104714570080705 -0.11611373174670261 0.20495763672192913 2.2697498506750944 2.4631110327126091 2.262105060980967 -0.78109653125503176 -1.3565271851568566 -0.19093005221925285 -0.83294871938725312 7.0871880440484922 0.26105712471129022 4.0508002258837221 -0.82196793560916592 5.0702033013963899 1.2959159787116783 0.93581453829847439 3.6833128583399879 4.1872672850489616 -3.1240797805786134 4.2060486178123817 4.3325093874472307 -0.013552229383268262 2.7452941235899928 0.42893165416249651 4.1030158970606463 -0.67451414942703281 -2.9095989924210772 4.9271628538767498
leaf_weight=4491 107 609 1376 2654 363 688 1043 335 6471 76 645 42 237 210 5315 243 469 572 1425 50 80 1100 87 401 400 1537 257 1955 26 66
leaf_count=4491 107 609 1376 2654 363 688 1043 335 6471 76 645 42 237 210 5315 243 469 572 1425 50 80 1100 87 401 400 1537 257 1955 26 66
internal_value=0.000111276 2.02346 -0.924399 -0.28484 2.90593 1.01022 0.770974 1.4648 -1.41755 0.453883 0.221208 2.64174 1.71707 2.92363 -0.63084 3.26607 0.430494 3.14684 2.7644 3.3493 -0.312023 3.72561 1.38424 2.05905 1.36415 0.0559194 2.70179 -1.19829 0.0611517 2.71243
internal_weight=33330 10453 22877 9960 5587 4866 4178 1847 12917 3177 2331 149 523 286 6783 3920 804 3677 2214 1555 130 1463 659 1667 801 2182 866 8426 1468 92
internal_count=33330 10453 22877 9960 5587 4866 4178 1847 12917 3177 2331 149 523 286 6783 3920 804 3677 2214 1555 130 1463 659 1667 801 2182 866 8426 1468 92
is_linear=0
shrinkage=0.1


Tree=7
num_leaves=31
num_cat=0
split_feature=6 6 6 4 3 0 5 4 3 4 4 0 7 4 7 0 4 4 7 3 0 7 7 7 4 3 3 0 4 3
split_gain=5.08013e+06 908007 421607 238431 211482 155912 146597 121977 104987 104451 109837 128483 92027.3 91000.8 98099.5 88839 84424.2 152802 76666.7 76258.1 76154.8 74451.9 72319.5 69737.1 66330.7 74884.3 61695.2 61655.3 57171.1 71952.7
threshold=8.2805864700000011 6.0057540370000009 9.9818603865000011 10.500000000000002 11.500000000000002 3.874434522500001 1.0000000180025095e-35 6.5000000000000009 2.5000000000000004 11.500000000000002 10.500000000000002 13.073715525000003 3.7964407870000003 11.500000000000002 5.3220827050000015 11.454686810000002 5.5000000000000009 10.500000000000002 8.5413505870000019 15.500000000000002 6.9994801160000018 12.346548975000003 6.6901565725000012 8.5413505870000019 2.5000000000000004 19.500000000000004 8.5000000000000018 13.794368652500003 4.5000000000000009 14.500000000000002
decision_type=2 2 2 2 2 2 2 2 2 2 2 2 2 2 2 2 2 2 2 2 2 2 2 2 2 2 2 2 2 2
left_child=1 5 16 4 8 23 -4 18 22 10 11 28 -7 19 -15 26 21 -18 -6 -14 -5 -2 -3 -1 -20 -26 -12 -11 -8 -30
right_child=2 3 6 20 7 12 9 -9 -10 27 15 -13 13 14 -16 -17 17 -19 24 -21 -22 -23 -24 -25 25 -27 -28 -29 29 -31
leaf_value=-1.5688799594195095 1.9280777806893952 -0.45774685078125343 3.5652139747026363 0.62049323866957584 0.65617979075668298 -1.4175109455795527 2.7875767205841839 -0.23444662490863488 -0.84769244310913039 1.0081516848966545 7.4655777740478513 3.9603144730619819 -1.0204448003800335 3.4550741261456697 -0.23635188231822185 7.2326726292454921 0.68734529166999392 2.4467001710172638 0.10150719855142676 -0.2796364031115936 2.3173097972305086 6.0141308929609218 1.162580605482701 -0.074327185322225819 1.4991380348976922 4.6161713792922647 1.8943644226211864 -3.8860093741581361 0.88705014887164868 2.8334863071883087
leaf_weight=6901 1458 606 1779 507 1733 2314 480 1449 3241 229 25 386 4115 105 229 86 2023 653 115 2098 553 46 505 327 170 141 97 29 664 266
leaf_count=6901 1458 606 1779 507 1733 2314 480 1449 3241 229 25 386 4115 105 229 86 2023 653 115 2098 553 46 505 327 170 141 97 29 664 266
internal_value=0.000100142 -0.706327 2.15771 0.096813 -0.0908052 -1.15659 2.88605 0.475292 -0.560125 2.3519 2.59572 2.34378 -0.87544 -0.683847 0.924126 4.77117 1.45358 1.11666 0.951629 -0.770289 1.50572 2.05305 0.278766 -1.50127 2.15354 2.91233 3.03601 0.458033 1.90124 1.44377
internal_weight=33330 25109 8221 9020 7960 16089 4041 3608 4352 2262 2004 1796 8861 6547 334 208 4180 2676 2159 6213 1060 1504 1111 7228 426 311 122 258 1410 930
internal_count=33330 25109 8221 9020 7960 16089 4041 3608 4352 2262 2004 1796 8861 6547 334 208 4180 2676 2159 6213 1060 1504 1111 7228 426 311 122 258 1410 930
is_linear=0
shrinkage=0.1


Tree=8
num_leaves=31
num_cat=0
split_feature=0 0 0 4 3 5 4 4 0 4 7 5 0 4 0 4 4 7 7 7 3 4 7 3 4 3 4 4 4 3
split_gain=4.138e+06 655486 413778 160409 149379 138779 132336 179086 106810 106505 178446 126176 115704 119058 77049.1 76783.4 75268.7 74962.4 71997.5 69991.9 67159.7 63612.9 58398.9 64132.6 57502 122264 99045.4 87323.2 56649.8 119898
threshold=8.0838374925000007 6.0961327500000007 10.274439927500003 10.500000000000002 11.500000000000002 1.0000000180025095e-35 10.500000000000002 5.5000000000000009 4.6919291975000013 11.500000000000002 13.794368652500003 1.0000000180025095e-35 12.795353237500001 10.500000000000002 8.7568243500000023 6.5000000000000009 7.5000000000000009 8.4070727850000022 7.6943623900000011 8.5413505870000019 16.500000000000004 1.5000000000000002 5.6961875100000006 16.500000000000004 4.5000000000000009 15.500000000000002 2.5000000000000004 9.5000000000000018 6.5000000000000009 9.5000000000000018
decision_type=2 2 2 2 2 2 2 2 2 2 2 2 2 2 2 2 2 2 2 2 2 2 2 2 2 2 2 2 2 2
left_child=1 5 6 4 18 8 7 14 -1 12 11 -11 13 24 20 19 28 -7 -3 -6 -2 -20 23 -18 26 -26 -4 -27 29 -9
right_child=2 3 9 -5 15 17 -8 16 -10 10 -12 -13 -14 -15 -16 -17 22 -19 21 -21 -22 -23 -24 -25 25 27 -28 -29 -30 -31
leaf_value=-1.0284510808830667 0.45357202481090264 -0.74147918975936111 1.4508467794509392 1.3199271926114284 0.52097463000811661 -1.4133325533770256 2.462785419979963 -0.83823844976374395 -0.30212857576394014 5.6085035124421125 -3.1300546187388747 0.91613509873352439 3.8351862236160716 4.557598054313277 2.3080802876423379 -0.17482519108375347 -1.0186963085512011 -0.14099067608384711 3.4238925306002304 2.0404301615849647 2.6851015517332035 0.053914712911222053 1.4774331595316577 3.6932840122896082 1.0684793230679703 2.435524022761848 3.8789439999595352 5.8630690561688468 -0.50342674252095088 1.9583755219396619
leaf_weight=5335 547 2979 271 914 1515 7393 827 267 3263 80 79 202 909 249 1204 1292 192 494 60 379 179 843 957 34 789 387 442 92 796 360
leaf_count=5335 547 2979 271 914 1515 7393 827 267 3263 80 79 202 909 249 1204 1292 192 494 60 379 179 843 957 34 789 387 442 92 796 360
internal_value=9.01338e-05 -0.670531 1.85139 0.0733095 -0.0878972 -1.0307 1.29941 1.08731 -0.752807 2.69718 1.07054 2.2473 2.88426 2.49663 1.81744 0.419562 0.546571 -1.33364 -0.504375 0.825026 1.00377 0.277834 1.136 -0.309814 2.23758 1.83358 2.95606 3.09384 0.056555 0.767473
internal_weight=33330 24467 8863 7982 7068 16485 5363 4536 8598 3500 361 282 3139 2230 1930 3186 2606 7887 3882 1894 726 903 1183 226 1981 1268 713 479 1423 627
internal_count=33330 24467 8863 7982 7068 16485 5363 4536 8598 3500 361 282 3139 2230 1930 3186 2606 7887 3882 1894 726 903 1183 226 1981 1268 713 479 1423 627
is_linear=0
shrinkage=0.1


Tree=9
num_leaves=31
num_cat=0
split_feature=1 6 1 3 5 4 7 3 4 4 7 4 7 7 3 7 4 7 3 7 4 4 7 4 4 7 7 4 4 7
split_gain=3.37145e+06 522639 400132 175381 134015 110771 83220.5 79161.3 81819.3 77906.9 71507.4 70175 98534.3 68684.3 61625.9 59548.9 68432.5 134950 58222.1 55446.7 54324.3 53059.7 99296.1 51690.9 110822 101113 95655.9 85767.6 66171.9 126336
threshold=58.006418337130306 9.2374930680000027 27.662621416607134 15.500000000000002 1.0000000180025095e-35 10.500000000000002 3.1536204390000004 12.500000000000002 6.5000000000000009 9.5000000000000018 8.1200016825000016 1.5000000000000002 8.4458669950000012 7.932138815000001 14.500000000000002 4.0263133585000004 4.5000000000000009 8.9603219000000021 2.5000000000000004 8.5413505870000019 5.5000000000000009 11.500000000000002 2.9265559150000007 5.5000000000000009 7.5000000000000009 13.794368652500003 13.387369195000003 11.500000000000002 10.500000000000002 5.8513657415000013
decision_type=2 2 2 2 2 2 2 2 2 2 2 2 2 2 2 2 2 2 2 2 2 2 2 2 2 2 2 2 2 2
left_child=2 5 6 18 23 7 -1 11 15 -10 -5 12 -2 14 -6 -9 17 -17 21 -8 -18 -4 -23 -3 26 28 -25 -27 -26 -30
right_child=1 4 3 10 13 -7 19 8 9 -11 -12 -13 -14 -15 -16 16 20 -19 -20 -21 -22 22 -24 24 25 27 -28 -29 29 -31
leaf_value=-1.478852278626515 0.9340129556238651 3.2527003487339012 -0.091642556028207256 0.13838659528278327 0.55940589263187401 1.9106228068841848 -0.97029871290852965 4.1038154764791548 -0.2969825890135846 2.021610146947205 1.2394319250494972 0.013901882051565759 7.1529136061668401 2.0216276719601596 2.4906557401972957 -0.44465534957676706 3.4196528763899749 3.1848050780801311 -0.64781364618684067 -0.10669859869433154 1.145452778350877 -2.7087860654901577 4.5059654998779299 0.65229731639827049 2.6023986037522557 2.7097434929439004 4.6185470025879996 -3.0508030891418461 -1.8754133360139258 5.0286308597047613
leaf_weight=3308 125 1006 1381 2439 725 683 8806 89 591 192 778 2220 32 2193 214 355 220 144 5275 812 201 27 65 463 475 56 70 48 29 308
leaf_count=3308 125 1006 1381 2439 725 683 8806 89 591 192 778 2220 32 2193 214 355 220 144 5275 812 201 27 65 463 475 56 70 48 29 308
internal_value=8.11201e-05 1.48942 -0.679103 -0.202932 2.14881 0.730143 -1.0462 0.536747 1.03861 0.271561 0.404664 0.158396 2.20156 1.7152 0.999542 1.63385 1.39491 0.602724 -0.492594 -0.897389 2.33387 0.0632669 2.38859 2.702 2.31966 2.98677 1.17319 0.0510297 3.36277 4.43451
internal_weight=33330 10439 22891 9965 5587 4852 12926 4169 1792 783 3217 2377 157 3132 939 1009 920 499 6748 9618 421 1473 92 2455 1449 916 533 104 812 337
internal_count=33330 10439 22891 9965 5587 4852 12926 4169 1792 783 3217 2377 157 3132 939 1009 920 499 6748 9618 421 1473 92 2455 1449 916 533 104 812 337
is_linear=0
shrinkage=0.1


Tree=10
num_leaves=31
num_cat=0
split_feature=1 1 6 1 3 7 5 3 3 7 4 7 7 3 7 3 6 4 7 3 4 1 4 4 7 7 4 7 3 4
split_gain=2.81647e+06 487216 319392 118163 107844 102069 84608.8 84074 72821.8 64105.2 62197 61288.6 59026.1 58841.4 57236.5 82805.1 54804.5 154730 54193.9 53886 52315.1 50227.6 58778.9 47943.5 58196.6 49250 46975.3 56993.9 46733.7 83571.7
threshold=56.867905567647746 86.632852068443626 6.2915546725000011 8.832672324618164 15.500000000000002 6.375795322000001 1.0000000180025095e-35 13.500000000000002 11.500000000000002 6.6599787515000006 10.500000000000002 11.960899250000002 3.9541803890000007 3.5000000000000004 7.2933360630000008 1.5000000000000002 10.274439927500003 11.500000000000002 7.2933360630000008 14.500000000000002 11.500000000000002 253.77175826496577 6.5000000000000009 11.500000000000002 8.0486021800000014 2.460131397500001 1.5000000000000002 8.2394352800000021 12.500000000000002 9.5000000000000018
decision_type=2 2 2 2 2 2 2 2 2 2 2 2 2 2 2 2 2 2 2 2 2 2 2 2 2 2 2 2 2 2
left_child=2 7 3 18 23 19 16 10 13 -6 14 12 -9 20 -2 -16 17 -7 -1 -3 -4 -8 -23 -5 25 -25 27 -17 -20 -30
right_child=1 5 8 4 9 6 21 11 -10 -11 -12 -13 -14 -15 15 26 -18 -19 28 -21 -22 22 -24 24 -26 -27 -28 -29 29 -31
leaf_value=-1.3914979136898502 -0.25767899043440029 0.3607291046650179 0.13142419988925547 -0.93448916287418149 -0.50177051959584873 1.4515365470415265 1.6757058581087756 2.9222294058626699 0.45911188732452546 0.36677566957273311 1.4291184867176776 4.0590194930349082 0.88995049247923763 -0.61837602268376535 2.8592742798080049 -0.77576243716936855 2.9827023220093194 6.4951858278530752 -1.1997195366985542 2.3689365343008628 2.9996421337127686 2.3160804432088677 6.6764755692592885 -1.6292189689531718 -2.9829909782409669 1.3030281969199056 0.19154782850554797 5.1816432669049224 -0.068380760782294811 5.1498400711429291
leaf_weight=3998 1515 527 981 8153 3208 660 2530 155 2428 1156 446 70 1833 1870 150 26 1430 67 242 179 68 110 43 73 50 266 1048 42 180 37
leaf_count=3998 1515 527 981 8153 3208 660 2530 155 2428 1156 446 70 1833 1870 150 26 1430 67 242 179 68 110 43 73 50 266 1048 42 180 37
internal_value=0.0115187 1.33842 -0.621316 -0.829428 -0.676124 1.99315 2.15699 0.651363 0.0544723 -0.271697 0.332846 1.1508 1.0484 -0.282104 0.157033 0.653312 2.6233 1.91636 -1.27335 0.869892 0.317353 1.78211 3.54155 -0.88274 0.201859 0.6716 0.356811 2.90381 -0.244219 0.821362
internal_weight=33541 10831 22710 17363 12906 5546 4840 5285 5347 4364 3227 2058 1988 2919 2781 1266 2157 727 4457 706 1049 2683 153 8542 389 339 1116 68 459 217
internal_count=33541 10831 22710 17363 12906 5546 4840 5285 5347 4364 3227 2058 1988 2919 2781 1266 2157 727 4457 706 1049 2683 153 8542 389 339 1116 68 459 217
is_linear=0
shrinkage=0.1


Tree=11
num_leaves=31
num_cat=0
split_feature=1 1 6 4 7 3 3 4 4 3 7 3 6 4 4 4 4 4 1 4 3 4 4 7 7 1 7 7 7 1
split_gain=2.29818e+06 509987 175562 120117 100810 94455.8 89559.7 70859.7 87900.9 107374 70361.5 69206.1 66208 65640.2 64004.4 61848.9 101339 54656.9 54176.9 71845 117530 72362.1 69719 55363.6 53014.2 52894.7 51685.3 49929.5 45953.1 45920.7
threshold=72.9635855643198 39.583660282158611 10.274439927500003 10.500000000000002 3.7964407870000003 14.500000000000002 10.500000000000002 2.5000000000000004 4.5000000000000009 15.500000000000002 7.7316336625000019 2.5000000000000004 4.8563278160000012 6.5000000000000009 2.5000000000000004 10.500000000000002 5.5000000000000009 6.5000000000000009 170.92203984105922 10.500000000000002 8.5000000000000018 11.500000000000002 11.500000000000002 8.4070727850000022 10.782597100000002 131.20985040156873 12.795353237500001 10.880847515000003 9.7231887650000015 51.785682390314385
decision_type=2 2 2 2 2 2 2 2 2 2 2 2 2 2 2 2 2 2 2 2 2 2 2 2 2 2 2 2 2 2
left_child=1 4 15 6 -1 28 10 -4 -9 18 -3 17 -7 14 -8 16 26 27 19 -10 23 25 -20 -21 -15 -22 -2 29 -6 -12
right_child=2 3 7 -5 5 12 13 8 9 -11 11 -13 -14 24 -16 -17 -18 -19 22 20 21 -23 -24 -25 -26 -27 -28 -29 -30 -31
leaf_value=-1.1013799493048295 1.4838811986939344 -0.52767177085427874 0.58836523852242317 1.2263688108507347 -0.85305036369993881 -0.53647686151539131 -0.1953110804788091 3.3528723595531589 0.59024656522172625 2.7763738004332761 1.6604345664553257 -0.15891315250366927 0.25259676829013689 -0.22992449188156586 1.0436288181577837 1.9992713677245868 0.45187344791042605 0.044975418405550902 2.8222363030702571 2.2333768157071847 1.0341818661400766 -0.58710266741968342 -0.56021153020187164 6.8446328481038412 2.6890890031594497 5.3711379746393284 5.9840588202843303 -1.3369244769767479 0.32203139205033593 4.9095103830099109
leaf_weight=5474 1387 2884 298 997 7168 2613 550 549 823 1014 87 625 1793 1454 1724 636 1928 132 430 43 66 126 71 66 65 49 26 27 349 87
leaf_count=5474 1387 2884 298 997 7168 2613 550 549 823 1014 87 625 1793 1454 1724 636 1928 132 430 43 66 126 71 66 65 49 26 27 349 87
internal_value=0.0103668 -0.434318 1.5512 0.194076 -0.746114 -0.583006 0.0592763 2.06396 2.19981 1.9643 -0.281026 0.461487 -0.215367 0.403975 0.743973 1.09542 0.923359 1.6259 1.47241 1.10061 2.30071 1.06833 2.34289 5.02551 -0.105016 2.8821 1.56669 2.66412 -0.798494 3.28497
internal_weight=33541 26029 7512 8632 17397 11923 7635 3535 3237 2688 3842 958 4406 3793 2274 3977 3341 333 1674 1173 350 241 501 109 1519 115 1413 201 7517 174
internal_count=33541 26029 7512 8632 17397 11923 7635 3535 3237 2688 3842 958 4406 3793 2274 3977 3341 333 1674 1173 350 241 501 109 1519 115 1413 201 7517 174
is_linear=0
shrinkage=0.1


Tree=12
num_leaves=31
num_cat=0
split_feature=0 6 0 4 4 4 6 0 4 4 3 3 3 3 3 4 4 6 4 3 4 4 0 4 4 4 4 4 4 3
split_gain=1.8703e+06 270828 258382 94516.7 103528 92618.9 71220 67521.7 61785.6 62325.4 83468.1 59517.1 56439.1 53782.9 47869.6 44769.4 40805.9 40370.7 51124.6 88210.2 53584.5 46190.6 44427.9 39255.6 55335.5 37397.3 35321.5 34195.7 33593.4 36858.4
threshold=7.8474172185000004 6.2915546725000011 10.274439927500003 10.500000000000002 5.5000000000000009 1.5000000000000002 8.7568243500000023 2.9719812120000006 2.5000000000000004 4.5000000000000009 15.500000000000002 15.500000000000002 11.500000000000002 3.5000000000000004 16.500000000000004 2.5000000000000004 1.5000000000000002 13.073715525000003 10.500000000000002 8.5000000000000018 11.500000000000002 11.500000000000002 11.454686810000002 7.5000000000000009 10.500000000000002 11.500000000000002 4.5000000000000009 7.5000000000000009 11.500000000000002 6.5000000000000009
decision_type=2 2 2 2 2 2 2 2 2 2 2 2 2 2 2 2 2 2 2 2 2 2 2 2 2 2 2 2 2 2
left_child=1 5 3 4 6 -1 14 -7 -4 -10 17 28 13 25 -2 -13 -14 18 -11 -20 22 -19 -21 -17 -25 -3 -16 -6 29 -9
right_child=2 12 8 -5 27 7 -8 11 9 10 -12 15 16 -15 26 23 -18 21 19 20 -22 -23 -24 24 -26 -27 -28 -29 -30 -31
leaf_value=-1.387618393494656 0.17022446174794675 0.19868303833114531 0.48713017217007776 1.7356300695597728 -0.064883886526936371 -0.96294675357105608 1.6630958115828489 -0.45570660756422021 2.9591185761248546 0.61481438033353286 2.5185542486783361 -1.4102103214053547 -1.0053451075603825 -0.47811034947685233 0.89431193920487129 0.1593295394182804 0.50611011596699518 2.4971958394973233 4.416171614620664 0.88428415270412675 -0.42788351722589629 -0.27145206191710064 4.8340242074460402 -1.0552353125499947 0.23266946123236193 2.422095012296865 3.3228682292832268 0.60946792385752935 0.26308673538248456 -0.90212870393646716
leaf_weight=1646 823 1145 300 901 1641 3853 1208 3520 548 832 988 272 191 2243 179 2427 2756 433 109 68 127 70 49 789 578 81 90 1388 389 3897
leaf_count=1646 823 1145 300 901 1641 3853 1208 3520 548 832 988 272 191 2243 179 2427 2756 433 109 68 127 70 49 789 578 81 90 1388 389 3897
internal_value=0.00933015 -0.468848 1.17546 0.788367 0.628208 -0.673915 1.13402 -0.599209 1.85979 1.98752 1.78855 -0.481159 0.086362 -0.187005 0.54875 -0.170925 0.40815 1.36127 1.04265 2.05105 0.994497 2.1119 2.53845 -0.0820783 -0.510679 0.345581 1.70684 0.244129 -0.642755 -0.690263
internal_weight=33541 23787 9754 6230 5329 17371 2300 15725 3524 3224 2676 11872 6416 3469 1092 4066 2947 1688 1185 353 244 503 117 3794 1367 1226 269 3029 7806 7417
internal_count=33541 23787 9754 6230 5329 17371 2300 15725 3524 3224 2676 11872 6416 3469 1092 4066 2947 1688 1185 353 244 503 117 3794 1367 1226 269 3029 7806 7417
is_linear=0
shrinkage=0.1


Tree=13
num_leaves=31
num_cat=0
split_feature=6 0 6 7 7 3 4 4 0 3 7 3 3 7 3 4 3 3 4 7 4 7 3 4 4 0 4 4 7 3
split_gain=1.52214e+06 307640 156656 86620.4 71030.2 70074.5 92021.6 115608 104719 66901.1 78718.2 58165.3 55276 53063.3 52173 44176.7 43636.1 43474.9 71376 84204 39111.8 38655.7 38570.8 45641.9 37655.5 39527.7 36636.7 36363.6 36158.1 51500.7
threshold=7.3286842800000009 9.3076770500000023 4.8238826700000015 9.1198309875000021 6.375795322000001 6.5000000000000009 10.500000000000002 5.5000000000000009 14.266342905000004 15.500000000000002 3.9541803890000007 15.500000000000002 19.500000000000004 7.7316336625000019 12.500000000000002 10.500000000000002 13.500000000000002 12.500000000000002 9.5000000000000018 8.2802049500000017 6.5000000000000009 11.750868270000003 19.500000000000004 6.5000000000000009 2.5000000000000004 10.352177420000002 6.5000000000000009 4.5000000000000009 7.2933360630000008 1.5000000000000002
decision_type=2 2 2 2 2 2 2 2 2 2 2 2 2 2 2 2 2 2 2 2 2 2 2 2 2 2 2 2 2 2
left_child=2 9 13 14 16 6 7 -6 -8 15 22 -7 -5 27 -4 28 -3 -15 -19 -20 -18 -12 -11 -24 -13 26 -26 -1 -2 -30
right_child=1 4 3 12 5 11 8 -9 -10 10 21 24 -14 17 -16 -17 20 18 19 -21 -22 -23 23 -25 25 -27 -28 -29 29 -31
leaf_value=-1.0939193193486429 -0.19464281923675997 0.0091082880629161558 -0.49948273346163358 0.23013112255339993 2.9754280034402565 1.0357673493034307 5.2545504018405964 0.65204274946624796 -0.36632287560439691 4.3185899945878488 0.63685434520422657 0.29124426523438929 1.9413898371735365 -0.71933951824398124 -0.038502542265806412 1.0530750506108615 3.0245979387749422 0.06889241396085076 7.188938747030317 0.65435093033070468 0.31889223033942066 2.8121030291845632 3.1721328669705908 -2.6648101607958479 2.3431288312121139 2.3203478585494124 0.66147097633643592 -0.68671150479888743 1.9819217709970722 0.23877230916673509
leaf_weight=3283 1972 487 5744 696 446 1994 173 412 41 97 1632 147 259 516 4288 556 111 437 33 49 103 86 37 21 205 1063 352 6605 191 1505
leaf_count=3283 1972 487 5744 696 446 1994 173 412 41 97 1632 147 259 516 4288 556 111 437 33 49 103 86 37 21 205 1063 352 6605 191 1505
internal_value=0.00839713 0.932992 -0.482427 -0.215813 1.47281 1.60926 2.32248 1.85977 4.17765 0.443017 0.940469 1.40597 0.694232 -0.750603 -0.302445 0.222437 0.532114 -0.0693479 0.576887 3.28412 1.72232 0.745743 3.09878 1.05876 1.82372 1.96278 1.28039 -0.821912 0.0965277 0.435082
internal_weight=33541 11631 21910 10987 5534 4833 1072 858 214 6097 1873 3761 955 10923 10032 4224 701 1035 519 82 214 1718 155 58 1767 1620 557 9888 3668 1696
internal_count=33541 11631 21910 10987 5534 4833 1072 858 214 6097 1873 3761 955 10923 10032 4224 701 1035 519 82 214 1718 155 58 1767 1620 557 9888 3668 1696
is_linear=0
shrinkage=0.1


Tree=14
num_leaves=31
num_cat=0
split_feature=0 0 0 7 4 3 4 3 7 4 4 7 4 3 4 7 3 4 7 0 3 4 4 6 7 7 7 4 7 3
split_gain=1.24301e+06 263361 110557 72986.4 71387 71000.6 56887.4 54817.1 50124.7 49640.1 76162.1 46788 55579.2 49683.4 46781 44815.5 44598.7 58605.5 44310.6 44128.6 40017.7 37875.1 56301.9 50866.9 40318.7 35004.3 37762.4 65405.5 45556 36634.7
threshold=8.4072749700000013 6.2915546725000011 10.688635570000002 3.2486876640000006 10.500000000000002 14.500000000000002 2.5000000000000004 10.500000000000002 3.5436950450000007 10.500000000000002 5.5000000000000009 7.7316336625000019 1.5000000000000002 2.5000000000000004 4.5000000000000009 6.9672481925000005 10.500000000000002 6.5000000000000009 7.7316336625000019 8.9604577875000029 15.500000000000002 6.5000000000000009 4.5000000000000009 6.8998699080000012 10.782597100000002 2.6462168995000006 8.6697022830000012 11.500000000000002 11.333999055000001 16.500000000000004
decision_type=2 2 2 2 2 2 2 2 2 2 2 2 2 2 2 2 2 2 2 2 2 2 2 2 2 2 2 2 2 2
left_child=1 3 9 -1 7 -5 -4 11 -9 10 18 -3 -13 -14 -8 -7 -12 19 -2 -18 -16 22 -10 -24 -23 -6 -27 -28 29 -29
right_child=2 4 6 5 25 15 14 8 21 -11 16 12 13 -15 20 -17 17 -19 -20 -21 -22 24 23 -25 -26 26 27 28 -30 -31
leaf_value=-0.91267876522090252 0.63742092450208765 -0.44470412082480887 0.082926057928984387 -0.61283974921928364 -1.1970137333869935 -0.32048243531230025 2.6776403028577636 1.384203021456669 -0.095240261929772668 1.5381148730178138 -0.18252394629489574 3.1795884750783445 1.1838812219919546 -0.42424341014666223 1.211479605567626 0.35593827852817456 0.015181398295587109 0.32869017739803685 1.6311452224113951 2.5902253125977315 2.0932335295575921 -0.36285716877296426 0.076270781625600012 1.5480884200217677 2.2704389044251601 1.5304091185971078 2.4502562782981183 -0.60517035645873929 3.3730829656124115 -4.0432448221289592
leaf_weight=4224 827 2783 227 8301 70 3514 437 385 944 814 1024 66 303 525 1363 1358 93 1073 981 234 827 1242 381 612 61 634 77 95 20 46
leaf_count=4224 827 2783 227 8301 70 3514 437 385 944 814 1024 66 303 525 1363 1358 93 1073 981 234 827 1242 381 612 61 634 77 95 20 46
internal_value=0.00755742 -0.330348 1.1043 -0.550966 0.135213 -0.43498 1.60172 0.0295204 0.30547 0.822955 0.685398 -0.242527 0.386847 0.164237 1.73296 -0.13194 0.31902 0.685864 1.1766 1.85787 1.54445 0.177287 0.457709 0.983373 -0.239579 0.9545 1.12721 0.0531552 -1.09328 -1.72681
internal_weight=33541 25641 7900 17397 8244 13173 2854 7302 3625 5046 4232 3677 894 828 2627 4872 2424 1400 1808 327 2190 3240 1937 993 1303 942 872 238 161 141
internal_count=33541 25641 7900 17397 8244 13173 2854 7302 3625 5046 4232 3677 894 828 2627 4872 2424 1400 1808 327 2190 3240 1937 993 1303 942 872 238 161 141
is_linear=0
shrinkage=0.1


Tree=15
num_leaves=31
num_cat=0
split_feature=6 6 4 6 5 5 4 0 4 3 4 5 4 4 3 3 4 0 6 0 4 4 3 3 3 3 4 6 0 4
split_gain=999702 197390 101361 86827.6 63121.3 47503.5 46134.9 45676.8 49352.9 42708 41888.4 41395 39285 51143.8 44615.2 43809.4 39072.8 62952.7 55288.5 39732.2 45544.7 44623.5 36476.2 37054.7 36266.5 36195.2 54686.8 43342.1 32601.2 31340.5
threshold=7.0304509550000009 8.9109348825000012 10.500000000000002 4.3423219090000016 1.0000000180025095e-35 1.0000000180025095e-35 2.5000000000000004 11.454686810000002 2.5000000000000004 12.500000000000002 5.5000000000000009 1.0000000180025095e-35 6.5000000000000009 8.5000000000000018 11.500000000000002 10.500000000000002 7.5000000000000009 14.266342905000004 9.4160696800000014 14.266342905000004 11.500000000000002 10.500000000000002 15.500000000000002 1.0000000180025095e-35 11.500000000000002 14.500000000000002 5.5000000000000009 10.782597100000002 4.8563278160000012 1.5000000000000002
decision_type=2 2 2 2 2 2 2 2 2 2 2 2 2 2 2 2 2 2 2 2 2 2 2 2 2 2 2 2 2 2
left_child=3 2 22 6 10 -5 -1 12 -9 -8 -3 -4 25 15 -15 -14 17 -12 -18 21 -21 -20 23 -2 -7 -6 27 -27 -11 -24
right_child=1 4 11 5 7 24 9 8 -10 28 16 -13 13 14 -16 -17 18 -19 19 20 -22 -23 29 -25 -26 26 -28 -29 -30 -31
leaf_value=-1.1529291709128446 1.2663440930442169 1.9053938848450713 1.9068364875238453 -0.070774847965017235 0.64831983631216472 -0.72933049679707729 -0.79424941486926004 -1.2360020070416589 1.5069979147295578 -0.34270584463899301 0.31160006594528739 0.5096524091561635 -1.8519979372739475 1.3962752011921211 -0.044894589529089313 0.17560024340977756 -0.0139877336593915 5.4293670196533208 1.5156179704469579 2.0703117182254789 -2.2421593586603801 3.1262528599522734 -1.1972410884438729 -0.10568772623425618 -0.21202629799322215 1.9408726025942942 4.5612772737779927 -1.2358748600699685 2.914401895576908 0.64847444080004846
leaf_weight=1620 208 1129 488 6315 873 2749 3865 70 1042 3535 623 375 188 403 460 246 196 25 474 50 48 270 98 3669 2673 196 62 55 31 1502
leaf_count=1620 208 1129 488 6315 873 2749 3865 70 1042 3535 623 375 188 403 460 246 196 25 474 50 48 270 98 3669 2673 196 62 55 31 1502
internal_value=-0.00908036 0.688056 0.292424 -0.436659 1.07937 -0.257188 -0.669389 0.801686 1.33433 -0.563974 1.43399 1.29972 0.563145 0.182783 0.628097 -0.702714 1.11833 0.509045 1.49869 1.85081 -0.041919 2.10012 0.133706 -0.0320786 -0.474304 0.979107 1.90172 1.24477 -0.314391 0.535424
internal_weight=33538 12750 6340 20788 6410 11737 9051 3595 1112 7431 2815 863 2483 1297 863 434 1686 648 1038 842 98 744 5477 3877 5422 1186 313 251 3566 1600
internal_count=33538 12750 6340 20788 6410 11737 9051 3595 1112 7431 2815 863 2483 1297 863 434 1686 648 1038 842 98 744 5477 3877 5422 1186 313 251 3566 1600
is_linear=0
shrinkage=0.1


Tree=16
num_leaves=31
num_cat=0
split_feature=0 6 7 4 4 5 5 7 7 4 0 4 5 7 4 7 7 0 4 4 7 0 6 4 7 0 0 0 4 7
split_gain=811693 160404 99688.6 81109.8 60640.5 53937.2 53444.4 43182.9 41357.8 42510.7 38355.3 33980.4 33508 37712.9 32800.1 51298 31917.6 35239.1 56182.6 67092.7 73190.6 61731.8 53664.8 30446.3 113638 81654.7 36564 35279.8 56862.5 29889.8
threshold=7.064007342500001 8.9109348825000012 9.3075602750000019 10.500000000000002 1.5000000000000002 1.0000000180025095e-35 1.0000000180025095e-35 1.4609254490000001 7.932138815000001 6.5000000000000009 5.6950178975000014 11.500000000000002 1.0000000180025095e-35 3.7964407870000003 5.5000000000000009 6.096804241000001 5.6961875100000006 3.1110802250000007 10.500000000000002 3.5000000000000004 6.4056836975000007 4.2041911735000008 4.0988175645000009 10.500000000000002 13.794368652500003 9.1200694500000026 9.0130902400000021 12.553844025000002 6.5000000000000009 8.4458669950000012
decision_type=2 2 2 2 2 2 2 2 2 2 2 2 2 2 2 2 2 2 2 2 2 2 2 2 2 2 2 2 2 2
left_child=2 3 4 7 -1 16 14 -2 9 -8 -7 -4 13 -5 -3 -16 -6 -18 19 20 21 -19 -20 27 25 26 -25 -17 -29 -24
right_child=1 6 11 12 5 10 8 -9 -10 -11 -12 -13 -14 -15 15 23 17 18 22 -21 -22 -23 29 24 -26 -27 -28 28 -30 -31
leaf_value=-0.98822360713228186 2.6053765259359194 1.7218173492979674 0.63246939443949524 -1.0134308299292689 -0.36258676141132556 -0.6963346413550352 0.81650244487080603 0.087472484291651303 0.96145358772727618 -0.37514798850736303 -0.23166068917983509 -2.449642360613153 0.44482120095050504 1.9951736787460508 -0.86827851190711525 0.65305956046799241 -0.72926862320797825 -1.0036483542485672 6.055477241847826 -0.21179179607594845 0.44809420216002077 5.0489347662362789 1.417746314550874 1.52867301160639 -2.7120764607968542 3.186210659971914 -4.1737291170203168 -2.5769552210966751 2.563716119198272 -1.617845375473435
leaf_weight=1844 69 1125 1077 46 5736 6248 621 5302 2396 578 2482 37 365 442 132 927 531 22 23 2233 311 72 263 22 46 296 23 24 208 37
leaf_count=1844 69 1125 1077 46 5736 6248 621 5302 2396 578 2482 37 365 442 132 927 531 22 23 2233 311 72 263 22 46 296 23 24 208 37
internal_value=-0.00817232 0.625118 -0.390338 0.263682 -0.44212 -0.386043 0.976724 0.119819 0.721517 0.242045 -0.564225 0.530101 1.16953 1.71158 1.30404 1.02394 -0.217478 0.0208793 0.155404 0.00298304 1.18716 3.63237 1.40026 1.1855 1.95348 2.58285 -1.38589 0.92907 2.03192 1.04336
internal_weight=33538 12622 20916 6224 19802 17958 6398 5371 3595 1199 8730 1114 853 488 2803 1678 9228 3492 2961 2638 405 94 323 1546 387 341 45 1159 232 300
internal_count=33538 12622 20916 6224 19802 17958 6398 5371 3595 1199 8730 1114 853 488 2803 1678 9228 3492 2961 2638 405 94 323 1546 387 341 45 1159 232 300
is_linear=0
shrinkage=0.1


Tree=17
num_leaves=31
num_cat=0
split_feature=1 1 7 6 4 4 4 4 4 7 7 4 1 4 6 6 7 7 3 7 6 1 4 7 3 7 6 3 1 3
split_gain=659557 98409.9 94202.8 66398.6 58479.7 76248 51379.7 65119.6 49576.4 86433.1 70766.9 44383.6 82280 59621.7 52785.8 47936 42399.9 41803 54654.2 83064.6 50460.1 60792.7 41745.3 39430.1 45617.1 43815.4 54563.1 43093.7 55515.9 42112
threshold=56.867905567647746 105.56411603156671 7.8469228375000011 4.3750557915000003 10.500000000000002 5.5000000000000009 6.5000000000000009 2.5000000000000004 11.500000000000002 2.878809892500001 5.3784183400000005 11.500000000000002 190.2846185013436 10.500000000000002 13.073715525000003 10.993872237500002 5.915576992500001 8.7560316625000016 16.500000000000004 10.782597100000002 5.2056606485000012 19.141113180063126 7.5000000000000009 10.051703897500003 9.5000000000000018 10.993872237500002 8.4941457265000011 14.500000000000002 85.331278219321618 9.5000000000000018
decision_type=2 2 2 2 2 2 2 2 2 2 2 2 2 2 2 2 2 2 2 2 2 2 2 2 2 2 2 2 2 2
left_child=2 4 3 -1 5 -2 7 -4 -5 -10 -11 13 15 14 -3 -13 -6 -9 -19 20 21 -20 -7 27 -25 -26 -27 28 -18 -30
right_child=1 11 6 8 16 22 -8 17 9 10 -12 12 -14 -15 -16 -17 23 18 19 -21 -22 -23 -24 24 25 26 -28 -29 29 -31
leaf_value=-0.60822949332876919 0.71333048625928941 0.79101195484120224 -0.67983673418671398 -0.28319896618629098 -0.25375875406724246 -0.3069876268846673 -0.25821123342765007 0.21611480631488231 -1.9134339871578943 3.0084817423096188 0.35110411414482301 -1.24635560353597 -2.734387118475778 2.5775707760506443 1.7466456326699498 1.7651995702495791 0.61893692588995375 0.64255198020188287 3.5156519135715918 -0.27535845316373386 4.3780794717420806 -1.943315869219163 0.38387279823961312 2.9316303686662155 -2.3201528340997828 4.2826800346374512 -0.40096962204073922 3.3235316540570867 3.7752979067961379 -0.59578708366111477
leaf_weight=8452 2651 2132 362 10376 187 1944 1520 659 102 158 274 75 84 280 793 179 315 522 51 91 151 34 1590 55 71 33 101 149 120 27
leaf_count=8452 2651 2132 362 10376 187 1944 1520 659 102 158 274 75 84 280 793 179 315 522 51 91 151 34 1590 55 71 33 101 149 120 27
internal_value=-0.00735509 0.636721 -0.312691 -0.397834 0.425462 0.307941 0.173601 0.524593 -0.23484 0.704817 1.32302 1.0686 -0.0212854 1.18354 1.05009 0.875961 1.11248 0.81372 1.27759 2.29131 3.281 1.33206 0.00384092 1.40581 0.374382 -0.311709 0.752466 1.84471 1.36778 2.97245
internal_weight=33538 10786 22752 19362 7243 6185 3390 1870 10910 534 432 3543 338 3205 2925 254 1058 1508 849 327 236 85 3534 871 260 205 134 611 462 147
internal_count=33538 10786 22752 19362 7243 6185 3390 1870 10910 534 432 3543 338 3205 2925 254 1058 1508 849 327 236 85 3534 871 260 205 134 611 462 147
is_linear=0
shrinkage=0.1


Tree=18
num_leaves=31
num_cat=0
split_feature=6 6 7 5 3 0 5 7 7 3 7 7 5 7 3 7 3 0 6 3 0 7 0 3 7 3 0 7 6 7
split_gain=540255 107991 68306.6 46555.2 45966.8 42623.5 42449.8 38126.2 34068 40060.2 32936.9 28750.3 27050.7 36182 26239.6 25825.7 31948.3 36746.7 25235.9 23708.5 20351.1 19682.5 19588.1 19128.7 18463.3 19819 22927.8 19361.9 25306.9 18435.8
threshold=7.0304509550000009 8.7568243500000023 7.8469228375000011 1.0000000180025095e-35 11.500000000000002 2.9265559150000007 1.0000000180025095e-35 13.073715525000003 7.932138815000001 14.500000000000002 9.7231887650000015 7.6532765325000014 1.0000000180025095e-35 5.495354819500001 12.500000000000002 8.7140716350000034 16.500000000000004 8.4941457265000011 9.4160696800000014 22.500000000000004 7.162342132500001 9.9172254800000026 8.6711463175000016 1.0000000180025095e-35 13.073715525000003 3.5000000000000004 6.8692102700000008 10.688635570000002 8.5834223915000027 1.4609254490000001
decision_type=2 2 2 2 2 2 2 2 2 2 2 2 2 2 2 2 2 2 2 2 2 2 2 2 2 2 2 2 2 2
left_child=2 3 5 11 10 -1 18 -6 9 -8 -4 29 13 -7 -14 16 -5 -18 19 22 -16 -17 -3 -12 25 26 -13 28 -28 -2
right_child=1 6 4 15 7 12 8 -9 -10 -11 23 24 14 -15 20 21 17 -19 -20 -21 -22 -23 -24 -25 -26 -27 27 -29 -30 -31
leaf_value=-0.67514806497426383 2.0086646829332628 1.7496113661221333 -0.67342921727805427 -0.042350633891466941 0.44837136020354962 -0.3426346468692128 -0.1416672245953268 4.3862708670832218 0.77636988441035415 1.1766042735880695 1.9395901816478673 -1.8815399706363678 -0.61302539270482903 0.1237058270528513 -0.23614926157512928 -1.1673039971334624 1.9396142854706035 -1.9986552825995856 1.2221139897330942 2.5763297904212523 2.6889195809761688 0.065150190069915001 0.16250592379055762 0.11565739077934321 2.8755554031242028 0.50116247515273249 2.273636999660841 -0.18855169345350828 -0.67341262102127075 0.16429165925777447
leaf_weight=4100 56 90 825 2312 1486 4589 1042 25 2473 296 69 20 4052 2610 2663 341 154 28 2280 53 24 209 572 345 44 765 249 51 33 1682
leaf_count=4100 56 90 825 2312 1486 4589 1042 25 2473 296 69 20 4052 2610 2663 341 154 28 2280 53 24 209 572 345 44 765 249 51 33 1682
internal_value=-0.00661958 0.505866 -0.320945 0.194447 0.143306 -0.391723 0.777844 0.513525 0.556447 0.149968 -0.308189 0.481174 -0.30835 -0.173563 -0.452339 -0.0787157 0.0580688 1.33373 1.05956 0.541208 -0.210023 -0.698971 0.378276 0.419646 0.866248 0.787169 1.40699 1.6045 1.92877 0.223719
internal_weight=33538 12750 20788 5944 2750 18038 6806 1511 3811 1338 1239 2900 13938 7199 6739 3044 2494 182 2995 715 2687 550 662 414 1162 1118 353 333 282 1738
internal_count=33538 12750 20788 5944 2750 18038 6806 1511 3811 1338 1239 2900 13938 7199 6739 3044 2494 182 2995 715 2687 550 662 414 1162 1118 353 333 282 1738
is_linear=0
shrinkage=0.1


Tree=19
num_leaves=31
num_cat=0
split_feature=0 6 4 7 4 3 7 4 4 4 0 4 3 4 7 7 7 7 4 0 3 7 3 3 4 0 6 0 7 4
split_gain=438500 90181.6 62608 58202 44794.6 39509.4 57103.9 43329.2 39923.9 36278.4 75019.1 47670.7 59405.5 54262.4 78849.6 51012.2 58228.9 44085.4 41888.2 40723.8 35019.8 32922.4 32569.4 29509.3 29280 28376.4 27472.8 26854.9 26285.3 25780.6
threshold=7.0304509550000009 8.7568243500000023 10.500000000000002 9.7231887650000015 1.5000000000000002 14.500000000000002 6.6336510800000008 7.5000000000000009 2.5000000000000004 5.5000000000000009 15.930215260000002 7.5000000000000009 11.500000000000002 6.5000000000000009 11.602454587500004 5.593584271000001 13.794368652500003 12.553844025000002 11.500000000000002 12.346548975000003 6.5000000000000009 1.2580956060000004 4.5000000000000009 1.5000000000000002 6.5000000000000009 12.795353237500001 11.454686810000002 4.6616232950000018 15.930215260000002 9.5000000000000018
decision_type=2 2 2 2 2 2 2 2 2 2 2 2 2 2 2 2 2 2 2 2 2 2 2 2 2 2 2 2 2 2
left_child=3 2 21 4 -1 22 7 8 27 20 11 12 17 14 -14 29 26 23 28 -16 -3 -2 -6 -11 -19 -22 -17 -7 -18 -13
right_child=1 9 -4 -5 5 6 -8 -9 -10 10 -12 15 13 -15 19 16 18 24 -20 -21 25 -23 -24 -25 -26 -27 -28 -29 -30 -31
leaf_value=-0.79245478944882197 2.5233353560825567 1.6186129080711451 0.99417044218122674 0.52884232695409639 -0.15926862079699125 -0.33598760876087519 0.41876130578962212 -0.62510433518705211 0.095606022734310167 1.4654547697779807 3.761746003287179 -1.968465816298711 2.1127445735642238 -0.17875891985474054 -0.0035329450731692112 0.76520604353947874 3.078076966603597 -1.0742251813411714 -2.814093738132053 -5.3181619916643417 0.59152084575152608 0.018076247334352459 -0.51575629228780229 -1.2324215820911089 3.3042967024303622 1.5045682467641246 1.5674172139807145 -2.13471457993283 -1.2227439550558727 0.2539777227207623
leaf_weight=1847 53 665 801 835 3947 213 1688 1937 2879 44 70 97 311 455 46 1633 27 24 72 21 1619 5100 7308 516 42 431 578 136 30 113
leaf_count=1847 53 665 801 835 3947 213 1688 1937 2879 44 70 97 311 455 46 1633 27 24 72 21 1619 5100 7308 516 42 431 578 136 30 113
internal_value=-0.00595762 0.455809 0.171692 -0.289103 -0.323329 -0.275479 -0.0861805 -0.251203 -0.0268392 0.704797 0.516272 0.459604 0.00372438 0.556884 1.44238 0.720438 0.854427 -0.732349 -1.21077 -1.66931 0.988036 0.0438435 -0.39074 -1.02045 1.71211 0.783483 0.97492 -1.03692 0.814487 -0.77258
internal_weight=33538 12748 5954 20790 19955 18108 6853 5165 3228 6794 4079 4009 1459 833 378 2550 2340 626 129 67 2715 5153 11255 560 66 2050 2211 349 57 210
internal_count=33538 12748 5954 20790 19955 18108 6853 5165 3228 6794 4079 4009 1459 833 378 2550 2340 626 129 67 2715 5153 11255 560 66 2050 2211 349 57 210
is_linear=0
shrinkage=0.1


Tree=20
num_leaves=31
num_cat=0
split_feature=6 0 5 7 6 4 7 4 7 0 7 0 7 4 4 7 7 7 7 4 4 7 0 4 6 7 4 4 7 0
split_gain=371527 96174.9 39127 65755.7 37351.1 33412.5 44962.9 43451 105189 45529 29464.5 27071.2 25595.8 25370.4 51923.1 51764.4 54102.9 49589.6 50958.1 46862.2 43349.4 42841.3 36348 35945.8 28815.2 27125.1 25370.4 25011.9 85012.6 47508.5
threshold=8.7568243500000023 4.8238826700000015 1.0000000180025095e-35 5.9453934850000012 4.2769767775000007 4.5000000000000009 6.1498274150000016 2.5000000000000004 10.993872237500002 12.160832905000001 8.7140716350000034 6.5746977705000011 2.2113630925000005 10.500000000000002 6.5000000000000009 8.8581723135000026 10.993872237500002 7.772295423500001 10.601157025000003 4.5000000000000009 11.500000000000002 13.073715525000003 6.4043261575000008 4.5000000000000009 7.162342132500001 6.6336510800000008 5.5000000000000009 3.5000000000000004 5.2595267280000009 9.3076770500000023
decision_type=2 2 2 2 2 2 2 2 2 2 2 2 2 2 2 2 2 2 2 2 2 2 2 2 2 2 2 2 2 2
left_child=1 12 3 -3 -4 7 -7 9 27 -2 11 -6 -1 14 17 -15 20 22 19 -19 -17 -16 23 25 -21 -5 -26 -9 -29 -30
right_child=5 2 4 13 10 6 -8 8 -10 -11 -12 -13 -14 15 21 16 -18 18 -20 24 -22 -23 -24 -25 26 -27 -28 28 29 -31
leaf_value=-0.80813931723921351 0.72020201985974452 -0.16672461506566061 3.5287190170199789 3.3116986809632714 -0.32954414097725482 -0.27827869383255383 0.63183341006541527 0.33117515187503066 3.1863587300364791 -1.8254184903949502 -0.75218805724357829 0.073326656853003255 -0.34792336716269978 1.7682913285036996 -0.20622775277532324 0.75641736434056206 2.0564101339289635 0.6345257246053797 -0.3181278771777668 1.4306016759284392 -2.9906213390199765 3.4907130692154169 -0.40349180574733157 0.10490127070855595 3.9524393142824588 0.78301082971275493 1.6891998300607178 4.7056947867075598 -2.018994195186175 1.3756505749632966
leaf_weight=1384 577 3876 27 78 3313 616 4570 413 260 80 849 3359 9530 349 1533 52 66 433 213 298 76 32 579 287 115 93 87 66 52 199
leaf_count=1384 577 3876 27 78 3313 616 4570 413 260 80 849 3359 9530 349 1533 52 66 433 213 298 76 32 579 287 115 93 87 66 52 199
internal_value=-0.00944889 -0.178239 -0.0198637 0.131829 -0.183997 0.648347 0.523729 1.04074 1.45916 0.410233 -0.197325 -0.12672 -0.406283 0.401509 0.308957 1.04034 -0.269229 0.624103 1.07749 1.3961 -1.46839 -0.130635 0.123064 0.788732 2.05562 1.93645 2.97768 0.843997 1.51212 0.672378
internal_weight=33462 26629 15715 8167 7548 6833 5186 1647 990 657 7521 6672 10914 4291 3748 543 194 2183 1146 933 128 1565 1037 458 500 171 202 730 317 251
internal_count=33462 26629 15715 8167 7548 6833 5186 1647 990 657 7521 6672 10914 4291 3748 543 194 2183 1146 933 128 1565 1037 458 500 171 202 730 317 251
is_linear=0
shrinkage=0.1


Tree=21
num_leaves=31
num_cat=0
split_feature=1 1 3 7 4 7 6 4 6 7 3 3 1 7 4 4 4 1 7 7 1 4 7 4 3 7 1 4 7 3
split_gain=301149 78664 53940.1 29733.7 48566 57285.3 42345.5 32371.1 25727.4 28184.7 28067.5 42860.8 35403.5 33598.6 23843.4 22628.7 28546.6 43126.7 56333.2 46034.5 22797.7 22440.2 55167 53145.1 30163.3 33676.7 35834.1 45150 30094.8 21206.8
threshold=76.68197282484536 23.583919988030562 16.500000000000004 6.5484697050000014 6.5000000000000009 10.993872237500002 8.0110116750000024 2.5000000000000004 11.211266945 4.2769767775000007 9.5000000000000018 16.500000000000004 304.5636731091459 7.4254854900000007 1.5000000000000002 4.5000000000000009 10.500000000000002 203.5285464933163 13.794368652500003 9.173766477500001 163.72106457050069 10.500000000000002 5.0619441755000008 7.5000000000000009 20.500000000000004 5.2056606485000012 48.495653220823272 5.5000000000000009 1.9147096090000002 4.5000000000000009
decision_type=2 2 2 2 2 2 2 2 2 2 2 2 2 2 2 2 2 2 2 2 2 2 2 2 2 2 2 2 2 2
left_child=1 14 29 6 -5 -6 7 -4 -2 -10 15 12 -12 -13 -1 -11 20 19 -19 -18 -17 23 -23 24 25 26 28 -28 -9 -3
right_child=8 2 3 4 5 -7 -8 21 9 10 11 13 -14 -15 -16 16 17 18 -20 -21 -22 22 -24 -25 -26 -27 27 -29 -30 -31
leaf_value=-0.7965486605691533 0.44818085010788639 0.066073368423726075 -1.1924488210699922 1.0284764772464692 -0.18531372548888936 2.3123246244355746 1.4890562327670269 3.340569816797208 -2.7002620602195915 2.8295311014250952 0.019650393305869585 5.0864285065369179 2.5578735518758582 1.1176239457433133 -0.31455964853425994 -0.057134747556176604 -0.26059337615966799 4.0045797844727842 -2.9011768341064457 5.2678672352775209 1.4477983525395395 -0.22820992037240001 2.9726984737224358 -1.0241982835902916 -0.29655734999842481 -0.26267803356523428 1.0543696420533317 5.3627933463384947 0.37089028728600498 -0.22663652585210828
leaf_weight=1145 4584 3675 239 1065 921 102 183 39 22 101 801 22 59 701 9904 179 20 21 27 61 230 144 86 439 518 221 56 43 273 7581
leaf_count=1145 4584 3675 239 1065 921 102 183 39 22 101 801 22 59 701 9904 179 20 21 27 61 230 144 86 439 518 221 56 43 273 7581
internal_value=-0.008504 -0.160399 -0.0156959 0.28429 0.5558 0.0637177 0.0313165 -0.0983076 0.583993 0.861429 0.896693 0.670885 0.193784 1.23839 -0.364508 1.45609 1.19825 2.49529 0.120092 3.90282 0.78916 0.0454526 0.968651 -0.0881759 0.26914 0.732798 1.26808 2.92571 0.7421 -0.131069
internal_weight=33462 26634 15585 4329 2088 1023 2241 2058 6828 2244 2222 1583 860 723 11049 639 538 129 48 81 409 1819 230 1589 1150 632 411 99 312 11256
internal_count=33462 26634 15585 4329 2088 1023 2241 2058 6828 2244 2222 1583 860 723 11049 639 538 129 48 81 409 1819 230 1589 1150 632 411 99 312 11256
is_linear=0
shrinkage=0.1


Tree=22
num_leaves=31
num_cat=0
split_feature=6 0 4 7 7 4 4 4 7 7 5 7 5 7 4 4 7 4 4 7 3 3 0 6 4 3 4 3 7 7
split_gain=244809 64315.7 35024.7 40380.2 56831.3 45684.8 32861.6 49763.4 50341.4 55247.3 42111.9 33499.2 27526 31704.3 36053.8 87454.7 52434.5 27130.4 31650.4 26711.2 26709.7 44466.4 33043 32525.1 26687.7 35006.9 52093.3 52898 57420.5 48988
threshold=8.7568243500000023 5.6950178975000014 10.500000000000002 8.6697022830000012 3.4595711610000008 11.500000000000002 6.5000000000000009 4.5000000000000009 7.8946617525000002 10.993872237500002 1.0000000180025095e-35 13.073715525000003 1.0000000180025095e-35 8.4070727850000022 5.5000000000000009 3.5000000000000004 9.7897732750000035 4.5000000000000009 6.5000000000000009 11.107412325000002 20.500000000000004 9.5000000000000018 7.064007342500001 7.9329491965000019 4.5000000000000009 15.500000000000002 10.500000000000002 11.500000000000002 8.9603219000000021 13.794368652500003
decision_type=2 2 2 2 2 2 2 2 2 2 2 2 2 2 2 2 2 2 2 2 2 2 2 2 2 2 2 2 2 2
left_child=1 12 6 4 -4 -5 7 -3 20 10 -10 -8 -1 17 15 16 -15 -14 -19 -7 21 23 -23 -9 -2 26 -26 28 -28 -30
right_child=24 2 3 5 -6 19 11 8 9 -11 -12 -13 13 14 -16 -17 -18 18 -20 -21 -22 22 -24 -25 25 -27 27 -29 29 -31
leaf_value=-0.15314267854401234 0.87699419770830289 -0.1974302069750167 -0.91315382585017635 1.2830592278137949 1.0769195234126849 -1.744047547907879 -0.2820894257452351 0.12708580010266915 1.9737786132490862 -1.2623241116867421 0.48706757538235951 2.7818000025219387 -0.77776455990604387 -3.3716439093312909 -0.14737191328834928 5.3033255535623312 2.2759801006317142 -0.022430259661787431 -0.55902318368602333 1.0400167382898784 -0.79170276131276252 0.24523835477187209 1.4082408569770219 -1.1068256822019487 -0.0064086999290617931 0.76076690674321912 0.47614060058013391 -0.35836746751494675 3.1359870791822946 -0.17528199691857613
leaf_weight=7693 1647 2887 169 103 951 192 4081 1009 424 94 346 36 2088 31 299 46 35 1842 2726 42 273 554 437 271 2501 1871 304 233 221 56
leaf_count=7693 1647 2887 169 103 951 192 4081 1009 424 94 346 36 2088 31 299 46 35 1842 2726 42 273 554 437 271 2501 1871 304 233 221 56
internal_value=-0.0076536 -0.144668 0.0286393 0.487856 0.776632 -0.471873 -0.035621 0.10805 0.36683 1.02633 1.30572 -0.255298 -0.28403 -0.426512 0.425857 1.95617 -0.376692 -0.479145 -0.342647 -1.24434 0.142849 0.255193 0.758086 -0.134156 0.526308 0.414935 0.219745 0.9146 1.4251 2.46656
internal_weight=33462 26629 11869 1457 1120 337 10412 6295 3408 864 770 4117 14760 7067 411 112 66 6656 4568 234 2544 2271 991 1280 6833 5186 3315 814 581 277
internal_count=33462 26629 11869 1457 1120 337 10412 6295 3408 864 770 4117 14760 7067 411 112 66 6656 4568 234 2544 2271 991 1280 6833 5186 3315 814 581 277
is_linear=0
shrinkage=0.1


end of trees

feature_importances:
month=218
wind_lag_24h=161
hour=118
wind_speed=79
wind_lag_1h=65
is_daytime=26
wind_speed_2=23

parameters:
[boosting: gbdt]
[objective: regression]
[metric: rmse]
[tree_learner: serial]
[device_type: cpu]
[data_sample_strategy: bagging]
[data: ]
[valid: ]
[num_iterations: 100]
[learning_rate: 0.1]
[num_leaves: 31]
[num_threads: 0]
[seed: 42]
[deterministic: 0]
[force_col_wise: 0]
[force_row_wise: 0]
[histogram_pool_size: -1]
[max_depth: -1]
[min_data_in_leaf: 20]
[min_sum_hessian_in_leaf: 0.001]
[bagging_fraction: 0.8]
[pos_bagging_fraction: 1]
[neg_bagging_fraction: 1]
[bagging_freq: 5]
[bagging_seed: 400]
[bagging_by_query: 0]
[feature_fraction: 0.9]
[feature_fraction_bynode: 1]
[feature_fraction_seed: 30056]
[extra_trees: 0]
[extra_seed: 12879]
[early_stopping_round: 0]
[early_stopping_min_delta: 0]
[first_metric_only: 0]
[max_delta_step: 0]
[lambda_l1: 0]
[lambda_l2: 0]
[linear_lambda: 0]
[min_gain_to_split: 0]
[drop_rate: 0.1]
[max_drop: 50]
[skip_drop: 0.5]
[xgboost_dart_mode: 0]
[uniform_drop: 0]
[drop_seed: 17869]
[top_rate: 0.2]
[other_rate: 0.1]
[min_data_per_group: 100]
[max_cat_threshold: 32]
[cat_l2: 10]
[cat_smooth: 10]
[max_cat_to_onehot: 4]
[top_k: 20]
[monotone_constraints: ]
[monotone_constraints_method: basic]
[monotone_penalty: 0]
[feature_contri: ]
[forcedsplits_filename: ]
[refit_decay_rate: 0.9]
[cegb_tradeoff: 1]
[cegb_penalty_split: 0]
[cegb_penalty_feature_lazy: ]
[cegb_penalty_feature_coupled: ]
[path_smooth: 0]
[interaction_constraints: ]
[verbosity: -1]
[saved_feature_importance_type: 0]
[use_quantized_grad: 0]
[num_grad_quant_bins: 4]
[quant_train_renew_leaf: 0]
[stochastic_rounding: 1]
[linear_tree: 0]
[max_bin: 255]
[max_bin_by_feature: ]
[min_data_in_bin: 3]
[bin_construct_sample_cnt: 200000]
[data_random_seed: 175]
[is_enable_sparse: 1]
[enable_bundle: 1]
[use_missing: 1]
[zero_as_missing: 0]
[feature_pre_filter: 1]
[pre_partition: 0]
[two_round: 0]
[header: 0]
[label_column: ]
[weight_column: ]
[group_column: ]
[ignore_column: ]
[categorical_feature: ]
[forcedbins_filename: ]
[precise_float_parser: 0]
[parser_config_file: ]
[objective_seed: 16083]
[num_class: 1]
[is_unbalance: 0]
[scale_pos_weight: 1]
[sigmoid: 1]
[boost_from_average: 1]
[reg_sqrt: 0]
[alpha: 0.9]
[fair_c: 1]
[poisson_max_delta_step: 0.7]
[tweedie_variance_power: 1.5]
[lambdarank_truncation_level: 30]
[lambdarank_norm: 1]
[label_gain: ]
[lambdarank_position_bias_regularization: 0]
[eval_at: ]
[multi_error_top_k: 1]
[auc_mu_weights: ]
[num_machines: 1]
[local_listen_port: 12400]
[time_out: 120]
[machine_list_filename: ]
[machines: ]
[gpu_platform_id: -1]
[gpu_device_id: -1]
[gpu_use_dp: 0]
[num_gpu: 1]

end of parameters

pandas_categorical:[]
