tree
version=v4
num_class=1
num_tree_per_iteration=1
label_index=0
max_feature_idx=5
objective=regression
feature_names=ec_gfs_mean ec_gfs_diff hour_sin day_sin ec_wind_speed_10m gfs_wind_speed_10m
feature_infos=[0.45044810999999996:18.727169] [7.6999999993887513e-06:11.0178159] [-1:1] [-0.99999073973619013:0.99999073973619013] [0.030067341000000001:18.775355999999999] [0.092054830000000004:19.379201999999999]
tree_sizes=2721 2851 2850 2871 2876 2887 2874 2895 2849 2864 2890 2869 2854 2864 2880 2850 2895 2889 2858 2845 2880 2886 2883 2871 2889 2861 2881 2871

Tree=0
num_leaves=31
num_cat=0
split_feature=0 0 0 0 0 2 0 0 2 0 2 3 3 2 0 3 3 2 3 3 5 5 3 3 3 3 3 3 4 3
split_gain=82572.7 16094.1 9649.06 5032.28 2466.22 1836.76 1200.46 1016.6 935.173 772.984 738.731 646.403 1497.02 613.399 454.871 449.338 434.084 368.137 362.41 346.658 283.964 281.1 274.448 1175.76 324.126 266.991 266.663 463.988 260.05 257.857
threshold=6.5177330000000007 9.5317339250000011 4.7157802500000008 13.542323250000001 7.7634296750000003 0.12940952255126045 11.359224000000003 3.4455587500000004 -1.0000000180025095e-35 5.7668503250000009 -0.37940952255126065 -0.081675638985454949 -0.10738035228456493 0.37940952255126054 6.0053277250000008 0.27609441636666071 0.98930504265984687 0.25881904510252091 0.48250327361223927 0.84753307444029569 2.5723609000000005 7.596551250000001 0.93535928755917841 0.95747632178960107 -0.9523687564627995 0.97109105924028427 -0.2008886948310977 0.65189295912203338 6.369789400000001 0.42109697129093554
decision_type=2 2 2 2 2 2 2 2 2 2 2 2 2 2 2 2 2 2 2 2 2 2 2 2 2 2 2 2 2 2
left_child=2 4 7 6 8 9 -3 17 -2 20 15 12 -8 28 -7 -6 22 -1 29 -10 -4 25 24 -24 -12 -21 -26 -28 -9 -17
right_child=1 3 5 -5 10 14 11 13 19 -11 16 -13 -14 -15 -16 18 -18 -19 -20 21 -22 -23 23 -25 26 -27 27 -29 -30 -31
leaf_value=5.6243626580387867 5.7912951378016233 5.8896491380772202 5.8195744870343118 6.1426662997127197 5.8266611546332152 5.6642852862179449 5.9801686603252833 5.6525623962136375 5.7519533786581372 5.7429040106696903 5.744354937672683 6.0139104224878368 5.7164444819696589 5.6247911844736569 5.7011396001636792 5.9208803824729035 5.9080023774186978 5.5996048703008316 5.8711364144846874 5.6367862945163445 5.6994471241649185 5.7739283597295064 5.4748856567011943 5.8062182981503847 5.8376797327632284 5.7399960355923341 5.7705341974677671 5.8431832934321992 5.7582495706690677 6.1319662248914675
leaf_weight=3839 1848 1614 50 266 780 3678 213 4314 1876 1754 201 367 72 3056 1084 39 95 2466 508 177 3055 93 34 126 610 97 639 335 59 23
leaf_count=3839 1848 1614 50 266 780 3678 213 4314 1876 1754 201 367 72 3056 1084 39 95 2466 508 177 3055 93 34 126 610 97 639 335 59 23
internal_value=5.70785 5.82797 5.65634 5.93693 5.79109 5.69474 5.91278 5.62945 5.76496 5.71637 5.82263 5.97004 5.91354 5.64198 5.67267 5.85132 5.80364 5.61468 5.88506 5.74326 5.70138 5.69882 5.79854 5.73581 5.80417 5.67332 5.81176 5.79552 5.65399 5.99919
internal_weight=33368 10013 23355 2532 7481 9621 2266 13734 4091 4859 3390 652 285 7429 4762 1350 2040 6305 570 2243 3105 367 1945 160 1785 274 1584 974 4373 62
internal_count=33368 10013 23355 2532 7481 9621 2266 13734 4091 4859 3390 652 285 7429 4762 1350 2040 6305 570 2243 3105 367 1945 160 1785 274 1584 974 4373 62
is_linear=0
shrinkage=1


Tree=1
num_leaves=31
num_cat=0
split_feature=0 0 0 0 0 2 2 0 0 4 3 3 0 2 3 3 3 4 5 3 3 2 3 3 4 3 3 2 3 4
split_gain=74521.9 14560.3 8708.28 4230 2634.34 1682.92 1038.27 917.482 903.068 590.799 583.379 1351.06 565.559 553.592 508.261 419.597 2032.09 539.12 410.5 394.352 390.977 332.244 248.327 243.099 234.695 228.317 215.378 213.699 222.959 206.784
threshold=6.5177330000000007 9.7118300000000026 4.7157802500000008 13.542323250000001 8.2025013500000021 -1.0000000180025095e-35 -0.37940952255126065 3.4455587500000004 11.359224000000003 5.3915998500000013 -0.081675638985454949 -0.10738035228456493 6.0053277250000008 0.37940952255126054 0.98801351631316348 0.93535928755917841 0.95747632178960107 9.3791115000000023 6.9734677500000002 0.29259762607704992 0.84753307444029569 0.25881904510252091 -0.2008886948310977 0.073094453017891456 6.369789400000001 0.75548631800528565 -0.84753307444029546 -0.60355339059327362 0.75548631800528565 10.288873000000001
decision_type=2 2 2 2 2 2 2 2 2 2 2 2 2 2 2 2 2 2 2 2 2 2 2 2 2 2 2 2 2 2
left_child=2 4 7 8 6 9 29 21 25 -4 11 -10 -7 24 15 17 -17 27 20 22 -8 -1 26 -14 -9 -3 -19 -6 -29 -2
right_child=1 3 5 -5 14 12 18 13 10 -11 -12 -13 23 -15 -16 16 -18 19 -20 -21 -22 -23 -24 -25 -26 -27 -28 28 -30 -31
leaf_value=-0.078799965735880301 0.087774825672859408 0.16625214809183053 -0.0081505987118944932 0.41358850280145054 0.13507891676604411 -0.038396964733186295 0.034246173705717191 -0.052010212864410078 0.25921574124428032 0.030183289310348589 0.29127042369881506 0.0086777694523334503 0.021631724038124384 -0.078392863225744056 0.21912024635535021 -0.26552732595946732 0.13057381877397464 0.090199138082275365 0.05823673255420795 0.21439479143695631 -0.038922902089396146 -0.102319862128188 0.059614034510191739 -0.022188961498421741 0.048392603912595977 0.21449432938414464 0.18174460355734601 0.088819470722835581 0.15836294521506017 0.21593256038613617
leaf_weight=3839 1919 1019 1857 266 531 4307 1050 4314 213 2191 367 72 630 3056 130 41 154 92 1899 235 221 2466 90 636 59 323 213 1016 130 32
leaf_count=3839 1919 1019 1857 266 531 4307 1050 4314 213 2191 367 72 630 3056 130 41 154 92 1899 235 221 2466 90 636 59 323 213 1016 130 32
internal_value=0.00050874 0.114627 -0.0484172 0.226301 0.0820738 -0.0119389 0.061179 -0.0739711 0.201317 0.0125978 0.249592 0.195922 -0.0297613 -0.0620656 0.122728 0.11772 0.047291 0.123673 0.0435167 0.163108 0.0215236 -0.087999 0.132595 -0.000382459 -0.0506556 0.177863 0.154131 0.108858 0.0967083 0.0898768
internal_weight=33368 10013 23355 2260 7753 9621 5121 13734 1994 4048 652 285 5573 7429 2632 2502 195 2307 3170 630 1271 6305 395 1266 4373 1342 305 1677 1146 1951
internal_count=33368 10013 23355 2260 7753 9621 5121 13734 1994 4048 652 285 5573 7429 2632 2502 195 2307 3170 630 1271 6305 395 1266 4373 1342 305 1677 1146 1951
is_linear=0
shrinkage=0.05


Tree=2
num_leaves=31
num_cat=0
split_feature=0 0 0 0 0 2 2 0 0 0 3 2 3 3 3 5 3 3 3 3 2 3 0 2 5 5 1 1 3 3
split_gain=67256 13140.7 7859.22 3817.58 2377.49 1519.79 937.597 828.027 815.105 669.676 652.426 499.617 458.705 423.222 999.416 394.21 378.686 1833.96 398.109 425.322 390.865 372.081 367.222 299.85 252.168 232.131 229.982 225.976 225.035 213.234
threshold=6.5177330000000007 9.7118300000000026 4.7157802500000008 13.542323250000001 8.2025013500000021 0.12940952255126045 -1.0000000180025095e-35 3.4455587500000004 11.097693750000003 5.7668503250000009 0.61188073503922691 0.37940952255126054 0.98801351631316348 -0.413274780713969 -0.081675638985454949 6.9734677500000002 0.93535928755917841 0.95747632178960107 0.29259762607704992 -0.2008886948310977 -0.60355339059327362 0.84753307444029569 6.0053277250000008 0.25881904510252091 2.5723609000000005 7.638495100000001 3.8030573000000008 3.8779601000000006 -0.92913280730858783 0.52707282776374187
decision_type=2 2 2 2 2 2 2 2 2 2 2 2 2 2 2 2 2 2 2 2 2 2 2 2 2 2 2 2 2 2
left_child=2 4 7 8 6 9 -2 23 -3 24 13 27 16 -10 -15 21 18 -18 19 28 29 -8 26 -1 -4 -22 -7 -9 -6 -20
right_child=1 3 5 -5 12 22 15 11 10 -11 -12 -13 -14 14 -16 -17 17 -19 20 -21 25 -23 -24 -25 -26 -27 -28 -29 -30 -31
leaf_value=-0.074859967691810261 0.081461921011888844 0.1655460677970613 0.10575933432579042 0.3929090749948545 0.083101924963548415 -0.042380517463531109 0.028954675026423633 -0.051496100849968467 0.24491361157265318 0.033028179868241241 0.29235105621344726 -0.074473222013116763 0.20816423282027247 0.032672908157110214 0.23201808359637954 0.054127542673100416 -0.25225096315872381 0.12404512786245965 0.29479114361431286 0.057655312998402333 0.21352359700587487 -0.046633164255128146 -0.0058398532504235177 -0.097203866942844788 -0.007443005218646534 0.11086078521243546 0.0066627821069689119 -0.0098254697328949044 0.13264871690947727 0.17572559352729072
leaf_weight=3839 2338 1211 50 266 324 3421 938 4019 241 1754 279 3056 130 104 159 1648 41 154 46 394 62 197 1084 2466 3055 492 257 354 783 206
leaf_count=3839 2338 1211 50 266 324 3421 938 4019 241 1754 279 3056 130 104 159 1648 41 154 46 394 62 197 1084 2466 3055 492 257 354 783 206
internal_value=0.000483303 0.108896 -0.0459963 0.214986 0.0779701 -0.0113419 0.0581201 -0.0702726 0.191251 0.00833114 0.231008 -0.0589623 0.116592 0.19705 0.15319 0.0385106 0.111834 0.0449265 0.117489 0.102269 0.145834 0.015835 -0.0314158 -0.0835991 -0.0056201 0.12235 -0.0389536 -0.0481228 0.118147 0.19746
internal_weight=33368 10013 23355 2260 7753 9621 5121 13734 1994 4859 783 7429 2632 504 263 2783 2502 195 2307 1501 806 1135 4762 6305 3105 554 3678 4373 1107 252
internal_count=33368 10013 23355 2260 7753 9621 5121 13734 1994 4859 783 7429 2632 504 263 2783 2502 195 2307 1501 806 1135 4762 6305 3105 554 3678 4373 1107 252
is_linear=0
shrinkage=0.05


Tree=3
num_leaves=31
num_cat=0
split_feature=4 5 5 5 4 4 4 2 5 2 4 3 5 3 2 2 4 4 5 2 2 3 3 5 4 3 3 2 5 4
split_gain=54882.8 11003.4 8134.18 3361.33 2702.78 1949.49 1245.87 1231.53 1220.32 645.041 644.483 587.604 526.211 493.136 477.735 460.462 405.264 395.907 388.051 341.029 304.748 287.956 683.298 310.404 276.057 421.375 330.979 253.99 251.808 232.845
threshold=6.7851498500000007 10.622254500000002 5.4632740000000011 7.0529203500000017 12.729787500000002 5.1191890000000013 9.0450270000000028 0.12940952255126045 7.1826925500000014 1.0000000180025095e-35 5.3245635000000009 0.59817537509284302 3.0752441000000004 0.84753307444029569 -0.37940952255126065 0.37940952255126054 10.819871500000001 5.465214500000001 13.509008500000002 -0.60355339059327362 -1.0000000180025095e-35 0.96683886033945965 0.93535928755917841 8.0107480000000013 9.0450270000000028 0.90149333598846393 -0.68391308835034159 -0.25881904510252113 9.4444240000000033 8.0828465000000023
decision_type=2 2 2 2 2 2 2 2 2 2 2 2 2 2 2 2 2 2 2 2 2 2 2 2 2 2 2 2 2 2
left_child=2 3 5 7 11 12 19 24 10 -7 27 -3 -1 29 -12 -14 -13 28 -6 -5 -8 22 -21 -24 -2 26 -26 -4 -10 -9
right_child=1 4 8 6 18 9 20 13 17 -11 14 16 15 -15 -16 -17 -18 -19 -20 21 -22 -23 23 -25 25 -27 -28 -29 -30 -31
leaf_value=-0.081690370384801869 0.059020274947106779 0.16243987498039436 -0.0080246195931526643 0.11108572830465775 0.25935046809060236 -0.0067514976521462532 0.16124698269720783 0.0051945149162050328 0.0057731079661483024 -0.04685537380426541 0.043065297601468613 0.19273755690811104 -0.050451558634620058 -0.056555455923347042 -0.0059762227838796519 -0.075267440024072027 0.29253162779126851 0.054314674804948948 0.37342988786066555 0.073799289839257834 0.11713711573290556 0.12900005201899475 -0.25483386530762625 -0.012948003038764 0.020920183580755345 -0.10667059969156981 0.16167691454934288 -0.039714825565921041 0.08628252165339817 0.052625441359876873
leaf_weight=4879 1422 874 1066 945 105 1808 857 901 1052 2251 724 243 4523 262 1581 3186 175 1184 257 1782 721 219 21 36 53 20 197 1554 107 363
leaf_count=4879 1422 874 1066 945 105 1808 857 901 1052 2251 724 243 4523 262 1581 3186 175 1184 257 1782 721 219 21 36 53 20 197 1554 107 363
internal_value=0.000459138 0.102453 -0.0398564 0.0776103 0.219591 -0.0591242 0.105122 0.0384457 0.00427544 -0.0289919 -0.00985588 0.185759 -0.0688403 0.00587534 0.00942771 -0.0607075 0.234517 0.0339796 0.340341 0.0862204 0.141093 0.0748026 0.0683484 -0.102064 0.0678207 0.114169 0.131836 -0.026821 0.0132058 0.0188159
internal_weight=33368 9453 23915 7799 1654 16647 4581 3218 7268 4059 4925 1292 12588 1526 2305 7709 418 2343 362 3003 1578 2058 1839 57 1692 270 250 2620 1159 1264
internal_count=33368 9453 23915 7799 1654 16647 4581 3218 7268 4059 4925 1292 12588 1526 2305 7709 418 2343 362 3003 1578 2058 1839 57 1692 270 250 2620 1159 1264
is_linear=0
shrinkage=0.05


Tree=4
num_leaves=31
num_cat=0
split_feature=0 0 0 0 0 2 0 2 2 4 2 0 3 3 0 3 3 3 3 3 3 0 0 3 3 4 3 1 4 3
split_gain=54965.8 10761.1 6510.06 3335.22 1699.02 1311.18 814.646 603.11 595.335 587.564 535.514 473.159 442.058 1118.64 383.612 358.346 303.394 295.087 291.094 1010.48 299.704 261.711 261.171 245.336 370.248 240.603 233.077 222.858 219.311 214.975
threshold=6.5177330000000007 9.5317339250000011 4.5359012750000014 13.542323250000001 7.6529289250000003 -1.0000000180025095e-35 11.359224000000003 -1.0000000180025095e-35 -0.37940952255126065 6.0199200000000008 1.0000000180025095e-35 6.0053277250000008 -0.081675638985454949 -0.10738035228456493 3.2123861500000004 0.27609441636666071 0.48250327361223927 0.055916472294523401 0.96683886033945965 0.93535928755917841 -0.9523687564627995 5.0895049500000011 3.7315955250000008 -0.2008886948310977 0.6583954877256819 8.4773650000000007 0.42109697129093554 3.4646723500000003 9.0450270000000028 0.073094453017891456
decision_type=2 2 2 2 2 2 2 2 2 2 2 2 2 2 2 2 2 2 2 2 2 2 2 2 2 2 2 2 2 2
left_child=2 4 10 6 7 9 -3 -2 15 21 14 -7 13 -8 -1 25 26 -9 19 20 -10 -4 -12 -22 -25 -6 -17 -16 -21 -13
right_child=1 3 5 -5 8 11 12 17 18 -11 22 29 -14 -15 27 16 -18 -19 -20 28 23 -23 -24 24 -26 -27 -28 -29 -30 -31
leaf_value=-0.06972459012549935 0.067025436934701518 0.14882518447725471 -0.021490969304737199 0.35503126801852897 0.074166366398048383 -0.034629753514571197 0.22592177140600805 0.047539683212537022 0.020876023417348778 0.03550284652891942 -0.084497263049878021 0.020343463182345863 0.25132886600104598 -0.0020501505997445849 -0.048878205778289385 0.17637797688565604 0.13453421314524641 0.010014851106670374 0.13332030693082864 -0.056218065212791171 0.10824897513932774 0.0080413463137871885 -0.063838785071468326 0.049411817478344534 0.11309839036352148 0.12849261794833169 0.37256885468959811 -0.0062609974490533743 -0.24685934267260812 -0.020864550175469072
leaf_weight=2724 1717 1614 1268 266 498 4925 213 963 210 1349 3740 630 367 72 3319 41 545 1149 203 48 654 1837 2589 730 332 345 24 338 22 636
leaf_count=2724 1717 1614 1268 266 498 4925 213 963 210 1349 3740 630 367 72 3319 41 545 1149 203 48 654 1837 2589 730 332 345 24 338 22 636
internal_value=0.00043618 0.0984436 -0.0415826 0.187541 0.068288 -0.0127375 0.16788 0.0450171 0.0926867 0.00795122 -0.0657412 -0.0276215 0.215048 0.168329 -0.0555199 0.117522 0.146712 0.0271249 0.0762768 0.0704753 0.0772576 -0.00401887 -0.0760465 0.0841574 0.0693214 0.0963995 0.248818 -0.0449393 -0.116134 -0.000358193
internal_weight=33368 10013 23355 2532 7481 10645 2266 3829 3652 4454 12710 6191 652 285 6381 1453 610 2112 2199 1996 1926 3105 6329 1716 1062 843 65 3657 70 1266
internal_count=33368 10013 23355 2532 7481 10645 2266 3829 3652 4454 12710 6191 652 285 6381 1453 610 2112 2199 1996 1926 3105 6329 1716 1062 843 65 3657 70 1266
is_linear=0
shrinkage=0.05


Tree=5
num_leaves=31
num_cat=0
split_feature=0 0 0 0 0 2 0 4 2 2 2 0 0 0 1 4 4 4 0 1 5 2 5 2 0 2 4 0 5 2
split_gain=49270.9 9671.46 5372.84 3038.03 1281.59 1085.49 952.439 562.943 542.952 538.918 528.724 361.996 335.866 291.761 223.255 193.895 167.739 165.484 165.478 132.474 127.368 123.428 123.208 161.286 113.783 107.159 101.495 100.941 98.9793 90.9992
threshold=6.4280408500000012 9.1699711250000018 4.3825059500000014 13.542323250000001 7.7634296750000003 -1.0000000180025095e-35 10.883969250000002 6.1954178000000004 0.25881904510252091 -0.37940952255126065 -0.37940952255126065 5.049102275000001 6.0053277250000008 3.1013047400000002 3.8030573000000008 8.4773650000000007 9.794592500000002 13.487194500000001 3.5911501000000006 3.5867292000000002 2.4185861000000002 0.37940952255126054 7.0529203500000017 0.91597561503675362 5.0271385000000004 0.12940952255126045 6.4808162000000005 5.7668503250000009 5.8717973500000005 0.25881904510252091
decision_type=2 2 2 2 2 2 2 2 2 2 2 2 2 2 2 2 2 2 2 2 2 2 2 2 2 2 2 2 2 2
left_child=2 4 8 6 9 7 16 11 13 -2 15 28 14 -1 24 -6 -3 -8 -10 -15 -9 -14 25 -24 -7 -11 -20 -13 -4 -26
right_child=1 3 5 -5 10 12 17 20 18 22 -12 27 21 19 -16 -17 -18 -19 26 -21 -22 -23 23 -25 29 -27 -28 -29 -30 -31
leaf_value=-0.067480944056331968 0.065486524907470797 0.11672587180269388 -0.030027943475810566 0.33775981153404366 0.094549509420194355 -0.045864548305925686 0.18862603417810195 0.10373453835823708 -0.084739406798858233 0.044111016214973445 0.068711350658459611 -0.00090194038529592272 0.024525273181626069 -0.049156662763585601 0.0025325342552563134 0.13652121376899101 0.14705041673504946 0.28907869499783184 -0.067512984273398524 -0.015275710698924975 0.030398303569058368 -0.013789294902456721 0.032323259534599018 0.078667658784073419 -0.01522779063066401 0.01176475929235031 0.028311253039698517 0.022358644820434911 0.004521972451891218 -0.035581229029260662
leaf_weight=2808 1649 967 1347 239 636 2073 881 63 2794 333 1747 1382 291 3832 387 485 863 43 2110 312 983 757 1063 228 727 1108 28 704 245 2245
leaf_count=2808 1649 967 1347 239 636 2073 881 63 2794 333 1747 1382 291 3832 387 485 863 43 2110 312 983 757 1063 228 727 1108 28 704 245 2245
internal_value=-0.000129469 0.0911448 -0.0406194 0.16676 0.0599245 -0.0157781 0.15192 0.00244942 -0.0640392 0.0429143 0.0859083 -0.00675523 -0.0290662 -0.0550375 -0.0340662 0.112709 0.131026 0.193301 -0.0767278 -0.0466058 0.0348153 -0.00315042 0.02929 0.040508 -0.0368737 0.0192396 -0.066258 0.00694823 -0.0247109 -0.0306024
internal_weight=33330 10242 23088 2993 7249 11204 2754 4724 11884 4381 2868 3678 6480 6952 5432 1121 1830 924 4932 4144 1046 1048 2732 1291 5045 1441 2138 2086 1592 2972
internal_count=33330 10242 23088 2993 7249 11204 2754 4724 11884 4381 2868 3678 6480 6952 5432 1121 1830 924 4932 4144 1046 1048 2732 1291 5045 1441 2138 2086 1592 2972
is_linear=0
shrinkage=0.05


Tree=6
num_leaves=31
num_cat=0
split_feature=0 0 0 0 0 2 0 2 3 2 4 2 3 0 0 0 3 3 3 3 1 3 3 3 4 3 3 3 3 3
split_gain=44467 8740.28 4849.4 2526.75 1479.83 1016.42 679.372 595.047 586.348 473.576 463.089 390.467 315.541 301.144 278.866 262.211 250.899 241.529 386.388 357.364 234.541 232.435 207.26 936.495 243.142 210.185 202.793 947.662 256.908 195.736
threshold=6.4280408500000012 9.4335167500000008 4.4253036750000012 13.542323250000001 7.9762280000000016 -1.0000000180025095e-35 10.883969250000002 -0.37940952255126065 0.75548631800528565 1.0000000180025095e-35 6.1954178000000004 -0.37940952255126065 0.29259762607704992 6.0053277250000008 5.1092157500000015 3.1013047400000002 -0.67125374152323936 0.84753307444029569 0.96683886033945965 0.92913280730858816 1.8431016000000009 0.88606241628642846 0.96683886033945965 0.93535928755917841 9.0450270000000028 0.75548631800528565 -0.413274780713969 -0.081675638985454949 -0.10738035228456493 0.090250774277322809
decision_type=2 2 2 2 2 2 2 2 2 2 2 2 2 2 2 2 2 2 2 2 2 2 2 2 2 2 2 2 2 2
left_child=2 4 9 6 7 10 -3 -2 26 15 14 12 -6 -7 -4 -1 -11 -9 19 21 -21 -19 23 25 -25 -13 -8 28 -28 -18
right_child=1 3 5 -5 11 13 8 17 -10 16 -12 22 -14 -15 -16 -17 29 18 -20 20 -22 -23 -24 24 -26 -27 27 -29 -30 -31
leaf_value=-0.063201642497578064 0.065437795344474498 0.12860540655100902 -0.020358463420791791 0.32087182851516055 0.090365623399225908 -0.03233465202980864 0.19309038779387871 0.035873777040805736 0.25640644405929136 -0.089834699486149125 0.032685935476344803 0.069968269693721719 0.14566728043612995 -0.002992900581150636 0.0076610774211961306 -0.042099547133369185 -0.05123412400909666 -0.025456273030593165 0.049435897994830856 -0.18266520284648455 -0.035198071498710376 0.11504424178872158 0.13073058960591855 -0.042987390325681586 -0.24732964336872101 0.13103617801790751 0.14801580985076726 0.18979256913380727 -0.015788002814117231 -0.072521291078119041
leaf_weight=2459 1876 1427 1639 239 638 5281 300 2538 213 1293 1043 1302 433 1048 1938 3668 1673 144 210 56 52 37 147 37 24 158 32 284 95 3046
leaf_count=2459 1876 1427 1639 239 638 5281 300 2538 213 1293 1043 1302 433 1048 1938 3668 1673 144 210 56 52 37 147 37 24 158 32 284 95 3046
internal_value=-0.000122995 0.0865876 -0.0385884 0.16598 0.0597154 -0.0144602 0.150234 0.0432978 0.183636 -0.0603513 0.00337036 0.0891641 0.112724 -0.027476 -0.00517762 -0.0505686 -0.0703212 0.0296215 -0.00217851 -0.0396838 -0.111663 0.00326483 0.0740368 0.0685575 -0.123384 0.076577 0.161835 0.139021 0.0254854 -0.0649745
internal_weight=33330 10242 23088 2590 7652 10949 2351 4913 924 12139 4620 2739 1071 6329 3577 6127 6012 3037 499 289 108 181 1668 1521 61 1460 711 411 127 4719
internal_count=33330 10242 23088 2590 7652 10949 2351 4913 924 12139 4620 2739 1071 6329 3577 6127 6012 3037 499 289 108 181 1668 1521 61 1460 711 411 127 4719
is_linear=0
shrinkage=0.05


Tree=7
num_leaves=31
num_cat=0
split_feature=0 0 0 0 0 2 0 0 2 2 3 0 2 3 3 3 3 0 3 3 1 3 3 2 3 5 3 3 3 3
split_gain=40144.2 7524.64 4709.96 2280.4 1211.3 960.858 630.423 517.615 449.967 439.589 412.745 394.806 353.99 315.731 752.242 305.662 251.853 240.193 239.733 207.96 197.262 263.417 196.886 195.975 188.664 200.234 187.091 261.971 177.923 457.637
threshold=6.5177330000000007 9.4335167500000008 4.3825059500000014 13.542323250000001 7.9762280000000016 -0.37940952255126065 11.359224000000003 5.7668503250000009 0.25881904510252091 -0.37940952255126065 0.61188073503922691 5.0271385000000004 -1.0000000180025095e-35 -0.10738035228456493 -0.081675638985454949 0.29259762607704992 -0.030120025924939096 3.1013047400000002 -0.63209755774300591 0.10738035228456499 5.0310439000000011 -0.70862011619447618 0.48250327361223927 0.25881904510252091 0.055916472294523401 7.9652756500000006 -0.2008886948310977 0.0043034984443446715 -0.3171883513140959 0.047320950113892181
decision_type=2 2 2 2 2 2 2 2 2 2 2 2 2 2 2 2 2 2 2 2 2 2 2 2 2 2 2 2 2 2
left_child=2 4 8 6 9 7 -3 -4 17 -2 13 -7 15 -8 -15 26 20 28 -10 -20 -13 -22 -17 -18 -11 -26 -6 -28 -1 -30
right_child=1 3 5 -5 12 11 10 -9 18 24 -12 16 -14 14 -16 22 23 -19 19 -21 21 -23 -24 -25 25 -27 27 -29 29 -31
leaf_value=-0.080460493347521547 0.06222998301553611 0.12647822572617551 -0.0045961846507218606 0.30482823381114704 0.098128878384287299 -0.039367816326917167 0.19667696957602293 0.035355744077335376 -0.088788436984713753 0.044326561708115539 0.23778472469541534 -0.0050627720818766826 0.067152529907098621 -0.010706395476679259 0.18464173077399496 0.21682975463202744 -0.0058914245646680928 -0.041973338939060627 -0.04639193381952636 -0.071448184627435865 0.18612119182944298 -0.0015319376356071899 0.12143051780625325 -0.0332477745529366 0.0088113651975862128 0.053602044909302426 -0.032599704591809095 0.083712088890107617 -0.0098863891505436424 -0.066237722847802591
leaf_weight=823 1752 1687 2731 239 585 2542 222 1153 1202 1286 232 2052 1402 79 131 61 959 4144 1241 2489 32 45 477 2063 1186 316 74 140 473 1512
leaf_count=823 1752 1687 2731 239 585 2542 222 1153 1202 1286 232 2052 1402 79 131 61 959 4144 1241 2489 32 45 477 2063 1186 316 74 140 473 1512
internal_value=-0.000116846 0.084489 -0.0357068 0.157681 0.0584461 -0.0130087 0.142722 0.0072639 -0.0578185 0.0426034 0.183992 -0.0232438 0.0847059 0.155103 0.111154 0.103113 -0.0152867 -0.0496237 -0.0693696 -0.0631118 -0.00211455 0.0764538 0.132247 -0.0245665 0.0302699 0.0182347 0.0834953 0.0434921 -0.0609141 -0.0528099
internal_weight=33330 9869 23461 2590 7279 11577 2351 3884 11884 4540 664 7693 2739 432 210 1337 5151 6952 4932 3730 2129 77 538 3022 2788 1502 799 214 2808 1985
internal_count=33330 9869 23461 2590 7279 11577 2351 3884 11884 4540 664 7693 2739 432 210 1337 5151 6952 4932 3730 2129 77 538 3022 2788 1502 799 214 2808 1985
is_linear=0
shrinkage=0.05


Tree=8
num_leaves=31
num_cat=0
split_feature=4 4 5 5 5 4 4 2 5 3 2 4 2 5 3 2 5 5 3 3 3 3 2 3 3 3 5 3 5 3
split_gain=33245.9 6032.48 5290.23 1843.02 1521.49 1185.1 759.962 700.917 592.246 507.943 401.259 397.507 389.494 362.311 339.845 297.951 331.215 254.313 259.536 1518.26 253.665 284.861 240.375 223.231 785.207 210.397 202.621 192.724 186.92 176.598
threshold=6.9056666000000009 9.794592500000002 5.4632740000000011 14.483525500000001 7.4597438500000015 5.0275601500000002 5.7167873500000006 0.12940952255126045 10.622254500000002 0.59817537509284302 1.0000000180025095e-35 8.421127000000002 1.0000000180025095e-35 8.0107480000000013 0.84753307444029569 -0.37940952255126065 7.0114400000000012 6.2643327500000003 0.94697898371965716 0.95747632178960107 0.18399664778440331 -0.2008886948310977 -0.5 -0.11593352601052358 -0.081675638985454949 -0.49002412863433376 3.9426440000000005 0.96683886033945965 3.0752441000000004 0.98930504265984687
decision_type=2 2 2 2 2 2 2 2 2 2 2 2 2 2 2 2 2 2 2 2 2 2 2 2 2 2 2 2 2 2
left_child=2 4 5 8 7 12 13 -2 17 23 -7 -6 26 22 -9 -8 -17 -3 20 -20 21 -19 -4 -10 -25 -5 -1 -16 -14 -13
right_child=1 3 6 25 11 10 15 14 9 -11 -12 29 28 -15 27 16 -18 18 19 -21 -22 -23 -24 24 -26 -27 -28 -29 -30 -31
leaf_value=-0.05172027642259254 0.055016587473546021 0.05914081059946763 0.0035947088952446001 0.16172494652771183 0.064782120371437213 -0.0076313480449661788 0.045746584385102061 0.01897422996141794 0.16656373866713761 0.21486828987621279 -0.037521144855864247 0.094360027323561857 -0.074676671686721083 0.026791204821583849 -0.072978647053627638 -0.0040023626423130697 0.037958722766536675 0.12381424160426902 -0.26134437528149834 0.15147887590186049 0.1657600419460471 0.0055678125599334981 -0.022857368174517841 -0.011149402433320096 0.16569584893616471 0.30135407433486905 -0.032791470026619494 0.013508461574092507 -0.056388372202425534 0.16639388044338882
leaf_weight=4136 1613 188 1281 31 1911 2041 1034 1182 326 339 2496 1558 2194 628 181 1189 778 418 29 96 344 58 2606 95 185 208 2148 100 3847 90
leaf_count=4136 1613 188 1281 31 1911 2041 1034 1182 326 339 2496 1558 2194 628 181 1189 778 418 29 96 344 58 2606 95 185 208 2148 100 3847 90
internal_value=-0.000111003 0.0822954 -0.030372 0.151752 0.0580404 -0.0459226 0.00451549 0.0322858 0.136629 0.165857 -0.024075 0.0802998 -0.0539649 -0.00844665 0.00722437 0.024017 0.0125943 0.112251 0.122817 0.0557039 0.133047 0.109406 -0.0141398 0.138439 0.105695 0.283243 -0.04525 -0.0422003 -0.0630304 0.0982939
internal_weight=33330 8952 24378 2317 6635 16862 7516 3076 2078 945 4537 3559 12325 4515 1463 3001 1967 1133 945 125 820 476 3887 606 280 239 6284 281 6041 1648
internal_count=33330 8952 24378 2317 6635 16862 7516 3076 2078 945 4537 3559 12325 4515 1463 3001 1967 1133 945 125 820 476 3887 606 280 239 6284 281 6041 1648
is_linear=0
shrinkage=0.05


Tree=9
num_leaves=31
num_cat=0
split_feature=0 0 0 0 0 2 0 3 4 2 2 2 0 3 3 0 3 3 0 3 3 3 3 5 3 3 3 2 3 3
split_gain=32845.5 6483.37 3605.06 2073.83 771.433 723.861 680.214 467.833 404.99 401.298 375.138 361.737 261.77 249.877 266.823 239.36 224.346 217.943 201.922 188.092 187.245 241.543 290.965 197.398 180.55 168.179 331.891 271.791 166.735 164.638
threshold=6.4280408500000012 9.0907840000000011 4.3825059500000014 13.542323250000001 7.7634296750000003 -1.0000000180025095e-35 10.883969250000002 0.75548631800528565 6.1954178000000004 -0.37940952255126065 0.25881904510252091 -0.37940952255126065 5.0271385000000004 0.2093127076542077 -0.413274780713969 6.0053277250000008 0.98930504265984687 -0.63209755774300591 3.1013047400000002 0.10738035228456499 0.84753307444029569 0.96683886033945965 0.92913280730858816 7.0997076000000012 0.81900730237416519 0.88606241628642846 0.96683886033945965 -0.9159756150367534 -0.98801351631316325 -0.413274780713969
decision_type=2 2 2 2 2 2 2 2 2 2 2 2 2 2 2 2 2 2 2 2 2 2 2 2 2 2 2 2 2 2
left_child=2 4 10 6 11 8 16 29 12 13 18 -2 -4 14 -6 -7 -3 -12 -1 -19 24 22 23 -22 -13 -15 27 -27 -11 -8
right_child=1 3 5 -5 9 15 7 -9 -10 28 17 20 -14 25 -16 -17 -18 19 -20 -21 21 -23 -24 -25 -26 26 -28 -29 -30 -31
leaf_value=-0.055217851119715361 0.05350905747796432 0.10264811485405985 -0.02140296068945037 0.27590912413709334 0.1015706610893554 -0.027888326176868379 0.16674224447916886 0.22305512460027363 0.029520873581208414 -0.026157227581337334 -0.081410729302460558 0.026712886370406613 0.005620294118362984 0.13486499624801043 0.032014147542498032 -0.0017893852097759771 0.18971367191958738 -0.04102765771194615 -0.037851519799837016 -0.064856947541352683 -0.032172070116493381 0.039528863466888053 -0.10299292470142246 0.082368922829627989 0.096088117566339837 -0.14973119666489462 0.14347754847544891 0.074389671366060936 0.05676164038138113 0.11802435704799247
leaf_weight=2808 1649 1892 1546 239 303 5432 300 213 1046 63 1202 2180 2132 381 253 1048 77 1241 4144 2489 119 180 100 55 98 24 65 31 1609 411
leaf_count=2808 1649 1892 1546 239 303 5432 300 213 1046 63 1202 2180 2132 381 253 1048 77 1241 4144 2489 119 180 100 55 98 24 65 31 1609 411
internal_value=-0.000105453 0.0744177 -0.0331644 0.134356 0.0480146 -0.0128162 0.122661 0.158053 0.00206865 0.0688821 -0.0523484 0.035016 -0.00573858 0.0929968 0.0699199 -0.0236674 0.106053 -0.0628954 -0.044866 -0.0569288 0.0238538 -0.00546758 -0.0350273 0.00403342 0.0296974 0.118607 0.0669881 -0.0234085 0.0536373 0.13858
internal_weight=33330 10242 23088 3132 7110 11204 2893 924 4724 2729 11884 4381 3678 1057 556 6480 1969 4932 6952 3730 2732 454 274 174 2278 501 120 55 1672 711
internal_count=33330 10242 23088 3132 7110 11204 2893 924 4724 2729 11884 4381 3678 1057 556 6480 1969 4932 6952 3730 2732 454 274 174 2278 501 120 55 1672 711
is_linear=0
shrinkage=0.05


Tree=10
num_leaves=31
num_cat=0
split_feature=4 4 5 5 4 4 2 3 4 2 4 3 5 2 3 2 5 3 5 5 5 3 2 5 5 3 3 3 3 3
split_gain=27181.5 5474.24 4384.66 1617.6 1484.03 1189.98 757.267 459.597 424.979 409.151 404.626 401.703 892.751 310.165 290.37 253.808 228.431 206.681 206.58 181.176 176.317 175.572 169.475 176.232 165.258 157.43 149.797 167.255 146.762 146.318
threshold=6.7851498500000007 10.169172500000002 5.7938688000000012 7.4597438500000015 13.487194500000001 4.5695546000000009 -1.0000000180025095e-35 0.59817537509284302 8.3008115000000018 1.0000000180025095e-35 5.465214500000001 0.90149333598846393 8.3375910000000015 0.25881904510252091 0.84753307444029569 -1.0000000180025095e-35 9.3499700000000008 0.96230016621822489 3.2318096500000002 11.808656000000001 4.6332865000000014 0.98930504265984687 -0.70710678118654735 7.0114400000000012 2.2927364000000003 -0.38168568572378597 0.9821165111257959 0.99551215362393841 0.97505550290239451 0.96683886033945965
decision_type=2 2 2 2 2 2 2 2 2 2 2 2 2 2 2 2 2 2 2 2 2 2 2 2 2 2 2 2 2 2
left_child=2 3 5 6 7 13 -2 15 -5 20 16 -9 -13 24 -8 -3 26 -16 -11 21 -7 -10 -12 -24 -1 -17 28 -28 29 -4
right_child=1 4 10 8 -6 9 14 11 19 18 22 12 -14 -15 17 25 -18 -19 -20 -21 -22 -23 23 -25 -26 -27 27 -29 -30 -31
leaf_value=-0.058574586020688858 0.054162175847539379 0.13070971391740577 -0.0079302285122537144 0.057310493849392491 0.25625035944307567 -0.021933268708513587 0.016790501713965848 0.19857030746907417 0.082764859843339963 -0.059812251672200445 0.045131669300467227 -0.091662862238495846 0.16075147219672406 -0.060703242428171517 -0.060412790937317766 0.10798317582144352 0.067523840816506933 0.01691428327219054 -0.030172215977512587 0.14822187558526087 0.0010583167818097267 0.14776870410212062 0.002634700475714923 0.031427105395895591 -0.039081335196608114 0.049125016415996363 0.072403117168803807 -0.068484057464565221 -0.13951535196531387 0.10899688764992688
leaf_weight=1406 1558 641 2950 1867 267 1910 1593 355 1866 720 660 43 189 4537 237 258 111 136 3203 126 1480 110 1133 1001 4796 203 111 26 21 27
leaf_count=1406 1558 641 2950 1867 267 1910 1593 355 1866 720 660 43 189 4537 237 258 111 136 3203 126 1480 110 1133 1001 4796 203 111 26 21 27
internal_value=0.000352382 0.0722248 -0.0278363 0.0527803 0.146712 -0.0401747 0.0281256 0.129396 0.0746708 -0.0246182 0.00903986 0.165133 0.113968 -0.0507683 0.00749226 0.11036 -0.00296666 -0.0322185 -0.0356121 0.0900903 -0.0118956 0.0863835 0.0229887 0.0161404 -0.0435005 0.0820652 -0.00546249 0.0456654 -0.00779889 -0.00686975
internal_weight=33541 9449 24092 7493 1956 18052 3524 1689 3969 7313 6040 587 232 10739 1966 1102 3246 373 3923 2102 3390 1976 2794 2134 6202 461 3135 137 2998 2977
internal_count=33541 9449 24092 7493 1956 18052 3524 1689 3969 7313 6040 587 232 10739 1966 1102 3246 373 3923 2102 3390 1976 2794 2134 6202 461 3135 137 2998 2977
is_linear=0
shrinkage=0.05


Tree=11
num_leaves=31
num_cat=0
split_feature=0 0 0 0 0 2 0 2 3 0 2 3 3 3 3 3 3 3 5 3 0 3 3 3 3 3 2 3 1 5
split_gain=26924.6 5179.67 3321.8 1334.75 1133.4 700.843 414.085 409.303 388.98 349.63 326.142 254.532 295.372 1361.22 262.079 403.928 385.318 410.618 251.038 241.493 216.565 199.227 182.102 180.083 191.367 179.461 178.766 187.821 177.687 177.204
threshold=6.5494011250000002 9.9274498500000021 4.2986563250000005 13.542323250000001 8.2587936000000024 -0.37940952255126065 5.7668503250000009 -0.78656609248549292 0.59817537509284302 5.5417018000000011 0.25881904510252091 0.98801351631316348 0.93535928755917841 0.95747632178960107 0.29259762607704992 -0.2008886948310977 0.45206801762443477 0.43664718845046319 8.8257625000000015 0.55601228778889811 10.688493000000003 -0.61866567420209784 -0.92913280730858783 -0.26781182513105617 -0.22611359161738934 0.10738035228456499 -1.0000000180025095e-35 -0.38168568572378597 3.2136642500000003 8.2258275000000012
decision_type=2 2 2 2 2 2 2 2 2 2 2 2 2 2 2 2 2 2 2 2 2 2 2 2 2 2 2 2 2 2
left_child=2 4 10 8 7 6 -4 -2 26 -7 28 12 14 -14 15 22 17 -16 -18 -11 -10 -12 -6 -9 29 -23 -3 -28 -1 -25
right_child=1 3 5 -5 11 9 -8 23 20 19 21 -13 13 -15 16 -17 18 -19 -20 -21 -22 25 -24 24 -26 -27 27 -29 -30 -31
leaf_value=-0.04347633223400299 0.064355990439792524 0.12547266062151527 -0.0042003965692136878 0.24628625596081144 0.051681359547100417 -0.027470868774492979 0.030270349371950007 0.045137965692487909 0.12096086944294003 0.0038512649150785161 -0.076147545770885991 0.144526906096273 -0.24518293559551241 0.079182607176873462 0.13355642381407645 0.023642585606314243 0.12863820413568694 0.35223527614559447 0.066424679210073098 -0.025074211265895992 0.18405819077925634 -0.036466501262193127 0.094628903968851638 0.012914078826865844 0.024790700405521487 -0.060199274372039029 0.10902179543363769 0.041945728977642413 -0.014312093106621121 -0.16408738151479227
leaf_weight=6007 1138 660 2952 268 352 4973 1236 1367 222 2069 1160 135 40 169 92 400 247 28 472 1108 351 1193 826 31 2599 2397 287 164 572 26
leaf_count=6007 1138 660 2952 268 352 4973 1236 1367 222 2069 1160 135 40 169 92 400 247 28 472 1108 351 1193 826 31 2599 2397 287 164 572 26
internal_value=0.000334762 0.0696903 -0.0286008 0.142645 0.0517142 -0.010651 0.00597292 0.0378814 0.126151 -0.0191934 -0.0481492 0.0775711 0.074129 0.0171031 0.0790601 0.0670547 0.10164 0.184581 0.0877971 -0.00623669 0.159612 -0.0581333 0.0817957 0.0303924 0.0228031 -0.0523126 0.108893 0.0846305 -0.0409407 -0.0678234
internal_weight=33541 9874 23667 1952 7922 12338 4188 5161 1684 8150 11329 2761 2626 209 2417 1578 839 120 719 3177 573 4750 1178 4023 2656 3590 1111 451 6579 57
internal_count=33541 9874 23667 1952 7922 12338 4188 5161 1684 8150 11329 2761 2626 209 2417 1578 839 120 719 3177 573 4750 1178 4023 2656 3590 1111 451 6579 57
is_linear=0
shrinkage=0.05


Tree=12
num_leaves=31
num_cat=0
split_feature=0 0 0 4 0 0 3 1 0 3 3 3 3 3 3 4 3 0 0 3 3 5 3 3 3 3 3 1 3 3
split_gain=24303.4 4604.76 3066.18 1245.86 990.26 661.181 437.485 269.179 248.451 239.24 421.363 254.343 229.715 266.573 1228.51 306.723 214.498 197.4 175.887 168.641 206.531 161.123 159.49 941.103 275.948 195.604 234.508 450.172 177.89 160.246
threshold=6.5828726500000014 9.9274498500000021 4.2986563250000005 13.487194500000001 8.2587936000000024 5.7668503250000009 0.59817537509284302 3.8030573000000008 11.638685250000002 -0.47494667389482609 0.0043034984443446715 -0.15855791680139872 0.98801351631316348 0.93535928755917841 0.95747632178960107 9.794592500000002 0.29259762607704992 5.049102275000001 2.6631819500000007 0.064507852084056461 0.15855791680139919 3.0059699000000006 0.91585580712236381 0.96683886033945965 0.89391031859722891 0.93535928755917841 0.95747632178960107 1.8085413000000001 0.90880922144842624 0.6254047815183511
decision_type=2 2 2 2 2 2 2 2 2 2 2 2 2 2 2 2 2 2 2 2 2 2 2 2 2 2 2 2 2 2
left_child=2 4 9 6 22 7 -3 17 -8 -1 11 18 13 15 -15 -6 -17 -4 -11 -7 -21 -12 24 25 29 -24 27 -27 -26 -2
right_child=1 3 5 -5 12 19 8 -9 -10 10 21 -13 -14 14 -16 16 -18 -19 -20 20 -22 -23 23 -25 28 26 -28 -29 -30 -31
leaf_value=-0.057138581130710013 0.033280690669663701 0.10139658794549732 -0.027443678474997752 0.23786823384521544 0.066402070217579753 0.018837675724517972 0.12787608455460958 0.010998746157149035 0.19404703909881946 -0.066693541710501764 -0.055543857109982234 0.0059164316457971516 0.13730056163337498 -0.2329237886890769 0.075223476691006208 0.084640557147315026 0.15431201468406169 -0.011677290562562967 -0.020017007490090229 -0.063300778175919101 0.0019498175797306656 -0.039672752027814333 0.0027082799270636208 0.063409760082791131 0.22430169943607217 -0.26568932780487969 -0.019684240636477054 -0.049327405076473957 0.040749971670183266 0.056679115401350615
leaf_weight=3274 3488 1106 4234 258 1951 1797 349 765 239 295 2894 653 135 40 169 286 180 3738 639 130 1806 3574 66 340 33 44 57 53 22 926
leaf_count=3274 3488 1106 4234 258 1951 1797 349 765 239 295 2894 653 135 40 169 286 180 3738 639 130 1806 3574 66 340 33 44 57 53 22 926
internal_value=0.000318024 0.0668409 -0.0269128 0.135513 0.0496332 -0.00980663 0.119924 -0.0173323 0.154772 -0.0457417 -0.0411094 -0.0180227 0.0736926 0.0704226 0.0162479 0.0751071 0.111552 -0.020051 -0.0347596 0.00780701 -0.00243168 -0.046774 0.0364243 0.0112703 0.0395763 -0.0693088 -0.100173 -0.147471 0.150881 0.0381894
internal_weight=33541 9742 23799 1952 7790 12470 1694 8737 588 11329 8055 1587 2761 2626 209 2417 466 7972 934 3733 1936 6468 5029 560 4469 220 154 97 55 4414
internal_count=33541 9742 23799 1952 7790 12470 1694 8737 588 11329 8055 1587 2761 2626 209 2417 466 7972 934 3733 1936 6468 5029 560 4469 220 154 97 55 4414
is_linear=0
shrinkage=0.05


Tree=13
num_leaves=31
num_cat=0
split_feature=4 5 5 5 4 4 2 4 3 2 4 2 3 5 2 4 2 3 5 5 5 3 3 3 5 3 3 5 3 3
split_gain=20150.2 4072.02 3248.48 1109.07 1011.89 899.818 615.445 466.241 413.828 357.422 290.364 255.781 242.303 229.73 211.309 202.676 192.607 195.904 188.364 167.325 162.008 160.451 157.406 240.02 149.358 142.027 402.779 202.07 155.138 181.587
threshold=6.7851498500000007 10.622254500000002 5.7938688000000012 7.0529203500000017 13.487194500000001 4.6535486500000003 -1.0000000180025095e-35 8.9640090000000026 0.59817537509284302 1.0000000180025095e-35 5.465214500000001 0.60355339059327384 0.090250774277322809 2.2927364000000003 -0.78656609248549292 9.2896160000000005 -1.0000000180025095e-35 -0.98801351631316325 9.7012050000000034 13.509008500000002 5.4632740000000011 0.15855791680139919 0.27609441636666071 0.49750868180287655 3.2318096500000002 0.96683886033945965 0.94697898371965716 8.0107480000000013 0.81900730237416519 -0.2008886948310977
decision_type=2 2 2 2 2 2 2 2 2 2 2 2 2 2 2 2 2 2 2 2 2 2 2 2 2 2 2 2 2 2
left_child=2 3 5 6 8 11 -2 14 -3 -7 18 13 -8 -1 22 21 17 -9 -4 -10 -17 -14 -5 -24 -11 26 28 -28 29 -16
right_child=1 4 10 7 -6 9 12 16 19 24 -12 -13 15 -15 25 20 -18 -19 -20 -21 -22 -23 23 -25 -26 -27 27 -29 -30 -31
leaf_value=-0.054221593536418582 0.049247717279457065 0.097580899041156938 -0.0042126006975012377 0.056958254603914751 0.22789158008536514 -0.0080218169864795085 0.027050155687148976 0.21282093158444845 0.14061964559454521 -0.052438593330302069 0.019588794993596132 -0.054774990027820505 -0.087604758041600395 -0.033687854285023411 0.055674996479308653 -0.0018335707093539992 0.065766163527676696 0.09530103408479311 0.07757244019562172 0.21531162569599768 0.12214743543644341 -0.011385126682573759 0.22334141229328358 0.08678321348126268 -0.026217965520253142 0.080719795038742867 -0.21926061432808638 -0.021999113561233154 0.086686106359280604 0.023974753777317347
leaf_weight=1761 1442 898 3174 398 245 3168 755 37 387 661 2794 3403 75 6014 863 57 748 853 72 93 49 870 38 210 3045 237 20 37 189 948
leaf_count=1761 1442 898 3174 398 245 3168 755 37 387 661 2794 3403 75 6014 863 57 748 853 72 93 49 870 38 210 3045 237 20 37 189 948
internal_value=0.000302123 0.0621843 -0.0239684 0.0472367 0.134261 -0.0345885 0.0248902 0.063091 0.117614 -0.0203533 0.00777244 -0.0433425 0.00544195 -0.0383386 0.0511808 -0.0100806 0.0844684 0.100187 -0.00239851 0.155091 0.0554784 -0.0174343 0.0764409 0.107707 -0.0308947 0.0440674 0.0398445 -0.0912137 0.0435796 0.0390809
internal_weight=33541 9449 24092 7826 1623 18052 3248 4578 1378 6874 6040 11178 1806 7775 2940 1051 1638 890 3246 480 106 945 646 248 3706 2294 2057 57 2000 1811
internal_count=33541 9449 24092 7826 1623 18052 3248 4578 1378 6874 6040 11178 1806 7775 2940 1051 1638 890 3246 480 106 945 646 248 3706 2294 2057 57 2000 1811
is_linear=0
shrinkage=0.05


Tree=14
num_leaves=31
num_cat=0
split_feature=0 0 0 4 0 2 0 2 2 0 2 0 1 1 2 4 0 0 0 5 4 2 0 4 2 0 0 0 5 5
split_gain=19902 3868.99 2402.26 1015.18 861.678 584.199 299.022 296.272 273.099 268.827 268.719 234.565 163.412 150.11 132.436 129.012 103.942 103.25 101.507 99.5638 97.009 95.5705 95.2798 93.4525 91.7133 94.615 89.8231 85.0673 99.408 109.113
threshold=6.5177330000000007 9.9274498500000021 4.2986563250000005 13.487194500000001 7.9762280000000016 -0.37940952255126065 5.7668503250000009 -0.78656609248549292 0.25881904510252091 11.359224000000003 0.12940952255126045 6.0360527500000005 3.8030573000000008 3.2136642500000003 0.37940952255126054 6.8655060000000008 3.4697159750000002 5.0271385000000004 8.6585499250000009 4.6332865000000014 8.421127000000002 0.25881904510252091 2.8801143500000004 14.619367750000002 -0.9159756150367534 1.9979454825000003 2.1901665500000003 13.542323250000001 12.956804000000002 13.509008500000002
decision_type=2 2 2 2 2 2 2 2 2 2 2 2 2 2 2 2 2 2 2 2 2 2 2 2 2 2 2 2 2 2
left_child=2 4 8 9 7 6 15 19 13 -3 20 12 17 22 -13 -4 -10 -7 -12 -2 -6 -19 24 -5 26 -26 -1 28 -11 -30
right_child=1 3 5 23 10 11 -8 -9 16 27 18 14 -14 -15 -16 -17 -18 21 -20 -21 -22 -23 -24 -25 25 -27 -28 -29 29 -31
leaf_value=-0.0039809955096101034 0.16423472821712495 0.092426011691752838 -0.0049682160399364189 0.1838650481939316 0.061002033534601957 -0.030692885394709508 0.026928737968279728 0.023268331932014861 -0.057399167561485102 0.14393736572358115 0.031396788136816546 0.021070124257870006 0.0060122206205771508 -0.010335892636061914 -0.010675135104280331 0.045975849164578204 -0.042563780109196744 -0.0062774321984485522 0.058451526673889025 0.051566462055919554 0.083469080141864299 -0.023788969570101147 -0.032479278232406324 0.24407863106046404 -0.071219849678157351 -0.044066626428082498 -0.045324466307797739 0.19461523403341954 0.065228221463322397 0.13352139515065872
leaf_weight=228 20 1029 2822 125 786 2730 1194 3611 2555 377 632 529 510 572 867 130 2195 1199 768 1001 1236 2225 3880 133 446 1143 310 52 107 129
leaf_count=228 20 1029 2822 125 786 2730 1194 3611 2555 377 632 529 510 572 867 130 2195 1199 768 1001 1236 2225 3880 133 446 1143 310 52 107 129
internal_value=0.000287017 0.0593557 -0.0248263 0.12251 0.0440494 -0.00943652 0.00581512 0.0299924 -0.0414074 0.108438 0.0630768 -0.0172818 -0.0211858 -0.0348111 0.00135441 -0.00272474 -0.0505437 -0.0234398 0.0462382 0.0537735 0.0747356 -0.0176569 -0.0371417 0.214905 -0.0456467 -0.051688 -0.0278034 0.133215 0.128007 0.102558
internal_weight=33541 10006 23535 1952 8054 12206 4146 4632 11329 1694 3422 8060 6664 6579 1396 2952 4750 6154 1400 1021 2022 3424 6007 258 2127 1589 538 665 613 236
internal_count=33541 10006 23535 1952 8054 12206 4146 4632 11329 1694 3422 8060 6664 6579 1396 2952 4750 6154 1400 1021 2022 3424 6007 258 2127 1589 538 665 613 236
is_linear=0
shrinkage=0.05


Tree=15
num_leaves=31
num_cat=0
split_feature=4 5 4 4 4 2 4 3 2 5 3 3 3 3 5 3 5 3 5 3 5 2 3 2 2 5 3 3 3 3
split_gain=16632.3 3589.81 2614.99 902.779 691.043 589.3 565.748 402.211 324.674 319.879 310.913 357.244 473.133 307.832 436.686 296.303 587.485 481.006 271.554 257.352 250.571 212.545 208.118 199.677 166.719 164.022 157.037 148.839 209.762 147.222
threshold=7.4398890000000009 5.4632740000000011 10.169172500000002 13.487194500000001 5.1191890000000013 0.37940952255126054 5.7167873500000006 0.59817537509284302 -0.25881904510252113 8.5032712500000027 0.29259762607704992 0.49750868180287655 0.42109697129093554 0.064507852084056461 7.3654642500000014 0.90149333598846393 8.3375910000000015 0.94697898371965716 8.1727377500000014 0.84753307444029569 9.3499700000000008 -0.70710678118654735 0.15005400879207817 -1.0000000180025095e-35 -0.70710678118654735 3.3498043500000003 -0.26781182513105617 0.95236875646279973 0.92913280730858816 0.89391031859722891
decision_type=2 2 2 2 2 2 2 2 2 2 2 2 2 2 2 2 2 2 2 2 2 2 2 2 2 2 2 2 2 2
left_child=1 4 5 7 21 9 20 23 -6 -2 26 12 -12 24 -15 -9 17 -17 19 -7 -3 -1 -16 -4 -8 -23 -11 28 29 -21
right_child=2 6 3 -5 8 18 13 15 -10 10 11 -13 -14 14 22 16 -18 -19 -20 27 -22 25 -24 -25 -26 -27 -28 -29 -30 -31
leaf_value=-0.027174331868771658 0.047003334529610315 -0.0076446803111507007 0.10293453629475934 0.20457574205236539 0.0023880789279597105 0.019525153923978106 0.057413199836898625 0.16386871424008076 -0.025346817625165816 0.072508536110048427 0.12267478503920931 0.091519828314783988 0.40362279360944575 -0.0095281192639217124 -0.063889118213187532 0.10064210705459119 0.13165469082515138 -0.22303138449788096 0.046087785573582306 -0.099351003290490902 0.060537818243070474 -0.049368889320786029 0.042383865336339477 0.059729617799321469 0.025139709905861174 -0.036083255096905319 0.027171207841389513 -0.002377245237209624 -0.23095956586656119 0.059889155910128646
leaf_weight=3304 1938 4406 657 252 1637 767 531 370 2969 647 47 547 22 1471 49 22 183 24 823 47 139 4138 770 451 1624 5297 271 93 21 21
leaf_count=3304 1938 4406 657 252 1637 767 531 370 2969 647 47 547 22 1471 49 22 183 24 823 47 139 4138 770 451 1624 5297 271 93 21 21
internal_value=-0.000382037 -0.0187969 0.0669448 0.116235 -0.0320871 0.0485314 0.0068448 0.103194 -0.0154897 0.0605057 0.077564 0.105043 0.212252 0.0195281 0.00676382 0.136203 0.091503 -0.068231 0.0250694 0.00684166 -0.00555945 -0.0380882 0.0360257 0.0853484 0.033092 -0.0419101 0.0591246 -0.0466102 -0.0928312 -0.0501739
internal_weight=33538 26335 7203 1959 17345 5244 8990 1707 4606 3472 1534 616 69 4445 2290 599 229 46 1772 949 4545 12739 819 1108 2155 9435 918 182 89 68
internal_count=33538 26335 7203 1959 17345 5244 8990 1707 4606 3472 1534 616 69 4445 2290 599 229 46 1772 949 4545 12739 819 1108 2155 9435 918 182 89 68
is_linear=0
shrinkage=0.05


Tree=16
num_leaves=31
num_cat=0
split_feature=0 0 0 0 3 2 0 2 3 3 3 0 3 3 2 3 3 3 5 3 2 3 3 2 0 0 0 2 3 5
split_gain=16392.9 3228.16 1970.33 1128.6 700.429 488.733 396.946 301.421 286.713 253.716 378.678 248.062 240.022 483.79 233.969 217.367 187.024 291.566 178.32 218.605 174.035 167.874 259.396 254.278 429.806 162.761 159.487 147.563 141.884 139.567
threshold=6.5494011250000002 10.688493000000003 4.9852508250000005 8.4586504250000019 0.59817537509284302 0.12940952255126045 4.1701743500000008 0.12940952255126045 0.97873101657557349 -0.47494667389482609 0.047320950113892181 15.074854250000003 -0.413274780713969 -0.081675638985454949 -1.0000000180025095e-35 0.030120025924939415 -0.9523687564627995 -0.50495637864893983 6.5629120000000016 0.74409704927257569 0.37940952255126054 -0.15855791680139872 -0.064507852084056697 -0.70710678118654735 2.1901665500000003 2.8103698750000006 5.7668503250000009 -0.70710678118654735 -0.10738035228456493 6.9734677500000002
decision_type=2 2 2 2 2 2 2 2 2 2 2 2 2 2 2 2 2 2 2 2 2 2 2 2 2 2 2 2 2 2
left_child=2 3 6 7 12 26 9 -2 14 20 21 -6 -3 28 -5 -7 -16 -18 -17 -20 -1 -11 -23 24 -24 -12 -4 -8 -14 -9
right_child=1 4 5 8 11 15 27 29 -10 10 25 -13 13 -15 16 18 17 -19 19 -21 -22 22 23 -25 -26 -27 -28 -29 -30 -31
leaf_value=-0.041262141663506585 0.0400442034203893 0.11996988066456703 0.0004552769508374846 0.076991893113323023 0.15420346910042038 -0.0022993151535486709 -0.0056618855695270082 0.0012883855139632476 0.13021913328322404 -0.029452599331150593 -0.052251386560688756 0.24180108287504742 0.065504465312696991 0.11358577083487482 0.001878483948686265 -0.032012148282182747 0.10035049982466099 0.041455826188099482 -0.026589925128168296 0.052287924450680312 -0.065682993641966586 0.03730445011647205 0.19634197936957759 -0.038202306364710156 -0.0063620784334720128 -0.034287607357708687 0.020362244762376094 -0.02626625151009622 -0.048067274113947699 0.025578877914862186
leaf_weight=1849 3002 423 2253 1513 461 1788 1122 935 171 866 1852 98 40 187 187 1851 278 861 210 151 1205 323 33 434 126 3951 1818 3853 88 1609
leaf_count=1849 3002 423 2253 1513 461 1788 1122 935 171 866 1852 98 40 187 187 1851 278 861 210 151 1205 323 33 434 126 3951 1818 3853 88 1609
internal_value=-0.000362936 0.0538348 -0.0229093 0.0426919 0.127342 -0.00285092 -0.0332776 0.0293137 0.0673417 -0.0387292 -0.0338298 0.16956 0.0953632 0.06232 0.0635544 -0.0152635 0.0482219 0.0558305 -0.0257427 0.0064033 -0.0508977 -0.0136693 0.0012524 -0.0183847 0.0357086 -0.0400207 0.0093452 -0.0216194 -0.0125761 0.0166514
internal_weight=33538 9853 23685 8556 1297 8071 15614 5546 3010 10639 7585 559 738 315 2839 4000 1326 1139 2212 361 3054 1782 916 593 159 5803 4071 4975 128 2544
internal_count=33538 9853 23685 8556 1297 8071 15614 5546 3010 10639 7585 559 738 315 2839 4000 1326 1139 2212 361 3054 1782 916 593 159 5803 4071 4975 128 2544
is_linear=0
shrinkage=0.05


Tree=17
num_leaves=31
num_cat=0
split_feature=0 0 0 0 2 2 0 0 0 3 3 3 3 3 3 3 5 3 3 3 2 0 3 3 3 3 3 3 3 2
split_gain=14794.6 2918 1778.22 954.639 450.919 441.081 358.244 323.676 281.574 228.979 344.366 237.376 227.743 213.105 196.174 193.269 160.934 197.291 158.263 488.172 157.067 148.589 226.722 197.823 171.148 147.41 1087.83 147.066 292.009 149.511
threshold=6.5494011250000002 9.1699711250000018 4.9852508250000005 13.542323250000001 -1.0000000180025095e-35 0.12940952255126045 4.1701743500000008 11.097693750000003 8.4586504250000019 -0.47494667389482609 0.11593352601052392 0.22611359161738889 0.29259762607704992 0.75548631800528565 0.030120025924939415 -0.81900730237416497 6.5629120000000016 0.74409704927257569 -0.413274780713969 -0.081675638985454949 0.37940952255126054 7.2796118250000008 -0.9523687564627995 -0.2008886948310977 0.055916472294523401 0.96683886033945965 0.93535928755917841 0.90880922144842624 0.85654306401281499 -0.60355339059327362
decision_type=2 2 2 2 2 2 2 2 2 2 2 2 2 2 2 2 2 2 2 2 2 2 2 2 2 2 2 2 2 2
left_child=2 4 6 7 8 -4 9 15 25 20 -11 -12 -10 18 -7 -3 -16 -18 -9 -20 -1 24 -23 -24 -6 26 27 28 -2 -30
right_child=1 3 5 -5 21 14 -8 13 12 10 11 -13 -14 -15 16 -17 17 -19 19 -21 -22 22 23 -25 -26 -27 -28 -29 29 -31
leaf_value=-0.039199034695683997 0.040033495513846114 0.041754456169631159 0.0088779378496438577 0.18526634788361523 0.02717300660442561 -0.0021843494080169587 -0.020538427671395951 0.12628088700204937 0.052038034609467348 -0.015160895825997762 -0.070351505678728721 -0.035364970348429371 0.11287021307655859 0.15563972891125846 -0.030411541010742438 0.080823487087412868 -0.025260428926419644 0.049673528113211234 -0.016604728380647991 0.11367502710142458 -0.062398843705147915 -0.019761338859866813 0.059108338636190944 0.024642615693476547 -0.0070757285100156832 0.087609041629145706 -0.20165139064192772 -0.037294055470104878 0.19647194445133209 0.049929334649017887
leaf_weight=1849 2187 397 4071 253 686 1788 4975 245 379 2143 538 4904 259 199 1851 1562 210 151 104 233 1205 212 585 1444 779 150 47 58 46 28
leaf_count=1849 2187 397 4071 253 686 1788 4975 245 379 2143 538 4904 259 199 1851 1562 210 151 104 233 1205 212 585 1444 779 150 47 58 46 28
internal_value=-0.000344789 0.0511431 -0.0217638 0.0923374 0.0331701 -0.00270837 -0.0316137 0.0837567 0.0470658 -0.0367928 -0.0321383 -0.0388238 0.0767332 0.110974 -0.0145003 0.072906 -0.0244556 0.00608314 0.0957014 0.07347 -0.0483529 0.0213442 0.0294391 0.0345798 0.00896156 0.0395428 0.0364955 0.0413221 0.0433388 0.141023
internal_weight=33538 9853 23685 2993 6860 8071 15614 2740 3154 10639 7585 5442 638 781 4000 1959 2212 361 582 337 3054 3706 2241 2029 1465 2516 2366 2319 2261 74
internal_count=33538 9853 23685 2993 6860 8071 15614 2740 3154 10639 7585 5442 638 781 4000 1959 2212 361 582 337 3054 3706 2241 2029 1465 2516 2366 2319 2261 74
is_linear=0
shrinkage=0.05


Tree=18
num_leaves=31
num_cat=0
split_feature=4 5 4 4 4 2 4 3 2 3 5 3 5 3 5 3 3 3 5 5 3 3 2 2 3 3 3 3 3 3
split_gain=12381.6 2643.35 1972.93 674.885 517.807 464.349 419.872 305.404 279.057 256.131 345.901 255.136 504.594 435.251 217.463 261.22 322.344 426.616 202.529 196.619 214.716 189.161 184.826 162.955 162.883 141.653 136.538 178.146 160.21 180.526
threshold=7.4398890000000009 5.4632740000000011 10.169172500000002 13.487194500000001 5.205154900000001 0.37940952255126054 5.7167873500000006 0.59817537509284302 -0.25881904510252113 0.064507852084056461 7.3654642500000014 0.90149333598846393 8.3375910000000015 0.94697898371965716 8.5032712500000027 0.29259762607704992 0.49750868180287655 0.42109697129093554 9.3499700000000008 7.7779347500000009 0.84753307444029569 0.12447811117596704 1.0000000180025095e-35 1.0000000180025095e-35 1.0000000180025095e-35 -0.26781182513105617 0.9821165111257959 0.99551215362393841 0.97505550290239451 0.97109105924028427
decision_type=2 2 2 2 2 2 2 2 2 2 2 2 2 2 2 2 2 2 2 2 2 2 2 2 2 2 2 2 2 2
left_child=1 4 5 7 22 14 18 23 -6 24 -11 -9 13 -13 -2 25 17 -17 26 20 -7 -12 -1 -4 -8 -16 28 -28 29 -3
right_child=2 6 3 -5 8 19 9 11 -10 10 21 12 -14 -15 15 16 -18 -19 -20 -21 -22 -23 -24 -25 -26 -27 27 -29 -30 -31
leaf_value=-0.026641488081804155 0.041264748979244592 -0.0085723897735157425 0.088645855723792633 0.1769569211410329 0.004795442453227293 0.015883556440608806 0.025898234418947431 0.14373607993054729 -0.02195603798156712 -0.0094292050885267445 -0.088053424450481546 0.089189058948646899 0.11379678672169402 -0.2187053367495537 0.06227235018973451 0.10842784646343678 0.078804391041786243 0.37520767558704726 0.054525297904460826 0.036381761778889903 -0.047800877500403988 0.03595914732748548 -0.038527901798626606 0.049066676563925021 0.08835639021952045 0.019212937559069023 0.067671196493029134 -0.041335817124202569 -0.12571244486447039 0.12895216606557369
leaf_weight=6577 1938 4172 691 252 1509 653 2045 370 2754 1471 32 22 183 24 647 47 547 22 139 953 166 787 6505 417 110 271 128 53 29 24
leaf_count=6577 1938 4172 691 252 1509 653 2045 370 2754 1471 32 22 183 24 647 47 547 22 139 953 166 787 6505 417 110 271 128 53 29 24
internal_value=-0.000327549 -0.016216 0.0577623 0.100576 -0.0276204 0.0417684 0.00578734 0.0893002 -0.0124867 0.0167138 0.00507065 0.118064 0.0765853 -0.0714515 0.0523977 0.0664626 0.0916505 0.193488 -0.00489872 0.0209418 0.0029756 0.0311137 -0.032552 0.0737501 0.0290864 0.0495609 -0.00677342 0.035752 -0.00859522 -0.00778579
internal_weight=33538 26335 7203 1959 17345 5244 8990 1707 4263 4445 2290 599 229 46 3472 1534 616 69 4545 1772 819 819 13082 1108 2155 918 4406 181 4225 4196
internal_count=33538 26335 7203 1959 17345 5244 8990 1707 4263 4445 2290 599 229 46 3472 1534 616 69 4545 1772 819 819 13082 1108 2155 918 4406 181 4225 4196
is_linear=0
shrinkage=0.05


Tree=19
num_leaves=31
num_cat=0
split_feature=0 0 0 0 3 0 3 3 3 3 3 1 3 3 3 4 0 3 3 3 3 0 4 5 5 3 3 3 4 3
split_gain=12086.4 2407.49 1478.12 831.563 530.565 318.932 251.638 212.546 320.574 207.785 1221.47 282.252 279.363 280.401 243.732 236.73 202.069 195.394 300.874 194.142 395.99 190.686 171.488 162.227 158.131 166.337 155.94 860.144 242.742 154.709
threshold=6.5494011250000002 10.688493000000003 4.2101276000000007 8.4586504250000019 0.59817537509284302 5.7668503250000009 0.97873101657557349 -0.47494667389482609 0.047320950113892181 0.92263100495486416 0.95747632178960107 1.0808286 0.6254047815183511 -0.2008886948310977 -0.81900730237416497 7.3579545000000008 15.074854250000003 -0.26781182513105617 -0.22611359161738934 -0.413274780713969 -0.081675638985454949 7.1954337250000009 8.9640090000000026 2.4966441500000003 3.0059699000000006 0.27609441636666071 0.93535928755917841 0.95747632178960107 9.794592500000002 -0.15855791680139872
decision_type=2 2 2 2 2 2 2 2 2 2 2 2 2 2 2 2 2 2 2 2 2 2 2 2 2 2 2 2 2 2
left_child=2 3 7 9 19 23 26 -1 29 12 11 -11 13 14 22 17 -6 -16 -19 -3 -21 -14 -2 -4 25 -10 28 -28 -5 -9
right_child=1 4 5 6 16 -7 -8 8 24 10 -12 -13 21 -15 15 -17 -18 18 -20 20 -22 -23 -24 -25 -26 -27 27 -29 -30 -31
leaf_value=-0.044194778113964751 0.021411447564605626 0.10400387297734513 0.035639201176153233 0.047373502295262458 0.13258979370567034 0.0045724002315930623 0.11666822245437108 -0.025360799690358222 -0.072421475349515041 -0.24132872010980333 0.03905284888126672 -0.085674064843792863 0.027115439571911516 0.0078783269965785208 0.040613870676779365 0.07837475195247072 0.21165071087224141 -0.14182195749722029 0.076473672108517757 -0.015604102087672801 0.098536926149988283 0.068605607606030919 -0.075543153410156577 -0.013947731372433153 -0.026808422835698488 -0.038005795013577807 -0.22584449462592604 0.054470198565512586 0.080243868807869434 0.0037881374504712332
leaf_weight=3133 915 423 168 1802 461 3560 171 888 413 42 410 95 496 1849 540 459 98 38 27 128 187 627 48 9060 3187 2342 32 189 816 934
leaf_count=3133 915 423 168 1802 461 3560 171 888 413 42 410 95 496 1849 540 459 98 38 27 128 187 627 48 9060 3187 2342 32 189 816 934
internal_value=-0.000311172 0.0462263 -0.0196708 0.0366035 0.109706 -0.00814055 0.0577622 -0.033202 -0.0287661 0.02512 -0.00413743 -0.133393 0.0283214 0.0219591 0.0348034 0.051298 0.14645 0.0307554 -0.0511453 0.0818736 0.0521558 0.0502805 0.0165788 -0.013045 -0.0343921 -0.043165 0.0542141 0.0138816 0.0576188 -0.0104184
internal_weight=33538 9853 23685 8556 1297 12788 3010 10897 7764 5546 547 137 4999 3876 2027 1064 559 605 65 738 315 1123 963 9228 5942 2755 2839 221 2618 1822
internal_count=33538 9853 23685 8556 1297 12788 3010 10897 7764 5546 547 137 4999 3876 2027 1064 559 605 65 738 315 1123 963 9228 5942 2755 2839 221 2618 1822
is_linear=0
shrinkage=0.05


Tree=20
num_leaves=31
num_cat=0
split_feature=0 0 0 0 2 2 0 3 4 5 3 3 3 3 2 3 2 3 3 3 4 3 3 3 0 3 3 3 3 3
split_gain=10980.1 2239.2 1380.85 570.829 501.161 374.619 309.638 271.885 229.372 225.639 246.292 296.442 295.952 194.593 189.795 177.138 174.024 191.82 530.169 152.188 144.766 133.966 405.954 291.014 132.558 130.031 489.505 261.695 384.185 739.661
threshold=6.5494011250000002 10.044610750000002 4.9659193250000007 13.542323250000001 -1.0000000180025095e-35 -0.37940952255126065 3.4455587500000004 0.75548631800528565 7.9367430500000014 7.0529203500000017 -0.9523687564627995 -0.2008886948310977 0.6583954877256819 -0.7775899462189082 -0.70710678118654735 -0.60505046667002438 0.91597561503675362 0.92913280730858816 0.96683886033945965 -0.98801351631316325 7.9842501500000012 -0.3171883513140959 -0.26781182513105617 0.047320950113892181 8.7331585500000006 0.18399664778440331 -0.2008886948310977 0.88606241628642846 0.95747632178960107 0.94697898371965716
decision_type=2 2 2 2 2 2 2 2 2 2 2 2 2 2 2 2 2 2 2 2 2 2 2 2 2 2 2 2 2 2
left_child=2 4 6 7 8 13 21 -3 -2 -6 -11 20 -13 -4 -8 -15 17 -14 -19 -7 -12 -1 -23 -24 -20 26 -10 -27 29 -29
right_child=1 3 5 -5 9 19 14 -9 25 10 11 12 16 15 -16 -17 -18 18 24 -21 -22 22 23 -25 -26 27 -28 28 -30 -31
leaf_value=-0.046614558824976504 0.034412110218351791 0.070767389432852518 -0.014744920919489174 0.16061116154269259 0.0031512328103651109 0.032279700664742693 -0.0079729858814900478 0.11925013631221036 0.065715945606452539 -0.016100107978522179 0.037984547910268326 0.0025894970629075226 0.05647322826326856 0.072969014160988901 -0.025266703866510056 0.015972679223941244 0.093401926716828676 -0.085298955829284331 0.016759677730383334 -0.011018899278357247 0.07896548357954665 0.18842133446818307 -0.0049595328439894087 -0.038197660342702583 0.096870832291714268 0.092355134301592895 -0.022135135193821043 0.037248993971281584 0.081336425428620143 -0.24942945798238117
leaf_weight=1967 1984 1220 502 272 1246 211 2048 379 700 280 458 957 391 146 7041 2056 143 109 123 5314 407 21 811 3503 89 581 205 90 178 30
leaf_count=1967 1984 1220 502 272 1246 211 2048 379 700 280 458 957 391 146 7041 2056 143 109 123 5314 407 21 811 3503 89 581 205 90 178 30
internal_value=5.2902e-05 0.0444235 -0.0184355 0.0936495 0.0328689 -0.00190206 -0.0272753 0.0822589 0.0461101 0.0209982 0.0285184 0.0331852 0.0216893 0.0133474 -0.02137 0.0197517 0.0430677 0.0329584 0.00431576 -0.00936532 0.0572669 -0.0357922 -0.0308816 -0.0319491 0.0503912 0.0591195 0.045816 0.0728165 0.0347229 -0.0344206
internal_weight=33462 9842 23620 1871 7971 8229 15391 1599 3768 4203 2957 2677 1812 2704 9089 2202 855 712 321 5525 865 6302 4335 4314 212 1784 905 879 298 120
internal_count=33462 9842 23620 1871 7971 8229 15391 1599 3768 4203 2957 2677 1812 2704 9089 2202 855 712 321 5525 865 6302 4335 4314 212 1784 905 879 298 120
is_linear=0
shrinkage=0.05


Tree=21
num_leaves=31
num_cat=0
split_feature=0 0 0 0 2 2 3 0 3 3 4 3 3 3 2 0 3 3 3 3 3 3 1 3 1 3 3 3 3 3
split_gain=9922.06 2180.61 1069.72 515.174 509.867 339.24 245.376 242.456 269.1 301.122 235.831 204.682 346.715 247.179 199.295 182.893 148.603 146.831 576.471 286.783 145.791 142.962 139.231 138.16 271.252 136.448 136.006 312.423 127.263 435.241
threshold=6.3650233000000016 10.044610750000002 4.4015234000000012 13.542323250000001 -1.0000000180025095e-35 -0.37940952255126065 0.75548631800528565 7.232984000000001 -0.9523687564627995 -0.49002412863433376 7.9367430500000014 0.96683886033945965 0.93535928755917841 0.74409704927257569 0.78656609248549325 3.1013047400000002 -0.93535928755917819 0.96683886033945965 0.90880922144842624 0.85654306401281499 -0.99628894895067444 0.95236875646279973 4.6742634000000001 -0.78829775591774587 5.0310439000000011 -0.81900730237416497 -0.3171883513140959 0.047320950113892181 0.18399664778440331 -0.2008886948310977
decision_type=2 2 2 2 2 2 2 2 2 2 2 2 2 2 2 2 2 2 2 2 2 2 2 2 2 2 2 2 2 2
left_child=2 4 14 6 10 16 -3 -6 -9 25 17 12 13 -11 15 26 -4 18 19 20 -2 -14 -22 24 -7 -10 -1 -28 29 -12
right_child=1 3 5 -5 7 23 -8 8 9 11 28 -13 21 -15 -16 -17 -18 -19 -20 -21 22 -23 -24 -25 -26 -27 27 -29 -30 -31
leaf_value=-0.048425469113087233 0.13425413981418718 0.067229020223727634 -0.024015432101591957 0.15258060393706033 0.003930936177437336 -0.0030591857089649586 0.1132876301039315 -0.01949163015952014 0.031852526162963427 0.014885130925278794 0.061296017406237996 0.067087350740502052 -0.15040548694216543 0.064321536472061194 -0.041311075926513841 -0.019834577518958826 0.0087607374450299324 0.082089057356557429 -0.12299418884909666 0.15004932462584741 0.025992335614465095 -0.027793384718575648 0.10332149685670933 -0.016810182409549051 0.13067593543957443 0.087330214204414544 0.0057128222359513698 -0.036722279331408245 0.069358570090129815 -0.021202464806802067
leaf_weight=1146 33 1220 387 272 1820 1364 379 277 171 1412 714 244 36 308 2531 5662 3250 136 61 51 1950 70 60 5858 39 315 550 2052 888 206
leaf_count=1146 33 1220 387 272 1820 1364 379 277 171 1412 714 244 36 308 2531 5662 3250 136 61 51 1950 70 60 5858 39 315 550 2052 888 206
internal_value=5.02569e-05 0.039972 -0.0185184 0.088967 0.0294979 -0.00719141 0.078146 0.0181708 0.027319 0.0323919 0.0423559 0.0240763 0.018329 0.0237377 -0.028856 -0.025506 0.00527314 0.0317018 0.0285219 0.0329356 0.0300121 -0.0694352 0.0283007 -0.0134348 0.000658327 0.0678103 -0.0340735 -0.0277525 0.0558562 0.0428235
internal_weight=33462 10623 22839 1871 8752 10898 1599 4653 2833 2556 4099 2070 1826 1720 11941 9410 3637 2291 2155 2094 2043 106 2010 7261 1403 486 3748 2602 1808 920
internal_count=33462 10623 22839 1871 8752 10898 1599 4653 2833 2556 4099 2070 1826 1720 11941 9410 3637 2291 2155 2094 2043 106 2010 7261 1403 486 3748 2602 1808 920
is_linear=0
shrinkage=0.05


Tree=22
num_leaves=31
num_cat=0
split_feature=0 0 0 2 0 3 3 0 3 3 3 3 2 4 4 3 3 2 0 5 3 3 4 2 3 3 3 3 3 2
split_gain=8968.88 1790.17 1466.84 447.951 362.224 313.003 566.444 268.259 261.358 226.627 207.689 203.839 191.636 186.133 185.547 171.691 154.898 151.637 149.468 146.44 195.322 189.384 171.07 138.582 134.051 251.957 419.64 380.053 169.926 122.932
threshold=7.1954337250000009 5.0271385000000004 11.638685250000002 -0.37940952255126065 8.6585499250000009 -0.081675638985454949 -0.10738035228456493 3.4455587500000004 -0.7775899462189082 -0.26781182513105617 0.030120025924939415 0.15005400879207817 1.0000000180025095e-35 3.6163259000000005 6.369789400000001 0.97873101657557349 -0.98801351631316325 0.78656609248549325 15.074854250000003 6.9373109500000014 0.37371625404731906 0.35769492645306972 4.1167674000000005 -1.0000000180025095e-35 0.27609441636666071 0.90880922144842624 0.95747632178960107 0.94697898371965716 -0.23448921811828094 -0.60355339059327362
decision_type=2 2 2 2 2 2 2 2 2 2 2 2 2 2 2 2 2 2 2 2 2 2 2 2 2 2 2 2 2 2
left_child=1 7 4 8 12 6 -4 -1 -3 -10 14 -12 24 -11 -5 23 -14 -9 -7 20 21 -13 -22 -6 28 29 27 -27 -2 -26
right_child=2 3 5 10 15 18 -8 17 9 13 11 19 16 -15 -16 -17 -18 -19 -20 -21 22 -23 -24 -25 25 26 -28 -29 -30 -31
leaf_value=-0.03238128534061277 0.043644991220866444 -0.011412333787612102 0.10883418909071499 -0.004337284349207696 0.059767211459173554 0.12219761444654931 -0.049770097414108178 -0.015513171142927808 0.052380791039502418 -0.047124565113335848 -0.051508165637533826 0.0073775279688370974 -0.053175874615777032 0.019825127913459389 0.021740791585873994 0.10196122750750132 0.021177542011734329 -0.030314063825217709 0.19021905803739436 0.014571389584141095 0.11031047221831979 0.13930447209497979 -0.021178070077945709 0.037940615774724684 0.094760281154576895 -0.0052219633601213759 0.05908356298685305 -0.26635651263323695 -0.00062999334920797072 0.045647933365599747
leaf_weight=6302 685 658 246 1982 1649 403 73 7200 550 109 315 439 73 2183 1040 169 1731 2278 101 534 25 29 2347 1301 324 38 129 22 317 210
leaf_count=6302 685 658 246 1982 1649 403 73 7200 550 109 315 439 73 2183 1040 169 1731 2278 101 534 25 29 2347 1301 324 38 129 22 317 210
internal_value=4.7744e-05 -0.0138307 0.0483298 0.00248195 0.0405346 0.111297 0.0725392 -0.0243864 0.0169834 0.0235577 -0.00508101 -0.0130422 0.0295623 0.0166412 0.0046373 0.0529491 0.0181688 -0.0190705 0.135829 -0.00945094 -0.0139678 0.0155525 -0.0197922 0.0501413 0.0414777 0.0578864 0.0082725 -0.100971 0.0296378 0.0754464
internal_weight=33462 25991 7471 10211 6648 823 319 15780 3500 2842 6711 3689 3529 2292 3022 3119 1804 9478 504 3374 2840 468 2372 2950 1725 723 189 60 1002 534
internal_count=33462 25991 7471 10211 6648 823 319 15780 3500 2842 6711 3689 3529 2292 3022 3119 1804 9478 504 3374 2840 468 2372 2950 1725 723 189 60 1002 534
is_linear=0
shrinkage=0.05


Tree=23
num_leaves=31
num_cat=0
split_feature=4 4 5 4 2 3 5 3 3 3 3 3 2 3 5 3 5 4 1 3 3 3 2 5 1 3 3 3 2 3
split_gain=7554.63 1923.39 856.341 610.054 440.058 312.354 309.264 259.536 256.199 391.339 473.125 230.446 227.377 224.978 780.26 243.436 217.433 210.566 192.574 166.788 331.198 168.056 164.529 161.507 159.154 158.525 228.801 172.92 156.478 227.335
threshold=6.369789400000001 8.9640090000000026 4.7923570000000009 12.729787500000002 0.12940952255126045 -0.81900730237416497 6.9734677500000002 0.090250774277322809 -0.42888796625999276 0.14153898451656996 -0.2008886948310977 -0.92263100495486394 0.25881904510252091 0.91585580712236381 8.2258275000000012 0.95236875646279973 6.5225507500000015 3.2557607000000002 3.8779601000000006 0.96683886033945965 0.93535928755917841 0.19244979981841034 0.78656609248549325 7.1826925500000014 0.54001624999999998 -0.26781182513105617 -0.21772121422198129 -0.29259762607704992 -1.0000000180025095e-35 0.67760851415498091
decision_type=2 2 2 2 2 2 2 2 2 2 2 2 2 2 2 2 2 2 2 2 2 2 2 2 2 2 2 2 2 2
left_child=2 4 11 5 -2 23 7 -6 -7 10 12 -1 -10 28 15 -15 22 -13 -14 20 21 25 -4 -3 -5 27 -27 -18 -11 -30
right_child=1 3 16 24 6 8 -8 -9 9 13 -12 17 18 14 -16 -17 19 -19 -20 -21 -22 -23 -24 -25 -26 26 -28 -29 29 -31
leaf_value=-0.04645969884976512 0.030662277489181902 -0.045828975165086626 -0.0057546512840602531 0.053348768792514295 0.014444606490679064 0.098606234768614159 0.022680776057688055 -0.022895192005848348 0.097991595650314567 0.097001742460560578 -0.017775599655693846 -0.031502470693081611 0.04228973109033201 -0.1640236979385592 0.073707908167605737 0.022765142792979115 0.0045787847246996265 -0.017818858163738113 -0.12852552142881213 0.053360270802729898 -0.095959189332022188 0.022493156319514537 -0.025109186864910794 0.033346416271747024 0.13628805469639052 -0.098272366327948349 -0.01108656874960335 0.10682240601217503 0.03107256754534319 0.10321721090472112
leaf_weight=1125 4037 74 4573 70 805 442 1597 1103 209 679 329 4423 77 53 306 26 1080 7716 21 175 82 995 1445 497 333 86 602 43 280 179
leaf_count=1125 4037 74 4573 70 805 442 1597 1103 209 679 329 4423 77 53 306 26 1080 7716 21 175 82 995 1445 497 333 86 602 43 280 179
internal_value=4.53568e-05 0.0337273 -0.016712 0.0639349 0.0194086 0.0565728 0.00644671 -0.00714124 0.0639242 0.056824 0.0238826 -0.024811 0.0685261 0.0705802 0.0375409 -0.102549 -0.00488226 -0.0228047 0.00568646 0.00596245 0.00309036 0.00598489 -0.0104019 0.0230855 0.121882 -0.00308508 -0.0219848 0.00849372 0.0817578 0.0592074
internal_weight=33462 11117 22345 3575 7542 3172 3505 1908 2601 2159 636 13264 307 1523 385 79 9081 12139 98 3063 2888 2806 6018 571 403 1811 688 1123 1138 459
internal_count=33462 11117 22345 3575 7542 3172 3505 1908 2601 2159 636 13264 307 1523 385 79 9081 12139 98 3063 2888 2806 6018 571 403 1811 688 1123 1138 459
is_linear=0
shrinkage=0.05


Tree=24
num_leaves=31
num_cat=0
split_feature=0 0 0 2 3 2 0 0 3 3 0 3 3 3 1 3 5 3 3 3 3 3 2 2 3 3 3 0 3 3
split_gain=7370.98 1712.21 726.425 407.061 402.522 251.582 220.968 196.65 229.939 259.985 184.314 170.367 297.054 217.234 194.506 153.501 150.343 142.621 144.855 138.543 659.116 250.133 138.247 133.333 174.108 229.69 175.922 152.444 131.441 130.775
threshold=6.2410988500000011 10.044610750000002 4.2986563250000005 -1.0000000180025095e-35 0.59817537509284302 -0.70710678118654735 15.074854250000003 7.232984000000001 -0.9523687564627995 -0.49002412863433376 8.4586504250000019 0.96683886033945965 0.93535928755917841 0.6583954877256819 1.3340183999999999 -0.95747632178960107 2.1619116500000004 0.67760851415498091 0.61866567420209762 0.96683886033945965 0.93535928755917841 0.95747632178960107 -0.60355339059327362 -0.60355339059327362 0.88606241628642846 0.99628894895067466 0.97873101657557349 1.9979454825000003 -0.99628894895067444 -0.38168568572378597
decision_type=2 2 2 2 2 2 2 2 2 2 2 2 2 2 2 2 2 2 2 2 2 2 2 2 2 2 2 2 2 2
left_child=2 3 15 10 22 16 -6 -5 -9 -10 19 12 13 -11 -15 -1 -4 18 -7 20 28 -22 -3 24 -17 26 -26 -25 -2 -24
right_child=1 4 5 7 6 17 -8 8 9 11 -12 -13 -14 14 -16 23 -18 -19 -20 -21 21 -23 29 27 25 -27 -28 -29 -30 -31
leaf_value=-0.04614882763752786 0.12439871508007248 0.078424940557095937 0.11989549010478218 0.0030769884769004862 0.094735663994728769 -0.0091337776057606491 0.17435638055684841 -0.020036470156250395 0.06083376451549715 0.0091594059801913333 0.051504233685162354 0.059437184849516378 -0.066282800788868154 0.013591910674724551 0.078630260305889835 -0.020263505601703299 0.0053687945484854624 -0.02203111224852343 0.028572715621238531 0.070160475147142035 -0.23649998266373587 -0.014420143727745331 0.06054904961736593 -0.05121748336230314 0.0054548815409127148 -0.052487787010722632 0.076557061219337724 -0.025308412321771129 0.028241487672846524 0.014292097514381215
leaf_weight=832 36 484 29 2112 635 6000 101 277 486 1256 1284 244 106 210 254 2596 2413 2326 266 191 32 21 406 620 248 107 134 6735 2776 245
leaf_count=832 36 484 29 2112 635 6000 101 277 486 1256 1284 244 106 210 254 2596 2413 2326 266 191 32 21 406 620 248 107 134 6735 2776 245
internal_value=4.3089e-05 0.0332259 -0.0165528 0.0244328 0.0768623 -0.00743292 0.105662 0.0146251 0.0232342 0.0279235 0.0356078 0.0201968 0.0149532 0.0199597 0.0491948 -0.0254801 0.00672886 -0.0114579 -0.00753309 0.0289288 0.0261801 -0.148506 0.0581869 -0.0238329 -0.0151082 0.0122603 0.0303965 -0.0274925 0.0294725 0.0431405
internal_weight=33462 11156 22306 9285 1871 11034 736 4945 2833 2556 4340 2070 1826 1720 464 11272 2442 8592 6266 3056 2865 53 1135 10440 3085 489 382 7355 2812 651
internal_count=33462 11156 22306 9285 1871 11034 736 4945 2833 2556 4340 2070 1826 1720 464 11272 2442 8592 6266 3056 2865 53 1135 10440 3085 489 382 7355 2812 651
is_linear=0
shrinkage=0.05


Tree=25
num_leaves=31
num_cat=0
split_feature=4 5 5 4 2 4 4 2 2 3 3 3 3 3 4 1 3 3 3 3 3 4 3 3 3 3 1 3 2 2
split_gain=5961.16 1364.55 1001.74 296.638 296.562 291.216 232.448 230.196 214.436 132.773 496.537 418.583 209.68 181.363 134.507 131.089 129.853 126.091 440.392 169.074 154.76 150.581 132.169 182.608 179.251 199.314 125.058 126.787 124.561 123.204
threshold=7.5234772500000009 5.4632740000000011 10.778590000000001 12.158716500000002 0.12940952255126045 5.205154900000001 5.3245635000000009 -0.60355339059327362 -0.25881904510252113 0.27609441636666071 -0.2008886948310977 0.45206801762443477 -0.021515898191483831 -0.38168568572378597 11.852606000000002 2.3471150000000001 0.43664718845046319 -0.47494667389482609 -0.81900730237416497 -0.34964421742355262 -0.2008886948310977 10.992410000000001 0.97505550290239451 0.92913280730858816 0.89391031859722891 0.84753307444029569 0.54922644999999981 0.75548631800528565 0.60355339059327384 0.25881904510252091
decision_type=2 2 2 2 2 2 2 2 2 2 2 2 2 2 2 2 2 2 2 2 2 2 2 2 2 2 2 2 2 2
left_child=1 5 4 -4 9 29 -3 -8 -7 10 13 16 -12 14 15 -2 -11 18 -6 21 -21 -19 23 24 25 -22 27 -5 -20 -1
right_child=2 6 3 26 17 8 7 -9 -10 11 12 -13 -14 -15 -16 -17 -18 19 28 20 22 -23 -24 -25 -26 -27 -28 -29 -30 -31
leaf_value=-0.018653493064166991 0.044707935450770453 -0.0050123079675991229 0.063254880383916787 0.017851267959922552 0.0011012782376726511 0.0071928540803840261 0.027554936164612416 0.0048480241991785055 -0.016154021632652914 0.10852020822970543 -0.049529195283681424 0.043212847678122196 0.015658281461281041 0.085401744143175029 0.12568887971168341 -0.0012717284898285588 0.22501989046732587 -0.015460405349731447 0.043427894468072298 0.063082029215163662 0.0095346816881819781 -0.17004528855500015 0.051102351648675881 -0.049331152999585445 0.079475732381607211 -0.08826660714366219 0.12644836475185303 0.1410910532809794 0.11439570600202509 -0.028490065769696028
leaf_weight=7584 756 3672 1065 60 363 1538 1551 3981 2728 118 197 1251 330 270 43 195 30 50 102 144 986 23 163 146 86 55 339 32 157 5486
leaf_count=7584 756 3672 1065 60 363 1538 1551 3981 2728 118 197 1251 330 270 43 195 30 50 102 144 986 23 163 146 86 55 339 32 157 5486
internal_value=-1.73612e-05 -0.0108191 0.0411659 0.0774187 0.031242 -0.01908 0.0047406 0.0112143 -0.00773689 0.0410782 0.0320627 0.0526199 -0.00870971 0.049062 0.039191 0.0352799 0.132135 0.0174497 0.0366391 0.010229 0.0136662 -0.0641652 0.00871085 0.00328287 0.0100989 0.00436747 0.112418 0.0607173 0.086447 -0.0227823
internal_weight=33501 26540 6961 1496 5465 17336 9204 5532 4266 3190 1791 1399 527 1264 994 951 148 2275 622 1653 1580 73 1436 1273 1127 1041 431 92 259 13070
internal_count=33501 26540 6961 1496 5465 17336 9204 5532 4266 3190 1791 1399 527 1264 994 951 148 2275 622 1653 1580 73 1436 1273 1127 1041 431 92 259 13070
is_linear=0
shrinkage=0.05


Tree=26
num_leaves=31
num_cat=0
split_feature=0 0 0 2 0 2 0 4 2 0 2 4 2 5 5 5 5 4 2 0 5 2 4 2 5 4 5 4 1 5
split_gain=5817.85 1101.33 1052.73 334.65 300.021 160.77 186.923 140.259 116.389 113.681 113.142 108.338 104.247 115.036 95.9978 92.8919 80.4539 73.6808 94.8298 84.7906 149.269 78.1621 72.601 72.9731 72.8666 70.8811 70.7856 109.687 65.958 64.3958
threshold=6.9999331000000007 11.638685250000002 4.9659193250000007 0.25881904510252091 8.6585499250000009 -0.70710678118654735 1.9979454825000003 14.619367750000002 0.78656609248549325 5.7668503250000009 -0.98296291314453399 6.369789400000001 1.0000000180025095e-35 4.3919248000000009 6.9373109500000014 6.9734677500000002 4.1687700000000012 9.1206795000000032 -1.0000000180025095e-35 9.2478324250000021 8.3375910000000015 0.91597561503675362 1.5019720500000002 -0.98296291314453399 1.2243146500000004 2.2988369000000004 9.7769345000000012 6.5140264000000014 3.9505633000000002 12.140948250000003
decision_type=2 2 2 2 2 2 2 2 2 2 2 2 2 2 2 2 2 2 2 2 2 2 2 2 2 2 2 2 2 2
left_child=2 4 5 9 12 11 -7 29 28 15 -6 16 13 -2 -5 -4 22 -12 19 -19 -21 -20 23 -1 -24 -17 27 -15 -8 -3
right_child=1 7 3 14 10 6 8 -9 -10 -11 17 -13 -14 26 -16 25 -18 18 21 20 -22 -23 24 -25 -26 -27 -28 -29 -30 -31
leaf_value=0.073458797895373448 0.12867125031249277 0.11505646063654705 0.0041482613191605013 -0.012958970642700011 0.079491748849007615 -0.048371716220132588 -0.019224114597241548 0.14121515186843536 -0.029368203566687276 0.015761566230881964 0.029479249312863866 0.064192201759903991 0.01403641239550135 -0.0040359100065760168 0.0062437575638700287 0.041056153126831717 -0.0014336066084753912 0.09172195477717339 0.028127566002566426 -0.047748666800357199 0.054958207914709734 0.069742819521519728 -0.056686663965980016 -0.0029113408475115905 -0.017361471512702426 -0.043446465843065434 0.075760935977297397 0.031064808034320286 -3.9812416923485669e-05 0.075914286986289797
leaf_weight=39 29 131 2370 3569 192 682 7148 126 3212 2952 1082 47 2099 255 796 29 1202 146 777 37 806 132 124 158 2354 172 76 1750 478 531
leaf_count=39 29 131 2370 3569 192 682 7148 126 3212 2952 1082 47 2099 255 796 29 1202 146 777 37 806 132 124 158 2354 172 76 1750 478 531
internal_value=-1.64932e-05 0.0366756 -0.0118489 0.000889646 0.030677 -0.0200047 -0.022982 0.0928629 -0.0213844 0.00906706 0.0422891 -0.0112638 0.0219259 0.0297742 -0.00945717 0.00138048 -0.0121786 0.0398922 0.0458283 0.056543 0.0504503 0.0341707 -0.0170068 0.0122076 -0.0193293 -0.0312545 0.028396 0.0266006 -0.0180216 0.0836599
internal_weight=33501 8169 25332 9888 7381 15444 11520 788 10838 5523 3172 3924 4209 2110 4365 2571 3877 2980 1898 989 843 909 2675 197 2478 201 2081 2005 7626 662
internal_count=33501 8169 25332 9888 7381 15444 11520 788 10838 5523 3172 3924 4209 2110 4365 2571 3877 2980 1898 989 843 909 2675 197 2478 201 2081 2005 7626 662
is_linear=0
shrinkage=0.05


Tree=27
num_leaves=31
num_cat=0
split_feature=0 0 0 3 0 3 3 4 5 3 3 5 5 0 3 3 4 3 3 3 3 1 3 3 3 3 3 3 3 3
split_gain=5250.61 997.254 950.087 241.448 196.863 168.918 318.816 143.108 141.382 137.086 141.027 574.028 151.66 136.48 132.748 441.079 242.645 213.795 181.061 216.601 179.85 187.593 159.944 137.697 125.433 145.557 119.928 160.032 118.091 116.738
threshold=6.9999331000000007 10.883969250000002 4.9659193250000007 0.59817537509284302 8.6585499250000009 -0.413274780713969 -0.081675638985454949 6.369789400000001 3.1998544000000004 0.97873101657557349 0.94697898371965716 8.3954585000000019 8.8987200000000026 15.074854250000003 0.064507852084056461 0.15855791680139919 5.7167873500000006 1.0000000180025095e-35 0.30081702196488996 0.26781182513105634 0.31718835131409573 1.9973617500000003 0.45206801762443477 0.2843565540399125 0.52707282776374187 0.35769492645306972 -0.81900730237416497 -0.030120025924939096 0.48250327361223927 -0.94697898371965705
decision_type=2 2 2 2 2 2 2 2 2 2 2 2 2 2 2 2 2 2 2 2 2 2 2 2 2 2 2 2 2 2
left_child=2 4 7 5 -2 -3 -7 8 -1 10 12 -12 -6 -5 16 -16 -4 26 19 -17 -20 -22 -23 -21 25 -9 -18 -28 -8 -14
right_child=1 3 14 13 9 6 28 24 -10 -11 11 -13 29 -15 15 18 17 -19 20 23 21 22 -24 -25 -26 -27 27 -29 -30 -31
leaf_value=-0.025579637013907332 0.02082957596334847 0.078971903285805611 -0.0048503527598497938 0.090653030497936007 0.061740907749256474 -0.033932794965803627 0.10944462785595342 0.026601829959545287 -0.015710924323367254 0.083061342570438707 -0.19566082484794386 0.032550034197855987 0.0042103605041772406 0.15714690772459863 -0.060244992100734765 0.0071877606962392178 -0.00074725894256015167 0.0835438219230559 -0.09629666106951125 0.10646230218427205 -0.0098768452342001094 0.067916574240511937 0.0074707261560226961 0.010794096870412087 -0.031150595775494973 0.16391109386863917 0.027188362251324313 -0.041238631133583718 0.022761075478047135 0.037465747558553607
leaf_weight=5970 4209 378 2263 431 547 120 95 120 9256 159 33 167 318 94 334 527 825 118 53 107 3056 124 932 58 75 23 1400 91 67 1551
leaf_count=5970 4209 378 2263 431 547 120 95 120 9256 159 33 167 318 94 334 527 825 118 53 107 3056 124 932 58 75 23 1400 91 67 1551
internal_value=-1.56686e-05 0.0348418 -0.0112564 0.0772531 0.0276458 0.0571238 0.0278379 -0.0190045 -0.0195804 0.0379843 0.0352445 -0.00510476 0.0385847 0.102559 0.000845164 -0.00466564 0.00693556 0.0178935 -0.000843631 0.0228403 -0.00477863 -0.00359904 0.0145685 0.0728335 0.0212196 0.0486865 0.0145486 0.0230121 0.073594 0.0318075
internal_weight=33501 8169 25332 1185 6984 660 282 15444 15226 2775 2616 200 2416 525 9888 5191 4697 2434 4857 692 4165 4112 1056 165 218 143 2316 1491 162 1869
internal_count=33501 8169 25332 1185 6984 660 282 15444 15226 2775 2616 200 2416 525 9888 5191 4697 2434 4857 692 4165 4112 1056 165 218 143 2316 1491 162 1869
is_linear=0
shrinkage=0.05


end of trees

feature_importances:
day_sin=350
ec_gfs_mean=166
hour_sin=126
gfs_wind_speed_10m=91
ec_wind_speed_10m=85
ec_gfs_diff=22

parameters:
[boosting: gbdt]
[objective: regression]
[metric: rmse]
[tree_learner: serial]
[device_type: cpu]
[data_sample_strategy: bagging]
[data: ]
[valid: ]
[num_iterations: 1000]
[learning_rate: 0.05]
[num_leaves: 31]
[num_threads: 0]
[seed: 42]
[deterministic: 0]
[force_col_wise: 0]
[force_row_wise: 0]
[histogram_pool_size: -1]
[max_depth: -1]
[min_data_in_leaf: 20]
[min_sum_hessian_in_leaf: 0.001]
[bagging_fraction: 0.8]
[pos_bagging_fraction: 1]
[neg_bagging_fraction: 1]
[bagging_freq: 5]
[bagging_seed: 400]
[bagging_by_query: 0]
[feature_fraction: 0.9]
[feature_fraction_bynode: 1]
[feature_fraction_seed: 30056]
[extra_trees: 0]
[extra_seed: 12879]
[early_stopping_round: 0]
[early_stopping_min_delta: 0]
[first_metric_only: 0]
[max_delta_step: 0]
[lambda_l1: 0]
[lambda_l2: 0]
[linear_lambda: 0]
[min_gain_to_split: 0]
[drop_rate: 0.1]
[max_drop: 50]
[skip_drop: 0.5]
[xgboost_dart_mode: 0]
[uniform_drop: 0]
[drop_seed: 17869]
[top_rate: 0.2]
[other_rate: 0.1]
[min_data_per_group: 100]
[max_cat_threshold: 32]
[cat_l2: 10]
[cat_smooth: 10]
[max_cat_to_onehot: 4]
[top_k: 20]
[monotone_constraints: ]
[monotone_constraints_method: basic]
[monotone_penalty: 0]
[feature_contri: ]
[forcedsplits_filename: ]
[refit_decay_rate: 0.9]
[cegb_tradeoff: 1]
[cegb_penalty_split: 0]
[cegb_penalty_feature_lazy: ]
[cegb_penalty_feature_coupled: ]
[path_smooth: 0]
[interaction_constraints: ]
[verbosity: -1]
[saved_feature_importance_type: 0]
[use_quantized_grad: 0]
[num_grad_quant_bins: 4]
[quant_train_renew_leaf: 0]
[stochastic_rounding: 1]
[linear_tree: 0]
[max_bin: 255]
[max_bin_by_feature: ]
[min_data_in_bin: 3]
[bin_construct_sample_cnt: 200000]
[data_random_seed: 175]
[is_enable_sparse: 1]
[enable_bundle: 1]
[use_missing: 1]
[zero_as_missing: 0]
[feature_pre_filter: 1]
[pre_partition: 0]
[two_round: 0]
[header: 0]
[label_column: ]
[weight_column: ]
[group_column: ]
[ignore_column: ]
[categorical_feature: ]
[forcedbins_filename: ]
[precise_float_parser: 0]
[parser_config_file: ]
[objective_seed: 16083]
[num_class: 1]
[is_unbalance: 0]
[scale_pos_weight: 1]
[sigmoid: 1]
[boost_from_average: 1]
[reg_sqrt: 0]
[alpha: 0.9]
[fair_c: 1]
[poisson_max_delta_step: 0.7]
[tweedie_variance_power: 1.5]
[lambdarank_truncation_level: 30]
[lambdarank_norm: 1]
[label_gain: ]
[lambdarank_position_bias_regularization: 0]
[eval_at: ]
[multi_error_top_k: 1]
[auc_mu_weights: ]
[num_machines: 1]
[local_listen_port: 12400]
[time_out: 120]
[machine_list_filename: ]
[machines: ]
[gpu_platform_id: -1]
[gpu_device_id: -1]
[gpu_use_dp: 0]
[num_gpu: 1]

end of parameters

pandas_categorical:[]
