tree
version=v4
num_class=1
num_tree_per_iteration=1
label_index=0
max_feature_idx=7
objective=regression
feature_names=wind_speed wind_speed_2 wind_speed_3 hour month is_daytime wind_lag_1h wind_lag_24h
feature_infos=[0.02572233862:22.75666047] [0.00066163870408194356:517.86559574686066] [1.7018894790493726e-05:11784.891531505584] [0:23] [1:12] [0:1] [0.02572233862:22.75666047] [0.02572233862:22.75666047]
tree_sizes=2682 2708 2735 2720 2734 2724 2752 2703 2742 2712 2752 2736 2764 2745 2763 2770 2715 2723 2741

Tree=0
num_leaves=31
num_cat=0
split_feature=0 0 0 3 4 3 6 7 0 4 7 7 6 4 3 3 4 4 4 7 7 3 6 4 0 0 4 0 3 7
split_gain=2.31539e+07 3.38736e+06 2.8077e+06 872435 765102 575822 519386 392386 372057 322173 448009 262741 226545 215830 235593 200714 197978 160486 151422 147510 143994 316524 141868 262194 128125 116625 115893 108217 88588.2 82032.2
threshold=8.9826425550000017 11.401416310000002 6.8348100870000001 9.5000000000000018 10.500000000000002 8.5000000000000018 13.47340808 7.8219140435000005 4.785847630000001 11.500000000000002 12.410838842500002 11.140445692500002 7.7361924650000011 10.500000000000002 14.500000000000002 20.500000000000004 11.500000000000002 3.5000000000000004 6.5000000000000009 7.8219140435000005 15.063678835000001 7.5000000000000009 12.934949305000002 11.500000000000002 10.511521470000002 7.6500735020000006 10.500000000000002 16.327950375000004 13.500000000000002 6.6631342260000013
decision_type=2 2 2 2 2 2 2 2 2 2 2 2 2 2 2 2 2 2 2 2 2 2 2 2 2 2 2 2 2 2
left_child=2 3 8 4 19 16 7 -3 -1 26 -11 15 -7 14 17 18 -4 -9 -5 -2 21 -12 -15 -24 -13 -18 27 29 -10 -8
right_child=1 6 5 11 -6 12 9 13 28 10 20 24 -14 22 -16 -17 25 -19 -20 -21 -22 -23 23 -25 -26 -27 -28 -29 -30 -31
leaf_value=46.109296993742277 48.590225658655754 51.872206968546053 47.610946119576546 53.338308770838324 53.951975150905575 48.868311792093138 53.103759160776434 55.308165796945502 46.811685647384849 59.309886691852775 61.654306618627338 52.973388815093976 50.375902626966777 57.347413235107837 55.463950839841992 50.583396519731217 47.102068432140733 52.680192644416458 51.566545559555038 50.093425217935703 45.383980963708048 47.386793329659483 58.139718545675798 48.462914304563498 55.802230025931827 52.98574761861547 59.134277836975684 57.799263820688758 47.569544874698558 56.062959958046115
leaf_weight=8656 1120 691 2437 1049 443 1725 103 302 3878 61 23 359 2361 383 800 735 48 1008 893 1565 61 48 56 56 289 113 156 353 2561 1035
leaf_count=8656 1120 691 2437 1049 443 1725 103 302 3878 61 23 359 2361 383 800 735 48 1008 893 1565 61 48 56 56 289 113 156 353 2561 1035
internal_value=49.2146 52.8257 47.293 51.3005 50.1017 48.9993 54.7421 53.9907 46.5375 56.088 52.2225 52.4282 49.7394 54.5527 54.1118 51.9909 47.8353 53.286 52.5236 49.4664 48.9473 52.0087 56.4319 53.3013 54.235 51.2316 56.5409 56.2696 47.1131 55.7951
internal_weight=33368 11589 21779 6453 3128 6684 5136 3296 15095 1840 193 3325 4086 2605 2110 2677 2598 1310 1942 2685 132 71 495 112 648 161 1647 1491 6439 1138
internal_count=33368 11589 21779 6453 3128 6684 5136 3296 15095 1840 193 3325 4086 2605 2110 2677 2598 1310 1942 2685 132 71 495 112 648 161 1647 1491 6439 1138
is_linear=0
shrinkage=1


Tree=1
num_leaves=31
num_cat=0
split_feature=0 0 0 3 4 3 7 0 0 4 7 0 4 7 7 0 3 4 0 0 3 7 7 3 7 4 7 4 4 0
split_gain=1.87997e+07 2.74951e+06 2.2837e+06 679912 587633 550121 314753 301366 273404 253537 353709 225517 201380 185713 183575 143404 134759 128739 124288 121111 120363 125073 117177 155866 97809.8 119763 84229.5 78688.6 77818.8 185045
threshold=9.2602617600000023 6.8348100870000001 11.876301140000002 9.5000000000000018 10.500000000000002 7.5000000000000009 11.082083095000002 4.785847630000001 13.915181070000001 11.500000000000002 12.744182525000001 7.8178684885000012 11.500000000000002 7.4006164300000004 7.0461909165000014 11.131856905000001 14.500000000000002 10.500000000000002 7.8178684885000012 10.511521470000002 18.500000000000004 7.2297237735000008 15.063678835000001 8.5000000000000018 16.327950375000004 3.5000000000000004 8.5278428375000015 6.5000000000000009 11.500000000000002 12.835254225000002
decision_type=2 2 2 2 2 2 2 2 2 2 2 2 2 2 2 2 2 2 2 2 2 2 2 2 2 2 2 2 2 2
left_child=1 7 3 4 14 12 20 -1 13 -10 -11 -7 -3 -4 -2 -16 17 24 -14 -8 27 -22 23 -12 25 -15 -6 -5 -19 -30
right_child=2 5 8 6 26 11 19 -9 9 10 22 -13 18 16 15 -17 -18 28 -20 -21 21 -23 -24 -25 -26 -27 -28 -29 29 -31
leaf_value=-2.7735264209569297 -0.44854858826775446 -1.4499643215194649 2.8622751787735821 4.0553535330794785 2.7535362202196549 -0.26139590553939346 3.5737837285242069 -1.8700938731824799 6.8785438071177412 9.1714820134012331 9.4746529897054028 1.1127857703545663 -1.9959586789210637 5.6043280910425146 0.77084765526482224 2.7660386417038145 5.9745209564022836 8.178394465520979 4.1110790101760024 6.1671965991100928 0.93517499764912193 3.0787550806735595 -3.9177772440437999 -1.2603087575812089 8.2194346147425037 3.1136654706959872 5.6317127081119036 2.5494456884171814 7.9053058178393876 0.35046231406075612
leaf_weight=8656 899 2461 456 788 156 1992 302 6439 1286 57 21 2982 48 257 1384 487 962 128 109 446 552 537 53 38 51 776 292 620 77 56
leaf_count=8656 899 2461 456 788 156 1992 302 6439 1286 57 21 2982 48 257 1384 487 962 128 109 446 552 537 53 38 51 776 292 620 77 56
internal_value=0.0212264 -1.60742 3.48056 2.29929 1.26932 -0.0551151 3.32069 -2.38815 5.29056 6.40001 2.75863 0.56245 -1.22844 4.70632 0.725873 1.29017 5.07081 4.42444 2.24396 5.12012 2.78165 1.9922 -0.505055 2.56061 3.94438 3.73332 4.62949 3.39224 6.41827 4.72432
internal_weight=33368 22687 10681 6463 3218 7592 3245 15095 4218 1455 169 4974 2618 2763 2770 1871 2307 1345 157 748 2497 1089 112 59 1084 1033 448 1408 261 133
internal_count=33368 22687 10681 6463 3218 7592 3245 15095 4218 1455 169 4974 2618 2763 2770 1871 2307 1345 157 748 2497 1089 112 59 1084 1033 448 1408 261 133
is_linear=0
shrinkage=0.1


Tree=2
num_leaves=31
num_cat=0
split_feature=1 6 6 3 4 3 1 1 7 4 7 6 6 4 3 4 1 4 7 7 3 1 6 4 4 7 4 4 3 4
split_gain=1.52362e+07 2.05382e+06 2.04922e+06 568113 488889 461949 343549 247848 223307 189539 324937 161931 160372 155085 151990 154587 129590 127939 100576 98000.7 198836 95397.4 91747.8 161744 80587.1 82469.4 79432.2 77612 96051.6 71482.3
threshold=83.537856192111633 6.8348100870000001 11.401416310000002 8.5000000000000018 10.500000000000002 8.5000000000000018 181.53272564050755 26.533581501972058 8.6891517050000022 11.500000000000002 12.744182525000001 10.114280390000003 7.8181320985000005 11.500000000000002 15.500000000000002 10.500000000000002 69.705604858379232 3.5000000000000004 10.961663320000001 15.063678835000001 7.5000000000000009 100.15138379856801 12.835254225000002 11.500000000000002 10.500000000000002 6.2961146185000016 2.5000000000000004 6.5000000000000009 15.500000000000002 5.5000000000000009
decision_type=2 2 2 2 2 2 2 2 2 2 2 2 2 2 2 2 2 2 2 2 2 2 2 2 2 2 2 2 2 2
left_child=1 7 3 4 21 13 8 26 -4 24 -11 29 -7 -3 15 17 -15 -10 -13 20 -12 -2 -17 -24 25 -8 -1 28 -28 -5
right_child=2 5 6 11 -6 12 9 -9 14 10 19 18 -14 16 -16 22 -18 -19 -20 -21 -22 -23 23 -25 -26 -27 27 -29 -30 -31
leaf_value=-3.0888327282373567 -0.55369650530868708 -1.275029845443278 2.4987108967650205 2.8418263418745995 4.0165550883277321 -0.16868005437043171 3.0425665410359706 -1.6080022207888125 5.1405820735917693 8.1408591042394232 10.253185417538598 2.9202231289131975 1.0586432747495889 -0.31329512154514139 5.5070117450199243 7.0483372078492099 5.2916709567561293 2.8288139477159926 4.7187354578724445 -3.3727965306427521 -1.6179917623830395 0.74154769277028276 6.7731242535911775 -1.7425674739636872 8.154583268851237 5.9499938791170015 -2.3751215364408944 -2.6130039929830708 -1.3170437988605765 1.4939364511933593
leaf_weight=1642 1029 2702 836 625 384 1834 105 5372 313 69 21 1166 2538 110 815 208 66 1018 424 59 43 1271 54 38 153 1377 2354 4330 1350 1062
leaf_count=1642 1029 2702 836 625 384 1834 105 5372 313 69 21 1166 2538 110 815 208 66 1018 424 59 43 1271 54 38 153 1377 2354 4330 1350 1062
internal_value=0.0191038 -1.48651 3.05183 1.79224 0.713529 -0.103844 4.52147 -2.15267 3.90965 5.62054 2.64827 2.67575 0.543796 -1.08768 4.39188 3.83465 1.78857 3.37245 3.39983 -0.432941 2.27724 0.162067 5.88528 3.25577 5.96958 5.744 -2.45507 -2.32554 -1.98948 1.9933
internal_weight=33368 22298 11070 5961 2684 7250 5109 15048 3282 1827 192 3277 4372 2878 2446 1631 176 1331 1590 123 64 2300 300 92 1635 1482 9676 8034 3704 1687
internal_count=33368 22298 11070 5961 2684 7250 5109 15048 3282 1827 192 3277 4372 2878 2446 1631 176 1331 1590 123 64 2300 300 92 1635 1482 9676 8034 3704 1687
is_linear=0
shrinkage=0.1


Tree=3
num_leaves=31
num_cat=0
split_feature=6 0 0 6 7 5 7 4 4 7 5 0 4 0 6 7 0 6 4 0 4 0 4 4 4 4 4 6 4 5
split_gain=1.23989e+07 1.97455e+06 1.35567e+06 278852 261709 257859 209793 204783 166790 237306 170827 164868 128140 127819 122461 95924.5 92591.4 87454.7 202924 80189.3 77923.8 70599.7 69874.5 64283 60990.1 58201.8 65389.7 57221.3 54145.6 48470.3
threshold=8.847456075000002 11.401416310000002 6.3764624415000002 13.59345062 6.4971512300000009 1.0000000180025095e-35 7.8219140435000005 10.500000000000002 11.500000000000002 14.731248445 1.0000000180025095e-35 7.3574874100000009 10.500000000000002 10.007566315000002 4.8331328000000005 11.947715210000002 12.260239005000003 12.489947345000003 11.500000000000002 9.8221535450000008 11.500000000000002 16.327950375000004 6.5000000000000009 9.5000000000000018 11.500000000000002 2.5000000000000004 6.5000000000000009 12.835254225000002 4.5000000000000009 1.0000000180025095e-35
decision_type=2 2 2 2 2 2 2 2 2 2 2 2 2 2 2 2 2 2 2 2 2 2 2 2 2 2 2 2 2 2
left_child=2 4 14 6 5 24 29 13 21 10 -10 -4 16 -6 25 -12 -8 -14 -19 -9 -13 -5 -23 -15 -2 -1 -27 -20 -7 -3
right_child=1 3 11 8 7 28 12 19 9 -11 15 20 17 23 -16 -17 -18 18 27 -21 -22 22 -24 -25 -26 26 -28 -29 -30 -31
leaf_value=-2.8206409067251217 -0.38808495146993188 1.5142794728741167 -0.95629132776377657 5.0746485220900137 1.0306665288405428 3.8877474332665223 2.883653872067828 2.135836127406407 8.5937299113119803 -2.5208487684640923 6.4416333879743313 -0.11728751177279778 6.4670348685308801 2.4016872330503016 -1.626484477332605 -2.0202748195545097 4.1930179478176131 6.81283463894784 3.9122319539388024 4.0666300244673215 1.4577877026690533 5.8270008069469776 8.8870517425677349 0.81878284433562509 2.2754807021954786 -1.805119017931351 -2.4082892869547763 -1.0058728287185448 1.7026291197688179 3.4240404695189199
leaf_weight=1487 1311 516 2953 1141 2105 162 961 372 62 66 21 4442 302 1644 4908 37 1233 111 36 510 338 278 102 304 92 3298 3950 69 378 179
leaf_count=1487 1311 516 2953 1141 2105 162 961 372 62 66 21 4442 302 1644 4908 37 1233 111 36 510 338 278 102 304 92 3298 3950 69 378 179
internal_value=0.0171934 2.59081 -1.42661 4.07894 1.48434 0.501273 3.55625 1.8714 5.12216 2.29548 4.94446 -0.368833 3.9535 1.57089 -2.02617 1.04352 3.6195 5.36816 3.83176 3.25228 -0.0059119 5.46782 6.64838 2.15466 -0.213425 -2.25075 -2.13383 0.680335 2.35816 2.00615
internal_weight=33368 11992 21376 5114 6878 1943 3407 4935 1707 186 120 7733 2712 4053 13643 58 2194 518 216 882 4780 1521 380 1948 1403 8735 7248 105 540 695
internal_count=33368 11992 21376 5114 6878 1943 3407 4935 1707 186 120 7733 2712 4053 13643 58 2194 518 216 882 4780 1521 380 1948 1403 8735 7248 105 540 695
is_linear=0
shrinkage=0.1


Tree=4
num_leaves=31
num_cat=0
split_feature=0 0 6 3 3 4 6 0 4 3 0 3 4 6 6 4 4 6 0 4 3 4 4 6 4 6 3 4 3 3
split_gain=1.00607e+07 1.66882e+06 1.06058e+06 435343 372678 308141 200901 164220 163056 135636 118597 117564 104547 98900.9 95268.9 93761 171202 122006 110164 94565.8 93019.1 79783.7 69321.4 66758.6 65552.9 62056.6 61208.4 60296.8 60042.1 57716.3
threshold=9.4602902400000008 7.0455862295000014 11.876301140000002 7.5000000000000009 10.500000000000002 10.500000000000002 5.2775819365000007 16.327950375000004 11.500000000000002 14.500000000000002 8.2215540250000014 20.500000000000004 3.5000000000000004 11.401416310000002 7.8638761600000011 10.500000000000002 11.500000000000002 12.835254225000002 13.256449475000002 5.5000000000000009 13.500000000000002 2.5000000000000004 2.5000000000000004 10.058578890000001 4.5000000000000009 10.723301552500002 13.500000000000002 1.5000000000000002 4.5000000000000009 21.500000000000004
decision_type=2 2 2 2 2 2 2 2 2 2 2 2 2 2 2 2 2 2 2 2 2 2 2 2 2 2 2 2 2 2
left_child=1 6 4 8 5 13 -1 9 -3 12 26 23 22 -2 -10 18 -17 -18 -14 -20 -8 -11 -4 -6 -15 -13 -5 -25 -19 -23
right_child=2 3 7 10 11 -7 20 -9 14 21 -12 25 15 24 -16 16 17 28 19 -21 -22 29 -24 27 -26 -27 -28 -29 -30 -31
leaf_value=-1.9774343832351926 0.33768816255084638 -1.1319757845753264 3.1307231313383288 -0.50443788323126493 2.2047194965731745 3.455924717152032 -1.5475458282227679 5.8018935512872112 -1.7788124234780023 2.2726707541123496 1.1251855297192701 0.84216715485185056 1.6990564450124286 3.8125012911028335 3.5675957406847929 6.2483250228660872 5.4849008932346255 3.3473791385519096 4.9318518043719521 2.3728586563340772 -0.71321665967533932 5.0312601637540029 5.8651511933082761 -0.32852783871860042 1.1749229517836983 2.6732534189398094 0.54215322997736126 3.5665232468290151 -0.65467476934756874 3.6294588051251617
leaf_weight=10054 2165 2512 163 903 639 448 3558 401 46 161 2558 455 809 135 121 205 82 58 258 328 2140 1005 215 41 312 312 1466 1297 106 415
leaf_count=10054 2165 2512 163 903 639 448 3558 401 46 161 2558 455 809 135 121 205 82 58 258 328 2140 1005 215 41 312 312 1466 1297 106 415
internal_value=0.015474 -1.12123 2.66794 0.0951675 1.79169 1.03288 -1.70858 3.8771 -0.930821 3.67425 0.653037 2.63789 3.17086 0.617289 2.09493 2.8606 4.11402 2.33542 2.45538 3.49951 -1.2342 4.38238 4.68602 3.04559 1.97151 1.58702 0.14322 3.44717 0.760686 4.62158
internal_weight=33368 23358 10010 7606 5804 3060 15752 4206 2679 3805 4927 2744 2224 2612 167 1846 451 246 1395 586 5698 1581 378 1977 447 767 2369 1338 164 1420
internal_count=33368 23358 10010 7606 5804 3060 15752 4206 2679 3805 4927 2744 2224 2612 167 1846 451 246 1395 586 5698 1581 378 1977 447 767 2369 1338 164 1420
is_linear=0
shrinkage=0.1


Tree=5
num_leaves=31
num_cat=0
split_feature=0 0 0 3 3 4 7 4 0 7 3 0 0 3 7 0 4 0 4 4 4 7 0 4 0 3 4 3 3 4
split_gain=8.03011e+06 1.22029e+06 952181 341436 263966 203361 188789 178449 130493 118626 117373 109727 105564 103785 103600 103356 98646.3 97892.1 78105.9 68597.4 94685.3 137818 153787 112652 64562.4 64333.7 69789.4 62738 59879.5 58272.2
threshold=9.378993825000002 6.7481041625000007 11.401416310000002 8.5000000000000018 11.500000000000002 10.500000000000002 8.4041756600000017 9.5000000000000018 4.3121780320000012 11.082083095000002 18.500000000000004 16.327950375000004 8.018787586500002 16.500000000000004 8.6891517050000022 13.161885195000002 11.500000000000002 8.1803313800000019 3.5000000000000004 5.5000000000000009 10.500000000000002 12.744182525000001 12.489947345000003 11.500000000000002 10.511521470000002 21.500000000000004 4.5000000000000009 18.500000000000004 15.500000000000002 10.500000000000002
decision_type=2 2 2 2 2 2 2 2 2 2 2 2 2 2 2 2 2 2 2 2 2 2 2 2 2 2 2 2 2 2
left_child=1 8 4 16 5 14 7 -4 28 10 -6 13 -5 19 18 27 -3 -18 -2 -8 -21 -22 -23 -24 -11 26 -14 -9 -1 -12
right_child=2 3 6 12 9 -7 11 15 -10 24 29 -13 25 -15 -16 -17 17 -19 -20 20 21 22 23 -25 -26 -27 -28 -29 -30 -31
leaf_value=-2.0731212707440072 1.3620835212027205 -1.0098610999954603 1.5146028668418268 -0.015320315874413079 2.6165733912145921 2.8324558020525479 3.7052772637018183 4.4288255374088434 -1.2786719534741862 2.3819914700684106 0.61080169966835696 5.3439090603308692 2.05315052793993 4.2330993119894007 1.0128817065597273 7.6040640172435019 -0.90604504640572348 3.4539970078596882 -0.68910755489193976 2.0025801468606605 5.0238316860260834 5.9596921846270563 3.7229719544279165 -1.758839192255488 4.7917974928338474 -0.3439635335400118 0.77399034421351176 -1.2202618505273548 -1.4692925443456879 2.6807591625090161
leaf_weight=4893 232 2980 860 2427 927 403 1062 66 7542 211 714 339 572 1187 1333 82 104 102 929 881 318 64 58 106 235 358 1677 28 2472 168
leaf_count=4893 232 2980 860 2427 927 403 1062 66 7542 211 714 339 572 1187 1333 82 104 102 929 881 318 64 58 106 235 358 1677 28 2472 168
internal_value=-0.000672058 -1.03165 2.33622 -0.0534361 1.3797 0.748179 3.31187 2.10833 -1.57105 2.191 1.83087 3.62243 0.459289 3.46367 0.411385 5.00948 -0.863562 1.25281 -0.279223 3.09673 2.64385 3.67856 1.80226 0.17985 3.65173 0.90113 1.09933 2.74612 -1.87045 1.00508
internal_weight=33330 23127 10203 8220 5152 2897 5051 1036 14907 2255 1809 4015 5034 3676 2494 176 3186 206 1161 2489 1427 546 228 164 446 2607 2249 94 7365 882
internal_count=33330 23127 10203 8220 5152 2897 5051 1036 14907 2255 1809 4015 5034 3676 2494 176 3186 206 1161 2489 1427 546 228 164 446 2607 2249 94 7365 882
is_linear=0
shrinkage=0.1


Tree=6
num_leaves=31
num_cat=0
split_feature=6 6 0 3 3 4 6 0 7 7 4 3 4 4 0 7 3 4 4 6 4 4 3 7 7 4 0 6 4 4
split_gain=6.60792e+06 1.0439e+06 710069 336587 227780 168349 152774 138986 124321 90932.6 90736.4 76297.6 73681.2 70107.8 69561.6 69167.9 67106 64948.5 60665.5 59376 55261 65159.9 90033.4 57298.2 53515.9 64634.2 53240.4 52938.3 51632.2 64921
threshold=9.4604326500000031 7.0455862295000014 11.401416310000002 8.5000000000000018 10.500000000000002 10.500000000000002 16.327950375000004 5.7473098580000013 7.1379896650000001 11.082083095000002 11.500000000000002 20.500000000000004 6.5000000000000009 9.5000000000000018 8.1803313800000019 8.2719111100000031 15.500000000000002 10.500000000000002 2.5000000000000004 8.1804147050000022 2.5000000000000004 6.5000000000000009 16.500000000000004 8.0660953300000013 2.1124095460000007 4.5000000000000009 11.947715210000002 10.568403155000002 3.5000000000000004 2.5000000000000004
decision_type=2 2 2 2 2 2 2 2 2 2 2 2 2 2 2 2 2 2 2 2 2 2 2 2 2 2 2 2 2 2
left_child=1 7 4 10 5 15 8 20 13 11 -3 12 -6 -4 -12 -2 28 -13 -18 -5 -1 22 -22 -23 25 -24 -15 -11 29 -10
right_child=2 3 6 19 9 -7 -8 -9 16 27 14 17 -14 26 -16 -17 18 -19 -20 -21 21 23 24 -25 -26 -27 -28 -29 -30 -31
leaf_value=-2.0471228567743269 -0.27839784796096756 -0.93164219155246253 1.133460579028954 0.19968213903135623 2.8473238355073383 2.6270849206487288 4.9162649247377104 -0.89443714887421732 2.6157418917263708 2.1246075820714627 -0.81897910426644727 0.079592756594195582 1.2914605471852412 -0.46775893994740081 3.0130953546996433 0.83122923804025817 1.7703544703300722 2.8891275759284891 3.8242202654294815 0.91866971115246443 -1.4824072330373412 -1.8731863141335472 3.7135805743081232 -1.0294054844277258 -0.72582326353132776 -0.54571737861942227 5.1972082116747202 4.1915844902948098 2.5285824144544624 5.0176768300602745
leaf_weight=1941 972 2760 561 2160 664 383 383 4301 248 229 85 394 562 21 107 1331 162 104 1281 2453 3120 4089 63 1002 1236 82 79 270 2081 206
leaf_count=1941 972 2760 561 2160 664 383 383 4301 248 229 85 394 562 21 107 1331 162 104 1281 2453 3120 4089 63 1002 1236 82 79 270 2081 206
internal_value=-0.000604845 -0.917908 2.1607 0.0484158 1.30545 0.685755 2.99672 -1.37959 2.83824 2.05421 -0.785415 1.71012 2.13411 1.56827 1.3166 0.362902 3.04926 0.666323 3.59364 0.58201 -1.56051 -1.46205 -1.18485 -1.70712 -0.512607 1.30487 4.00757 3.24301 2.73938 3.70561
internal_weight=33330 23399 9931 7565 4909 2686 5022 15834 4639 2223 2952 1724 1226 661 192 2303 3978 498 1443 4613 11533 9592 4501 5091 1381 145 100 499 2535 454
internal_count=33330 23399 9931 7565 4909 2686 5022 15834 4639 2223 2952 1724 1226 661 192 2303 3978 498 1443 4613 11533 9592 4501 5091 1381 145 100 499 2535 454
is_linear=0
shrinkage=0.1


Tree=7
num_leaves=31
num_cat=0
split_feature=6 6 0 3 3 6 4 6 7 4 7 3 4 3 7 7 7 3 6 4 3 7 0 4 7 3 0 4 3 3
split_gain=5.35242e+06 847005 575156 271612 186847 135127 129008 126038 124449 104613 177490 75787.8 69361.8 68956.1 100096 64346.4 63024.7 132531 60771.9 66902.2 59891.1 56373.8 57147.2 55238.2 56373.7 69072.1 91906.5 53457.3 51407.5 83927.3
threshold=9.4604326500000031 7.1361774220000012 11.401416310000002 12.500000000000002 11.500000000000002 13.47340808 10.500000000000002 4.6911940155000016 9.9684384100000027 11.500000000000002 12.410838842500002 20.500000000000004 11.500000000000002 19.500000000000004 5.3674904700000008 14.075222135000002 15.063678835000001 7.5000000000000009 8.4820608000000011 4.5000000000000009 12.500000000000002 8.6891517050000022 9.9169400250000006 10.500000000000002 10.575430230000002 8.5000000000000018 12.410838842500002 6.5000000000000009 12.500000000000002 19.500000000000004
decision_type=2 2 2 2 2 2 2 2 2 2 2 2 2 2 2 2 2 2 2 2 2 2 2 2 2 2 2 2 2 2
left_child=1 7 4 12 6 8 21 -1 28 -7 -11 15 -3 18 -15 27 17 -12 -5 -20 23 -2 -23 -10 -25 -26 -27 -6 -4 -30
right_child=2 3 5 13 11 9 -8 -9 20 10 16 -13 -14 14 -16 -17 -18 -19 19 -21 -22 22 -24 24 25 26 -28 -29 29 -31
leaf_value=-1.4985763537269232 -0.16251358483318698 -0.60339590656821529 0.88754636158061229 0.63192848948525082 2.8124766273603279 3.653128906383234 2.305406316386494 -0.93852165612247751 1.999484916593832 5.7583713944753008 7.7053148443048656 0.97444505664699121 1.0025454110074146 -1.251335222957207 0.72511017651198006 7.4227592388788866 -3.1575027981742485 -1.4782441225918859 3.0421031751507224 1.1417147002901351 3.4880683767491107 -0.17747941240850909 1.2449072471233431 0.11542329788208008 5.6697346907943045 4.5805692884657123 -3.743766743796213 1.5917800205445805 3.1304827166321392 0.8914197484668871
leaf_weight=8411 1094 3704 615 1192 717 1615 401 7694 899 60 22 629 290 361 883 24 61 55 269 595 788 408 918 36 134 36 21 718 382 298
leaf_count=8411 1094 3704 615 1192 717 1615 401 7694 899 60 22 629 290 361 883 24 61 55 269 595 788 408 918 36 134 36 21 718 382 298
internal_value=-0.000544362 -0.826117 1.94463 0.0678921 1.1749 2.69704 0.64413 -1.23102 2.30715 3.38715 1.21772 1.89201 -0.48679 0.739226 0.15156 2.28759 -0.756479 1.14563 1.0948 1.73339 2.81939 0.368853 0.80725 2.35144 3.74529 4.42945 1.51371 2.2017 1.55006 2.14925
internal_weight=33330 23399 9931 7294 4909 5022 2821 16105 3209 1813 198 2088 3994 3300 1244 1459 138 77 2056 864 1914 2420 1326 1126 227 191 57 1435 1295 680
internal_count=33330 23399 9931 7294 4909 5022 2821 16105 3209 1813 198 2088 3994 3300 1244 1459 138 77 2056 864 1914 2420 1326 1126 227 191 57 1435 1295 680
is_linear=0
shrinkage=0.1


Tree=8
num_leaves=31
num_cat=0
split_feature=0 0 0 3 3 4 0 7 4 7 5 0 7 3 3 0 7 4 3 7 7 4 4 4 4 7 7 3 4 4
split_gain=4.29415e+06 620789 547738 209278 153679 180885 113726 120546 86540 144508 83680.2 79425.5 69087.5 66741.4 66378.1 60218.2 59747 57249.8 60953.2 61179.2 57064.7 54402.7 53601 51854.8 46868.2 50232.3 46065.8 41881.6 55601.4 47488.9
threshold=9.2602617600000023 6.3764624415000002 11.401416310000002 7.5000000000000009 8.5000000000000018 11.500000000000002 13.915181070000001 9.8819687750000025 11.500000000000002 14.731248445 1.0000000180025095e-35 7.7361240375000007 8.2719111100000031 14.500000000000002 16.500000000000004 3.0906703465000005 12.489947345000003 6.5000000000000009 20.500000000000004 9.1440380300000026 16.327950375000004 9.5000000000000018 7.5000000000000009 5.5000000000000009 2.5000000000000004 8.1873180550000004 3.9657305590000007 2.5000000000000004 5.5000000000000009 2.5000000000000004
decision_type=2 2 2 2 2 2 2 2 2 2 2 2 2 2 2 2 2 2 2 2 2 2 2 2 2 2 2 2 2 2
left_child=1 13 4 -3 5 12 7 22 27 10 -10 -5 -2 15 20 -1 17 18 -6 -20 -9 24 23 -4 -15 -26 -7 28 -8 -29
right_child=2 3 6 11 16 26 8 14 9 -11 -12 -13 -14 21 -16 -17 -18 -19 19 -21 -22 -23 -24 -25 25 -27 -28 29 -30 -31
leaf_value=-1.7801867535689166 -0.44162728057602063 -0.80694420590624039 1.5208707089096232 -0.17003139972552789 2.1475945048713445 -1.5094391250610353 3.8775260744514046 2.0762814922930395 5.7180412104872413 -2.841239531313787 0.31300639046563045 0.55959919542838665 0.64494355114249069 -1.4721946580858714 3.3722674276695721 -1.1988339214034718 2.9286367821739989 0.8699593829091703 -0.42085415432994494 2.7021571885877189 5.1252610334195197 -1.6910182225212322 2.3149375739149174 -0.019188595784328858 -0.7717366947061356 0.33401472031337703 3.5110974336289011 1.106979068481561 0.45314957570246978 3.8765743006256645
leaf_weight=2534 1071 3041 591 2850 1053 20 91 1502 61 61 54 3131 1290 801 700 6002 256 1351 207 90 64 771 416 347 3126 473 212 66 99 999
leaf_count=2534 1071 3041 591 2850 1053 20 91 1502 61 61 54 3131 1290 801 700 6002 256 1351 207 90 64 771 416 347 3126 473 212 66 99 999
internal_value=-0.000489925 -0.775672 1.66153 -0.131501 0.975802 0.413867 2.41501 2.11668 3.16972 1.09311 3.18002 0.211924 0.152052 -1.19967 2.56274 -1.37141 1.46856 1.33018 1.79074 0.525513 2.20089 -0.91616 1.37016 0.951147 -0.780384 -0.626413 3.07829 3.46094 2.09325 3.70494
internal_weight=33330 22729 10601 9022 5550 2593 5051 3620 1431 176 115 5981 2361 13707 2266 8536 2957 2701 1350 297 1566 5171 1354 938 4400 3599 232 1255 190 1065
internal_count=33330 22729 10601 9022 5550 2593 5051 3620 1431 176 115 5981 2361 13707 2266 8536 2957 2701 1350 297 1566 5171 1354 938 4400 3599 232 1255 190 1065
is_linear=0
shrinkage=0.1


Tree=9
num_leaves=31
num_cat=0
split_feature=6 6 7 3 3 3 4 1 4 4 1 3 4 1 1 7 3 7 7 4 3 7 4 6 4 7 4 1 4 4
split_gain=3.54059e+06 745036 242891 220069 126209 122024 110204 104098 153888 114989 87520.4 84279.4 102589 80602.1 78753 74834.4 98022.6 96096.7 90495.6 72179.1 68238.5 64392.7 61436.2 59090.1 57017.4 56277.8 57119.8 56136.6 62905.6 70250.9
threshold=10.008132925000002 7.1361774220000012 8.4041756600000017 7.5000000000000009 10.500000000000002 19.500000000000004 11.500000000000002 150.31346047107741 11.500000000000002 10.500000000000002 33.031570603903205 12.500000000000002 6.5000000000000009 142.74789911388282 66.917821488866124 12.744182525000001 7.5000000000000009 15.377793885000001 11.082083095000002 9.5000000000000018 1.5000000000000002 9.5108624550000016 10.500000000000002 15.063678835000001 3.5000000000000004 12.744182525000001 1.5000000000000002 67.593950622240172 4.5000000000000009 1.5000000000000002
decision_type=2 2 2 2 2 2 2 2 2 2 2 2 2 2 2 2 2 2 2 2 2 2 2 2 2 2 2 2 2 2
left_child=1 10 4 6 -2 13 -3 9 22 11 -1 24 -13 -6 -8 18 17 -17 21 -15 -16 -10 23 -9 25 26 -4 -5 29 -29
right_child=2 3 7 27 5 -7 14 8 15 -11 -12 12 -14 19 20 16 -18 -19 -20 -21 -22 -23 -24 -25 -26 -27 -28 28 -30 -31
leaf_value=-1.148036266726348 0.20308427660036288 -0.67428541316666768 -1.1111295513808728 0.12549843846374717 1.7986608264625339 0.5004903054114167 -1.2953270497348379 2.3813376059242723 3.4671993664332796 3.0139990928179934 -0.63087566132149986 3.124416723166684 0.98599001224516769 2.9568062015227827 -0.35054237341880801 6.5218858916184006 -2.5893109453135525 -1.5508472347259523 4.1811779788949277 6.972055634483695 4.0630785160594511 -3.5005872991349962 4.3612633931585867 3.5736798691705669 0.71140237303738363 -0.53201727398106313 3.4017652077296763 -0.0067792276563665797 0.52560056091717378 2.0593553822087185
leaf_weight=11537 1195 3036 32 2203 446 508 68 1772 21 564 4568 521 394 149 50 29 116 30 88 64 117 36 234 543 1308 61 227 223 2562 628
leaf_count=11537 1195 3036 32 2203 446 508 68 1772 21 564 4568 521 394 149 50 29 116 30 88 64 117 36 234 543 1308 61 227 223 2562 628
internal_value=-0.000440936 -0.595761 1.78395 0.139244 0.92545 1.66515 -0.512797 2.12327 2.5576 1.72221 -1.00135 1.43571 2.20361 2.56294 1.57349 0.490572 -0.901433 2.41711 2.17058 4.16327 2.74164 -0.933508 2.81709 2.66101 1.00412 2.2006 2.84419 0.519022 0.77303 1.51794
internal_weight=33330 24992 8338 8887 2362 1167 3271 5976 2869 3107 16105 2543 915 659 235 320 175 59 145 213 167 57 2549 2315 1628 320 259 5616 3413 851
internal_count=33330 24992 8338 8887 2362 1167 3271 5976 2869 3107 16105 2543 915 659 235 320 175 59 145 213 167 57 2549 2315 1628 320 259 5616 3413 851
is_linear=0
shrinkage=0.1


Tree=10
num_leaves=31
num_cat=0
split_feature=6 6 1 3 4 3 3 3 7 4 4 3 7 4 7 4 3 4 4 7 4 1 6 7 7 6 7 4 4 7
split_gain=2.83431e+06 492428 339341 173345 148715 135101 99350.9 69659.8 65239.7 61702.4 79475.8 60873.4 91422.2 83504.6 142711 75650.9 67224.3 60415.9 61538.3 60216.1 52905.3 60109.2 52165.5 49839.9 47609.2 45673 54770.7 43813.4 95376.8 83809.9
threshold=9.4604326500000031 6.7481041625000007 148.57080187076215 8.5000000000000018 10.500000000000002 10.500000000000002 20.500000000000004 13.500000000000002 10.847894900000002 7.5000000000000009 2.5000000000000004 7.5000000000000009 10.315977137500001 11.500000000000002 12.744182525000001 2.5000000000000004 21.500000000000004 3.5000000000000004 1.5000000000000002 5.4504801500000015 11.500000000000002 77.527673162597196 7.8638761600000011 14.295544545000002 11.459395360000002 5.3674904700000008 2.0309812250000001 5.5000000000000009 10.500000000000002 15.851579835000003
decision_type=2 2 2 2 2 2 2 2 2 2 2 2 2 2 2 2 2 2 2 2 2 2 2 2 2 2 2 2 2 2
left_child=1 7 4 20 5 17 23 -1 -6 10 -9 12 -4 15 -15 -13 -17 18 -2 -19 -3 -22 -5 -7 -8 -12 -27 -14 -29 -30
right_child=2 3 11 22 8 6 24 9 -10 -11 25 13 27 14 -16 16 -18 19 -20 -21 21 -23 -24 -25 -26 26 -28 28 29 -31
leaf_value=-1.1138661874267883 -0.9011316259702048 -0.64432914603489044 0.48631486489335435 -0.00076375300161985328 1.4974068848886224 1.6741216829667491 -0.1452135927613499 -1.2492502662220839 3.1777013678299753 -1.1332663237563165 -0.45805566313147339 0.805126303010262 3.0306083389255396 3.0753756316823768 -2.0709579365924724 3.147350017187033 1.6334450252595407 -0.94885716096542227 1.749738056144273 0.34317685978842138 -0.066680786077832357 3.7424027339137838 0.63977659469829318 6.695318455696107 2.1132590165786573 3.8126988572153184 0.19622390126886732 0.40082999765872956 4.1540845769643786 -2.4287342288277367
leaf_weight=8571 108 3126 447 2144 642 1704 515 999 361 2030 2455 195 391 113 103 1603 359 443 463 1942 145 58 3124 20 114 44 868 272 160 22
leaf_count=8571 108 3126 447 2144 642 1704 515 999 361 2030 2455 195 391 113 103 1603 359 443 463 1942 145 58 3124 20 114 44 868 272 160 22
internal_value=0.0171094 -0.581042 1.42984 0.0221289 0.985446 0.774468 1.33988 -0.927502 2.10218 -0.677764 -0.465975 2.1952 1.64288 2.49592 0.621337 2.68364 2.87034 0.324395 1.24835 0.103189 -0.54274 1.02163 0.379086 1.73237 0.264112 -0.233575 0.370703 2.25469 1.58645 3.35836
internal_weight=33541 23564 9977 8597 6312 5309 2353 14967 1003 6396 4366 3665 1292 2373 216 2157 1962 2956 571 2385 3329 203 5268 1724 629 3367 912 845 454 182
internal_count=33541 23564 9977 8597 6312 5309 2353 14967 1003 6396 4366 3665 1292 2373 216 2157 1962 2956 571 2385 3329 203 5268 1724 629 3367 912 845 454 182
is_linear=0
shrinkage=0.1


Tree=11
num_leaves=31
num_cat=0
split_feature=6 1 1 3 4 7 3 3 7 1 4 4 4 1 4 3 1 1 4 4 3 4 4 4 4 1 3 3 4 4
split_gain=2.30497e+06 424781 230526 148912 138312 107670 101860 100278 68034.8 64161.8 63765.4 57045.2 54605.4 63015.6 109587 58640.4 52774.5 52170.6 50012.3 77246.8 49186.9 49672.3 48739.4 48059 46929.9 49083.4 46158.6 45895.6 48916 45074.6
threshold=8.567068207500002 123.91823818270392 38.203163107169097 10.500000000000002 11.500000000000002 7.1379896650000001 8.5000000000000018 18.500000000000004 6.9106671975000014 181.53272564050755 4.5000000000000009 9.5000000000000018 10.500000000000002 164.74375119060676 11.500000000000002 7.5000000000000009 102.297023136085 173.23522188917187 1.5000000000000002 2.5000000000000004 13.500000000000002 11.500000000000002 1.5000000000000002 11.500000000000002 5.5000000000000009 204.36259805631749 13.500000000000002 14.500000000000002 7.5000000000000009 2.5000000000000004
decision_type=2 2 2 2 2 2 2 2 2 2 2 2 2 2 2 2 2 2 2 2 2 2 2 2 2 2 2 2 2 2
left_child=2 3 27 4 16 11 -4 10 23 12 22 24 15 -14 -15 -7 -2 -13 -11 -20 -12 -22 -5 -9 25 -3 -26 -1 29 -29
right_child=1 5 6 7 -6 9 -8 8 -10 18 20 17 13 14 -16 -17 -18 -19 19 -21 21 -23 -24 -25 26 -27 -28 28 -30 -31
leaf_value=-1.0398119915969803 -0.34218285982509328 0.78500166880733824 -0.67928400648805731 0.67586991737391489 2.0817591398954391 0.83204587754870529 0.080211330936477213 -0.62990555947355065 0.99801741223141482 6.5271796008636223 0.39573194652795796 0.82416711392467978 3.0702772918204779 3.2396957989249913 -2.6108775583364197 1.823893569134484 0.48410845222850318 4.8228087823269732 -0.63419762729970097 2.497698727993463 1.8671389705900958 -0.41383382973295674 2.9913078677647684 2.341150107383728 -1.3858310755756167 4.8244799621177448 0.90672099674875684 -1.1085268939805513 -1.114578462503425 -0.24219477010349522
leaf_weight=8108 2274 340 2799 118 330 979 4784 588 872 29 530 73 451 70 59 1524 1171 59 83 1539 823 108 396 60 216 33 148 779 1576 2622
leaf_count=8108 2274 340 2799 118 330 979 4784 588 872 29 530 73 451 70 59 1524 1171 59 83 1539 823 108 396 60 216 33 148 779 1576 2622
internal_value=0.0153985 1.0658 -0.638839 0.561501 0.126026 1.72013 -0.20013 1.03186 0.421287 1.90795 1.50178 0.696978 1.63854 2.51281 0.563852 1.43595 -0.0613158 2.61144 2.41103 2.33744 1.16475 1.60254 2.45975 -0.354808 0.354089 1.14238 -0.453695 -0.89308 -0.654039 -0.440628
internal_weight=33541 12873 20668 7270 3775 5603 7583 3495 1520 4734 1975 869 3083 580 129 2503 3445 132 1651 1622 1461 931 514 648 737 373 364 13085 4977 3401
internal_count=33541 12873 20668 7270 3775 5603 7583 3495 1520 4734 1975 869 3083 580 129 2503 3445 132 1651 1622 1461 931 514 648 737 373 364 13085 4977 3401
is_linear=0
shrinkage=0.1


Tree=12
num_leaves=31
num_cat=0
split_feature=6 6 0 3 4 3 3 0 4 4 3 4 4 6 4 0 3 3 4 3 4 0 6 0 0 3 4 4 4 4
split_gain=1.87291e+06 327359 224667 113625 100599 88879.9 64752.8 58754 48036.4 74548.4 78579.1 81926.8 83462.7 76005.6 49479.2 47098.8 42683.6 40604.5 40221.4 38356.8 37400.8 44199.3 36044 35084.6 50125.6 34923.9 36190.1 46493.7 33377.6 65826.9
threshold=9.4604326500000031 6.7481041625000007 12.188962295000001 8.5000000000000018 10.500000000000002 9.5000000000000018 20.500000000000004 3.5081199105000005 11.500000000000002 10.500000000000002 7.5000000000000009 5.5000000000000009 6.5000000000000009 13.755022845000003 2.5000000000000004 10.161721100000003 22.500000000000004 2.5000000000000004 6.5000000000000009 9.5000000000000018 11.500000000000002 8.3489882500000032 7.8638761600000011 12.744182525000001 13.161885195000002 12.500000000000002 8.5000000000000018 2.5000000000000004 3.5000000000000004 1.5000000000000002
decision_type=2 2 2 2 2 2 2 2 2 2 2 2 2 2 2 2 2 2 2 2 2 2 2 2 2 2 2 2 2 2
left_child=1 7 4 20 5 28 18 -1 9 10 11 13 -13 -4 -12 19 -16 -14 -7 -6 -3 -22 -5 -10 -25 -9 27 -27 29 -2
right_child=2 3 8 22 15 6 -8 25 23 -11 14 12 17 -15 16 -17 -18 -19 -20 -21 21 -23 -24 24 -26 26 -28 -29 -30 -31
leaf_value=-1.0237779046071391 -1.4370013183735786 -0.52332885856796785 0.91012418887801683 -0.00733014637406276 1.878549300956962 1.725867230094817 0.18044009102606151 -0.78548189050764516 2.4947229119203986 3.4133475097241224 0.60857413639624924 -2.1417181256835853 1.994116168354918 3.2367841452682691 2.450517578462962 2.1646701810514251 0.83877396661727155 -0.25554666415422778 0.78048891941866572 -0.39562434818384784 -0.50651306920443417 2.4506953826703524 0.52511054977426419 -3.1565692492574455 0.68649581074714661 -0.95543259576515782 -0.8860136224837728 -0.044041247382272969 0.073721101981642598 1.4848627066652189
leaf_weight=5266 94 3126 358 2144 139 1139 629 5198 80 297 195 127 163 231 1609 705 183 158 744 159 108 95 3124 40 224 711 1161 2631 2274 429
leaf_count=5266 94 3126 358 2144 139 1139 629 5198 80 297 195 127 163 231 1609 705 183 158 744 159 108 95 3124 40 224 711 1161 2631 2274 429
internal_value=0.0138586 -0.472377 1.16226 0.0194156 0.800669 0.627145 1.05889 -0.75486 1.78502 1.90154 1.75306 1.04743 0.0282731 1.82262 2.12131 1.71915 2.28593 0.886805 1.35233 0.665148 -0.437913 0.877402 0.308415 0.660146 0.104213 -0.608884 -0.405029 -0.237937 0.239389 0.959709
internal_weight=33541 23564 9977 8597 6312 5309 2512 14967 3665 3321 3024 1037 448 589 1987 1003 1792 321 1883 298 3329 203 5268 344 264 9701 4503 3342 2797 523
internal_count=33541 23564 9977 8597 6312 5309 2512 14967 3665 3321 3024 1037 448 589 1987 1003 1792 321 1883 298 3329 203 5268 344 264 9701 4503 3342 2797 523
is_linear=0
shrinkage=0.1


Tree=13
num_leaves=31
num_cat=0
split_feature=6 0 0 3 7 4 0 3 3 5 4 3 3 7 7 4 7 4 0 6 4 0 3 6 4 7 5 4 7 3
split_gain=1.52864e+06 344846 126720 100309 90265.9 65186 63294.4 55952.3 55596.7 50737.3 53448 43656.1 74178.1 73860.4 51290.9 49026.6 49264.6 40314.5 51567.9 43794.1 49257.9 38891.3 70037.6 38885.8 36226 89792.8 44860.4 39085 44711 39150.5
threshold=10.008132925000002 7.3574874100000009 13.161885195000002 7.5000000000000009 8.2719111100000031 11.500000000000002 4.2609020995000018 12.500000000000002 21.500000000000004 1.0000000180025095e-35 1.5000000000000002 18.500000000000004 13.500000000000002 5.3261129415000008 4.4614979975000013 1.5000000000000002 1.7076636610000002 11.500000000000002 9.5439619225000012 8.4820608000000011 4.5000000000000009 8.8049800200000004 1.5000000000000002 9.0204473600000004 11.500000000000002 15.063678835000001 1.0000000180025095e-35 10.500000000000002 6.8712966400000015 2.5000000000000004
decision_type=2 2 2 2 2 2 2 2 2 2 2 2 2 2 2 2 2 2 2 2 2 2 2 2 2 2 2 2 2 2
left_child=1 6 4 5 9 -3 -1 -6 -9 10 -2 12 14 -13 -5 -14 -17 19 -19 -18 23 -7 -23 -21 27 26 -26 28 -4 -29
right_child=2 3 24 11 7 21 -8 8 -10 -11 -12 13 15 -15 -16 16 17 18 -20 20 -22 22 -24 -25 25 -27 -28 29 -30 -31
leaf_value=-0.86169554733852216 -2.7732936933636667 -0.43987377398341554 0.27395431739196446 2.0550993633310575 0.90556502532499561 -0.12905834964429491 -0.46970034205147704 1.9579649064744744 0.58853909863519893 1.1300162358408459 0.18721432673492042 -1.0314458521556169 -0.77270909038208835 0.40834508925911939 0.023271321310964169 4.1268409329548223 0.70784341528067374 0.38482506929048854 -4.6485609372456871 5.1380851612574823 1.364024750368604 -0.95679626510693483 4.1809691245297351 2.1202120795845985 3.4684536394618806 -2.5828134945460732 0.12681416536306409 -0.68467794927683745 1.9726751836407368 3.7897117159160025
leaf_weight=7241 64 2821 171 134 2452 99 9554 1324 382 636 1293 496 131 1265 1706 57 643 134 24 69 539 39 83 112 84 63 77 22 1650 176
leaf_count=7241 64 2821 171 134 2452 99 9554 1324 382 636 1293 496 131 1265 1706 57 643 134 24 69 539 39 83 112 84 63 77 22 1650 176
internal_value=0.0124728 -0.377565 1.18096 0.147562 0.946331 -0.310307 -0.638705 1.21155 1.65133 0.393009 0.0475883 0.409867 0.611844 0.00281624 0.171241 1.08622 1.24054 1.13238 -0.37974 1.30766 1.84333 1.34357 2.53857 3.27067 1.82438 0.617846 1.87028 1.95824 1.81316 3.29256
internal_weight=33541 25147 8394 8352 6151 3042 16795 4158 1706 1993 1357 5310 3549 1761 1840 1709 1578 1521 158 1363 720 221 122 181 2243 224 161 2019 1821 198
internal_count=33541 25147 8394 8352 6151 3042 16795 4158 1706 1993 1357 5310 3549 1761 1840 1709 1578 1521 158 1363 720 221 122 181 2243 224 161 2019 1821 198
is_linear=0
shrinkage=0.1


Tree=14
num_leaves=31
num_cat=0
split_feature=6 0 0 3 3 4 7 7 3 4 5 6 7 4 4 7 3 7 4 4 3 4 7 4 4 7 6 7 3 7
split_gain=1.2426e+06 208735 153394 99936.4 67488.3 76841.2 64959.3 59354.1 39322.4 40210.5 38619.4 36753.5 39928.3 34891.6 38072.6 44327.3 44247.9 43989.1 49569.2 34440.9 34188.7 46663.6 36421.9 34013.5 80448.7 46825.3 56255.5 44617.5 43686.6 36870
threshold=8.8051340450000009 11.131856905000001 5.7473098580000013 12.500000000000002 10.500000000000002 11.500000000000002 7.1379896650000001 11.082083095000002 20.500000000000004 1.5000000000000002 1.0000000180025095e-35 16.327950375000004 17.087083040000007 2.5000000000000004 6.5000000000000009 7.6950610230000009 16.500000000000004 2.3605190255000008 4.5000000000000009 6.5000000000000009 15.500000000000002 4.5000000000000009 9.4265779550000026 10.500000000000002 9.5000000000000018 12.744182525000001 12.489947345000003 10.11924555 10.500000000000002 11.804309855000001
decision_type=2 2 2 2 2 2 2 2 2 2 2 2 2 2 2 2 2 2 2 2 2 2 2 2 2 2 2 2 2 2
left_child=2 4 13 -4 5 -2 10 8 19 -10 -3 12 20 -1 16 -16 -15 18 -18 -6 23 22 -22 24 -8 -25 -27 -26 -28 -29
right_child=1 6 3 -5 7 -7 11 -9 9 -11 -12 -13 -14 14 15 -17 17 -19 -20 -21 21 -23 -24 25 27 26 28 29 -30 -31
leaf_value=-1.0740801180303399 -0.016913863451209651 0.064428087558065145 -0.44655952553386008 0.19291648751596732 1.230461627944279 1.6461158506205824 1.1878325705254258 1.6930149103409571 -3.4694738301363857 0.10468502170310692 1.5619316367534646 2.3850836570986091 3.1114398025884862 -0.61073848136469833 -0.96604716971812266 -0.2796665199712855 3.3876419441609444 -0.16331134329096048 0.17242287368070885 0.34562669412197855 -0.8221937611015564 2.0001592795491598 1.3281371892652882 2.4644961275285886 1.9976028068741756 3.0976687505841256 0.87285357588721857 -2.3538332508669959 -2.6430833197476571 -0.12457552313301634
leaf_weight=1981 3120 630 5367 4487 945 305 1768 575 33 682 237 361 123 3109 3881 1242 79 1190 122 823 109 1107 284 356 67 63 93 108 57 237
leaf_count=1981 3120 630 5367 4487 945 305 1768 575 33 682 237 361 123 3109 3881 1242 79 1190 122 823 109 1107 284 356 67 63 93 108 57 237
internal_value=0.0112255 0.822344 -0.445515 -0.155375 0.436051 0.131181 1.26955 0.777509 0.565501 -0.0602762 0.47378 1.41532 1.33524 -0.691899 -0.613223 -0.799644 -0.400993 0.0678065 1.43612 0.818573 1.28382 1.66783 0.731735 1.07429 0.894582 1.7628 0.590013 -0.363833 -0.463202 -0.82243
internal_weight=33541 12083 21458 9854 6483 3425 5600 3058 2483 715 867 4733 4372 11604 9623 5123 4500 1391 201 1768 4249 1500 393 2749 2180 569 213 412 150 345
internal_count=33541 12083 21458 9854 6483 3425 5600 3058 2483 715 867 4733 4372 11604 9623 5123 4500 1391 201 1768 4249 1500 393 2749 2180 569 213 412 150 345
is_linear=0
shrinkage=0.1


Tree=15
num_leaves=31
num_cat=0
split_feature=0 0 6 4 3 4 4 3 4 3 6 4 4 4 3 4 4 6 3 3 3 3 4 0 6 3 4 3 6 0
split_gain=1.06367e+06 254445 69834.2 81818.3 62273.2 93652.3 64386.7 59488.7 48275.3 47943.2 47293.4 42696 42661.3 42204.6 41866.6 46326.4 71587.9 41317.8 39408 34894.1 41732.3 33181.7 32825.4 32698.4 32582.5 28041.8 25426.8 35941.8 25313.6 51344.9
threshold=10.161721100000003 7.7361240375000007 14.295544545000002 10.500000000000002 13.500000000000002 11.500000000000002 1.5000000000000002 8.5000000000000018 4.5000000000000009 13.500000000000002 8.1804147050000022 3.5000000000000004 11.500000000000002 3.5000000000000004 22.500000000000004 2.5000000000000004 6.5000000000000009 5.4504801500000015 19.500000000000004 9.5000000000000018 1.5000000000000002 21.500000000000004 11.500000000000002 2.7622714220000009 11.528106670000001 2.5000000000000004 7.5000000000000009 15.500000000000002 12.489947345000003 13.59345062
decision_type=2 2 2 2 2 2 2 2 2 2 2 2 2 2 2 2 2 2 2 2 2 2 2 2 2 2 2 2 2 2
left_child=1 9 3 7 5 13 21 11 10 23 -8 -2 -4 -3 15 -9 -17 -11 -10 20 -7 -6 -5 -1 -18 -13 -26 -28 -24 -30
right_child=2 4 12 22 6 19 8 14 18 17 -12 25 -14 -15 -16 16 24 -19 -20 -21 -22 -23 28 -25 26 -27 27 -29 29 -31
leaf_value=-1.045477901977981 1.195692381319631 0.45488594766605805 1.9418309672969849 2.2743580083204682 -0.54227343126233796 -0.045762206358569008 -0.097944186215062401 -0.016879674543540318 0.78644802167518912 -0.51751259845660302 1.9715263794893507 0.6204259906680013 0.061088472735272709 -0.3620063794189527 -0.072581992788106856 1.7347001559750403 0.087424881810347632 -0.031303823660400548 -0.059600934008684915 -0.30689144040026317 2.7967967904461215 -3.6592541384142501 1.5538710427007929 -0.58653814223546219 0.095575345251709229 -0.13234838992121176 0.56757764839092084 2.3962179148898404 -1.065900062383818 2.9333935419718427
leaf_weight=1895 498 779 1008 489 166 70 148 313 1289 4748 435 817 137 3362 321 1450 517 2766 961 82 197 43 453 8588 160 1255 196 238 112 45
leaf_count=1895 498 779 1008 489 166 70 148 313 1289 4748 435 817 137 3362 321 1450 517 2766 961 82 197 43 453 8588 160 1255 196 238 112 45
internal_value=-0.0116456 -0.327079 0.993811 0.873208 0.160927 -0.0757481 0.510259 0.722466 0.635218 -0.531317 1.44617 0.364298 1.7168 -0.208334 1.01057 1.13155 1.27191 -0.338533 0.425091 1.49742 2.05156 -1.18357 1.66396 -0.6695 0.667899 0.164474 1.17313 1.57038 1.17463 0.0803943
internal_weight=33538 25529 8009 6864 7532 4490 3042 5765 2833 17997 583 2570 1145 4141 3195 2874 2561 7514 2250 349 267 209 1099 10483 1111 2072 594 434 610 157
internal_count=33538 25529 8009 6864 7532 4490 3042 5765 2833 17997 583 2570 1145 4141 3195 2874 2561 7514 2250 349 267 209 1099 10483 1111 2072 594 434 610 157
is_linear=0
shrinkage=0.1


Tree=16
num_leaves=31
num_cat=0
split_feature=6 0 6 7 4 4 7 4 5 7 7 7 0 4 7 4 0 4 4 0 0 6 4 7 7 7 0 7 0 6
split_gain=863492 129827 120189 50108.3 69705 54659.1 37884.6 54638.8 47520.6 43395.2 36507.9 32737.1 32687 30448.3 70572.3 56659 45713.2 39285.5 35281.1 46457.3 34893.6 33813.5 31977.1 71632 49957.5 29649.1 79463.2 42586.5 28378.8 27969
threshold=9.2603309450000015 7.3574874100000009 10.836677335000001 4.8331328000000005 4.5000000000000009 9.5000000000000018 6.4548322805000007 11.500000000000002 1.0000000180025095e-35 12.028253115000002 7.2695899885000008 5.6219692620000012 3.5081199105000005 10.500000000000002 12.744182525000001 11.500000000000002 12.332508040000002 5.5000000000000009 6.5000000000000009 16.327950375000004 13.368791270000001 14.498637365000002 4.5000000000000009 12.646153945 8.943222255000002 14.075222135000002 13.161885195000002 15.063678835000001 14.075222135000002 13.915181070000001
decision_type=2 2 2 2 2 2 2 2 2 2 2 2 2 2 2 2 2 2 2 2 2 2 2 2 2 2 2 2 2 2
left_child=1 12 10 4 -4 -6 8 -8 -3 -9 -2 -10 -1 16 20 -16 -5 22 21 -20 -15 28 23 -18 -24 29 -27 -28 -19 -17
right_child=2 6 3 13 5 -7 7 9 11 -11 -12 -13 -14 14 15 25 17 18 19 -21 -22 -23 24 -25 -26 26 27 -29 -30 -31
leaf_value=-0.70607408990782006 -0.063094771494732832 -0.65085979546224859 2.0745772737313093 0.65110151100184366 -1.3742772520330782 1.5723623312101134 0.11398427723988147 1.7903907688848204 0.70951023121792922 -2.716182316904483 0.54374816085943589 -0.66205707123043089 -0.405531477378345 1.7658596142405465 1.8283120991475881 -4.0418746448144685 0.45310734450120027 -0.19457791789194173 0.92573713803790758 3.5748080180750956 3.418796668860109 -2.5109591412097219 4.0780023712630671 2.4395368899081973 1.7410719522291196 5.1234795643733104 1.5948003504011368 -2.7695611323340468 2.6416265694593846 0.015982923836543643
leaf_weight=5276 1543 1382 123 2206 271 82 3555 301 589 23 2773 247 11521 496 160 41 497 178 822 72 172 50 109 286 569 26 36 59 44 29
leaf_count=5276 1543 1382 123 2206 271 82 3555 301 589 23 2773 247 11521 496 160 41 497 178 822 72 172 50 109 286 569 26 36 59 44 29
internal_value=-0.0104811 -0.356462 0.733683 1.0112 0.0245327 -0.689789 0.0387953 0.227288 -0.290854 1.47048 0.326798 0.304274 -0.499933 1.09145 1.58822 0.440159 0.986715 1.26854 0.83567 1.13909 2.19147 -0.161586 1.61401 1.17867 2.11677 -0.722692 0.224952 -1.1157 0.367553 -2.36076
internal_weight=33538 22894 10644 6328 476 353 6097 3879 2218 324 4316 836 16797 5852 1019 351 4833 2627 1166 894 668 272 1461 783 678 191 121 95 222 70
internal_count=33538 22894 10644 6328 476 353 6097 3879 2218 324 4316 836 16797 5852 1019 351 4833 2627 1166 894 668 272 1461 783 678 191 121 95 222 70
is_linear=0
shrinkage=0.1


Tree=17
num_leaves=31
num_cat=0
split_feature=1 1 7 3 4 4 3 4 7 7 3 4 6 7 3 7 4 7 4 4 7 3 1 3 7 7 6 7 7 3
split_gain=703677 167529 66403 51166.8 70008.8 51710.7 43966.9 43363 43024.6 40714.8 40648.3 48581.9 39993.9 40823.8 39264 49786.2 34284.6 38070.7 34186.7 48924.2 98440.7 38991.1 42597 36591.6 33847.5 32457.2 31868.8 38882.8 31700.7 29139.3
threshold=103.2605757574742 59.847615124235695 7.1379896650000001 13.500000000000002 11.500000000000002 1.5000000000000002 15.500000000000002 4.5000000000000009 9.0663887250000013 6.4548322805000007 19.500000000000004 10.500000000000002 13.755022845000003 13.056272020000002 14.500000000000002 8.4458861350000021 3.5000000000000004 10.675775245000002 9.5000000000000018 4.5000000000000009 5.8668775465000005 5.5000000000000009 142.74789911388282 19.500000000000004 5.7072137670000007 1.6237207935000002 14.075222135000002 17.087083040000007 2.1777984610000005 9.5000000000000018
decision_type=2 2 2 2 2 2 2 2 2 2 2 2 2 2 2 2 2 2 2 2 2 2 2 2 2 2 2 2 2 2
left_child=1 14 18 4 16 -5 26 8 -8 10 11 -7 -10 -14 -1 -16 28 -18 19 20 25 -20 23 -23 -21 -2 27 -4 -3 -6
right_child=2 3 6 5 29 9 7 -9 12 -11 -12 -13 13 -15 15 -17 17 -19 21 24 -22 22 -24 -25 -26 -27 -28 -29 -30 -31
leaf_value=-0.54496741547107186 5.5521818679311998 3.8316014436575081 0.60417729324872083 -1.0713241330316763 1.7820034189728764 1.0683944016900229 -1.0149531206564748 1.5542775863930889 1.7224832798934615 0.85685080402259328 -0.55371442500912649 -1.528680889045491 -2.0544820279327793 2.199938756578109 -0.3461231815268076 0.45892415080917481 -0.5252654650300963 0.26599816990849168 -0.6521735788426466 -0.79165460656102482 -1.1652589490863967 2.3582887475452727 3.9623889868390076 -1.4256061613559723 0.50022183461363123 1.64383316475858 1.3811679430037953 3.8206147830737267 0.2800408934602937 -0.37320568299875029
leaf_weight=11334 23 26 3436 209 267 472 137 1709 260 1750 526 85 67 34 5777 886 2565 797 72 626 154 63 73 43 300 279 695 38 753 82
leaf_count=11334 23 26 3436 209 267 472 137 1709 260 1750 526 85 67 34 5777 886 2565 797 72 626 154 63 73 43 300 279 695 38 753 82
internal_value=-0.00943297 -0.265994 0.808365 0.129986 -0.0845481 0.446638 0.954086 1.315 0.493865 0.558623 0.0767225 0.672072 1.06646 -0.622301 -0.431717 -0.239074 -0.199182 -0.337688 0.2394 0.044407 0.89228 1.31302 2.10349 0.823313 -0.37312 1.94149 0.763024 0.63936 0.398578 1.27562
internal_weight=33538 25529 8009 7532 4490 3042 6376 2207 498 2833 1083 557 361 101 17997 6663 4141 3362 1633 1382 456 251 179 106 926 302 4169 3474 779 349
internal_count=33538 25529 8009 7532 4490 3042 6376 2207 498 2833 1083 557 361 101 17997 6663 4141 3362 1633 1382 456 251 179 106 926 302 4169 3474 779 349
is_linear=0
shrinkage=0.1


Tree=18
num_leaves=31
num_cat=0
split_feature=0 6 0 7 3 3 3 7 3 3 7 7 3 3 3 7 7 7 3 7 3 7 6 7 7 3 6 3 3 7
split_gain=574358 109209 64309.8 45777.6 44171 36928.2 49496.4 34704.4 45932.3 61443.3 29679 28637.4 27794.7 27663.4 28853.8 26323 25429.1 30853 23788.4 31888.2 36471.5 23697.1 23460.4 30808.3 23632.1 99789.7 31386.8 30858.5 23592.8 22809.6
threshold=8.764254547500002 10.836677335000001 6.2192358425000007 8.0254551015000022 13.500000000000002 8.5000000000000018 19.500000000000004 4.8331328000000005 4.5000000000000009 21.500000000000004 15.851579835000003 3.6032149455000004 15.500000000000002 15.500000000000002 17.500000000000004 11.459395360000002 11.876301140000002 13.056272020000002 5.5000000000000009 12.646153945 7.5000000000000009 12.489947345000003 14.075222135000002 17.087083040000007 11.528106670000001 11.500000000000002 16.327950375000004 5.5000000000000009 1.5000000000000002 15.377793885000001
decision_type=2 2 2 2 2 2 2 2 2 2 2 2 2 2 2 2 2 2 2 2 2 2 2 2 2 2 2 2 2 2
left_child=2 3 15 5 10 -2 11 8 -3 -10 -4 -7 22 18 -15 -1 -16 -18 -5 20 -20 -6 23 28 27 29 -27 -24 -9 -26
right_child=1 7 4 13 21 6 -8 12 9 -11 -12 -13 -14 14 16 -17 17 -19 19 -21 -22 -23 24 -25 25 26 -28 -29 -30 -31
leaf_value=-0.48600469078810993 -0.48927430086782897 -1.2710550454797718 -0.30547228525854514 0.70780908276834198 0.13608853930021703 1.8940150434417384 -0.43221361489863847 1.2244442736162053 1.5457072364395126 -1.919040197314638 3.5547128486633301 0.45300112502903422 1.1890378997316891 1.8673733079209631 0.31914209327392884 0.23587544613691339 3.5005822177728017 -0.033269975227969033 -1.0490957853149983 1.5320326691649797 0.20006867551352633 1.5859697732405786 0.86318762127412585 3.4385532705407393 2.2724659716541118 -2.6295174913350929 0.5624311053504546 3.1875360692540808 0.4520494629854217 0.65769547580802534
leaf_weight=12733 1187 177 4825 896 3087 168 635 469 228 66 20 770 2064 253 522 526 60 42 310 131 950 117 109 38 242 86 48 120 2522 137
leaf_count=12733 1187 177 4825 896 3087 168 635 469 228 66 20 770 2064 253 522 526 60 42 310 131 950 117 109 38 242 86 48 120 2522 137
internal_value=-0.00848967 0.537747 -0.322009 0.229439 -0.0990366 -0.0681952 0.249555 0.827379 0.00167273 0.767907 -0.289538 0.711093 0.89403 0.489069 0.966562 -0.457367 0.60133 2.04547 0.305964 0.0471185 -0.107265 0.189034 0.732561 0.609111 1.23651 0.859453 -1.48613 2.08119 0.573164 1.68876
internal_weight=33538 12230 21308 5924 8049 2760 1573 6306 471 294 4845 938 5835 3164 877 13259 624 102 2287 1391 1260 3204 3771 3029 742 513 134 229 2991 379
internal_count=33538 12230 21308 5924 8049 2760 1573 6306 471 294 4845 938 5835 3164 877 13259 624 102 2287 1391 1260 3204 3771 3029 742 513 134 229 2991 379
is_linear=0
shrinkage=0.1


end of trees

feature_importances:
month=168
hour=121
wind_lag_24h=111
wind_speed=78
wind_lag_1h=62
wind_speed_2=22
is_daytime=8

parameters:
[boosting: gbdt]
[objective: regression]
[metric: rmse]
[tree_learner: serial]
[device_type: cpu]
[data_sample_strategy: bagging]
[data: ]
[valid: ]
[num_iterations: 100]
[learning_rate: 0.1]
[num_leaves: 31]
[num_threads: 0]
[seed: 42]
[deterministic: 0]
[force_col_wise: 0]
[force_row_wise: 0]
[histogram_pool_size: -1]
[max_depth: -1]
[min_data_in_leaf: 20]
[min_sum_hessian_in_leaf: 0.001]
[bagging_fraction: 0.8]
[pos_bagging_fraction: 1]
[neg_bagging_fraction: 1]
[bagging_freq: 5]
[bagging_seed: 400]
[bagging_by_query: 0]
[feature_fraction: 0.9]
[feature_fraction_bynode: 1]
[feature_fraction_seed: 30056]
[extra_trees: 0]
[extra_seed: 12879]
[early_stopping_round: 0]
[early_stopping_min_delta: 0]
[first_metric_only: 0]
[max_delta_step: 0]
[lambda_l1: 0]
[lambda_l2: 0]
[linear_lambda: 0]
[min_gain_to_split: 0]
[drop_rate: 0.1]
[max_drop: 50]
[skip_drop: 0.5]
[xgboost_dart_mode: 0]
[uniform_drop: 0]
[drop_seed: 17869]
[top_rate: 0.2]
[other_rate: 0.1]
[min_data_per_group: 100]
[max_cat_threshold: 32]
[cat_l2: 10]
[cat_smooth: 10]
[max_cat_to_onehot: 4]
[top_k: 20]
[monotone_constraints: ]
[monotone_constraints_method: basic]
[monotone_penalty: 0]
[feature_contri: ]
[forcedsplits_filename: ]
[refit_decay_rate: 0.9]
[cegb_tradeoff: 1]
[cegb_penalty_split: 0]
[cegb_penalty_feature_lazy: ]
[cegb_penalty_feature_coupled: ]
[path_smooth: 0]
[interaction_constraints: ]
[verbosity: -1]
[saved_feature_importance_type: 0]
[use_quantized_grad: 0]
[num_grad_quant_bins: 4]
[quant_train_renew_leaf: 0]
[stochastic_rounding: 1]
[linear_tree: 0]
[max_bin: 255]
[max_bin_by_feature: ]
[min_data_in_bin: 3]
[bin_construct_sample_cnt: 200000]
[data_random_seed: 175]
[is_enable_sparse: 1]
[enable_bundle: 1]
[use_missing: 1]
[zero_as_missing: 0]
[feature_pre_filter: 1]
[pre_partition: 0]
[two_round: 0]
[header: 0]
[label_column: ]
[weight_column: ]
[group_column: ]
[ignore_column: ]
[categorical_feature: ]
[forcedbins_filename: ]
[precise_float_parser: 0]
[parser_config_file: ]
[objective_seed: 16083]
[num_class: 1]
[is_unbalance: 0]
[scale_pos_weight: 1]
[sigmoid: 1]
[boost_from_average: 1]
[reg_sqrt: 0]
[alpha: 0.9]
[fair_c: 1]
[poisson_max_delta_step: 0.7]
[tweedie_variance_power: 1.5]
[lambdarank_truncation_level: 30]
[lambdarank_norm: 1]
[label_gain: ]
[lambdarank_position_bias_regularization: 0]
[eval_at: ]
[multi_error_top_k: 1]
[auc_mu_weights: ]
[num_machines: 1]
[local_listen_port: 12400]
[time_out: 120]
[machine_list_filename: ]
[machines: ]
[gpu_platform_id: -1]
[gpu_device_id: -1]
[gpu_use_dp: 0]
[num_gpu: 1]

end of parameters

pandas_categorical:[]
