tree
version=v4
num_class=1
num_tree_per_iteration=1
label_index=0
max_feature_idx=7
objective=regression
feature_names=corrected_wind corrected_wind_2 corrected_wind_3 hour month is_daytime corrected_wind_lag_1h corrected_wind_lag_24h
feature_infos=[3.076952724116286:15.061373626458879] [9.4676380664466322:226.84497551579108] [29.131474739500014:3416.5969315282459] [0:23] [1:12] [0:1] [3.076952724116286:15.061373626458879] [3.076952724116286:15.061373626458879]
tree_sizes=2702 2753 2772 2771 2738 2748 2733 2734 2715 2736 2749 2762 2744 2748 2741 2767 2746 2726

Tree=0
num_leaves=31
num_cat=0
split_feature=6 6 0 0 7 6 6 3 4 4 3 0 7 0 7 7 7 0 4 4 3 3 3 4 3 7 0 0 3 4
split_gain=2.97263e+07 3.70295e+06 2.76784e+06 756753 613163 521042 306912 260728 210230 208454 143549 125597 120004 119231 116247 111670 104754 104062 157884 125673 104314 100938 85590.7 73775.2 120398 72337.6 70283.1 68266.5 63313.2 61368.8
threshold=6.7442503353996859 5.1260520933217535 7.889459314472643 4.4118867046687713 7.1396539396735124 6.0892220887447115 7.3142299571994744 8.5000000000000018 10.500000000000002 11.500000000000002 6.5000000000000009 8.9220536217720952 8.7083421388182263 3.7156469390456963 5.5478199183872441 6.5461888302468809 8.2555422043051312 11.067706461594735 4.5000000000000009 5.5000000000000009 7.5000000000000009 15.500000000000002 9.5000000000000018 11.500000000000002 4.5000000000000009 5.0886226925571334 6.3243382495930307 4.6839841420039523 19.500000000000004 9.5000000000000018
decision_type=2 2 2 2 2 2 2 2 2 2 2 2 2 2 2 2 2 2 2 2 2 2 2 2 2 2 2 2 2 2
left_child=1 3 6 13 7 9 12 -4 17 15 -5 -9 -2 -1 -8 -3 23 18 20 -19 -6 -13 -10 26 -25 -11 -7 -12 -29 -23
right_child=2 5 4 10 8 16 14 11 22 25 27 21 -14 -15 -16 -17 -18 19 -20 -21 -22 29 -24 24 -26 -27 -28 28 -30 -31
leaf_value=45.004532844614168 51.535904238351634 48.508214389458317 57.628691276963977 47.859120017925854 59.551022391804494 49.513618523015381 52.307474950237932 53.157166356721191 60.359394461257637 49.530122342388871 46.514622127422719 54.031355160144805 54.079733955704555 46.077782813709987 54.155895932515946 49.53327792203433 52.008349142768381 57.14325044902899 55.562064014055686 61.285894428387316 56.724463432413685 56.408897074886752 57.859157187718296 52.113904428943343 46.98946880574838 46.213734760397031 50.589497540758046 46.990547556552102 47.955699695250857 62.26685450468797
leaf_weight=1226 2039 4041 230 2821 182 1002 493 751 209 77 1995 277 204 6648 1098 1442 289 375 1132 91 462 169 397 62 176 451 1541 2540 928 20
leaf_count=1226 2039 4041 230 2821 182 1002 493 751 209 77 1995 277 204 6648 1098 1442 289 375 1132 91 462 169 397 62 176 451 1541 2540 928 20
internal_value=49.2146 47.5207 54.4738 46.6126 56.2172 49.1364 52.5208 54.541 57.0689 48.5951 47.2798 53.9574 51.7673 45.9107 53.5831 48.7778 50.1963 56.6222 56.2732 57.9522 57.5233 55.2471 58.7215 50.008 48.3244 46.6974 50.1656 46.9807 47.2488 57.0288
internal_weight=33368 25239 8129 16158 4295 9081 3834 1447 2848 6011 8284 1217 2243 7874 1591 5483 3070 2242 1776 466 644 466 606 2781 238 528 2543 5463 3468 189
internal_count=33368 25239 8129 16158 4295 9081 3834 1447 2848 6011 8284 1217 2243 7874 1591 5483 3070 2242 1776 466 644 466 606 2781 238 528 2543 5463 3468 189
is_linear=0
shrinkage=1


Tree=1
num_leaves=31
num_cat=0
split_feature=0 0 0 0 0 7 0 5 3 7 4 4 5 5 5 0 3 7 5 0 4 5 4 7 4 3 3 7 7 7
split_gain=2.40844e+07 3.00243e+06 2.24748e+06 601412 435468 398601 321774 190674 188119 180664 168876 156314 161409 136916 119035 115293 101503 91025.7 77331.8 75836.4 159626 121881 84677.4 71887.5 67159.1 110981 76786.8 66451.4 63972.9 62255.9
threshold=6.7442503353996859 5.1059469701000104 8.0735812929619524 4.492665226676162 6.0892220887447115 7.1396539396735124 7.3142299571994744 1.0000000180025095e-35 8.5000000000000018 5.5478199183872441 10.500000000000002 11.500000000000002 1.0000000180025095e-35 1.0000000180025095e-35 1.0000000180025095e-35 3.8407279714255105 15.500000000000002 5.0886226925571334 1.0000000180025095e-35 10.657115648852935 3.5000000000000004 1.0000000180025095e-35 2.5000000000000004 4.6113343278913677 10.500000000000002 19.500000000000004 9.5000000000000018 8.9220536217720952 6.2964704929389299 7.7432067550891572
decision_type=2 2 2 2 2 2 2 2 2 2 2 2 2 2 2 2 2 2 2 2 2 2 2 2 2 2 2 2 2 2
left_child=1 3 6 15 11 8 13 -6 -4 -8 19 12 28 29 -5 -1 -10 23 -12 20 -7 -22 -21 -13 25 -11 -26 -23 -3 -2
right_child=2 4 5 14 7 10 9 -9 16 24 18 17 -14 -15 -16 -17 -18 -19 -20 22 21 27 -24 -25 26 -27 -28 -29 -30 -31
leaf_value=-3.5499674140741457 2.6374795126580168 -0.31492861078507323 7.8738998496200452 -1.2902342298144709 1.6882986437398255 8.3548610956640221 2.7585951577694647 0.11438994114019366 3.749504552440051 3.7157401469337032 10.100941268619845 -2.2765524949133398 -0.94259329265585645 1.6026643227791784 -2.1054881389097191 -2.6884004111189697 5.8028269696810932 -2.7193433300241248 7.7035600437619056 1.5500601862158094 6.7364614277410242 5.4161832962077021 8.0251137172097753 3.519962715584299 7.2013984915105311 6.5721732440079466 4.5201587052694254 2.8798454696863471 0.63490822706385408 4.2773433101841434
leaf_weight=2015 721 1501 193 4000 1549 333 672 1530 679 697 236 40 2730 1192 3243 6777 373 462 313 21 714 379 528 46 205 169 223 142 1344 341
leaf_count=2015 721 1501 193 4000 1549 333 672 1530 679 697 236 40 2730 1192 3243 6777 373 462 313 21 714 379 528 46 205 169 223 142 1344 341
internal_value=0.0212264 -1.50372 4.75437 -2.33 -0.0638948 6.48135 3.15384 0.9062 5.00404 4.08882 7.17124 -0.551715 -0.393304 2.33832 -1.65526 -2.88586 4.47754 -2.16329 8.73413 6.76594 6.41178 5.88786 7.77743 0.823909 4.77964 4.27317 5.8044 4.7249 0.133782 3.16403
internal_weight=33368 25237 8131 16035 9202 3911 4220 3079 1245 1966 2666 6123 5575 2254 7243 8792 1052 548 549 2117 1568 1235 549 86 1294 866 428 521 2845 1062
internal_count=33368 25237 8131 16035 9202 3911 4220 3079 1245 1966 2666 6123 5575 2254 7243 8792 1052 548 549 2117 1568 1235 549 86 1294 866 428 521 2845 1062
is_linear=0
shrinkage=0.1


Tree=2
num_leaves=31
num_cat=0
split_feature=6 6 6 6 6 3 7 1 7 6 5 5 4 4 5 1 3 4 4 3 4 4 7 3 7 3 7 4 3 1
split_gain=1.95455e+07 2.44116e+06 1.83141e+06 494325 356460 305805 286349 274998 138814 133505 129070 123021 122199 110794 107131 96022.4 92286 87739.7 66095.7 93929.3 65896.6 64926.3 64256.5 62498.2 57599.8 57182.4 54035.3 47709.2 47451 47366.1
threshold=6.7442503353996859 5.1059469701000104 8.0735812929619524 4.492665226676162 6.1589189487314711 7.5000000000000009 8.0735812929619524 53.497959953958819 5.5478199183872441 10.657115648852935 1.0000000180025095e-35 1.0000000180025095e-35 11.500000000000002 6.5000000000000009 1.0000000180025095e-35 16.17857050672032 8.5000000000000018 11.500000000000002 10.500000000000002 19.500000000000004 10.500000000000002 3.5000000000000004 5.0886226925571334 11.500000000000002 6.9801219825092611 6.5000000000000009 6.9149332698613382 11.500000000000002 19.500000000000004 34.252109932171514
decision_type=2 2 2 2 2 2 2 2 2 2 2 2 2 2 2 2 2 2 2 2 2 2 2 2 2 2 2 2 2 2
left_child=1 3 7 15 12 17 9 11 -9 -7 -6 -2 14 -8 20 -1 -5 21 19 -10 24 -4 -14 -20 -3 -17 -24 -12 -18 -16
right_child=2 4 5 16 10 6 13 8 18 -11 27 -13 22 -15 29 25 28 -19 23 -21 -22 -23 26 -25 -26 -27 -28 -29 -30 -31
leaf_value=-2.9960708286431159 2.8282549263673955 -0.32060519256127679 9.0900368489010237 -1.07159343097153 1.5918511621410667 4.1778118805168303 5.7079283502543205 2.5807423734848274 3.3324619816728909 8.0310689001033708 0.37796763641210296 1.3529900285351066 0.68115571807412545 7.4292700032629257 -1.0136710752384426 -1.921494409835897 -2.0258346696288352 10.236604651889287 6.3775036711441846 6.1389392791522877 2.0133289858081636 6.6748814730939365 -2.7756528404303284 3.9391643833430088 0.64878756269142868 -2.5996032845829111 0.040461201784087394 -1.8942431587874891 -1.2999958142382482 -0.13041303992249764
leaf_weight=3642 1131 1969 142 3075 1370 1419 1024 704 694 96 1217 1130 85 589 2065 2087 2826 111 247 144 169 515 403 183 890 3077 82 100 1322 860
leaf_count=3642 1131 1969 142 3075 1370 1419 1024 704 694 96 1217 1130 85 589 2065 2087 2826 111 247 144 169 515 403 183 890 3077 82 100 1322 860
internal_value=0.0191037 -1.35443 4.28367 -2.09992 -0.0569987 5.84822 5.40923 2.84369 3.70674 4.42198 0.912318 2.09095 -0.456286 6.33649 -0.322356 -2.60286 -1.48674 7.63621 4.3319 3.81472 0.0945845 7.19688 -1.85504 5.33979 -0.0188355 -2.32555 -2.29953 0.205438 -1.7945 -0.753978
internal_weight=33368 25239 8129 16029 9210 3896 3128 4233 1972 1515 2687 2261 6523 1613 5953 8806 7223 768 1268 838 3028 657 570 430 2859 5164 485 1317 4148 2925
internal_count=33368 25239 8129 16029 9210 3896 3128 4233 1972 1515 2687 2261 6523 1613 5953 8806 7223 768 1268 838 3028 657 570 430 2859 5164 485 1317 4148 2925
is_linear=0
shrinkage=0.1


Tree=3
num_leaves=31
num_cat=0
split_feature=0 0 6 0 7 0 6 4 5 5 4 5 0 5 4 7 4 6 0 4 5 7 7 4 7 7 5 6 4 7
split_gain=1.5847e+07 1.98191e+06 1.48651e+06 484200 307526 235867 170584 126039 115784 102662 98531.6 98280.3 92128 90998.1 86986.1 82618.9 73896.1 81395.9 71485.6 120969 90899.3 89736.5 68892.2 67938.9 67366 49898.6 49361.3 46331.4 58417.7 109917
threshold=6.7442503353996859 5.2417589769247721 7.889459314472643 4.5581034070540243 7.1396539396735124 6.2948141115737739 7.3142299571994744 10.500000000000002 1.0000000180025095e-35 1.0000000180025095e-35 11.500000000000002 1.0000000180025095e-35 3.7156469390456963 1.0000000180025095e-35 10.500000000000002 8.7613932036051754 10.500000000000002 10.3890958970429 10.657115648852935 4.5000000000000009 1.0000000180025095e-35 8.8428667899397588 5.5478199183872441 2.5000000000000004 6.8800260441925696 3.7801270534150144 1.0000000180025095e-35 4.8754371546575852 3.5000000000000004 5.4917776734223276
decision_type=2 2 2 2 2 2 2 2 2 2 2 2 2 2 2 2 2 2 2 2 2 2 2 2 2 2 2 2 2 2
left_child=1 3 6 12 13 10 15 18 -7 27 11 14 -1 -4 24 25 17 -15 19 -6 -21 -22 -8 -20 -3 -2 -9 -5 29 -29
right_child=2 5 4 9 7 8 22 26 -10 -11 -12 -13 -14 16 -16 -17 -18 -19 23 20 21 -23 -24 -25 -26 -27 -28 28 -30 -31
leaf_value=-3.1132103167971081 5.3539170600272517 -0.21047558686073564 5.4136776712460399 -1.1820753784455376 6.1669532663193269 1.7497714624985656 2.3005956968239376 8.0111527566129848 0.24839116543184631 -1.6341077142392633 -1.5936610726873854 -0.56056265093512625 -2.1848940027009656 2.9597373509566167 2.5658691681589292 4.090897628228376 5.708491098513254 7.3647880082780661 0.79835983709920022 5.1476448862817499 4.2171865605116885 1.0083125374181483 3.7067300871172812 6.5982371434343579 0.83999635164554309 1.6491777200385185 6.2005428000500338 -1.1775346019277066 -0.74615533409651591 2.8957298687526158
leaf_weight=1226 37 1803 312 2335 636 1013 525 269 1042 3425 501 2725 8351 899 157 157 130 44 21 685 299 123 1036 528 923 2088 342 132 1471 133
leaf_count=1226 37 1803 312 2335 636 1013 525 269 1042 3425 501 2725 8351 899 157 157 130 44 21 685 299 123 1036 528 923 2088 342 132 1471 133
internal_value=0.0171934 -1.21978 3.85652 -1.83258 5.13655 0.0617412 2.42827 5.7215 0.988488 -1.23064 -0.250006 -0.129968 -2.30373 3.91049 0.277028 1.87723 3.4734 3.16528 5.38129 5.06786 4.4364 3.2819 3.23381 6.37638 0.145205 1.71368 6.99769 -0.891192 -0.499941 0.866783
internal_weight=33368 25237 8131 17073 4288 8164 3843 2903 2055 7496 6109 5608 9577 1385 2883 2282 1073 943 2292 1743 1107 422 1561 549 2726 2125 611 4071 1736 265
internal_count=33368 25237 8131 17073 4288 8164 3843 2903 2055 7496 6109 5608 9577 1385 2883 2282 1073 943 2292 1743 1107 422 1561 549 2726 2125 611 4071 1736 265
is_linear=0
shrinkage=0.1


Tree=4
num_leaves=31
num_cat=0
split_feature=0 0 0 6 0 3 6 3 5 5 4 3 3 4 4 5 0 4 6 0 4 4 6 4 4 6 4 0 4 3
split_gain=1.28613e+07 1.8747e+06 943081 397116 269706 239755 188267 141987 120827 115840 107084 98957.6 96579.5 85256 79810.6 79607 76161.6 70458.8 69251.3 67803.8 66062.9 63464.6 54149.8 53838.8 53804.6 51761.1 49796.2 49209 46156.7 44631.2
threshold=6.9149332698613382 5.2417589769247721 8.0735812929619524 4.3770559635667654 6.2948141115737739 7.5000000000000009 10.657115648852935 18.500000000000004 1.0000000180025095e-35 1.0000000180025095e-35 5.5000000000000009 9.5000000000000018 7.5000000000000009 10.500000000000002 11.500000000000002 1.0000000180025095e-35 7.5041948885922976 10.500000000000002 7.3142299571994744 9.1012092372828146 11.500000000000002 9.5000000000000018 3.6934911317644077 11.500000000000002 11.500000000000002 4.6656769031921552 1.5000000000000002 8.9220536217720952 2.5000000000000004 14.500000000000002
decision_type=2 2 2 2 2 2 2 2 2 2 2 2 2 2 2 2 2 2 2 2 2 2 2 2 2 2 2 2 2 2
left_child=1 3 8 22 14 20 7 13 16 26 28 18 -5 19 15 17 -2 -3 -10 -7 -4 -9 -1 -20 -11 -14 -6 -15 -8 -13
right_child=2 4 5 12 9 6 10 21 11 24 -12 29 25 27 -16 -17 -18 -19 23 -21 -22 -23 -24 -25 -26 -27 -28 -29 -30 -31
leaf_value=-2.8493368030417692 2.6055090485498171 0.13068460616060537 5.9500446772965487 -0.83385563227626724 5.6735247357686367 2.6781964907375562 0.518414077758789 4.712373861045501 1.9285373619344572 0.54224385013383802 8.3619102008946964 1.0996376630267528 -1.9058974527886658 3.9377985515430867 -1.4342949172173314 -0.50450640064087449 4.0320706632587333 2.3092822443907428 3.5998025201296695 3.9808329168199252 8.5876821905106038 6.9980142096798108 -2.0854444000752279 7.2237026399257136 -1.5633812671263161 -1.2710290164704547 1.5520876775180437 6.2763169875056111 5.4459253079490741 2.2341139266845036
leaf_weight=1086 1003 2726 657 3818 30 870 20 453 230 1286 146 876 1922 204 501 2725 597 157 209 739 111 166 6377 51 134 3870 1285 161 384 574
leaf_count=1086 1003 2726 657 3818 30 870 20 453 230 1286 146 876 1922 204 501 2725 597 157 209 739 111 166 6377 51 134 3870 1285 161 384 574
internal_value=0.015474 -1.0372 3.677 -1.64933 0.144495 4.74735 4.36032 4.00387 2.49448 0.969825 6.0408 1.96392 -1.22432 3.5895 -0.225005 -0.116972 3.13779 0.249325 3.19251 3.27649 6.33127 5.32532 -2.1966 4.31064 0.343544 -1.4817 1.64611 4.96931 5.20199 1.54873
internal_weight=33368 25917 7451 17073 8844 3911 3143 2593 3540 2735 550 1940 9610 1974 6109 5608 1600 2883 490 1609 768 619 7463 260 1420 5792 1315 365 404 1450
internal_count=33368 25917 7451 17073 8844 3911 3143 2593 3540 2735 550 1940 9610 1974 6109 5608 1600 2883 490 1609 768 619 7463 260 1420 5792 1315 365 404 1450
is_linear=0
shrinkage=0.1


Tree=5
num_leaves=31
num_cat=0
split_feature=0 0 0 0 7 0 5 3 7 3 3 0 3 5 4 7 4 5 4 3 0 4 7 7 0 3 7 7 7 7
split_gain=1.03874e+07 1.25736e+06 968930 248251 226394 214411 116873 108907 94961.7 85677 85638.2 85401.2 73817.6 72827.5 65854.5 68080.9 63267.4 66033.3 62798.5 58265.7 56273.1 80188.5 52289.4 51182.7 50199.3 45353.9 52429.8 43564.2 43011.1 48019.9
threshold=6.7442503353996859 5.0254429796588189 7.889459314472643 4.2909435514523517 7.1396539396735124 6.0892220887447115 1.0000000180025095e-35 8.5000000000000018 6.0893550055095558 7.5000000000000009 10.500000000000002 10.187655240828244 9.5000000000000018 1.0000000180025095e-35 6.5000000000000009 8.0735812929619524 1.5000000000000002 1.0000000180025095e-35 3.5000000000000004 14.500000000000002 7.2408757691819572 1.5000000000000002 6.1372928929835053 11.712738723824073 7.5041948885922976 15.500000000000002 3.9192661215080298 5.5095689459720623 8.1907960848747443 10.187655240828244
decision_type=2 2 2 2 2 2 2 2 2 2 2 2 2 2 2 2 2 2 2 2 2 2 2 2 2 2 2 2 2 2
left_child=1 3 6 -1 7 8 23 -4 18 -6 20 19 -5 28 -11 -16 -10 -18 27 -9 21 -8 -19 24 -2 -12 -27 -3 -7 -30
right_child=2 5 4 12 9 13 10 11 16 14 25 -13 -14 -15 15 -17 17 22 -20 -21 -22 -23 -24 -25 -26 26 -28 -29 29 -31
leaf_value=-2.0277181961153579 2.2231999952856114 0.0082897739253775041 5.2581731089215094 -0.91448957844025147 5.717206883152083 0.82637410310885073 7.2354025633438788 1.8750120791291949 2.4781097803229382 3.9279113165594519 0.67211205889311598 5.7144075552622482 -1.4894191442283424 0.094471349363440732 3.8175658526926934 5.660581254129494 0.30557712631571027 3.1282852666993297 -0.83500164611744987 3.316646280203746 3.3300051054554789 1.130862951880979 -1.0793483266925812 7.6315539813041688 3.481403325612054 6.9157073068618775 1.6660176494278205 2.8322788996592401 2.8871292894893288 -0.71407930249969165
leaf_weight=6447 1249 411 212 4290 653 1300 23 589 105 1220 994 93 4658 1578 299 608 1650 31 3920 535 334 334 625 20 425 20 390 63 209 45
leaf_count=6447 1249 411 212 4290 653 1300 23 589 105 1220 994 93 4658 1578 299 608 1650 31 3920 535 334 334 625 20 425 20 390 63 209 45
internal_value=0.00334263 -0.988612 3.14515 -1.55463 4.18946 -0.111698 1.98509 3.16652 -0.42683 4.71528 1.48567 2.80216 -1.21378 0.573001 4.40768 5.05302 0.0774732 -0.0318359 -0.703543 2.5612 2.39702 1.52415 -0.880512 2.60272 2.54264 1.03714 1.9221 0.38363 1.05892 2.24912
internal_weight=33330 25332 7998 15395 4209 9937 3789 1429 6805 2780 2095 1217 8948 3132 2127 907 2411 2306 4394 1124 691 357 656 1694 1674 1404 410 474 1554 254
internal_count=33330 25332 7998 15395 4209 9937 3789 1429 6805 2780 2095 1217 8948 3132 2127 907 2411 2306 4394 1124 691 357 656 1694 1674 1404 410 474 1554 254
is_linear=0
shrinkage=0.1


Tree=6
num_leaves=31
num_cat=0
split_feature=6 6 6 0 6 3 6 7 3 4 4 4 7 4 3 6 4 7 3 0 4 3 3 3 3 4 3 7 3 0
split_gain=8.48086e+06 1.17796e+06 594012 269082 191030 166673 158471 121966 101244 95916.3 82413.1 68060.8 107217 64592.2 63414.4 61499 60170 58342.2 55888 56750.4 79804.2 54766.9 49717.9 47948.5 63907.2 46458.3 50023.7 45770.9 44972.5 43058.8
threshold=6.9149332698613382 5.2417589769247721 8.0735812929619524 4.5581034070540243 6.2950015783573567 7.5000000000000009 10.657115648852935 7.1396539396735124 17.500000000000004 9.5000000000000018 5.5000000000000009 11.500000000000002 5.0703250411417713 1.5000000000000002 18.500000000000004 3.8212337407333354 1.5000000000000002 5.8476760777359393 8.5000000000000018 7.2408757691819572 5.5000000000000009 6.5000000000000009 21.500000000000004 10.500000000000002 16.500000000000004 10.500000000000002 11.500000000000002 3.7599552625364461 14.500000000000002 7.6913596246125016
decision_type=2 2 2 2 2 2 2 2 2 2 2 2 2 2 2 2 2 2 2 2 2 2 2 2 2 2 2 2 2 2
left_child=1 3 7 15 13 -4 8 18 25 -10 -8 14 -13 -3 16 -1 17 -6 19 20 -2 -17 -15 -5 -25 -7 -27 -18 -20 -9
right_child=2 4 5 23 11 6 10 29 9 -11 -12 12 -14 22 -16 21 27 -19 28 -21 -22 -23 -24 24 -26 26 -28 -29 -30 -31
leaf_value=-2.1865937784154474 3.6517380188571082 1.49794631206841 5.2244593056772848 -0.61258264714850008 1.1062560918785278 2.5101889083498987 4.3539479682816884 2.4928585202976525 3.4771604825589217 5.8620142726646129 7.1471805350421223 5.9257692701790647 -1.1776875681614365 -0.37699914444708066 1.7670165175458661 -1.2319367911349675 5.2722216343879706 6.9379806715866623 0.78900001349729953 3.5565422149233976 -0.24068087897901461 -1.7741624559370217 0.59975962515539483 -1.5669081236889999 -0.75415937401496169 5.7873083337824403 3.0475804022045638 0.45983711068350908 1.8131923427879422 3.8002580423260022
leaf_weight=1913 90 211 735 3547 42 1354 382 941 656 227 146 23 279 5381 690 3144 20 29 778 264 127 4571 577 1761 2147 94 229 1673 955 344
leaf_count=1913 90 211 735 3547 42 1354 382 941 656 227 146 23 279 5381 690 3144 20 29 778 264 127 4571 577 1761 2147 94 229 1673 955 344
internal_value=0.00300837 -0.843368 3.00937 -1.32981 0.0877166 3.87106 3.54893 2.06788 3.22359 4.09025 5.12632 0.779889 -0.636696 -0.221511 0.954221 -1.67905 0.63629 3.48823 1.61809 2.57176 1.37369 -1.5532 -0.282405 -0.878784 -1.1204 2.76726 3.8449 0.516687 1.3534 2.84285
internal_weight=33330 26008 7322 17083 8925 3823 3088 3499 2560 883 528 2756 302 6169 2454 9628 1764 71 2214 481 217 7715 5958 7455 3908 1677 323 1693 1733 1285
internal_count=33330 26008 7322 17083 8925 3823 3088 3499 2560 883 528 2756 302 6169 2454 9628 1764 71 2214 481 217 7715 5958 7455 3908 1677 323 1693 1733 1285
is_linear=0
shrinkage=0.1


Tree=7
num_leaves=31
num_cat=0
split_feature=6 0 6 6 6 5 3 4 0 7 3 4 7 4 7 4 4 4 4 7 7 4 4 3 4 4 7 0 7 7
split_gain=6.8695e+06 964006 495845 192949 177780 110638 118327 106464 95508 81459.1 63449.1 62627.6 80074.4 59884.5 76372.5 58558.1 76840.2 53337.1 57739.3 63984.2 52949.2 47730.4 46609.2 46372.5 47867.8 45106.9 44448.9 41652.1 40632 47925
threshold=6.9149332698613382 5.1260520933217535 8.4344880110468772 4.2909435514523517 6.3243382495930307 1.0000000180025095e-35 10.500000000000002 10.500000000000002 7.6913596246125016 8.4344880110468772 7.5000000000000009 11.500000000000002 5.0886226925571334 11.500000000000002 5.0703250411417713 4.5000000000000009 8.5000000000000018 1.5000000000000002 8.5000000000000018 4.7709644490443459 7.0162333760334468 6.5000000000000009 3.5000000000000004 18.500000000000004 1.5000000000000002 7.5000000000000009 5.8476760777359393 5.8964386937716169 4.4229088782791521 6.3782556182005683
decision_type=2 2 2 2 2 2 2 2 2 2 2 2 2 2 2 2 2 2 2 2 2 2 2 2 2 2 2 2 2 2
left_child=1 3 5 -1 11 8 15 9 28 -4 -5 17 27 23 -15 -7 -17 -3 21 -20 -14 -19 -10 24 26 -24 -6 -13 -2 -30
right_child=2 4 7 10 13 6 -8 -9 22 -11 -12 12 20 14 -16 16 -18 18 19 -21 -22 -23 25 -25 -26 -27 -28 -29 29 -31
leaf_value=-1.6589120333465719 4.9828934158967897 1.3072732689836233 2.8366111919151678 -0.64601127505039568 1.0296290518421876 4.0154108275969831 1.0559064295145248 5.0097586526726161 5.2705168905667961 3.9661765213866822 -1.1654987097407543 0.1264185938142961 -2.0951846594240382 5.2077447363308504 -1.0472529256830685 0.53971029408624238 2.92271558072256 -0.13518381852199068 -0.76350147793179057 0.75876411241801434 0.56284856515626114 -0.78930358895191277 1.7731901992089822 1.6113700557159398 0.50900015054525372 3.7698666633039508 6.2805028642926901 4.773336955372776 0.90877285514990125 2.3366497259094872
leaf_weight=6436 46 244 1240 3977 38 204 1579 503 128 1316 5751 62 448 21 277 214 368 3223 374 1055 90 1706 165 656 1594 360 28 28 321 878
leaf_count=6436 46 244 1240 3977 38 204 1579 503 128 1316 5751 62 448 21 277 214 368 3223 374 1055 90 1706 165 656 1594 360 28 28 321 878
internal_value=0.00270753 -0.759032 2.70843 -1.23415 0.0211129 2.01134 1.55496 3.67989 2.58001 3.41819 -0.953122 -0.234415 -1.18869 0.727872 -0.606464 2.55751 2.04649 -0.143643 -0.199324 0.360355 -1.65053 -0.361584 3.5595 0.899562 0.618269 3.14234 3.25727 1.57213 2.06627 1.95437
internal_weight=33330 26008 7322 16164 9844 4263 2365 3059 1898 2556 9728 7230 628 2614 298 786 582 6602 6358 1429 538 4929 653 2316 1660 525 66 90 1245 1199
internal_count=33330 26008 7322 16164 9844 4263 2365 3059 1898 2556 9728 7230 628 2614 298 786 582 6602 6358 1429 538 4929 653 2316 1660 525 66 90 1245 1199
is_linear=0
shrinkage=0.1


Tree=8
num_leaves=31
num_cat=0
split_feature=0 0 0 0 5 0 7 0 3 7 3 7 4 4 4 5 7 7 4 0 3 4 3 4 0 0 7 0 7 4
split_gain=5.57494e+06 764200 417442 173310 136226 117265 84851.9 82617.3 94822 79708.7 69168 60457.4 60015.8 57232.6 56965.4 55810.6 52174.9 51170.4 46227.7 50678.1 45716.9 43977.8 43922 41292.9 41196.4 39372.6 39370.8 38417.7 43013.9 38318.2
threshold=6.8800260441925696 4.9116694044848703 7.889459314472643 6.1589189487314711 1.0000000180025095e-35 4.1856914265038627 8.37201699725337 10.657115648852935 8.5000000000000018 6.0893550055095558 3.5000000000000004 10.657115648852935 9.5000000000000018 5.5000000000000009 5.5000000000000009 1.0000000180025095e-35 5.1059469701000104 3.7599552625364461 3.5000000000000004 10.657115648852935 8.5000000000000018 11.500000000000002 14.500000000000002 1.5000000000000002 8.4344880110468772 7.2408757691819572 7.7850365761671378 5.0886226925571334 7.7850365761671378 10.500000000000002
decision_type=2 2 2 2 2 2 2 2 2 2 2 2 2 2 2 2 2 2 2 2 2 2 2 2 2 2 2 2 2 2
left_child=1 5 6 9 12 -1 20 8 29 -3 11 13 18 27 -9 -5 -14 -17 -4 -20 25 -8 -22 26 -10 -2 -12 28 -11 -6
right_child=2 3 4 15 7 -7 21 14 24 10 23 -13 16 -15 -16 17 -18 -19 19 -21 22 -23 -24 -25 -26 -27 -28 -29 -30 -31
leaf_value=-1.5600501815345047 1.2377808911648729 -0.55162165071718172 4.5865469239652157 0.94822455689450735 3.2424383685716567 -0.96456896440123518 2.534383473512281 3.2364091862836784 1.3785540825848259 6.8128583887591958 2.808954198891858 6.3955049419403078 0.34295302170973563 0.18214635991540828 6.0615138141732468 4.214647514025371 4.9499176380474399 0.047078783957583921 2.7407929203332264 4.525529720759029 0.58204528949860135 6.0500011798663023 1.5144952990779355 -0.28287191374040493 2.4048800429247637 2.7046313728978464 -1.3676153644438713 1.4030294149544589 0.90111130595207212 5.7815716658698193
leaf_weight=5230 338 5564 256 1600 175 8994 406 287 573 32 83 20 26 452 95 30 451 1641 827 197 885 39 1177 2023 1232 399 31 157 20 90
leaf_count=5230 338 5564 256 1600 175 8994 406 287 573 32 83 20 26 452 95 30 451 1641 827 197 885 39 1177 2023 1232 399 31 157 20 90
internal_value=0.00243678 -0.691646 2.41231 -0.0912487 3.06934 -1.18352 1.55983 2.58776 2.3384 -0.332161 0.101152 0.978781 3.74141 0.814886 3.93899 0.526094 4.6988 0.1219 3.38463 3.08415 1.35591 2.84249 1.11429 -0.178523 2.07907 2.03191 1.67322 2.1833 4.53911 4.10479
internal_weight=33330 25877 7453 11653 4209 14224 3244 2452 2070 8382 2818 681 1757 661 382 3271 477 1671 1280 1024 2799 445 2062 2137 1805 737 114 209 52 265
internal_count=33330 25877 7453 11653 4209 14224 3244 2452 2070 8382 2818 681 1757 661 382 3271 477 1671 1280 1024 2799 445 2062 2137 1805 737 114 209 52 265
is_linear=0
shrinkage=0.1


Tree=9
num_leaves=31
num_cat=0
split_feature=6 1 1 1 5 4 6 5 7 4 7 3 3 4 4 1 1 1 6 7 4 4 3 3 7 3 7 3 7 4
split_gain=4.52502e+06 511677 507025 137833 119036 76255.3 81796.3 69232.5 61209 57665.5 87346.3 55074.3 48869.6 99202.4 48607.9 47616.4 47219.9 46798.4 46039.1 44652.5 44363 44181.3 47392.3 39021.4 38584.8 37614.7 36323.2 35793.5 36843.1 34774.3
threshold=6.6306005968116413 21.58991344199541 59.957251038872464 29.499319553188798 1.0000000180025095e-35 10.500000000000002 10.3890958970429 1.0000000180025095e-35 8.1907960848747443 3.5000000000000004 7.5968324378324246 11.500000000000002 9.5000000000000018 1.5000000000000002 11.500000000000002 67.089140506772651 13.641876782809829 50.111465999606146 10.657115648852935 5.4501627146870284 3.5000000000000004 1.5000000000000002 19.500000000000004 6.5000000000000009 11.712738723824073 9.5000000000000018 6.9149332698613382 2.5000000000000004 4.6752001788182751 9.5000000000000018
decision_type=2 2 2 2 2 2 2 2 2 2 2 2 2 2 2 2 2 2 2 2 2 2 2 2 2 2 2 2 2 2
left_child=1 16 8 7 -4 6 9 -3 12 10 25 -7 13 -2 -14 -12 -1 -15 19 -13 -9 -5 27 -18 29 -6 -24 28 -23 -10
right_child=2 3 4 21 5 11 -8 20 24 -11 15 18 14 17 -16 -17 23 -19 -20 -21 -22 22 26 -25 -26 -27 -28 -29 -30 -31
leaf_value=-1.8220756831597775 6.7378435346815326 -0.28715709872963824 3.2991087806855379 1.5707709699789896 5.1807718457846805 4.7747542463365154 3.3371825612965647 -0.11175042021349753 1.4892339936648566 1.3927041632520412 1.0979281457265218 6.7699894332885755 0.91871474563448308 0.60810038708328629 -0.40583087623676406 5.5484760145017926 -0.88727976524751506 2.0484644140477997 7.078992425827753 1.8624191775925341 -1.0543760189719871 -1.5767773602370705 0.099200924731832882 -1.2939616383103403 6.3722196435928353 1.404109694143034 1.190824445741038 -0.22498260629163133 0.85804034630744475 3.2366539407769843
leaf_weight=1086 36 4038 1939 188 29 183 386 602 473 1318 30 20 2024 418 321 121 4004 490 21 254 2926 70 712 5744 20 291 533 4349 554 150
leaf_count=1086 36 4038 1939 188 29 183 386 602 473 1318 30 20 2024 418 321 121 4004 490 21 254 2926 70 712 5744 20 291 533 4349 554 150
internal_value=0.0021931 -0.680831 1.98989 -0.280901 2.70356 2.26829 2.01696 -0.569907 1.15642 1.7321 2.68183 3.41191 0.981971 1.58951 0.737402 4.66426 -1.1966 1.38539 2.56649 2.22064 -0.893531 0.0604396 0.014775 -1.12692 2.04876 1.74637 0.566539 -0.12336 0.584904 1.90996
internal_weight=33330 24806 8524 13972 4592 2653 2175 7566 3932 1789 471 478 3289 944 2345 151 10834 908 295 274 3528 6406 6218 9748 643 320 1245 4973 624 623
internal_count=33330 24806 8524 13972 4592 2653 2175 7566 3932 1789 471 478 3289 944 2345 151 10834 908 295 274 3528 6406 6218 9748 643 320 1245 4973 624 623
is_linear=0
shrinkage=0.1


Tree=10
num_leaves=31
num_cat=0
split_feature=1 1 1 1 6 4 3 4 6 4 5 4 3 4 4 4 4 6 4 3 3 7 7 4 4 7 7 7 5 6
split_gain=3.69154e+06 454933 417275 121277 106298 83625.9 78085.6 64021.1 69811.1 82125.3 52192.7 47834 54033.7 47174.4 59282.7 45790.7 45748.5 44775.9 43552.2 45117.1 53303.4 43287.2 40983.3 40954.3 63121.5 58478.2 55350.5 36436.8 36114.9 35539
threshold=43.964864286763877 21.768540968413813 71.140588011076915 29.499319553188798 7.3142299571994744 11.500000000000002 10.500000000000002 2.5000000000000004 10.657115648852935 3.5000000000000004 1.0000000180025095e-35 9.5000000000000018 16.500000000000004 10.500000000000002 4.5000000000000009 5.5000000000000009 3.5000000000000004 4.1856914265038627 3.5000000000000004 8.5000000000000018 18.500000000000004 7.5041948885922976 3.7801270534150144 11.500000000000002 10.500000000000002 5.0104015433939244 7.3558935488195791 6.9801219825092611 1.0000000180025095e-35 8.8428667899397588
decision_type=2 2 2 2 2 2 2 2 2 2 2 2 2 2 2 2 2 2 2 2 2 2 2 2 2 2 2 2 2 2
left_child=1 17 4 10 22 18 13 29 9 21 -3 -11 -13 14 -4 -10 -12 -1 19 -6 -21 -9 -2 24 -24 -26 -25 -5 -29 -8
right_child=2 3 6 27 5 -7 7 8 15 11 16 12 -14 -15 -16 -17 -18 -19 -20 20 -22 -23 23 26 25 -27 -28 28 -30 -31
leaf_value=-1.2953543048837313 4.1000124329014644 -0.24939809123313325 4.5235231171980086 -0.040739165093265001 3.7160625953372426 3.1642749894607847 2.3266340036043212 2.1734003083195006 2.9611440941597684 1.6173977840344407 0.0056081032749937211 1.9607299174519555 4.1694596652726874 5.0052402091495107 2.4842652167139065 5.0759626781703631 -0.94751312571607083 -0.89193257661328618 1.2561341391065379 1.1225652188138475 3.6514542348276486 5.2662458142265685 0.8063178379560676 -0.85627569697220318 0.29192874242389011 4.0652623132123784 1.6450350323751097 0.79141820288772136 -0.33360872496678323 -0.88582084062455724
leaf_weight=5238 38 3906 214 4974 154 349 57 70 318 1008 610 276 185 178 427 151 2887 5795 1772 344 110 128 2119 297 63 118 126 1164 378 87
leaf_count=5238 38 3906 214 4974 154 349 57 70 318 1008 610 276 185 178 427 151 2887 5795 1772 344 110 128 2119 297 63 118 126 1164 378 87
internal_value=0.0116477 -0.603861 1.79977 -0.223703 1.27609 1.71869 2.72749 2.42664 2.56422 2.26099 -0.500635 2.0033 2.8471 3.56502 3.16508 3.64203 -0.781255 -1.08346 1.50671 2.237 1.73529 4.17282 0.838624 0.793111 0.959426 2.75189 -0.111204 0.0909254 0.515633 0.385776
internal_weight=33541 24952 8589 13919 5490 2729 3099 2280 2136 1667 7403 1469 461 819 641 469 3497 11033 2380 608 454 198 2761 2723 2300 181 423 6516 1542 144
internal_count=33541 24952 8589 13919 5490 2729 3099 2280 2136 1667 7403 1469 461 819 641 469 3497 11033 2380 608 454 198 2761 2723 2300 181 423 6516 1542 144
is_linear=0
shrinkage=0.1


Tree=11
num_leaves=31
num_cat=0
split_feature=1 1 1 7 1 3 4 6 5 3 1 7 3 7 4 1 4 7 4 4 7 7 7 1 7 4 4 3 7 4
split_gain=3.00252e+06 414171 317834 95232.6 70552.7 51786.4 73396 46564.1 42276.1 39308 50959.6 45026.4 58979.7 38634.4 38577.4 37120.8 37056.3 36007.7 35687.9 33823.7 44858.2 40677.1 33455.4 33383.5 42509.9 41414.6 39707 31250.5 31131.9 31073.4
threshold=41.696413051845099 59.157012922051585 21.768540968413813 7.2058338392731942 29.499319553188798 15.500000000000002 10.500000000000002 8.9220536217720952 1.0000000180025095e-35 11.500000000000002 70.090668677601442 9.1012092372828146 14.500000000000002 11.067706461594735 6.5000000000000009 17.187383234661663 3.5000000000000004 8.7613932036051754 2.5000000000000004 11.500000000000002 5.0886226925571334 5.3171215826114633 8.1248901859438352 53.497959953958819 3.7382194556883133 10.500000000000002 11.500000000000002 20.500000000000004 9.1012092372828146 1.5000000000000002
decision_type=2 2 2 2 2 2 2 2 2 2 2 2 2 2 2 2 2 2 2 2 2 2 2 2 2 2 2 2 2 2
left_child=2 22 15 5 8 6 14 -7 19 10 28 27 -13 -12 -3 -1 -10 29 -14 21 -21 -4 23 24 -2 -25 -26 -11 -5 -6
right_child=1 3 4 9 17 7 -8 -9 16 11 13 12 18 -15 -16 -17 -18 -19 -20 20 -22 -23 -24 25 26 -27 -28 -29 -30 -31
leaf_value=-1.1822952406080562 4.0994515264735503 1.3023870178286123 -0.50927008661931283 2.4209332171797753 1.3098973890115699 1.7717151282819605 2.9800554193627269 3.6983909466121561 0.0050472881165562105 1.6027329502143723 3.7640061785633017 -0.061534524660335099 -0.045281426360209785 1.9149498410468553 -0.040356828211521617 -0.81271889805484898 -0.8527618093965631 1.1739276557638954 3.1783323844887281 1.4482216966313286 -2.501617795367574 0.15114772573107724 1.4968401565053093 0.93326453429894429 0.69927898726726534 2.6359945278697547 -0.30096172048373426 3.4592953007410068 -0.098762312140621131 -0.079575067444786776
leaf_weight=4848 34 786 1776 250 166 373 210 189 610 886 645 67 36 137 294 6185 2887 257 746 37 129 1964 684 692 2551 180 470 101 61 5290
leaf_count=4848 34 786 1776 250 166 373 210 189 610 886 645 67 36 137 294 6185 2887 257 746 37 129 1964 684 692 2551 180 470 101 61 5290
internal_value=0.0104829 1.52762 -0.579561 2.17977 -0.246827 1.6185 1.26948 2.41965 -0.450571 2.53467 3.00946 2.25201 2.78596 3.44007 0.936862 -0.975114 -0.70313 0.0171872 3.02993 -0.224458 -1.62123 -0.162462 0.851426 0.739009 0.583237 1.28475 0.543664 1.79272 1.92672 -0.0373001
internal_weight=33541 9392 24149 4781 13116 1852 1290 562 7403 2929 1093 1836 849 782 1080 11033 3497 5713 782 3906 166 3740 4611 3927 3055 872 3021 987 311 5456
internal_count=33541 9392 24149 4781 13116 1852 1290 562 7403 2929 1093 1836 849 782 1080 11033 3497 5713 782 3906 166 3740 4611 3927 3055 872 3021 987 311 5456
is_linear=0
shrinkage=0.1


Tree=12
num_leaves=31
num_cat=0
split_feature=0 0 0 4 0 0 4 4 4 3 4 5 0 4 3 3 4 4 6 3 3 6 3 0 3 0 4 3 4 0
split_gain=2.43204e+06 336944 259080 69069.5 67946.8 60896.5 71003.1 71513.3 44462.2 41686.3 40279.1 37085.8 34456.7 43045.4 49069.2 36329 42212.6 39094.3 35151 33000 30499.1 30382.2 29712.4 27619.5 26883.8 25139.5 23940.6 24083.5 23822.2 23432.9
threshold=6.4572759751008588 7.7850365761671378 4.5689304242380562 10.500000000000002 5.4313276048740144 10.657115648852935 3.5000000000000004 2.5000000000000004 2.5000000000000004 6.5000000000000009 6.5000000000000009 1.0000000180025095e-35 7.3142299571994744 1.5000000000000002 10.500000000000002 15.500000000000002 11.500000000000002 9.5000000000000018 6.8412934635312554 11.500000000000002 3.5000000000000004 4.8754371546575852 15.500000000000002 3.6550413652932376 2.5000000000000004 8.4344880110468772 7.5000000000000009 19.500000000000004 1.5000000000000002 10.3890958970429
decision_type=2 2 2 2 2 2 2 2 2 2 2 2 2 2 2 2 2 2 2 2 2 2 2 2 2 2 2 2 2 2
left_child=2 12 23 5 10 6 7 9 -7 -3 20 29 13 14 -2 24 17 26 -18 -5 21 -4 25 -1 -15 -13 -17 -28 -6 -8
right_child=1 3 4 19 28 8 11 -9 -10 -11 -12 22 -14 15 -16 16 18 -19 -20 -21 -22 -23 -24 -25 -26 -27 27 -29 -30 -31
leaf_value=-1.4820256485551559 5.5020711999190484 4.0896783417843761 -0.27180763035857103 3.5129816005105514 1.1779723012569354 -1.2318823002002857 1.9259817120937346 3.3344494693262399 2.9208007495420483 0.86001676579009512 -0.68210820255987858 0.1198955686733596 1.2365158649961359 1.2573643343197922 1.0035485922400633 1.1313427418437954 -2.6665808290805462 2.4389551737889423 0.42559110740820566 2.2487888891477641 -0.3610874623676939 0.88332602775865987 1.8906004657736049 -0.86974623812930896 0.15096184673041735 1.1392117882655937 -0.95123158136034403 1.2376881649476641 -0.020400945745394757 -0.48734187902439213
leaf_weight=803 38 47 479 376 171 27 957 424 572 267 3640 381 1311 252 67 919 53 197 120 458 4151 434 304 8929 1709 663 123 85 5542 42
leaf_count=803 38 47 479 376 171 27 957 424 572 267 3640 381 1311 252 67 919 53 197 120 458 4151 434 304 8929 1709 663 123 85 5542 42
internal_value=0.00943462 1.37486 -0.521605 1.99697 -0.252494 1.81094 1.63179 2.48733 2.73362 1.34344 -0.428375 1.36277 0.798186 0.636904 2.63159 0.576337 0.947309 1.13926 -0.521722 2.81874 -0.245993 0.277292 1.02056 -0.920266 0.293141 0.76722 0.912073 -0.0567211 0.0154684 1.82452
internal_weight=33541 9392 24149 4518 14417 3684 3085 738 599 314 8704 2347 4874 3563 105 3458 1497 1324 173 834 5064 913 1348 9732 1961 1044 1127 208 5713 999
internal_count=33541 9392 24149 4518 14417 3684 3085 738 599 314 8704 2347 4874 3563 105 3458 1497 1324 173 834 5064 913 1348 9732 1961 1044 1127 208 5713 999
is_linear=0
shrinkage=0.1


Tree=13
num_leaves=31
num_cat=0
split_feature=6 0 6 7 7 4 7 3 0 3 4 6 5 3 6 4 6 7 4 3 0 7 7 3 0 3 7 7 3 7
split_gain=1.97573e+06 281551 206146 66647.4 43436.4 38441.6 140988 50187.2 38879.1 38423.3 48992.6 37969 37612.3 37358.6 37325.8 34816.6 43338.6 60129.2 33094.5 29457.8 40191.7 40374.8 34389.8 48901.2 28814.1 36093.9 28711.4 27951.7 31503 34950.7
threshold=6.4315262248640979 7.6913596246125016 4.6839841420039523 7.2058338392731942 6.9801219825092611 11.500000000000002 5.0886226925571334 11.500000000000002 5.6310055987925596 15.500000000000002 10.500000000000002 9.3485055748089252 1.0000000180025095e-35 1.5000000000000002 4.9007781321949491 10.500000000000002 5.0104015433939244 5.4714759305337592 3.5000000000000004 11.500000000000002 8.6303142490160543 9.2207120823823612 9.1012092372828146 14.500000000000002 4.1457669039236063 10.500000000000002 4.6113343278913677 3.7382194556883133 20.500000000000004 5.0254429796588189
decision_type=2 2 2 2 2 2 2 2 2 2 2 2 2 2 2 2 2 2 2 2 2 2 2 2 2 2 2 2 2 2
left_child=2 27 24 9 5 8 7 26 12 10 -3 -11 15 -6 -9 -4 -17 -18 -14 20 -5 -22 -21 -24 -1 -26 -7 -2 -29 -30
right_child=1 3 4 19 13 6 -8 14 -10 11 -12 -13 18 -15 -16 16 17 -19 -20 22 21 -23 23 -25 25 -27 -28 28 29 -31
leaf_value=-0.96996345794596928 3.5387016815297745 0.72644558737664977 -0.2032167785927014 1.7544597449776473 1.1237484100437662 -1.6075429230928422 -1.6637127372104414 0.68937430322170268 0.070052534735124503 1.5571566505093044 2.3961403570572535 3.5509330779802606 0.0968745069826219 0.019611759184825064 6.0513682919579583 -0.049588061238000219 0.3136084209794977 5.7665160317451525 -0.7269187336066496 1.4208485291778228 3.7220047953595286 2.131499289814069 -0.30392923657573873 2.5110333868076129 -0.45769370507731894 -0.94231213509647138 2.1813513651490211 0.54627334940703887 -1.0722412723178667 1.4410624651020882
leaf_weight=4835 34 1077 3333 451 383 40 581 20 3083 440 210 122 586 1533 37 121 42 39 2906 987 345 297 67 782 3932 2523 40 3924 60 711
leaf_count=4835 34 1077 3333 451 383 40 581 20 3083 440 210 122 586 1533 37 121 42 39 2906 987 345 297 67 782 3932 2523 40 3924 60 711
internal_value=0.00849116 1.22879 -0.474217 1.77019 -0.198561 -0.276221 -0.983254 1.90249 -0.226008 1.30013 0.99889 1.98997 -0.355901 0.240324 4.16997 -0.125956 1.14884 2.93908 -0.588676 2.06693 2.47796 2.98621 1.82225 2.28889 -0.785375 -0.647112 0.286904 0.681783 0.661094 1.24547
internal_weight=33541 9507 24034 4778 12744 10828 718 137 10110 1849 1287 562 7027 1916 57 3535 202 81 3492 2929 1093 642 1836 849 11290 6455 80 4729 4695 771
internal_count=33541 9507 24034 4778 12744 10828 718 137 10110 1849 1287 562 7027 1916 57 3535 202 81 3492 2929 1093 642 1836 849 11290 6455 80 4729 4695 771
is_linear=0
shrinkage=0.1


Tree=14
num_leaves=31
num_cat=0
split_feature=0 0 0 0 7 3 7 4 4 3 3 4 6 4 7 6 3 4 7 3 4 4 4 4 7 4 7 7 3 7
split_gain=1.60606e+06 250369 136053 55527.1 46834.5 41132 40340.3 59214.9 45771.6 49842.7 40733.3 38587.8 44176.1 54779.8 38403.7 38180.8 36972.7 36754.5 73359.1 60126.3 36637.6 36289.4 35710.6 35573.8 35106.8 34678.6 41219 33384.3 32428.4 31361.8
threshold=6.9149332698613382 4.9007781321949491 8.4344880110468772 6.0394537499152161 11.712738723824073 10.500000000000002 5.4501627146870284 6.5000000000000009 10.500000000000002 11.500000000000002 13.500000000000002 2.5000000000000004 10.657115648852935 3.5000000000000004 11.067706461594735 4.1856914265038627 15.500000000000002 11.500000000000002 5.0886226925571334 11.500000000000002 1.5000000000000002 3.5000000000000004 4.5000000000000009 5.5000000000000009 5.7408100244687956 7.5000000000000009 5.4093563915091876 8.7083421388182263 16.500000000000004 6.2696883400651977
decision_type=2 2 2 2 2 2 2 2 2 2 2 2 2 2 2 2 2 2 2 2 2 2 2 2 2 2 2 2 2 2
left_child=1 15 4 14 6 -4 7 -2 21 29 -9 -7 13 -13 17 -1 -11 24 19 -19 -5 -8 27 -14 -3 26 -15 -23 -27 -10
right_child=2 3 5 20 -6 11 8 10 9 16 -12 12 23 25 -16 -17 -18 18 -20 -21 -22 22 -24 -25 -26 28 -28 -29 -30 -31
leaf_value=-0.86141059841552681 1.0150158302512151 -0.30614683025741674 2.4196403902524377 2.1239978332072496 5.1748377240621126 0.0089858001718918484 1.6119115259719097 -1.2365123141130419 4.5981663866063291 -0.41988873483958067 0.48801161964595946 3.0204504345402574 1.9574861827909762 2.2755761739329472 4.0892365955171135 -0.5206976279269443 1.5638567468687941 -0.072145830472903461 -1.4004035171570104 5.3145223209261898 0.22296781780570007 -1.5278191190777404 0.80146852160357374 3.8215006752124689 0.14360273701550613 1.1996695900429921 0.54446043129783528 1.4636980532095409 2.7332962450067528 2.1292185349843993
leaf_weight=5241 796 4429 819 104 26 144 491 262 59 135 287 198 318 169 21 8831 309 67 523 30 4023 132 1368 151 2854 317 739 52 244 402
leaf_count=5241 796 4429 819 104 26 144 491 262 59 135 287 198 318 169 21 8831 309 67 523 30 4023 132 1368 151 2854 317 739 52 244 402
internal_value=0.00764205 -0.361102 1.3062 -0.0265639 0.94343 1.81178 0.917803 0.463975 1.12486 1.71689 -0.334985 1.59343 1.70025 1.45903 -0.181476 -0.647593 0.960691 -0.192824 -0.93195 1.59383 0.270874 0.862603 0.625547 2.55763 -0.129903 1.24857 0.866661 -0.68239 1.8667 2.4452
internal_weight=33541 26123 7418 12051 4319 3099 4293 1345 2948 905 549 2280 2136 1667 7924 14072 444 7903 620 97 4127 2043 1552 469 7283 1469 908 184 561 461
internal_count=33541 26123 7418 12051 4319 3099 4293 1345 2948 905 549 2280 2136 1667 7924 14072 444 7903 620 97 4127 2043 1552 469 7283 1469 908 184 561 461
is_linear=0
shrinkage=0.1


Tree=15
num_leaves=31
num_cat=0
split_feature=6 0 6 5 5 4 3 3 0 4 4 6 6 4 3 4 4 6 3 3 4 3 4 4 4 4 3 3 3 6
split_gain=1.32757e+06 199703 127522 71228.6 50186.1 47202.5 39423.8 36482.8 33099.1 31694.5 46006.7 35350.6 27182.5 43542.6 27166.2 25094.5 24948.9 40179.9 23651.9 23640.4 23230.7 23139.5 39858.3 23126.8 21435.4 20790.1 22351.8 20771.7 20764.1 20065.1
threshold=6.4315262248640979 8.0735812929619524 4.5689304242380562 1.0000000180025095e-35 1.0000000180025095e-35 1.5000000000000002 9.5000000000000018 1.0000000180025095e-35 5.8525302050643804 4.5000000000000009 8.5000000000000018 7.2408757691819572 9.002073977318986 2.5000000000000004 20.500000000000004 9.5000000000000018 5.5000000000000009 11.067706461594735 10.500000000000002 15.500000000000002 10.500000000000002 8.5000000000000018 6.5000000000000009 11.500000000000002 11.500000000000002 6.5000000000000009 20.500000000000004 14.500000000000002 7.5000000000000009 3.6550413652932376
decision_type=2 2 2 2 2 2 2 2 2 2 2 2 2 2 2 2 2 2 2 2 2 2 2 2 2 2 2 2 2 2
left_child=2 3 29 5 15 -2 9 -4 14 -5 -11 -12 28 -14 18 16 -3 25 -9 -8 -15 -10 -23 -22 -13 -18 -27 -20 -6 -1
right_child=1 4 7 6 12 -7 19 8 21 10 11 24 13 20 -16 -17 17 -19 27 -21 23 22 -24 -25 -26 26 -28 -29 -30 -31
leaf_value=-1.158222222334121 3.4080737850604912 2.0456979033978633 0.50128421219598751 2.0748124383473665 2.2664744458478139 0.91177785192309635 -0.13266318382666126 -0.23884504455097005 0.51096819736816623 -0.60072889153347464 0.30231596132687161 1.5197018971424734 -1.2361867187158118 1.5144317762849624 0.055438517657973321 2.6884498639948786 -0.65718828558921816 3.730918892721335 -0.8428613601916306 0.593431065439191 3.9857086367723422 0.38562006677272975 -0.4828601656975795 1.5959003536030651 3.9836490966655589 0.64645921699921871 3.2226351056780134 -0.3971469823225493 0.73102828799557162 -0.6403030216217781
leaf_weight=816 78 855 678 178 97 2624 1627 4561 784 215 175 102 53 997 1538 378 90 48 1661 619 82 903 1274 80 54 170 42 2822 957 8980
leaf_count=816 78 855 678 178 97 2624 1627 4561 784 215 175 102 53 997 1538 378 90 48 1661 619 82 903 1274 80 54 170 42 2822 957 8980
internal_value=-0.00967669 0.989583 -0.405811 0.612309 1.54555 0.98384 0.274304 -0.214565 -0.250402 0.916011 0.538233 1.27804 1.24374 1.56673 -0.333099 1.97757 1.75457 1.04339 -0.399172 0.0674492 1.6949 0.0451368 -0.122622 2.80556 2.37261 0.616231 1.15683 -0.562289 0.872336 -0.683445
internal_weight=33538 9521 24017 5672 3849 2702 2970 14221 13543 724 546 331 2266 1212 10582 1583 1205 350 9044 2246 1159 2961 2177 162 156 302 212 4483 1054 9796
internal_count=33538 9521 24017 5672 3849 2702 2970 14221 13543 724 546 331 2266 1212 10582 1583 1205 350 9044 2246 1159 2961 2177 162 156 302 212 4483 1054 9796
is_linear=0
shrinkage=0.1


Tree=16
num_leaves=31
num_cat=0
split_feature=6 0 6 5 7 5 4 7 7 4 7 7 4 5 6 7 7 4 7 6 4 7 4 7 4 4 7 7 6 0
split_gain=1.07533e+06 161760 103293 57695.1 41581.8 40650.8 39639.7 34571.5 31695 27221.6 102190 37812.6 27223.4 40961.1 46119.3 52612.1 25690 26986.6 31157.7 22375.9 38104.9 22006.5 21858 20708.9 26977.3 32532.8 56824.1 37681.3 27459.9 22635.5
threshold=6.4315262248640979 8.0735812929619524 4.5689304242380562 1.0000000180025095e-35 11.712738723824073 1.0000000180025095e-35 1.5000000000000002 7.7432067550891572 6.9801219825092611 11.500000000000002 5.0886226925571334 4.3555125284681386 10.500000000000002 1.0000000180025095e-35 5.0104015433939244 6.2696883400651977 4.8557712135374294 7.5000000000000009 4.6464947478494603 9.2207120823823612 2.5000000000000004 11.067706461594735 11.500000000000002 4.4229088782791521 10.500000000000002 11.500000000000002 7.8378708007415137 7.7850365761671378 7.4424088463190872 6.9801219825092611
decision_type=2 2 2 2 2 2 2 2 2 2 2 2 2 2 2 2 2 2 2 2 2 2 2 2 2 2 2 2 2 2
left_child=2 3 -1 4 6 -3 7 -2 9 12 11 -11 -4 14 -14 -16 17 18 -5 22 -21 -10 -7 -8 -25 27 29 -26 -29 -27
right_child=1 5 8 16 -6 19 23 -9 21 10 -12 -13 13 -15 15 -17 -18 -19 -20 20 -22 -23 -24 24 25 26 -28 28 -30 -31
leaf_value=-0.61510079367066905 1.1678868169008298 1.7798120561196744 -0.25199013212836235 0.61609164849731779 4.7901657188380211 0.66272703432469138 2.1157157103220623 5.4007899039132257 0.14035050532954552 -0.16453941388868951 -1.4218089980225899 3.0250509454271732 0.0086260995648514763 -0.3850369427341242 1.4446304633244267 5.7911086254649691 0.4485661736390596 -0.84929580042491093 -1.1988913967641963 -1.3325252918486901 1.5795033871952739 3.0690199851989748 1.9685951859983679 0.52814409957970099 3.4946367801127276 -0.90128319959277692 3.4466826283570491 2.5714535770975817 -0.71262299339726287 0.8194988374908766
leaf_weight=9796 43 1583 10874 461 27 1050 111 35 1946 71 598 78 156 313 123 36 2020 370 119 47 1023 26 146 1858 117 115 66 49 53 228
leaf_count=9796 43 1583 10874 461 27 1050 111 35 1946 71 598 78 156 313 123 36 2020 370 119 47 1023 26 146 1858 117 115 66 49 53 228
internal_value=-0.00870902 0.890625 -0.36523 0.551078 0.885456 1.39099 0.846044 3.06727 -0.193108 -0.253009 -0.837979 1.50518 -0.215018 0.425157 1.23021 2.42874 0.246874 -0.181989 0.243707 1.11937 1.45159 0.178964 0.822139 0.77933 0.71966 1.28628 0.759607 2.26988 0.865022 0.24256
internal_weight=33538 9521 24017 5672 2702 3849 2675 78 14221 12249 747 149 11502 628 315 159 2970 950 580 2266 1070 1972 1196 2597 2486 628 409 219 102 343
internal_count=33538 9521 24017 5672 2702 3849 2675 78 14221 12249 747 149 11502 628 315 159 2970 950 580 2266 1070 1972 1196 2597 2486 628 409 219 102 343
is_linear=0
shrinkage=0.1


Tree=17
num_leaves=31
num_cat=0
split_feature=6 6 7 4 6 3 3 3 7 7 1 3 3 4 7 1 3 4 3 4 3 3 4 7 4 3 7 4 6 7
split_gain=875243 137123 88568.6 38878.2 37088.5 35014.5 33480 39946.1 34044.4 47412.4 27460.1 35759.4 34865.7 26049.7 52463.4 46202.9 33796 33256.7 25966.3 30991.6 26434.2 23901.8 25260.2 23647.5 23210.2 27198.2 24844.7 22492.4 23301.7 20657.1
threshold=6.9477196834606945 5.4313276048740144 7.1749218628403915 1.5000000000000002 4.3472934887182415 10.500000000000002 1.5000000000000002 20.500000000000004 4.6464947478494603 4.9460214040033899 78.196293224770855 8.5000000000000018 21.500000000000004 4.5000000000000009 6.7458461146570956 53.497959953958819 3.5000000000000004 7.5000000000000009 9.5000000000000018 11.500000000000002 18.500000000000004 15.500000000000002 9.5000000000000018 5.2586898150347521 10.500000000000002 9.5000000000000018 7.4424088463190872 3.5000000000000004 8.0114201673239318 7.7850365761671378
decision_type=2 2 2 2 2 2 2 2 2 2 2 2 2 2 2 2 2 2 2 2 2 2 2 2 2 2 2 2 2 2
left_child=1 4 10 5 -1 -3 8 -8 -5 -10 11 13 -13 14 16 -15 -2 -17 19 -6 -20 -12 -23 -22 -4 -26 -27 28 -18 -25
right_child=2 3 24 6 18 -7 7 -9 9 -11 21 12 -14 15 -16 17 27 -19 20 -21 23 22 -24 29 25 26 -28 -29 -30 -31
leaf_value=-0.60238521129423062 0.94207087593419203 2.7911756027109771 1.1533180760185546 -2.0592952749668023 -0.10756383391931817 0.28791124841341603 -0.12938004490146801 0.50818802243432137 4.6719585519848454 0.75313086239057192 0.73025628594712844 0.19385093186847807 2.0117261706171812 -0.60569603456629939 -2.4168659313865333 -0.87398962378501899 1.834080110621034 2.184768016145036 -0.6204891144450001 -1.5658478099505109 -0.47583266309774308 1.6893554730142686 5.2002413583838418 0.2811535315081477 2.381263023772568 -0.81816305664240141 1.4942935095322087 6.4612259467442827 5.3568715981074746 -1.2925610988349705
leaf_weight=7138 70 98 2891 39 5124 130 5780 1184 33 479 358 2131 111 163 23 44 57 185 3692 150 1353 188 23 1000 378 51 522 24 28 91
leaf_count=7138 70 98 2891 39 5124 130 5780 1184 33 479 358 2131 111 163 23 44 57 185 3692 150 1353 188 23 1000 378 51 522 24 28 91
internal_value=-0.00783812 -0.276046 0.965178 0.0774188 -0.423602 1.36388 0.0383885 -0.0209825 0.788769 1.00571 0.593831 0.466628 0.283853 1.1565 2.07902 0.681118 2.6567 1.59706 -0.311757 -0.149039 -0.451616 1.22783 2.07206 -0.19651 1.29429 1.72283 1.28847 3.75784 2.99453 0.14989
internal_weight=33538 26291 7247 7743 18548 228 7515 6964 551 512 3405 2836 2242 594 202 392 179 229 11410 5274 6136 569 211 2444 3842 951 573 109 85 1091
internal_count=33538 26291 7247 7743 18548 228 7515 6964 551 512 3405 2836 2242 594 202 392 179 229 11410 5274 6136 569 211 2444 3842 951 573 109 85 1091
is_linear=0
shrinkage=0.1


end of trees

feature_importances:
month=140
corrected_wind_lag_24h=109
hour=99
corrected_wind=73
corrected_wind_lag_1h=61
is_daytime=36
corrected_wind_2=22

parameters:
[boosting: gbdt]
[objective: regression]
[metric: rmse]
[tree_learner: serial]
[device_type: cpu]
[data_sample_strategy: bagging]
[data: ]
[valid: ]
[num_iterations: 100]
[learning_rate: 0.1]
[num_leaves: 31]
[num_threads: 0]
[seed: 42]
[deterministic: 0]
[force_col_wise: 0]
[force_row_wise: 0]
[histogram_pool_size: -1]
[max_depth: -1]
[min_data_in_leaf: 20]
[min_sum_hessian_in_leaf: 0.001]
[bagging_fraction: 0.8]
[pos_bagging_fraction: 1]
[neg_bagging_fraction: 1]
[bagging_freq: 5]
[bagging_seed: 400]
[bagging_by_query: 0]
[feature_fraction: 0.9]
[feature_fraction_bynode: 1]
[feature_fraction_seed: 30056]
[extra_trees: 0]
[extra_seed: 12879]
[early_stopping_round: 0]
[early_stopping_min_delta: 0]
[first_metric_only: 0]
[max_delta_step: 0]
[lambda_l1: 0]
[lambda_l2: 0]
[linear_lambda: 0]
[min_gain_to_split: 0]
[drop_rate: 0.1]
[max_drop: 50]
[skip_drop: 0.5]
[xgboost_dart_mode: 0]
[uniform_drop: 0]
[drop_seed: 17869]
[top_rate: 0.2]
[other_rate: 0.1]
[min_data_per_group: 100]
[max_cat_threshold: 32]
[cat_l2: 10]
[cat_smooth: 10]
[max_cat_to_onehot: 4]
[top_k: 20]
[monotone_constraints: ]
[monotone_constraints_method: basic]
[monotone_penalty: 0]
[feature_contri: ]
[forcedsplits_filename: ]
[refit_decay_rate: 0.9]
[cegb_tradeoff: 1]
[cegb_penalty_split: 0]
[cegb_penalty_feature_lazy: ]
[cegb_penalty_feature_coupled: ]
[path_smooth: 0]
[interaction_constraints: ]
[verbosity: -1]
[saved_feature_importance_type: 0]
[use_quantized_grad: 0]
[num_grad_quant_bins: 4]
[quant_train_renew_leaf: 0]
[stochastic_rounding: 1]
[linear_tree: 0]
[max_bin: 255]
[max_bin_by_feature: ]
[min_data_in_bin: 3]
[bin_construct_sample_cnt: 200000]
[data_random_seed: 175]
[is_enable_sparse: 1]
[enable_bundle: 1]
[use_missing: 1]
[zero_as_missing: 0]
[feature_pre_filter: 1]
[pre_partition: 0]
[two_round: 0]
[header: 0]
[label_column: ]
[weight_column: ]
[group_column: ]
[ignore_column: ]
[categorical_feature: ]
[forcedbins_filename: ]
[precise_float_parser: 0]
[parser_config_file: ]
[objective_seed: 16083]
[num_class: 1]
[is_unbalance: 0]
[scale_pos_weight: 1]
[sigmoid: 1]
[boost_from_average: 1]
[reg_sqrt: 0]
[alpha: 0.9]
[fair_c: 1]
[poisson_max_delta_step: 0.7]
[tweedie_variance_power: 1.5]
[lambdarank_truncation_level: 30]
[lambdarank_norm: 1]
[label_gain: ]
[lambdarank_position_bias_regularization: 0]
[eval_at: ]
[multi_error_top_k: 1]
[auc_mu_weights: ]
[num_machines: 1]
[local_listen_port: 12400]
[time_out: 120]
[machine_list_filename: ]
[machines: ]
[gpu_platform_id: -1]
[gpu_device_id: -1]
[gpu_use_dp: 0]
[num_gpu: 1]

end of parameters

pandas_categorical:[]
