tree
version=v4
num_class=1
num_tree_per_iteration=1
label_index=0
max_feature_idx=7
objective=regression
feature_names=wind_speed wind_speed_2 wind_speed_3 hour month is_daytime wind_lag_1h wind_lag_24h
feature_infos=[0.1181636205:20.465551949999998] [0.013962641209668019:418.83881661814871] [0.0016498762370768727:8571.7675601752453] [0:23] [1:12] [0:1] [0.1181636205:20.465551949999998] [0.1181636205:20.465551949999998]
tree_sizes=2687 2722 2728 2740 2740 2734 2730 2754 2744 2738 2764 2718 2746 2757 2761 2737 2776 2761 2735 2775

Tree=0
num_leaves=31
num_cat=0
split_feature=6 0 0 6 3 4 7 7 4 3 4 0 4 4 3 6 0 0 4 0 3 7 3 4 7 3 7 4 3 7
split_gain=2.48892e+07 3.26098e+06 2.68441e+06 493946 475512 430678 452832 370005 351009 327459 268317 243900 232220 230169 228128 218162 193446 176466 133167 129737 127134 106716 102988 148086 130747 102407 127549 102289 99477.1 110441
threshold=7.8121406125000012 5.7451453025000019 9.1955213000000029 10.757634050000002 14.500000000000002 11.500000000000002 12.125023675000003 9.1955213000000029 11.500000000000002 15.500000000000002 10.500000000000002 4.157021427500001 10.500000000000002 10.500000000000002 9.5000000000000018 6.6050185600000013 12.704936737500002 6.6633728175000018 2.5000000000000004 6.9087085600000018 12.500000000000002 5.2234561700000013 14.500000000000002 5.5000000000000009 10.251993737500003 6.5000000000000009 10.411082950000001 2.5000000000000004 12.500000000000002 5.6462717975000007
decision_type=2 2 2 2 2 2 2 2 2 2 2 2 2 2 2 2 2 2 2 2 2 2 2 2 2 2 2 2 2 2
left_child=1 11 9 7 8 13 25 -4 19 10 18 -1 20 16 -12 -6 21 -10 -2 -3 -9 -5 23 24 -23 -7 -27 -18 29 -20
right_child=2 4 3 5 15 6 -8 12 17 -11 14 -13 -14 -15 -16 -17 27 -19 28 -21 -22 22 -24 -25 -26 26 -28 -29 -30 -31
leaf_value=46.135942431742791 52.470856551789737 47.761601858244077 52.988619619471201 51.911701674139145 48.943255051313969 58.520310425437209 46.330228309370014 53.420200253088282 48.978150088406672 52.776663121643836 54.863615773813457 46.963069419762952 58.094672957866294 59.01926389808898 50.157669196419988 50.643438765137454 51.847303107601462 53.565776867700841 48.823188090712982 48.76799428141944 55.730279874033833 54.118130032140527 56.321016397567682 53.149283996037688 57.789560982421726 55.348210317298381 48.705554051129766 57.469114403384722 51.933427784409048 50.470620205455447
leaf_weight=8262 307 3019 1827 93 1295 54 93 480 152 1353 286 6271 232 253 161 1809 34 187 573 2225 473 193 659 361 195 98 41 673 305 1404
leaf_count=8262 307 3019 1827 93 1295 54 93 480 152 1353 286 6271 232 253 161 1809 34 187 573 2225 473 193 659 361 195 98 41 673 305 1404
internal_value=49.2146 47.4091 53.3458 54.7657 48.9419 55.7354 52.0624 53.8812 48.3902 51.4828 50.9061 46.4928 55.2575 56.1623 53.1686 49.9341 55.8349 51.5088 50.5155 48.1886 54.5668 55.1925 55.4092 54.607 55.9633 54.8246 53.3889 57.1988 50.2525 49.9931
internal_weight=33368 23220 10148 5759 8687 2747 286 3012 5583 4389 3036 14533 1185 2461 447 3104 2208 339 2589 5244 953 1501 1408 749 388 193 139 707 2282 1977
internal_count=33368 23220 10148 5759 8687 2747 286 3012 5583 4389 3036 14533 1185 2461 447 3104 2208 339 2589 5244 953 1501 1408 749 388 193 139 707 2282 1977
is_linear=0
shrinkage=1


Tree=1
num_leaves=31
num_cat=0
split_feature=0 0 0 3 0 7 4 7 4 0 3 4 5 4 4 3 0 0 7 3 4 0 3 7 7 4 3 7 3 4
split_gain=2.02483e+07 2.63662e+06 2.10982e+06 406761 388000 369329 318899 422996 303282 268879 220242 243604 188383 160382 158115 143071 135575 135020 130004 126694 120552 112924 107962 105508 93362.8 89104.8 101318 86900.9 84262 144075
threshold=7.8118211350000006 5.923176595000001 9.1955213000000029 13.500000000000002 10.967926925000002 9.2926427425000018 11.500000000000002 12.301460800000003 11.500000000000002 4.5670384725000011 14.500000000000002 10.500000000000002 1.0000000180025095e-35 10.500000000000002 10.500000000000002 9.5000000000000018 12.704936737500002 6.6048359850000011 10.666165350000002 12.500000000000002 3.5000000000000004 6.6633728175000018 13.500000000000002 8.8900424200000021 6.609702845000001 5.5000000000000009 14.500000000000002 8.8014818125000023 12.500000000000002 3.5000000000000004
decision_type=2 2 2 2 2 2 2 2 2 2 2 2 2 2 2 2 2 2 2 2 2 2 2 2 2 2 2 2 2 2
left_child=1 9 10 8 5 28 14 12 27 -1 11 20 -8 19 16 -13 25 -5 -14 -7 -2 -10 -11 -12 -22 -6 -27 -3 29 -4
right_child=2 3 4 17 6 13 7 -9 21 22 23 15 18 -15 -16 -17 -18 -19 -20 -21 24 -23 -24 -25 -26 26 -28 -29 -30 -31
leaf_value=-2.690241680192254 2.7668034697084884 -1.0767251961520181 5.476303664616176 -0.11673796641167417 6.2369925058620659 3.9147095872041504 9.4423791751055646 -3.0612648141795193 0.12240298713060249 -2.1791207997448674 2.5079468690367719 5.0782369306462396 5.219751456204583 7.8368790816704124 8.8171749416917695 1.0599880991980086 7.1404230781943232 1.2711489343587978 -2.429660196015329 6.1198418930951348 0.053136099983551878 3.9739637443942302 -1.2840671091642841 4.319463930741466 1.4340734744875274 3.3438758525980159 5.8964502227346243 0.19516374843410347 4.1536300461759117 2.3467965738422047
leaf_weight=9712 405 3900 175 1086 659 507 71 87 133 3367 1047 283 68 257 229 129 721 1977 33 536 820 178 2247 464 1215 324 299 623 893 923
leaf_count=9712 405 3900 175 1086 659 507 71 87 133 3367 1047 283 68 257 229 129 721 1977 33 536 820 178 2247 464 1215 324 299 623 893 923
internal_value=0.0212264 -1.60693 3.74825 -0.122542 5.00096 4.28827 5.94253 2.62102 -0.693835 -2.37179 2.08812 1.57097 5.49519 5.59929 6.32796 3.8201 6.04337 0.779068 2.72044 5.04793 1.1912 2.32683 -1.82088 3.06423 0.877627 5.42639 4.56895 -0.901535 3.43226 2.84558
internal_weight=33368 23223 10145 7897 5782 3291 2491 259 4834 15326 4363 2852 172 1300 2232 412 2003 3063 101 1043 2440 311 5614 1511 2035 1282 623 4523 1991 1098
internal_count=33368 23223 10145 7897 5782 3291 2491 259 4834 15326 4363 2852 172 1300 2232 412 2003 3063 101 1043 2440 311 5614 1511 2035 1282 623 4523 1991 1098
is_linear=0
shrinkage=0.1


Tree=2
num_leaves=31
num_cat=0
split_feature=6 6 6 3 1 7 4 7 4 3 4 1 5 4 6 6 4 7 1 3 7 1 4 4 7 3 4 4 3 4
split_gain=1.64129e+07 2.15333e+06 1.79189e+06 335814 314941 288037 264758 342627 210147 191629 292514 162497 152590 150874 136660 135577 122291 116871 108552 106423 105303 96483.3 93566.5 92273.7 81660.3 76171 124236 92042.7 75312.1 71750.3
threshold=7.8121406125000012 5.7453750700000015 9.1955213000000029 14.500000000000002 120.29542103551849 9.1955213000000029 11.500000000000002 12.301460800000003 11.500000000000002 13.500000000000002 10.500000000000002 16.328559439857347 1.0000000180025095e-35 10.500000000000002 6.6635399525000016 6.6382987500000015 10.500000000000002 5.2825254275000004 156.26771766521958 10.500000000000002 10.666165350000002 54.895028694377665 2.5000000000000004 2.5000000000000004 5.6462717975000007 12.500000000000002 3.5000000000000004 8.5000000000000018 17.500000000000004 5.5000000000000009
decision_type=2 2 2 2 2 2 2 2 2 2 2 2 2 2 2 2 2 2 2 2 2 2 2 2 2 2 2 2 2 2
left_child=1 11 9 8 5 25 16 12 21 10 23 -1 -8 19 -10 -5 17 29 -19 -7 -14 -3 -20 -2 -25 26 -4 -28 -13 -6
right_child=2 3 4 15 6 13 7 -9 14 -11 -12 28 20 -15 -16 -17 -18 18 22 -21 -22 -23 -24 24 -26 -27 27 -29 -30 -31
leaf_value=-2.4998435048115173 2.7205521252525759 -1.0297657305488512 5.065716103450395 -0.13971415171450133 5.382514562412184 3.3249122282781784 8.4981410980224616 -2.7551383989980853 -0.49978067960370992 2.6942448729609918 3.8878957206654983 -2.0262759476514716 4.6977762839373423 7.0700239805741747 3.5064328273137413 1.2055670652515529 7.9314492741436284 5.0410058845714527 2.000576410407112 5.2799395878108824 -2.1866941741018588 0.048813332345827604 6.8547481789529989 -0.29216170583955464 1.0900460170425876 3.783299022627638 1.3135497924201509 3.4948909084228834 -1.2589787527076783 0.39323018448693414
leaf_weight=7841 251 4224 160 1293 49 479 71 87 153 1660 384 4983 68 275 192 1781 228 1097 42 665 33 1032 728 601 1480 846 585 289 1721 70
leaf_count=7841 251 4224 160 1293 49 479 71 87 153 1660 384 4983 68 275 192 1781 228 1097 42 665 33 1032 728 601 1480 846 585 289 1721 70
internal_value=0.0191037 -1.44707 3.37391 -0.200129 4.53093 3.89139 5.38409 2.35891 -0.661058 1.84779 1.33045 -2.19078 4.94567 4.96691 1.72976 0.639709 5.73799 5.48617 5.67984 4.46136 2.44839 -0.81799 6.58998 0.909321 0.69086 3.07959 2.50383 2.03484 -1.8293 2.44764
internal_weight=33368 23220 10148 8675 5772 3299 2473 259 5601 4376 2716 14545 172 1419 345 3074 2214 1986 1867 1144 101 5256 770 2332 2081 1880 1034 874 6704 119
internal_count=33368 23220 10148 8675 5772 3299 2473 259 5601 4376 2716 14545 172 1419 345 3074 2214 1986 1867 1144 101 5256 770 2332 2081 1880 1034 874 6704 119
is_linear=0
shrinkage=0.1


Tree=3
num_leaves=31
num_cat=0
split_feature=0 0 6 6 4 7 0 4 7 4 4 7 4 0 4 5 5 6 7 4 4 4 7 5 7 7 4 4 7 5
split_gain=1.33441e+07 1.74736e+06 1.47006e+06 248985 242527 236998 216631 212882 163409 136466 124989 125407 119853 95878.4 91223.9 90990.6 87972.1 177663 92260.1 84173 82082.7 89144.8 77558.8 118032 76013.9 73772.2 72447.9 107212 90350.3 71405.1
threshold=7.8118211350000006 6.0836448775000012 9.1955213000000029 10.865444125000002 11.500000000000002 12.301460800000003 4.5670384725000011 10.500000000000002 7.7190120850000019 10.500000000000002 4.5000000000000009 11.171873350000002 10.500000000000002 12.704936737500002 10.500000000000002 1.0000000180025095e-35 1.0000000180025095e-35 11.297621075000002 10.666165350000002 11.500000000000002 2.5000000000000004 6.5000000000000009 6.6975630925000011 1.0000000180025095e-35 5.8889669275000012 9.042133650000002 3.5000000000000004 2.5000000000000004 2.2896211875000008 1.0000000180025095e-35
decision_type=2 2 2 2 2 2 2 2 2 2 2 2 2 2 2 2 2 2 2 2 2 2 2 2 2 2 2 2 2 2
left_child=1 6 9 7 12 16 20 10 19 22 -4 24 13 -5 15 -10 17 -6 -18 26 -1 -22 23 -2 -12 -9 27 -3 -29 -11
right_child=2 8 3 4 5 -7 -8 25 14 29 11 -13 -14 -15 -16 -17 18 -19 -20 -21 21 -23 -24 -25 -26 -27 -28 28 -30 -31
leaf_value=-2.8263422354614627 0.11685850410733185 -0.41667474713176489 4.1465863016827438 4.4258624491240504 -1.4688640308380128 -2.19708882411321 -1.4303192304950549 4.0727160737967631 1.0744589567539944 3.8149236078953268 1.0783638460431921 4.9212270009352865 7.2688874047171623 5.854832677351367 2.2947669624928624 -0.37418944648371677 4.1571338944620901 9.4856016761378239 -2.0972370372099038 1.1670121469254224 -1.6887348691576556 -2.3567652144849691 1.8261331850265987 1.8381780618272439 2.734101561637984 6.5460688692150697 -0.62454135006367451 6.1254157702128094 1.1670785951447122 1.8005854183944843
leaf_weight=1655 874 644 838 1398 20 90 6255 222 1006 402 359 217 239 707 316 762 77 57 34 355 3662 4395 2084 732 1218 264 3837 42 294 313
leaf_count=1655 874 644 838 1398 20 90 6255 222 1006 402 359 217 239 707 316 762 77 57 34 355 3662 4395 2084 732 1218 264 3837 42 294 313
internal_value=0.0171934 -1.30455 3.0428 4.09733 4.81554 2.02287 -1.8893 3.49337 -0.017793 1.66868 3.1383 2.66732 5.14675 4.90581 0.729808 0.450098 4.04306 6.64029 2.24138 -0.319031 -2.1849 -2.05314 1.42367 0.90142 2.35718 5.41627 -0.428548 0.338827 1.78687 2.93312
internal_weight=33368 23223 10145 5740 2622 278 15967 3118 7256 4405 2632 1794 2344 2105 2084 1768 188 77 111 5172 9712 8057 3690 1606 1577 486 4817 980 336 715
internal_count=33368 23223 10145 5740 2622 278 15967 3118 7256 4405 2632 1794 2344 2105 2084 1768 188 77 111 5172 9712 8057 3690 1606 1577 486 4817 980 336 715
is_linear=0
shrinkage=0.1


Tree=4
num_leaves=31
num_cat=0
split_feature=6 0 0 3 6 3 4 4 4 3 4 4 3 6 0 4 0 0 3 4 3 4 4 3 3 6 3 3 4 4
split_gain=1.08355e+07 1.31149e+06 1.29029e+06 246816 212470 201141 197249 180569 151112 135685 156760 130865 138792 114421 107858 103478 82951.6 82148.3 81123.5 68467.6 66237 115031 63689.4 62238.4 61689.2 60207.3 87984.2 59653.5 56911.5 56486.3
threshold=7.7147441850000016 5.6763967975000016 9.1955213000000029 13.500000000000002 10.757634050000002 15.500000000000002 11.500000000000002 10.500000000000002 11.500000000000002 12.500000000000002 3.5000000000000004 10.500000000000002 9.5000000000000018 6.5431103100000021 3.2841433425000006 10.500000000000002 6.6633728175000018 12.704936737500002 10.500000000000002 2.5000000000000004 14.500000000000002 5.5000000000000009 1.5000000000000002 18.500000000000004 15.500000000000002 11.297621075000002 11.500000000000002 10.500000000000002 3.5000000000000004 1.5000000000000002
decision_type=2 2 2 2 2 2 2 2 2 2 2 2 2 2 2 2 2 2 2 2 2 2 2 2 2 2 2 2 2 2
left_child=1 14 5 8 7 11 15 9 -3 10 -4 18 -13 -5 24 17 -10 20 28 -19 21 25 -7 -16 -1 -6 -27 -18 -2 -15
right_child=2 3 4 13 6 22 -8 -9 16 -11 -12 12 -14 29 23 -17 27 19 -20 -21 -22 -23 -24 -25 -26 26 -28 -29 -30 -31
leaf_value=-2.3927219083733759 1.6684187398965542 -0.79659422838971405 4.0187536226198928 -0.24630787151505831 2.8125304007530212 -0.089505994478438766 1.8255119525286909 4.904934604063854 -0.19372685488901642 3.540094449565002 1.4796399464125729 3.8228277224418408 0.31519404669825951 -1.2418638924402852 -1.7195303251101217 6.5157091174436665 3.9100843465595108 0.89109593156506028 1.6829121563578402 5.4905392659316057 4.6725816150658899 2.1015088708941327 2.6011581608770369 -1.0727162470769078 -1.6798198390645063 6.7308152366924849 3.0163703417718999 -1.4109249267578126 0.2301171976166578 1.0717045143173247
leaf_weight=3548 325 4896 318 1408 140 94 286 466 152 1195 1033 308 178 112 6988 253 134 34 715 673 700 387 1372 1890 1845 173 101 25 1792 1827
leaf_count=3548 325 4896 318 1408 140 94 286 466 152 1195 1033 308 178 112 6988 253 134 34 715 673 700 387 1372 1890 1845 173 101 25 1792 1827
internal_value=0.015474 -1.20924 2.66691 -0.230159 3.6752 1.45314 4.31122 3.09513 -0.660821 2.76388 2.0773 1.02213 2.53814 0.439831 -1.7961 4.6001 1.47663 4.3806 0.761966 5.26935 3.96198 3.34098 2.42863 -1.58183 -2.14883 4.49961 5.36162 3.07345 0.450924 0.938069
internal_weight=33368 22825 10543 8554 5759 4784 2747 3012 5207 2546 1351 3318 486 3347 14271 2461 311 2208 2832 707 1501 801 1466 8878 5393 414 274 159 2117 1939
internal_count=33368 22825 10543 8554 5759 4784 2747 3012 5207 2546 1351 3318 486 3347 14271 2461 311 2208 2832 707 1501 801 1466 8878 5393 414 274 159 2117 1939
is_linear=0
shrinkage=0.1


Tree=5
num_leaves=31
num_cat=0
split_feature=0 0 0 7 0 3 7 3 0 4 5 0 3 3 4 4 3 4 4 7 7 7 4 0 0 4 7 7 3 7
split_gain=8.72829e+06 988926 968023 237166 179171 147067 134830 134244 125890 124648 123273 111426 102621 97234.2 96479.8 79016.7 74104.8 73070.9 67727.8 70568.2 60991.3 59639.6 137898 134831 105606 58984 58274.5 85919.7 55955 71880.2
threshold=7.714344307500002 9.0851856850000008 6.2428654875000005 6.8810071325000006 4.9287465150000012 12.500000000000002 6.6420344650000009 15.500000000000002 9.9038113150000022 9.5000000000000018 1.0000000180025095e-35 10.865444125000002 8.5000000000000018 14.500000000000002 11.500000000000002 5.5000000000000009 16.500000000000004 10.500000000000002 2.5000000000000004 8.8900424200000021 8.8014818125000023 10.180825670000003 10.500000000000002 11.171873350000002 12.500708600000001 6.5000000000000009 6.4559270525000017 10.251993737500003 10.500000000000002 12.301460800000003
decision_type=2 2 2 2 2 2 2 2 2 2 2 2 2 2 2 2 2 2 2 2 2 2 2 2 2 2 2 2 2 2
left_child=2 6 4 9 16 14 12 8 -5 -3 -8 -11 -2 -6 20 -10 -1 18 -18 25 -4 22 24 -23 -17 -20 -16 -28 29 -25
right_child=1 3 5 7 13 -7 10 -9 15 11 -12 -13 -14 -15 26 21 17 -19 19 -21 -22 23 -24 28 -26 -27 27 -29 -30 -31
leaf_value=-1.8838653276821 -0.21963205874831099 1.5869637464060753 -0.77076454270636052 2.0784693328908297 -1.3307185766949439 0.54260217128066779 2.4068262300700169 4.2617596642415458 4.2466871090977589 2.373114825605501 1.0416958725563426 6.8468209851047268 1.2990879423001458 -0.45620591588135212 -1.0267698965740928 2.0297871309404192 -2.1676507927863686 -2.6257326418147704 -0.60529730416398531 1.7569088013882332 0.42757952337216337 4.2613674147649014 5.5381177619651512 3.8856597251789546 6.3640224726842005 -1.6219198882302188 3.4750856372026302 -2.4944921329103669 -0.8392299240721125 -0.12522778109062549
leaf_weight=7842 827 1069 2759 792 3592 2655 1317 1753 931 141 1329 92 963 1968 66 416 540 381 1342 94 502 188 243 93 65 993 143 29 119 86
leaf_count=7842 827 1069 2759 792 3592 2655 1317 1753 931 141 1329 92 963 1968 66 416 540 381 1342 94 502 188 243 93 65 993 143 29 119 86
internal_value=0.00050365 2.39936 -1.09116 3.2377 -1.48518 -0.0185986 1.26772 3.56943 3.15564 2.04376 1.72117 4.13956 0.597422 -1.02118 -0.444431 3.55411 -1.71568 -1.32199 -1.15468 -0.929488 -0.586291 3.02122 3.59643 2.16433 2.61549 -1.03763 1.49929 2.46859 0.84137 1.95864
internal_weight=33330 10424 22906 5988 16752 6154 4436 4686 2933 1302 2646 233 1790 5560 3499 2141 11192 3350 2969 2429 3261 1210 724 486 481 2335 238 172 298 179
internal_count=33330 10424 22906 5988 16752 6154 4436 4686 2933 1302 2646 233 1790 5560 3499 2141 11192 3350 2969 2429 3261 1210 724 486 481 2335 238 172 298 179
is_linear=0
shrinkage=0.1


Tree=6
num_leaves=31
num_cat=0
split_feature=6 6 6 3 3 7 0 7 0 0 3 4 7 4 6 7 4 4 4 3 4 3 7 3 3 4 3 4 7 0
split_gain=7.1131e+06 832338 825052 182038 154220 132503 102022 97501.7 95446.1 92334.3 88514.5 81513.4 70324.1 67755 67314.1 63903.3 62490.6 63309.1 56800.6 92678.4 100876 70926 69286.6 56481.3 67380.3 55201.2 49485.1 49013.6 137249 96284.6
threshold=7.7147441850000016 9.0854607500000011 5.7453750700000015 14.500000000000002 15.500000000000002 6.609702845000001 9.982489087500003 6.6420344650000009 7.0270325350000018 3.2841433425000006 8.5000000000000018 5.5000000000000009 7.9148614250000016 11.500000000000002 14.904827225000002 6.0197380700000016 8.5000000000000018 3.5000000000000004 10.500000000000002 9.5000000000000018 11.500000000000002 19.500000000000004 8.5840341075000026 14.500000000000002 5.5000000000000009 6.5000000000000009 15.500000000000002 10.500000000000002 12.301460800000003 11.512926325000002
decision_type=2 2 2 2 2 2 2 2 2 2 2 2 2 2 2 2 2 2 2 2 2 2 2 2 2 2 2 2 2 2
left_child=2 7 9 5 8 -3 16 10 -4 26 -2 -8 -11 -10 -5 -6 17 -7 23 -20 21 22 -21 24 -9 -16 -1 -13 -29 -30
right_child=1 3 4 14 15 6 11 18 13 12 -12 27 -14 -15 25 -17 -18 -19 19 20 -22 -23 -24 -25 -26 -27 -28 28 29 -31
leaf_value=-1.9842834010470913 -0.21736100846890027 1.2306417466150787 -0.78500723111612047 3.4629171131805565 -0.12534019392789653 3.1554935548322423 3.9163215639687636 1.7313076313938094 -0.069523484991737952 -1.3514461413620735 1.212271568689959 2.0652106374879518 -0.54065810582467333 2.3564985417738193 4.2645605065501657 0.8605858235903977 3.1355769044578738 0.73032958559282535 4.2382900163691533 -1.0707891866895889 -0.18923161502060448 6.342827903307402 4.4784509595235189 2.0029655666655408 0.35721190946925191 8.2297995794494199 -1.3467940443888387 4.3460762120783327 6.3539327907562253 -1.4035088220238687
leaf_weight=3526 809 686 3652 2297 1151 141 850 612 1797 8038 932 659 1234 123 104 1533 271 455 186 45 174 52 45 737 856 53 1860 352 20 80
leaf_count=3526 809 686 3652 2297 1151 141 850 612 1797 8038 932 659 1234 123 104 1533 271 455 186 45 174 52 45 737 856 53 1860 352 20 80
internal_value=0.000453269 2.16722 -0.984491 2.93895 -0.184947 2.47742 2.77985 1.13176 -0.484912 -1.43483 0.547956 3.17923 -1.24354 0.0858936 3.59984 0.437784 1.87655 1.30407 1.50724 2.46727 1.42483 3.40262 1.70383 1.28867 0.930064 5.60314 -1.76413 2.61529 3.41729 0.14798
internal_weight=33330 10416 22914 5968 8256 3514 2828 4448 5572 14658 1741 1961 9272 1920 2454 2684 867 596 2707 502 316 142 90 2205 1468 157 5386 1111 452 100
internal_count=33330 10416 22914 5968 8256 3514 2828 4448 5572 14658 1741 1961 9272 1920 2454 2684 867 596 2707 502 316 142 90 2205 1468 157 5386 1111 452 100
is_linear=0
shrinkage=0.1


Tree=7
num_leaves=31
num_cat=0
split_feature=0 6 6 7 3 6 4 3 4 0 4 4 5 7 3 6 7 7 7 7 7 3 4 7 4 7 4 4 6 3
split_gain=5.76945e+06 805076 547242 140653 128052 115949 103289 107721 85270.2 99795.1 84932.5 80293.8 77350.9 74114 72494.1 63045.7 61127.3 60855.5 56784.5 61729.5 55747 57145.8 50586.1 50038.5 65598.8 66639.3 49536.8 69442.7 47520.7 46910.4
threshold=7.9089900125000012 6.2430523000000004 9.5220947575000032 6.8810071325000006 13.500000000000002 4.157021427500001 10.500000000000002 11.500000000000002 9.5000000000000018 10.865444125000002 11.500000000000002 3.5000000000000004 1.0000000180025095e-35 8.9903412175000028 19.500000000000004 14.904827225000002 13.616986500000001 5.5584215375000019 10.050368575000002 6.3645452525000019 8.1511058975000026 5.5000000000000009 1.5000000000000002 9.2926427425000018 3.5000000000000004 2.3533178075000003 2.5000000000000004 6.5000000000000009 7.1195921075000008 15.500000000000002
decision_type=2 2 2 2 2 2 2 2 2 2 2 2 2 2 2 2 2 2 2 2 2 2 2 2 2 2 2 2 2 2
left_child=1 5 6 8 10 26 7 11 -4 -10 23 -2 -5 20 -7 16 -14 -13 19 -12 -8 -22 -9 24 25 -3 -1 29 -6 -28
right_child=2 4 3 12 28 14 13 22 9 -11 18 17 15 -15 -16 -17 -18 -19 -20 -21 21 -23 -24 -25 -26 -27 27 -29 -30 -31
leaf_value=-2.020735282379579 2.0332751552017716 4.7045628807761455 1.2115918285249037 3.5055558116973446 0.2182363938969818 -1.0868619270185054 2.2734081612936246 -0.10703887727162609 0.64156961836696924 5.8836893892806508 -0.61219755651222341 -0.58201274175234519 2.3756366238285334 3.8554076551649219 -0.30729762091020757 4.8836598867025138 5.1172771318519814 0.71054473619332692 -2.4737255713518929 2.8363292544759733 4.6079546428862077 -1.1157175777027908 1.8369764643089788 0.56842696568433282 -0.75488005997534957 0.10507159546920748 -1.3259225243996022 -1.6592864964491942 1.0585112482465564 -0.52687319555256007
leaf_weight=1410 343 33 732 1945 1472 7022 410 146 60 92 72 495 1880 231 1437 117 85 1379 34 186 21 103 1609 470 2742 693 1923 3759 1240 1189
leaf_count=1410 343 33 732 1945 1472 7022 410 146 60 92 72 495 1880 231 1437 117 85 1379 34 186 21 103 1609 470 2742 693 1923 3759 1240 1189
internal_value=0.000407945 -0.83936 2.0617 2.80137 0.0660494 -1.21483 1.29486 1.08994 1.65914 3.81443 -0.277845 0.626594 3.05211 2.35888 -0.954431 2.62851 2.49423 0.369127 1.36771 1.87395 1.71151 -0.146386 1.67525 -0.399862 -0.531089 0.314139 -1.48082 -1.37003 0.602433 -1.02063
internal_weight=33330 23682 9648 4911 6942 16740 4737 3972 884 152 4230 2217 4027 765 8459 2082 1965 1874 292 258 534 124 1755 3938 3468 726 8281 6871 2712 3112
internal_count=33330 23682 9648 4911 6942 16740 4737 3972 884 152 4230 2217 4027 765 8459 2082 1965 1874 292 258 534 124 1755 3938 3468 726 8281 6871 2712 3112
is_linear=0
shrinkage=0.1


Tree=8
num_leaves=31
num_cat=0
split_feature=0 0 0 7 0 3 5 7 5 3 7 7 7 3 4 4 4 4 7 4 0 0 3 4 4 3 7 3 3 0
split_gain=4.68603e+06 607413 462792 139153 225185 123453 105135 80826.8 90478.9 71669.4 71271.8 69473 65487.3 62912.4 68042.8 78137.6 55907.1 52939.9 52927 56545 51578.1 51446 48922.2 66346.4 48829.8 43714 42519.3 40475 40409.9 43477.1
threshold=7.5764165550000024 9.0851856850000008 5.3436825975000017 9.1955213000000029 12.500708600000001 13.500000000000002 1.0000000180025095e-35 6.6420344650000009 1.0000000180025095e-35 7.5000000000000009 6.9398971475000009 6.053039205000001 8.3877455175000026 12.500000000000002 3.5000000000000004 7.5000000000000009 9.5000000000000018 5.5000000000000009 3.5210385600000005 3.5000000000000004 6.393387487500001 9.5806023000000025 16.500000000000004 9.5000000000000018 11.500000000000002 9.5000000000000018 13.616986500000001 19.500000000000004 3.5000000000000004 11.651551350000002
decision_type=2 2 2 2 2 2 2 2 2 2 2 2 2 2 2 2 2 2 2 2 2 2 2 2 2 2 2 2 2 2
left_child=2 7 12 4 13 20 -5 9 -9 -2 16 -7 22 14 -3 -16 17 -6 19 -11 -4 -8 -1 -24 -22 -26 -23 -20 -17 -30
right_child=1 3 5 6 10 11 21 8 -10 18 -12 -13 -14 -15 15 28 -18 -19 27 -21 24 26 23 -25 25 -27 -28 -29 29 -31
leaf_value=-1.4216360609138672 -0.28536640671964536 2.8207184770153564 -0.90390440217482859 3.3970255751201934 3.9345664152284949 -0.29063525996719969 0.338333137185519 1.7744889086412561 0.66079438149936676 5.7091851786869334 6.3131075665354732 0.57131174942761354 -0.48152528907939357 2.1215415371685227 0.18166786729422502 3.1213235212408978 5.7449961323687369 -1.1788604599237442 0.92058716060519608 1.5359182008100341 -0.40721486536199936 2.2441556623791206 -0.79958413927758265 -1.9949442404225277 2.1505602960927148 -1.3465109025438629 4.2708112701641774 -0.72844500785450572 0.89150713351465039 5.5931931155068533
leaf_weight=8204 881 206 2728 1617 41 1832 131 1452 1466 41 132 1910 1105 1226 709 161 47 40 779 156 2797 1234 3072 547 140 48 113 184 310 21
leaf_count=8204 881 206 2728 1617 41 1832 131 1452 1466 41 132 1910 1105 1226 709 161 47 40 779 156 2797 1234 3072 547 140 48 113 184 310 21
internal_value=0.00036715 1.69586 -0.82886 2.37374 1.87513 -0.297157 2.83981 0.877326 1.21497 0.394599 4.68272 0.149322 -1.21772 1.59789 1.1416 0.853589 3.00139 1.40942 0.91102 2.40447 -0.5896 2.23018 -1.28653 -0.980259 -0.302356 1.25769 2.41417 0.605507 1.82186 1.1898
internal_weight=33330 10947 22383 5988 2893 9455 3095 4959 2918 2041 260 3742 12928 2633 1407 1201 128 81 1160 197 5713 1478 11823 3619 2985 188 1347 963 492 331
internal_count=33330 10947 22383 5988 2893 9455 3095 4959 2918 2041 260 3742 12928 2633 1407 1201 128 81 1160 197 5713 1478 11823 3619 2985 188 1347 963 492 331
is_linear=0
shrinkage=0.1


Tree=9
num_leaves=31
num_cat=0
split_feature=6 6 6 3 3 4 4 7 7 6 4 6 7 6 4 4 4 1 4 3 7 4 7 7 6 4 4 7 3 1
split_gain=3.82036e+06 450382 450081 117997 99845.9 94397.2 86656.9 130868 112818 81093.6 96489.5 74985.4 67849.6 62846.9 72064.8 60064.7 56378.1 55240.2 53741.3 74471.1 72012.6 72530.8 56151.2 47862.6 47067.6 45620.4 43797.7 47258.4 64991.4 41254.7
threshold=7.7147441850000016 5.5583176950000013 9.0854607500000011 14.500000000000002 13.500000000000002 3.5000000000000004 10.500000000000002 12.704936737500002 12.301460800000003 11.416741550000003 11.500000000000002 12.500708600000001 10.411082950000001 11.297621075000002 2.5000000000000004 9.5000000000000018 2.5000000000000004 50.25428775876712 6.5000000000000009 16.500000000000004 2.0073486900000006 4.5000000000000009 8.2650294800000008 5.6168019750000013 7.0271428500000015 2.5000000000000004 11.500000000000002 8.9903412175000028 9.5000000000000018 115.72669049872808
decision_type=2 2 2 2 2 2 2 2 2 2 2 2 2 2 2 2 2 2 2 2 2 2 2 2 2 2 2 2 2 2
left_child=1 16 12 5 17 13 7 11 26 -10 -11 -7 -2 -4 -15 23 -1 -3 19 -18 21 -21 -20 -13 -6 -5 -8 -28 -29 -27
right_child=2 4 3 25 24 6 8 -9 9 10 -12 15 -14 14 -16 -17 18 -19 22 20 -22 -23 -24 -25 -26 29 27 28 -30 -31
leaf_value=-1.5224799610736861 0.69371932243154744 -0.6411496174197796 2.3147956616492666 1.2203387779532335 -0.0014444617843229293 0.8048227200694118 4.0656824017265683 3.625394118021072 4.8347369619037792 3.6313853090224057 -3.9865898478031156 -0.73344968505527675 1.9726630870606874 1.53033970785141 6.1290350836430783 -0.25147359448450585 -1.0127188701013272 0.063308018219284834 -1.2799032989947892 4.1087372367446484 -0.41360752606751322 -0.28955572941585589 -0.1669400290599278 4.139554335112952 0.78792297555740931 2.3952477569632769 0.93365627243457472 5.202739392386543 0.93228765907934152 3.2500928797654889
leaf_weight=2385 3985 3930 414 195 2497 1833 266 213 23 23 60 23 463 50 107 54 3630 1553 5631 74 1562 76 493 163 1083 1151 136 90 59 1108
leaf_count=2385 3985 3930 414 195 2497 1833 266 213 23 23 60 23 463 50 107 54 3630 1553 5631 74 1562 76 493 163 1083 1151 136 90 59 1108
internal_value=0.000330432 -0.721499 1.58827 2.15577 -0.173418 1.78418 1.55589 1.26498 2.56808 -0.419571 -1.87558 1.02245 0.826847 2.96086 4.66448 2.68458 -1.08012 -0.44162 -0.988106 -0.756306 -0.212625 1.88027 -1.19031 3.53698 0.23735 2.68786 3.14283 2.2815 3.51176 2.81453
internal_weight=33330 22914 10416 5968 9063 3514 2943 2286 657 106 83 2073 4448 571 157 240 13851 5483 11466 5342 1712 150 6124 186 3580 2454 551 285 149 2259
internal_count=33330 22914 10416 5968 9063 3514 2943 2286 657 106 83 2073 4448 571 157 240 13851 5483 11466 5342 1712 150 6124 186 3580 2454 551 285 149 2259
is_linear=0
shrinkage=0.1


Tree=10
num_leaves=31
num_cat=0
split_feature=6 1 6 7 3 4 3 4 6 4 6 4 4 3 7 3 4 7 4 4 4 3 4 4 6 1 7 7 3 7
split_gain=3.13395e+06 527798 217453 125000 93829.9 141761 74817.9 73014.9 68213.4 54030.5 53324.8 53076.6 59647.6 69330.7 51059.6 49719.3 48933 48809.1 61969.3 48578.1 69724.7 51381.8 48498.7 73582.3 54218.8 53287.5 47853.5 46918.6 45496.6 53179.6
threshold=7.1839572275000014 80.71535780962283 5.3168165425000007 6.9717700325000012 13.500000000000002 10.500000000000002 15.500000000000002 9.5000000000000018 10.865444125000002 3.5000000000000004 9.982489087500003 2.5000000000000004 6.5000000000000009 14.500000000000002 3.8465607275000004 8.5000000000000018 4.5000000000000009 2.2404283450000002 4.5000000000000009 1.5000000000000002 4.5000000000000009 21.500000000000004 3.5000000000000004 2.5000000000000004 11.171873350000002 91.787940431363126 8.1099228450000016 4.9940752275000015 9.5000000000000018 7.2505074925000015
decision_type=2 2 2 2 2 2 2 2 2 2 2 2 2 2 2 2 2 2 2 2 2 2 2 2 2 2 2 2 2 2
left_child=2 4 11 7 5 9 22 -3 10 14 -9 -1 13 -13 -2 26 -8 18 -15 -6 -21 -22 23 -5 -25 -24 -4 -11 29 -7
right_child=1 3 15 6 19 28 16 8 -10 27 -12 12 -14 17 -16 -17 -18 -19 -20 20 21 -23 25 24 -26 -27 -28 -29 -30 -31
leaf_value=-1.4340330626066489 2.9912179946530575 0.77277239704635214 -0.81888039871808171 1.5863811523583069 -0.60736326695988319 1.1566888326978952 1.6890054948105266 2.310734685510397 4.8653140681680673 -0.85514960502043358 -2.1578177450281202 -0.96277396938609761 -1.1183909062747857 3.0757426655323239 0.53373601792575587 -0.1216477438506374 2.9546484277081664 -0.38939848557196699 -0.095284652702245842 2.2770205963907215 1.2067600260595412 -0.13374508473332089 0.75121563292814031 2.6844140056491828 5.7530217386997089 1.9079838763940058 0.12149311541395041 0.12252188190580955 0.25225092923456383 3.5255163730359551
leaf_weight=2228 101 1198 2635 251 154 177 392 140 89 633 33 2858 5672 97 519 4772 1384 1815 169 495 1405 359 495 129 104 2037 681 2186 129 204
leaf_count=2228 101 1198 2635 251 154 177 392 140 89 633 33 2858 5672 97 519 4772 1384 1815 169 495 1405 359 495 129 104 2037 681 2186 129 204
internal_value=0.0159994 1.26104 -0.734466 1.91357 0.619805 0.319606 2.16038 1.10349 2.61568 0.0888762 1.45835 -0.990316 -0.897148 -0.64307 0.934068 -0.328328 2.67529 -0.203995 1.06107 1.1111 1.22825 0.933947 1.85716 2.77435 4.05409 1.68184 -0.625758 -0.097012 1.87545 2.42504
internal_weight=33541 12614 20927 6252 6362 3949 4792 1460 262 3439 173 12839 10611 4939 620 8088 1776 2081 266 2413 2259 1764 3016 484 233 2532 3316 2819 510 381
internal_count=33541 12614 20927 6252 6362 3949 4792 1460 262 3439 173 12839 10611 4939 620 8088 1776 2081 266 2413 2259 1764 3016 484 233 2532 3316 2819 510 381
is_linear=0
shrinkage=0.1


Tree=11
num_leaves=31
num_cat=0
split_feature=1 6 6 4 3 7 1 7 4 7 4 4 3 4 4 1 4 3 4 4 7 4 6 4 1 7 7 1 4 7
split_gain=2.56768e+06 340121 243367 118618 119020 82025.2 77188.1 75872.6 98084.2 138382 65731.5 66271 61592.3 101864 57442 55151.9 52834.7 85903.5 55176.7 76775.8 47929.4 46690.5 44570.6 44132 69088.9 42319.7 78569.2 40935 49455.1 40896.6
threshold=61.02454945033994 6.3935462025000005 9.982489087500003 10.500000000000002 10.500000000000002 8.9387899775000026 11.306952889904982 6.1802764375000008 11.500000000000002 11.939445075000004 6.5000000000000009 1.5000000000000002 8.5000000000000018 11.500000000000002 10.500000000000002 124.81075421186867 5.5000000000000009 15.500000000000002 2.5000000000000004 1.5000000000000002 9.832713250000003 8.5000000000000018 8.618358940000002 9.5000000000000018 156.26771766521958 7.4823232100000006 9.4623194000000037 185.42232139006748 9.5000000000000018 7.8492034275000018
decision_type=2 2 2 2 2 2 2 2 2 2 2 2 2 2 2 2 2 2 2 2 2 2 2 2 2 2 2 2 2 2
left_child=1 6 3 4 -2 -5 -1 15 14 -10 11 -6 13 20 16 -4 18 23 19 -9 -3 -12 -13 24 -18 -15 -27 28 -19 -8
right_child=2 12 7 5 10 -7 29 8 9 -11 21 22 -14 25 -16 -17 17 27 -20 -21 -22 -23 -24 -25 -26 26 -28 -29 -30 -31
leaf_value=-1.0875418831500614 0.28376272766037097 -0.59334749618100135 -0.053630470659079721 1.294190821465417 -0.25015766148692403 3.2576826803363428 -0.71878964784626698 3.4833595820835663 1.8433537475360458 -2.3530614038484288 -0.18332208918766418 1.217257863540034 0.36629210536520107 0.37772648715310631 3.6074292575369782 2.1720878421413627 1.1333554317241143 1.6891655739716438 2.8169767101846528 -0.019807111794893455 0.86631525139884646 1.2711245095967765 2.3309019623726179 0.11586477940656104 4.490218417015341 5.6171878763886749 -0.94780418689434343 5.1226858650644624 3.8915516905180398 -0.20694483541167319
leaf_weight=5662 2615 2168 303 609 169 327 9907 98 258 113 436 641 3427 72 297 176 413 338 1287 173 251 447 818 318 72 61 26 60 146 1853
leaf_count=5662 2615 2168 303 609 169 327 9907 98 258 113 436 641 3427 72 297 176 413 338 1287 173 251 447 818 318 72 61 26 60 146 1853
internal_value=0.0143994 -0.560491 1.34602 0.944967 0.755944 1.98015 -0.784191 1.946 2.10444 0.5652 1.24768 1.62449 0.0885183 -0.280733 2.28279 0.76417 2.14736 1.6887 2.5439 1.24702 -0.44189 0.552961 1.84163 1.0314 1.63169 2.17108 3.65524 2.65894 2.35352 -0.638139
internal_weight=33541 23427 10114 6062 5126 936 17422 4052 3573 371 2511 1628 6005 2578 3202 479 2905 1347 1558 271 2419 883 1459 803 485 159 87 544 484 11760
internal_count=33541 23427 10114 6062 5126 936 17422 4052 3573 371 2511 1628 6005 2578 3202 479 2905 1347 1558 271 2419 883 1459 803 485 159 87 544 484 11760
is_linear=0
shrinkage=0.1


Tree=12
num_leaves=31
num_cat=0
split_feature=0 6 6 0 4 4 3 0 3 4 4 3 6 4 4 3 3 4 4 3 4 3 6 3 3 3 3 4 4 4
split_gain=2.07982e+06 275498 202661 71349.4 70302 69626.2 68087.1 64068.9 50762.1 50584.6 48576.4 41442 39663.4 85560.9 39439.8 64195.1 39900.7 45066.7 34978.9 35149.6 34776.5 34611.8 34483.7 81265.9 65687.7 34041.8 39642.3 31715.4 31694.1 31011.2
threshold=7.8118211350000006 6.3935462025000005 9.1955213000000029 11.171873350000002 11.500000000000002 10.500000000000002 12.500000000000002 3.8465607275000004 12.500000000000002 11.500000000000002 3.5000000000000004 9.5000000000000018 10.251993737500003 11.500000000000002 10.500000000000002 10.500000000000002 18.500000000000004 5.5000000000000009 8.5000000000000018 15.500000000000002 1.5000000000000002 13.500000000000002 13.226201250000003 19.500000000000004 14.500000000000002 9.5000000000000018 17.500000000000004 2.5000000000000004 6.5000000000000009 6.5000000000000009
decision_type=2 2 2 2 2 2 2 2 2 2 2 2 2 2 2 2 2 2 2 2 2 2 2 2 2 2 2 2 2 2
left_child=1 7 14 5 -5 6 10 27 9 -3 -4 -11 -7 -14 15 -2 17 -17 -19 -20 -10 -9 23 -6 -24 -16 -27 -1 -29 -8
right_child=2 8 3 4 22 12 29 21 20 11 -12 -13 13 -15 25 16 -18 18 19 -21 -22 -23 24 -25 -26 26 -28 28 -30 -31
leaf_value=-1.3897505762071818 0.17355741133873534 -0.27316678908673869 1.7067731277389186 2.2424818392905315 0.335290142993799 3.052663717982246 2.017264331952092 -0.69746496079883014 -1.0364746703255561 1.9602567073686163 0.3673496299981604 -1.4652114985341376 3.133347580721602 -0.64239265116970101 2.2597376232382156 1.9734361199922124 0.3560387004133363 0.11252812180394507 0.55434002071422961 3.151397425824932 0.50868833823071546 -0.32242655470285292 0.79540370821952822 7.1240353965759287 -6.0075340964577419 -0.13593394287389601 1.8264723928858393 -0.58405426389515747 -1.0463592465778289 1.0623586330647645
leaf_weight=1257 1939 3210 350 1973 149 328 841 6014 155 179 1196 44 128 113 274 582 612 354 114 96 2417 4165 40 20 22 211 201 2708 3278 571
leaf_count=1257 1939 3210 350 1973 149 328 841 6014 155 179 1196 44 128 113 274 582 612 354 114 96 2417 4165 40 20 22 211 201 2708 3278 571
internal_value=0.0129595 -0.504442 1.21141 1.60288 2.04923 1.32396 1.12909 -0.705772 0.0796665 -0.171992 0.670583 1.28438 2.337 1.36298 0.699551 0.570335 1.00796 1.35611 0.719085 1.74157 0.41557 -0.544008 0.398655 1.13869 -1.61854 1.39593 0.821454 -0.933108 -0.837218 1.63111
internal_weight=33541 23427 10114 5731 2204 3527 2958 17422 6005 3433 1546 223 569 241 4383 3697 1758 1146 564 210 2572 10179 231 169 62 686 412 7243 5986 1412
internal_count=33541 23427 10114 5731 2204 3527 2958 17422 6005 3433 1546 223 569 241 4383 3697 1758 1146 564 210 2572 10179 231 169 62 686 412 7243 5986 1412
is_linear=0
shrinkage=0.1


Tree=13
num_leaves=31
num_cat=0
split_feature=6 0 0 7 3 4 3 4 3 3 4 7 4 4 3 7 4 7 4 4 3 7 4 7 6 6 3 3 4 7
split_gain=1.69801e+06 301560 110420 79668.9 57241.6 60943.1 106032 55561.1 48991.1 47303.4 41971.6 58274.8 65639.9 53068.9 50158 47839.3 38941.2 61165 38379.9 43640.3 51410.1 40219.7 37259.5 36432.1 35695.7 34075.4 33281.2 33219.1 54931.9 33138.4
threshold=7.0891376250000011 8.9841726125000037 5.3168165425000007 6.6420344650000009 15.500000000000002 11.500000000000002 9.5000000000000018 9.5000000000000018 15.500000000000002 21.500000000000004 3.5000000000000004 8.8490410250000018 6.5000000000000009 1.5000000000000002 5.5000000000000009 3.5210385600000005 4.5000000000000009 2.5012264875000008 2.5000000000000004 10.500000000000002 16.500000000000004 9.2926427425000018 4.5000000000000009 6.6975630925000011 10.865444125000002 10.050368575000002 2.5000000000000004 7.5000000000000009 5.5000000000000009 8.8490410250000018
decision_type=2 2 2 2 2 2 2 2 2 2 2 2 2 2 2 2 2 2 2 2 2 2 2 2 2 2 2 2 2 2
left_child=2 4 18 7 5 10 26 16 -5 -6 13 27 -13 14 -2 -15 -3 -18 -1 20 -20 -22 29 -16 25 -9 -7 28 -12 -10
right_child=1 3 -4 8 9 6 -8 24 22 -11 11 12 -14 15 23 -17 17 -19 19 -21 21 -23 -24 -25 -26 -27 -28 -29 -30 -31
leaf_value=-1.1118985507681591 -3.2643642836926028 1.2540510121735589 -0.25560743570380834 1.3478584308445596 1.1523957108958556 1.0120725832403299 -1.0205860603158756 1.9789694187180562 -0.25549203682754001 0.048316835986031585 -1.3869737522731915 -0.058799062556784833 1.745252268116694 3.6132568433503565 1.9179363837171544 0.95201526957008464 -2.6365601285360754 0.30203641155270505 -0.73072007371971237 -1.1465991153340749 -0.29021039835824791 1.6956968217525841 2.2417928487410221 -1.1302559175241143 3.8885911234013451 -1.9856614391009015 3.4030766100817647 0.17079456183662811 -0.11355374647762384 1.7312416214636717
leaf_weight=2227 51 353 7708 3165 1565 88 118 110 118 516 505 457 361 79 76 466 80 618 6256 1544 2690 106 1414 81 77 27 172 1193 1029 291
leaf_count=2227 51 353 7708 3165 1565 88 118 110 118 516 505 457 361 79 76 466 80 618 6256 1544 2690 106 1414 81 77 27 172 1193 1029 291
internal_value=0.0116635 0.905479 -0.554726 1.40595 0.442336 0.248168 1.46551 0.697161 1.58571 0.878631 0.141105 -0.0029184 0.737365 0.819145 -0.53976 1.33777 0.39811 -0.0347655 -0.734528 -0.655215 -0.571399 -0.214922 1.99865 0.345302 2.16587 1.19762 2.59381 -0.224976 -0.53277 1.15805
internal_weight=33541 13010 20531 6253 6757 4676 378 1265 4988 2081 4298 3545 818 753 208 545 1051 698 12823 10596 9052 2796 1823 157 214 137 260 2727 1534 409
internal_count=33541 13010 20531 6253 6757 4676 378 1265 4988 2081 4298 3545 818 753 208 545 1051 698 12823 10596 9052 2796 1823 157 214 137 260 2727 1534 409
is_linear=0
shrinkage=0.1


Tree=14
num_leaves=31
num_cat=0
split_feature=0 6 6 3 4 7 3 3 0 7 6 7 3 6 4 4 4 3 7 4 0 7 4 4 4 7 7 4 6 7
split_gain=1.38452e+06 186130 134613 77608.9 71426.6 82897.8 50999.7 46429 48141.2 42061.7 41801.6 51282.5 49355.3 37091 35475.1 31240.7 34856.9 48804 42242.4 48546.2 42103.2 34538.3 28824.8 34770.8 43594.1 36594.3 29089.4 28748.4 31073.7 28743.8
threshold=7.476802902500002 8.5793889350000025 5.3436825975000017 14.500000000000002 3.5000000000000004 5.4710960675000013 8.5000000000000018 2.5000000000000004 9.5806023000000025 5.6462717975000007 11.416741550000003 11.068879200000003 12.500000000000002 14.904827225000002 6.5000000000000009 2.5000000000000004 6.5000000000000009 14.500000000000002 2.0723092750000007 4.5000000000000009 2.7921012925000004 6.2449505775000009 10.500000000000002 4.5000000000000009 1.5000000000000002 1.5746669525000003 9.6958526875000022 2.5000000000000004 12.704936737500002 9.2421531750000039
decision_type=2 2 2 2 2 2 2 2 2 2 2 2 2 2 2 2 2 2 2 2 2 2 2 2 2 2 2 2 2 2
left_child=2 22 15 4 10 -6 9 -7 -9 -4 11 -3 -12 27 -15 -1 17 -17 19 20 -19 -18 23 24 -2 -26 -25 28 -5 -8
right_child=1 3 6 13 5 7 29 8 -10 -11 12 -13 -14 14 -16 16 21 18 -20 -21 -22 -23 -24 26 25 -27 -28 -29 -30 -31
leaf_value=-0.99800447845698059 -0.47399910730412353 1.8392034750447561 -0.83388114349661291 0.88095808912399753 -0.39824155979780929 1.7471105770121593 -0.031006554379887738 0.19979279869780564 1.0893320327080331 -0.15796013343428036 4.5689633514695958 -1.098149914973799 0.56785397705706686 1.9505478991024501 5.0879993472182967 -0.66106366674162131 -0.90409860323684377 0.54368496555835011 -0.17684630292394612 0.1615219718307481 5.2885266701380411 -0.34794218593376847 1.0242516170035221 -0.096259194092809988 5.2198512486049111 0.98738396078996993 0.89202307342452336 1.6160881594021352 -2.709280663949472 0.79323178331486355
leaf_weight=2247 227 472 1576 225 525 604 4909 939 1728 2214 103 68 44 98 57 2886 4200 32 1884 133 45 1521 553 2102 21 750 347 2541 27 463
leaf_count=2247 227 472 1576 225 525 604 4909 939 1728 2214 103 68 44 98 57 2886 4200 32 1884 133 45 1521 553 2102 21 750 347 2541 27 463
internal_value=0.0104972 0.904037 -0.451468 1.20009 0.938025 0.768216 -0.158139 0.955434 0.776142 -0.439029 1.8763 1.46931 3.37135 1.59861 3.10432 -0.659028 -0.58785 -0.394406 -0.0268932 1.3184 3.31664 -0.756237 0.354041 0.246519 0.744045 1.10267 0.043771 1.51505 0.49629 0.0400326
internal_weight=33541 11431 22110 7431 4483 3796 9162 3271 2667 3790 687 540 147 2948 155 12948 10701 4980 2094 210 77 5721 4000 3447 998 771 2449 2793 252 5372
internal_count=33541 11431 22110 7431 4483 3796 9162 3271 2667 3790 687 540 147 2948 155 12948 10701 4980 2094 210 77 5721 4000 3447 998 771 2449 2793 252 5372
is_linear=0
shrinkage=0.1


Tree=15
num_leaves=31
num_cat=0
split_feature=6 0 0 4 4 3 4 4 0 4 4 3 4 3 6 4 3 4 3 0 6 4 3 4 0 6 3 3 3 4
split_gain=1.14394e+06 201580 80448 74439 67336.3 64054.3 73741.3 62741.1 50824.2 46905.1 46416.2 46349.4 46140 43211.7 39293.3 37711.1 60352.8 51582 58036.3 80507.4 38460.7 36236.7 34502.6 33488.2 40972.3 33097.1 67573.2 42040.4 32749.6 41381.1
threshold=8.0663399675000029 6.393387487500001 10.666165350000002 11.500000000000002 10.500000000000002 10.500000000000002 6.5000000000000009 10.500000000000002 8.7944477825000025 3.5000000000000004 10.500000000000002 2.5000000000000004 7.5000000000000009 21.500000000000004 3.2841433425000006 5.5000000000000009 13.500000000000002 4.5000000000000009 12.500000000000002 11.297621075000002 14.904827225000002 1.5000000000000002 11.500000000000002 3.5000000000000004 12.125023675000003 13.226201250000003 13.500000000000002 18.500000000000004 9.5000000000000018 11.500000000000002
decision_type=2 2 2 2 2 2 2 2 2 2 2 2 2 2 2 2 2 2 2 2 2 2 2 2 2 2 2 2 2 2
left_child=1 14 4 10 5 9 13 22 28 -2 15 -12 -11 21 -1 17 -17 18 19 -4 -18 -7 -3 -20 -25 27 -27 -5 -6 -30
right_child=2 7 3 25 8 6 -8 -9 -10 12 11 -13 -14 -15 -16 16 20 -19 23 -21 -22 -23 -24 24 -26 26 -28 -29 29 -31
leaf_value=-0.77562411719631719 1.1342017848314583 -0.24953201831094085 -0.014232413184184296 -0.0097952876069130161 1.6749159332644734 0.074597454932676693 0.268190931069681 0.84351755538472428 2.0828050772227584 -0.23908554501998799 -1.5704593002796174 3.2269749353037165 0.81096346516380347 0.18200823838512104 -0.4515719385556346 0.17442068585604431 1.4299936349616527 2.4082070794899484 0.79271632153394767 3.4988163036576339 4.3423606910705566 1.7323620690465031 0.2356195258759809 -2.9339491367340091 2.22112854548863 1.1393018384133615 -5.4633938081802862 4.3998845815658569 1.3863781112845581 -1.2984884199119153
leaf_weight=5430 483 3296 104 218 173 147 1026 945 593 1559 22 238 572 270 12036 500 487 640 255 175 50 1280 2640 58 21 31 31 24 101 133
leaf_count=5430 483 3296 104 218 173 147 1026 945 593 1559 22 238 572 270 12036 500 487 640 255 175 50 1280 2640 58 21 31 31 24 101 133
internal_value=-0.0128783 -0.371711 0.937672 1.37852 0.739126 0.598024 0.937457 0.0867174 1.49219 0.244436 1.55486 2.82104 0.0427671 1.34209 -0.552316 1.4111 0.965029 1.78027 1.12468 2.18929 1.70116 1.56159 -0.0337638 0.235381 -1.56361 -0.100609 -2.16205 0.427528 0.63166 -0.139636
internal_weight=33538 24347 9191 2854 6337 5337 2723 6881 1000 2614 2550 260 2131 1697 17466 2290 1037 1253 613 279 537 1427 5936 334 79 304 62 242 407 234
internal_count=33538 24347 9191 2854 6337 5337 2723 6881 1000 2614 2550 260 2131 1697 17466 2290 1037 1253 613 279 537 1427 5936 334 79 304 62 242 407 234
is_linear=0
shrinkage=0.1


Tree=16
num_leaves=31
num_cat=0
split_feature=0 6 7 7 0 5 7 5 7 5 5 7 4 0 4 0 4 4 4 0 4 4 0 7 4 4 6 7 6 0
split_gain=930725 169864 85285.6 45141 116372 76352.6 44341.7 40518.6 40077.7 71912.4 50957.4 55138.6 38667.9 35046.8 46684.1 34119.9 32405.6 66427.6 34551.9 48626.1 31862.4 45251.3 40861.5 30698.7 50996.8 46246.1 61483.9 28920.2 32065.3 38625.3
threshold=7.0890258675000011 8.7947404750000029 7.8492034275000018 9.4623194000000037 12.500708600000001 1.0000000180025095e-35 5.7743947175000008 1.0000000180025095e-35 6.1203652825000008 1.0000000180025095e-35 1.0000000180025095e-35 3.6875834325000008 11.500000000000002 8.4636243800000024 11.500000000000002 4.9287465150000012 2.5000000000000004 3.5000000000000004 4.5000000000000009 12.125023675000003 10.500000000000002 5.5000000000000009 11.171873350000002 10.118730125000003 10.500000000000002 11.500000000000002 10.500673800000003 11.416741550000003 11.416741550000003 9.982489087500003
decision_type=2 2 2 2 2 2 2 2 2 2 2 2 2 2 2 2 2 2 2 2 2 2 2 2 2 2 2 2 2 2
left_child=2 8 15 4 20 -5 -6 -4 10 -10 12 -12 -2 14 -11 -1 -7 -18 19 -19 21 22 -3 24 -20 27 -27 28 29 -25
right_child=1 3 7 5 6 16 -8 -9 9 13 11 -13 -14 -15 -16 -17 17 18 23 -21 -22 -23 -24 25 -26 26 -28 -29 -30 -31
leaf_value=-0.63903248858599582 -0.59679487074842663 0.68832476777384544 0.36558328594209216 1.7438090342317651 0.89229934413072687 -0.9644680697941086 3.6453065938718332 -0.34225480742330916 0.90507955210513436 -0.33558525551893398 1.8826416609255046 0.094875435984166451 1.4269260608682446 0.89758188745728573 1.6803403879880905 -0.35442795755932449 2.808033503772347 -1.4448444185465794 0.93942977248011417 3.722805945078532 1.3580184245836144 0.11458605754859508 2.298782686979731 -0.74050416140942965 4.1772334940957299 3.2409422886868322 -2.4179315169652305 1.4695652205679535 -1.161881540218989 2.2862089469724771
leaf_weight=10006 1270 1216 1752 1646 86 103 183 1502 1919 1418 222 774 102 382 125 7275 157 137 185 21 484 1570 181 74 66 24 96 347 117 98
leaf_count=10006 1270 1216 1752 1646 86 103 183 1502 1919 1418 222 774 102 382 125 7275 157 137 185 21 484 1570 181 74 66 24 96 347 117 98
internal_value=-0.0115905 0.650424 -0.430786 0.996107 0.761853 1.27987 2.76516 0.0388553 0.272522 0.47188 -0.0510992 0.493353 -0.446343 0.0400306 -0.172273 -0.519219 0.743972 0.87708 0.616857 -0.758005 0.605698 0.482974 0.896981 0.832575 1.7908 0.514433 -1.28616 0.854167 0.115263 0.984018
internal_weight=33538 13003 20535 6791 3720 3071 269 3254 6212 3844 2368 996 1372 1925 1543 17281 1425 1322 1165 158 3451 2967 1397 1007 251 756 120 636 289 172
internal_count=33538 13003 20535 6791 3720 3071 269 3254 6212 3844 2368 996 1372 1925 1543 17281 1425 1322 1165 158 3451 2967 1397 1007 251 756 120 636 289 172
is_linear=0
shrinkage=0.1


Tree=17
num_leaves=31
num_cat=0
split_feature=1 1 7 5 3 3 4 4 7 3 7 4 7 3 3 4 4 1 4 3 3 7 4 1 7 3 4 4 3 4
split_gain=755660 138922 88625.4 64682.7 45236.6 64537.5 57296.7 44752.1 51719.5 43237 38905.5 58491.4 38633.9 40469.6 35956.8 43816.3 49284.5 35585.2 34509.4 33402 30530.2 43408.8 37122.5 29039.6 28792.7 31494 28435.5 66171.4 35392.6 28346.6
threshold=65.065531087286459 40.875403570005261 6.609702845000001 1.0000000180025095e-35 19.500000000000004 11.500000000000002 5.5000000000000009 10.500000000000002 5.6767117875000013 15.500000000000002 3.3999774825000006 4.5000000000000009 7.9148614250000016 14.500000000000002 16.500000000000004 7.5000000000000009 1.5000000000000002 122.5200867455989 8.5000000000000018 1.0000000180025095e-35 20.500000000000004 4.9940752275000015 3.5000000000000004 101.00990853230444 6.6420344650000009 19.500000000000004 3.5000000000000004 5.5000000000000009 8.5000000000000018 10.500000000000002
decision_type=2 2 2 2 2 2 2 2 2 2 2 2 2 2 2 2 2 2 2 2 2 2 2 2 2 2 2 2 2 2
left_child=1 12 4 29 5 6 17 14 -9 23 11 -7 -1 19 26 16 24 -2 -8 -14 -18 22 -22 -5 -16 -26 -3 28 -28 -4
right_child=2 7 3 9 -6 10 18 8 -10 -11 -12 -13 13 -15 15 -17 20 -19 -20 -21 21 -23 -24 -25 25 -27 27 -29 -30 -31
leaf_value=-0.51049200153746221 0.56963541654681948 0.31955324352353109 1.1198160149945282 0.16149735118913744 -0.89628316926362084 5.9497713313614193 -1.1165449976730897 -0.46328195260668342 1.1889451922029923 1.3758791235208243 0.73458747988802264 1.4952923808272542 1.2850642399516254 0.50380359644999262 -2.8882779640810834 -0.48258063783219396 1.4345330455340446 4.6718320326371625 0.31302296656916162 -0.49977634707786028 2.3800215056964329 1.0027022541986419 -1.6039823577332666 0.79879476733818344 2.0820620472366747 -2.5692175418138508 -1.3090993455297486 0.028326754318290206 -0.20606527538028863 1.8574951364031205
leaf_weight=15126 545 922 2623 1430 306 37 475 264 671 664 609 145 113 798 56 430 544 22 262 1454 28 347 142 1430 37 24 766 2149 469 650
leaf_count=15126 545 922 2623 1430 306 37 475 264 671 664 609 145 113 798 56 430 544 22 262 1454 28 347 142 1430 37 24 766 2149 469 650
internal_value=-0.0104314 -0.302229 0.76173 0.946219 0.239461 0.40535 -0.0269289 0.0795567 0.722434 0.648922 1.11798 2.40087 -0.451725 -0.0758678 -0.0220818 0.381418 0.6968 0.728804 -0.60834 -0.371067 0.911592 0.36134 -0.947793 0.480146 -1.25101 0.25205 -0.172762 -0.306897 -0.890214 1.26632
internal_weight=33538 24340 9198 6797 2401 2095 1304 6849 935 3524 791 182 17491 2365 5914 1608 1178 567 737 1567 1061 517 170 2860 117 61 4306 3384 1235 3273
internal_count=33538 24340 9198 6797 2401 2095 1304 6849 935 3524 791 182 17491 2365 5914 1608 1178 567 737 1567 1061 517 170 2860 117 61 4306 3384 1235 3273
is_linear=0
shrinkage=0.1


Tree=18
num_leaves=31
num_cat=0
split_feature=0 0 7 7 0 5 7 3 5 7 6 3 7 3 3 6 0 3 0 3 7 7 3 7 7 7 7 6 6 0
split_gain=615539 114547 57974.4 44771.9 94115.2 50018.1 35335.7 31546.8 28820.2 25756 25260.3 24755.1 20593.7 70482.4 105160 24012.6 20202.5 55584.6 42970.4 32255.6 31183.3 20823.3 17193.6 16501.1 15684.8 24674.2 21738.8 20845.5 20351.7 25062.8
threshold=7.0890258675000011 8.5791553500000024 7.8492034275000018 9.4623194000000037 12.500708600000001 1.0000000180025095e-35 5.7743947175000008 15.500000000000002 1.0000000180025095e-35 5.8889669275000012 4.5670384725000011 22.500000000000004 2.9344452575000006 20.500000000000004 9.5000000000000018 8.9849587550000027 12.500708600000001 11.500000000000002 14.904827225000002 15.500000000000002 13.616986500000001 11.512926325000002 1.0000000180025095e-35 8.2275268550000025 11.796157425000002 10.757634050000002 14.904827225000002 14.904827225000002 9.1420943750000028 12.500708600000001
decision_type=2 2 2 2 2 2 2 2 2 2 2 2 2 2 2 2 2 2 2 2 2 2 2 2 2 2 2 2 2 2
left_child=2 7 10 4 12 24 -6 -2 22 11 -1 -9 13 14 -3 -16 20 -18 19 -19 -7 -21 23 -4 25 -5 27 -26 -27 -30
right_child=1 3 8 5 6 16 -8 9 -10 -11 -12 -13 -14 -15 15 -17 17 18 -20 21 -22 -23 -24 -25 26 28 -28 -29 29 -31
leaf_value=-0.54151137456517107 0.024764868489168167 -1.5237313809256032 -1.209656908719436 1.2821800480874743 0.71572043389314788 0.75613353205323874 3.1478351247246548 0.32885860946931339 -0.28450246894872872 0.82624202248699108 -0.29964969218499932 -1.3006258359756964 0.51760191928795973 -3.8959000219055948 4.8414203476521287 1.6319788490838194 1.7263774256373563 -2.6578639960768871 0.9946759025661529 -1.3908943927649295 3.535575266111465 2.4803411722183228 0.21078514325740963 1.674837456850542 0.54177954460729605 3.9432069653464903 2.0185957713875662 3.2632965660095219 1.6000383558909637 3.8261049542270729
leaf_weight=8828 3829 146 23 635 88 1037 186 475 1502 1110 8453 116 3699 47 31 94 129 118 88 33 42 24 1585 144 455 62 172 30 296 61
leaf_count=8828 3829 146 23 635 88 1037 186 475 1502 1110 8453 116 3699 47 31 94 129 118 88 33 42 24 1585 144 455 62 172 30 296 61
internal_value=-0.0093883 0.528986 -0.350293 0.784306 0.573528 1.06855 2.36672 0.183958 0.0369165 0.542307 -0.423205 0.00902748 0.451214 -0.321013 0.298986 2.42792 0.640951 0.0261094 -0.807862 -1.71428 0.864323 0.2391 0.312471 1.27757 1.43616 1.67521 1.05267 0.710121 2.27084 1.9804
internal_weight=33538 13003 20535 7473 4291 3182 274 5530 3254 1701 17281 591 4017 318 271 125 1471 392 263 175 1079 57 1752 167 1711 1054 657 485 419 357
internal_count=33538 13003 20535 7473 4291 3182 274 5530 3254 1701 17281 591 4017 318 271 125 1471 392 263 175 1079 57 1752 167 1711 1054 657 485 419 357
is_linear=0
shrinkage=0.1


Tree=19
num_leaves=31
num_cat=0
split_feature=6 0 7 4 3 7 4 4 7 7 7 4 3 3 3 7 6 4 4 7 0 0 6 4 3 4 4 7 3 3
split_gain=500014 106555 43824.8 39959.5 49167.9 45363.4 36042.5 50716.1 43856.7 37590.3 33717.7 33152.6 40656 33896.9 31934.1 35208.7 29494.9 29252.6 43468.9 55017.5 34333.6 43205.3 24953.3 36703.8 55324.6 24394.2 24264.6 24510.5 24187.2 44834.2
threshold=8.2975072750000027 6.2428654875000005 6.6420344650000009 11.500000000000002 10.500000000000002 7.0019489200000011 3.5000000000000004 1.5000000000000002 8.6715180800000038 1.8767984250000003 8.6715180800000038 5.5000000000000009 7.5000000000000009 1.5000000000000002 14.500000000000002 7.7514085375000015 1.8024311625000002 9.5000000000000018 4.5000000000000009 2.6021148250000006 10.757634050000002 9.982489087500003 7.8786415750000014 2.5000000000000004 7.5000000000000009 7.5000000000000009 2.5000000000000004 1.4890482200000004 15.500000000000002 3.5000000000000004
decision_type=2 2 2 2 2 2 2 2 2 2 2 2 2 2 2 2 2 2 2 2 2 2 2 2 2 2 2 2 2 2
left_child=1 14 17 6 5 -5 7 -3 11 -9 -6 12 13 -8 16 25 -1 18 -2 -20 21 -19 -11 24 -24 26 -16 -28 29 -4
right_child=2 3 28 4 10 -7 8 9 -10 22 -12 -13 -14 -15 15 -17 -18 20 19 -21 -22 -23 23 -25 -26 -27 27 -29 -30 -31
leaf_value=-0.9936159427653366 0.82291095632490308 -0.4231854771195474 1.2321311434326998 0.07464226830063514 0.46234447724076316 2.6759682785331584 0.032471329046904675 3.451391945633234 0.45824719484639487 0.46229405896980214 -2.1747920159566201 -0.06832396267494785 -0.17420154935170165 -1.6297459776798684 -0.58909584214662114 0.41289688941919017 -0.42858984320350069 0.98048190664576029 -2.0767552153092543 0.0017419057689913539 2.7878492409653135 -3.3579231885763314 6.8703201792069848 0.19105122979482014 1.4725582328893372 -0.5930067180084333 1.2641481127937593 -0.066778032469958504 1.0473953329494392 0.45691463834530116
leaf_weight=1024 543 490 980 103 272 192 163 51 1106 885 59 3505 858 496 921 818 9448 196 146 997 90 26 28 75 59 1794 146 2648 2294 3125
leaf_count=1024 543 490 980 103 272 192 163 51 1106 885 59 3505 858 496 921 818 9448 196 146 997 90 26 28 75 59 1794 146 2648 2294 3125
internal_value=-0.00844947 -0.231598 0.659666 0.06055 0.828944 1.76771 -0.00178993 0.422777 -0.111811 0.800301 -0.00771913 -0.237356 -0.627901 -1.21861 -0.376671 -0.199293 -0.483841 0.250824 0.0862225 -0.263753 1.1403 0.47238 0.671164 1.81221 3.20977 -0.290193 -0.143962 0.00276929 0.787322 0.641985
internal_weight=33538 25141 8397 8342 626 295 7716 1588 6128 1098 331 5022 1517 659 16799 6327 10472 1998 1686 1143 312 222 1047 162 87 5509 3715 2794 6399 4105
internal_count=33538 25141 8397 8342 626 295 7716 1588 6128 1098 331 5022 1517 659 16799 6327 10472 1998 1686 1143 312 222 1047 162 87 5509 3715 2794 6399 4105
is_linear=0
shrinkage=0.1


end of trees

feature_importances:
month=182
hour=124
wind_lag_24h=122
wind_speed=73
wind_lag_1h=65
wind_speed_2=17
is_daytime=17

parameters:
[boosting: gbdt]
[objective: regression]
[metric: rmse]
[tree_learner: serial]
[device_type: cpu]
[data_sample_strategy: bagging]
[data: ]
[valid: ]
[num_iterations: 100]
[learning_rate: 0.1]
[num_leaves: 31]
[num_threads: 0]
[seed: 42]
[deterministic: 0]
[force_col_wise: 0]
[force_row_wise: 0]
[histogram_pool_size: -1]
[max_depth: -1]
[min_data_in_leaf: 20]
[min_sum_hessian_in_leaf: 0.001]
[bagging_fraction: 0.8]
[pos_bagging_fraction: 1]
[neg_bagging_fraction: 1]
[bagging_freq: 5]
[bagging_seed: 400]
[bagging_by_query: 0]
[feature_fraction: 0.9]
[feature_fraction_bynode: 1]
[feature_fraction_seed: 30056]
[extra_trees: 0]
[extra_seed: 12879]
[early_stopping_round: 0]
[early_stopping_min_delta: 0]
[first_metric_only: 0]
[max_delta_step: 0]
[lambda_l1: 0]
[lambda_l2: 0]
[linear_lambda: 0]
[min_gain_to_split: 0]
[drop_rate: 0.1]
[max_drop: 50]
[skip_drop: 0.5]
[xgboost_dart_mode: 0]
[uniform_drop: 0]
[drop_seed: 17869]
[top_rate: 0.2]
[other_rate: 0.1]
[min_data_per_group: 100]
[max_cat_threshold: 32]
[cat_l2: 10]
[cat_smooth: 10]
[max_cat_to_onehot: 4]
[top_k: 20]
[monotone_constraints: ]
[monotone_constraints_method: basic]
[monotone_penalty: 0]
[feature_contri: ]
[forcedsplits_filename: ]
[refit_decay_rate: 0.9]
[cegb_tradeoff: 1]
[cegb_penalty_split: 0]
[cegb_penalty_feature_lazy: ]
[cegb_penalty_feature_coupled: ]
[path_smooth: 0]
[interaction_constraints: ]
[verbosity: -1]
[saved_feature_importance_type: 0]
[use_quantized_grad: 0]
[num_grad_quant_bins: 4]
[quant_train_renew_leaf: 0]
[stochastic_rounding: 1]
[linear_tree: 0]
[max_bin: 255]
[max_bin_by_feature: ]
[min_data_in_bin: 3]
[bin_construct_sample_cnt: 200000]
[data_random_seed: 175]
[is_enable_sparse: 1]
[enable_bundle: 1]
[use_missing: 1]
[zero_as_missing: 0]
[feature_pre_filter: 1]
[pre_partition: 0]
[two_round: 0]
[header: 0]
[label_column: ]
[weight_column: ]
[group_column: ]
[ignore_column: ]
[categorical_feature: ]
[forcedbins_filename: ]
[precise_float_parser: 0]
[parser_config_file: ]
[objective_seed: 16083]
[num_class: 1]
[is_unbalance: 0]
[scale_pos_weight: 1]
[sigmoid: 1]
[boost_from_average: 1]
[reg_sqrt: 0]
[alpha: 0.9]
[fair_c: 1]
[poisson_max_delta_step: 0.7]
[tweedie_variance_power: 1.5]
[lambdarank_truncation_level: 30]
[lambdarank_norm: 1]
[label_gain: ]
[lambdarank_position_bias_regularization: 0]
[eval_at: ]
[multi_error_top_k: 1]
[auc_mu_weights: ]
[num_machines: 1]
[local_listen_port: 12400]
[time_out: 120]
[machine_list_filename: ]
[machines: ]
[gpu_platform_id: -1]
[gpu_device_id: -1]
[gpu_use_dp: 0]
[num_gpu: 1]

end of parameters

pandas_categorical:[]
