tree
version=v4
num_class=1
num_tree_per_iteration=1
label_index=0
max_feature_idx=7
objective=regression
feature_names=wind_speed wind_speed_2 wind_speed_3 hour month is_daytime wind_lag_1h wind_lag_24h
feature_infos=[0.030969361230000002:19.338616679999998] [0.00095910133499422731:373.98209509597416] [2.9702755699611467e-05:7232.2963822443508] [0:23] [1:12] [0:1] [0.030969361230000002:19.338616679999998] [0.030969361230000002:19.338616679999998]
tree_sizes=2685 2737 2754 2748 2741 2747 2738 2759 2737 2748 2749 2756 2720 2710 2759 2775 2739 2746 2759 2754

Tree=0
num_leaves=31
num_cat=0
split_feature=6 6 6 7 3 4 0 6 4 7 7 4 4 7 3 3 0 3 4 3 0 3 3 6 0 3 4 0 4 7
split_gain=2.31623e+07 3.3136e+06 2.26107e+06 619701 595954 488744 453384 275698 466961 554365 305252 224488 232009 222162 222084 213702 180141 177306 163451 163151 146513 145757 145202 140140 135614 134669 127841 123541 119239 105701
threshold=6.9887043455000013 5.2728657645000014 8.731685950000001 8.4850431800000035 17.500000000000004 11.500000000000002 4.4940108705000013 10.331924850000002 11.500000000000002 10.597539190000001 9.2329292700000014 10.500000000000002 4.5000000000000009 7.312753830000001 14.500000000000002 9.5000000000000018 5.9692898100000011 17.500000000000004 3.5000000000000004 9.5000000000000018 5.6291709350000012 18.500000000000004 19.500000000000004 6.1668633800000014 12.208184180000002 16.500000000000004 10.500000000000002 7.4947512765000015 10.500000000000002 5.9712535050000008
decision_type=2 2 2 2 2 2 2 2 2 2 2 2 2 2 2 2 2 2 2 2 2 2 2 2 2 2 2 2 2 2
left_child=1 6 3 11 5 13 25 10 26 24 28 12 27 16 -14 -13 -3 -17 -18 20 -7 -5 -8 29 -10 -1 -9 -2 -4 -6
right_child=2 4 7 21 23 19 22 8 9 -11 -12 15 14 -15 -16 17 18 -19 -20 -21 -22 -23 -24 -25 -26 -27 -28 -29 -30 -31
leaf_value=46.142791690150233 50.883413520904703 47.572698808553611 53.241660490220404 53.089068791392272 48.844143874219512 49.718005061335901 47.269096299159671 56.109743418078985 57.872762863964454 46.016143971426672 56.158080691737382 55.51634717614543 49.90700243293324 49.936946897597558 52.097541562776513 50.276562810854855 50.393851782912549 55.494400591821439 48.404403822862626 49.294495224985518 54.844476482126396 55.410518889668296 48.65630635869482 51.836495162485747 49.831968415786875 46.882902633319915 58.859149227965361 53.240422088366316 55.516456415263434 50.856992060974754
leaf_weight=7726 358 2244 1449 692 431 77 3553 1684 94 100 642 231 1729 905 632 259 513 87 2118 145 202 444 958 752 27 3606 188 587 274 661
leaf_count=7726 358 2244 1449 692 431 77 3553 1684 94 100 642 231 1729 905 632 259 513 87 2118 145 202 444 958 752 27 3606 188 587 274 661
internal_value=49.2146 47.5552 53.3978 51.942 49.2076 48.7384 46.7158 55.0367 55.8726 51.5254 54.2969 51.341 51.0234 48.498 50.4934 53.161 48.2309 51.5886 48.7923 52.0155 53.4296 53.9964 47.5637 50.786 56.0785 46.3783 56.3859 52.3475 53.6034 50.0625
internal_weight=33368 23891 9477 5019 8048 6204 15843 4458 2093 221 2365 3883 3306 5780 2361 577 4875 346 2631 424 279 1136 4511 1844 121 11332 1872 945 1723 1092
internal_count=33368 23891 9477 5019 8048 6204 15843 4458 2093 221 2365 3883 3306 5780 2361 577 4875 346 2631 424 279 1136 4511 1844 121 11332 1872 945 1723 1092
is_linear=0
shrinkage=1


Tree=1
num_leaves=31
num_cat=0
split_feature=0 0 0 7 7 0 4 3 7 7 4 7 0 5 4 4 5 4 4 3 0 3 0 0 4 7 3 0 5 4
split_gain=1.86842e+07 2.75773e+06 1.7774e+06 579765 548855 345648 298793 259411 258556 240910 336205 356205 322029 203355 170894 161857 153538 147786 142817 146840 129891 127936 115940 109960 103153 98360 89141.6 83111.8 82453.8 78380.1
threshold=6.9887043455000013 5.2727646700000017 8.731685950000001 8.029865013500002 7.158146555500001 3.4783269950000006 11.500000000000002 15.500000000000002 6.9258356690000014 8.3253318950000033 11.500000000000002 10.597539190000001 11.945972960000002 1.0000000180025095e-35 11.500000000000002 3.5000000000000004 1.0000000180025095e-35 10.500000000000002 3.5000000000000004 15.500000000000002 8.3788131000000021 10.500000000000002 6.2977730325000012 8.1748453415000011 5.5000000000000009 11.945972960000002 18.500000000000004 5.9692898100000011 1.0000000180025095e-35 9.5000000000000018
decision_type=2 2 2 2 2 2 2 2 2 2 2 2 2 2 2 2 2 2 2 2 2 2 2 2 2 2 2 2 2 2
left_child=1 5 3 14 6 -1 7 15 26 12 25 21 17 -5 18 27 -6 24 -2 -20 -16 -12 -9 -15 -4 -11 -7 -3 -10 -18
right_child=2 4 9 13 16 8 -8 22 28 10 11 -13 -14 23 20 -17 29 -19 19 -21 -22 -23 -24 -25 -26 -27 -28 -29 -30 -31
leaf_value=-2.7697349009846612 2.9948333155644722 -0.67411608783834021 4.5720213241047336 5.2124047249412655 2.1070911441721134 -2.2593546363786219 2.1024429912698079 -0.08457316695265385 -0.2326123780021436 5.9813676314258695 9.7227165690008217 -1.8610991427743877 8.2113423488927229 1.559674768720682 5.0095992322478979 -1.3032151844640194 -0.54789788065420419 6.0636295036047327 0.91936119178113407 2.7290382816784189 -0.7167203862616357 3.1688528874341184 1.8617585567027271 4.4508578842581672 2.9831562421274294 7.63756421094849 -1.4224730889416848 1.1863159630490445 -1.8309869761301636 2.2150510006091175
leaf_weight=6819 610 536 747 834 1340 5795 437 854 1161 1602 53 108 209 325 252 3428 419 316 2129 568 47 68 477 221 902 462 1631 435 447 136
leaf_count=6819 610 536 747 834 1340 5795 437 854 1161 1602 53 108 209 325 252 3428 419 316 2129 568 47 68 477 221 902 462 1631 435 447 136
internal_value=0.0212264 -1.4665 3.78499 2.4871 0.0393302 -2.23228 -0.418048 -0.610273 -1.8266 5.23369 5.94875 2.31348 4.47948 4.2302 1.82002 -0.980382 1.5278 4.08255 1.61302 1.30049 4.10948 6.03955 0.612948 2.72992 3.70292 6.35209 -2.07555 0.159342 -0.676937 0.129149
internal_weight=33368 23915 9453 4986 8062 15853 6167 5730 9034 4467 2293 229 2174 1380 3606 4399 1895 1965 3307 2697 299 121 1331 546 1649 2064 7426 971 1608 555
internal_count=33368 23915 9453 4986 8062 15853 6167 5730 9034 4467 2293 229 2174 1380 3606 4399 1895 1965 3307 2697 299 121 1331 546 1649 2064 7426 971 1608 555
is_linear=0
shrinkage=0.1


Tree=2
num_leaves=31
num_cat=0
split_feature=6 1 6 7 7 6 4 6 6 4 7 7 4 4 4 3 3 5 5 5 4 4 3 6 5 3 4 4 4 7
split_gain=1.52787e+07 2.18866e+06 1.49066e+06 418173 415907 286890 237137 197589 195649 318390 375325 212104 158907 237712 139082 138465 136056 134988 124073 117670 115187 111059 106769 104619 104008 103678 101940 98978.4 97680.2 87761.5
threshold=6.9887043455000013 27.061970604472283 8.731685950000001 8.6737608100000028 7.158146555500001 4.5199886550000006 11.500000000000002 6.2645973505000017 10.331924850000002 11.500000000000002 10.597539190000001 9.2329292700000014 8.5000000000000018 4.5000000000000009 10.500000000000002 14.500000000000002 17.500000000000004 1.0000000180025095e-35 1.0000000180025095e-35 1.0000000180025095e-35 2.5000000000000004 6.5000000000000009 10.500000000000002 7.344793010000001 1.0000000180025095e-35 16.500000000000004 3.5000000000000004 10.500000000000002 10.500000000000002 5.2257095835000014
decision_type=2 2 2 2 2 2 2 2 2 2 2 2 2 2 2 2 2 2 2 2 2 2 2 2 2 2 2 2 2 2
left_child=1 5 3 12 6 20 7 -3 11 28 17 -4 13 23 19 26 -7 -11 -6 -5 -1 25 -15 -2 27 -22 -9 -14 29 -10
right_child=2 4 8 14 18 16 -8 15 9 10 -12 -13 24 22 -16 -17 -18 -19 -20 -21 21 -23 -24 -25 -26 -27 -28 -29 -30 -31
leaf_value=-2.9845936090216019 0.85010343609068562 -0.98575595105157798 3.546053518729368 4.3015785180786743 1.7948872462632708 -1.6780274495582406 1.8008258205824046 1.4214108975729676 3.2550544388172491 10.951178965849035 -2.6712540712952615 5.6755634497073579 2.3434395197523785 -0.064918586723986621 6.3546235339314334 1.5235463591838174 -0.3909423074496623 3.5202919444818606 0.022395315973516457 1.8173315023971384 -2.1329402108278472 -2.462535849112534 1.4629766580962615 3.2360378858407643 1.9749611377800371 -1.1049886619019706 -0.68755135217170216 5.255259130823613 8.0372592935853824 5.853039167513141
leaf_weight=1988 247 4015 1723 553 1334 2886 451 282 142 34 100 642 219 931 204 582 1148 87 561 291 2805 5106 899 718 707 1509 1224 250 188 1542
leaf_count=1988 247 4015 1723 553 1334 2886 451 282 142 34 100 642 219 931 204 582 1148 87 561 291 2805 5106 899 718 707 1509 1224 250 188 1542
internal_value=0.0191038 -1.32861 3.4166 2.23461 -0.034645 -2.03659 -0.41191 -0.575427 4.74734 5.45155 1.8619 4.12413 1.76569 1.35536 4.01141 0.213591 -1.31175 5.60831 1.27015 3.44504 -2.2929 -2.14692 0.68567 2.62534 2.74092 -1.77337 -0.292646 3.89558 5.87533 5.63397
internal_weight=33368 23891 9477 5019 8449 15442 6554 6103 4458 2093 221 2365 3971 2795 1048 2088 4034 121 1895 844 11408 9420 1830 965 1176 4314 1506 469 1872 1684
internal_count=33368 23891 9477 5019 8449 15442 6554 6103 4458 2093 221 2365 3971 2795 1048 2088 4034 121 1895 844 11408 9420 1830 965 1176 4314 1506 469 1872 1684
is_linear=0
shrinkage=0.1


Tree=3
num_leaves=31
num_cat=0
split_feature=6 6 0 7 4 7 0 7 5 0 0 4 5 0 5 5 4 7 4 4 5 4 7 7 7 0 7 0 7 0
split_gain=1.24177e+07 1.82664e+06 1.19575e+06 411217 373301 299696 324145 198376 164567 157544 128291 126844 126762 111496 107471 104013 101697 98794.5 90818.2 79983.8 76909.5 73427.2 314634 72918.9 70897 66050.4 64317.9 62799.9 62658 88505.2
threshold=6.560883082000001 8.3253318950000033 4.7309659755000011 7.0781341985000017 10.500000000000002 8.029865013500002 10.597539190000001 8.6737608100000028 1.0000000180025095e-35 6.0271910025000013 3.2474835495000005 9.5000000000000018 1.0000000180025095e-35 7.3799259495000014 1.0000000180025095e-35 1.0000000180025095e-35 10.500000000000002 6.9968676105000016 4.5000000000000009 3.5000000000000004 1.0000000180025095e-35 11.500000000000002 11.511748650000003 5.2744772510000013 5.8623846680000007 13.891810335000001 5.5337002350000013 8.6737608100000028 5.1573875205000013 11.945972960000002
decision_type=2 2 2 2 2 2 2 2 2 2 2 2 2 2 2 2 2 2 2 2 2 2 2 2 2 2 2 2 2 2
left_child=2 4 10 9 7 6 19 13 24 -4 -1 28 21 14 23 -5 -11 -12 -15 -3 -9 -7 -23 -2 -6 -14 -18 -21 -8 -30
right_child=1 5 3 15 8 12 11 20 -10 16 17 -13 25 18 -16 -17 26 -19 -20 27 -22 22 -24 -25 -26 -27 -28 -29 29 -31
leaf_value=-2.3279775999108314 0.24337336897850037 4.2622411549878576 -1.1162236813749755 1.1900654122650793 2.8934540613035629 5.7033682277714099 2.4357086044932728 3.3536685055617754 1.994421006874757 -0.35019586791916757 -1.851423391676682 7.931183165188493 3.921393089675929 2.5437510156700456 -0.29131802403034723 -0.4164306853990497 0.40593239393727532 -0.78349080182027586 1.0126596236884062 1.3761727386250291 1.2189891631424192 7.3592079763543117 -2.8776570937212775 1.8661126713780209 5.5435986556945904 6.103779170734736 3.604389689204929 2.7617727808696815 4.1317590291511292 7.901717830788006
leaf_weight=5916 525 265 5567 1486 149 1216 109 507 445 1641 5747 145 1394 540 1112 553 145 1020 1371 446 253 73 51 586 313 154 111 1227 213 88
leaf_count=5916 525 265 5567 1486 149 1216 109 507 445 1641 5747 145 1394 540 1112 553 145 1020 1371 446 253 73 51 586 313 154 111 1227 213 88
internal_value=0.0171934 2.73448 -1.35235 -0.504219 1.50351 4.06152 3.25828 1.15817 3.36691 -0.848036 -1.98783 5.38906 4.7549 0.885184 0.403674 0.754365 -0.0610037 -1.69045 1.44531 2.64807 2.64304 5.46698 3.14888 1.09929 4.6889 4.1385 1.79276 2.39239 4.49002 5.23394
internal_weight=33368 11182 22186 9503 5801 5381 2493 4894 907 7464 12683 555 2888 4134 2223 2039 1897 6767 1911 1938 760 1340 124 1111 462 1548 256 1673 410 301
internal_count=33368 11182 22186 9503 5801 5381 2493 4894 907 7464 12683 555 2888 4134 2223 2039 1897 6767 1911 1938 760 1340 124 1111 462 1548 256 1673 410 301
is_linear=0
shrinkage=0.1


Tree=4
num_leaves=31
num_cat=0
split_feature=0 6 6 4 3 0 3 4 0 4 3 3 4 4 3 5 3 3 4 3 4 4 4 3 3 4 6 4 4 4
split_gain=1.00698e+07 1.50758e+06 1.00818e+06 325071 276343 250475 240893 204390 192200 181169 165284 136215 117110 133930 121947 111919 180246 101966 94814.6 89669.1 83438.4 80700 79357.7 153779 79442.7 76545.1 76218 75690.8 70026.7 69758.5
threshold=6.560883082000001 8.1229920000000018 5.2728657645000014 10.500000000000002 17.500000000000004 10.088430275000002 16.500000000000004 11.500000000000002 3.2824647700000003 11.500000000000002 16.500000000000004 18.500000000000004 3.5000000000000004 10.500000000000002 7.5000000000000009 1.0000000180025095e-35 9.5000000000000018 1.5000000000000002 10.500000000000002 12.500000000000002 3.5000000000000004 1.5000000000000002 5.5000000000000009 14.500000000000002 10.500000000000002 11.500000000000002 11.511748650000003 2.5000000000000004 10.500000000000002 2.5000000000000004
decision_type=2 2 2 2 2 2 2 2 2 2 2 2 2 2 2 2 2 2 2 2 2 2 2 2 2 2 2 2 2 2
left_child=2 3 8 6 9 10 17 18 -1 -4 12 -10 -3 19 -15 -5 -17 -2 22 -14 -19 -8 24 -24 -7 -16 -9 -26 29 -13
right_child=1 5 4 15 -6 7 21 26 11 -11 -12 28 13 14 25 16 -18 20 -20 -21 -22 -23 23 -25 27 -27 -28 -29 -30 -31
leaf_value=-2.0890798318045518 2.0339951502012958 4.1669038269254903 -0.6911523837876189 4.1552372054249931 1.0015715806024628 6.3961209081430903 -0.90934581074275467 3.2771766666352278 -1.5872197486787982 1.7813530223009293 4.0818809726559024 -1.7481297022320448 1.3715126917767591 5.7042614459687355 4.3669451967173938 5.5253978133201604 0.56041810789869895 1.3571363419244604 6.6916864093744541 2.9412341194323921 0.03927648924797663 2.4743677977665093 2.4758808356052255 5.2132457418574232 1.9212906147241595 0.70736694732537642 -0.30145457094269146 4.8750440894192408 -2.1951787381726025 -0.26459156367948816
leaf_weight=6036 382 396 4550 439 1554 305 76 127 7308 317 1061 386 1116 196 102 98 288 599 212 540 2427 971 449 378 100 130 112 655 286 1772
leaf_count=6036 382 396 4550 439 1554 305 76 127 7308 317 1061 386 1116 196 102 98 288 599 212 540 2427 971 449 378 100 130 112 655 286 1772
internal_value=0.015474 2.46621 -1.21591 1.23973 -0.159416 3.56774 0.902073 4.37102 -1.64559 -0.530112 3.03735 -1.37109 2.59048 2.29093 3.86781 3.06308 1.82096 0.494494 4.68652 1.88338 0.300148 2.22875 4.46125 3.72706 5.03406 2.31632 1.60016 4.48382 -0.724818 -0.529951
internal_weight=33368 11159 22209 5280 6421 5879 4455 2338 15788 4867 3541 9752 2480 2084 428 825 386 3408 2099 1656 3026 1047 1887 827 1060 232 239 755 2444 2158
internal_count=33368 11159 22209 5280 6421 5879 4455 2338 15788 4867 3541 9752 2480 2084 428 825 386 3408 2099 1656 3026 1047 1887 827 1060 232 239 755 2444 2158
is_linear=0
shrinkage=0.1


Tree=5
num_leaves=31
num_cat=0
split_feature=0 0 0 7 7 5 7 5 4 4 0 3 7 4 4 4 4 3 4 3 3 7 7 5 3 4 4 7 0 4
split_gain=8.00052e+06 1.21594e+06 659818 269981 261102 214128 176871 152126 124946 114269 111163 105795 104436 98810.6 154651 84433.3 96811.6 79538.4 90892.3 79515.1 78771 100765 71241.8 69383.5 67908.1 66516.5 181926 119716 66454.3 82120.9
threshold=7.0714711800000005 5.3613095470000003 8.6737608100000028 6.9574755180000016 8.731685950000001 1.0000000180025095e-35 6.7129172105000015 1.0000000180025095e-35 9.5000000000000018 9.5000000000000018 13.891810335000001 15.500000000000002 5.0889409305000006 8.5000000000000018 4.5000000000000009 3.5000000000000004 11.500000000000002 8.5000000000000018 10.500000000000002 19.500000000000004 10.500000000000002 5.8623846680000007 11.945972960000002 1.0000000180025095e-35 10.500000000000002 11.500000000000002 10.500000000000002 10.331924850000002 10.597539190000001 2.5000000000000004
decision_type=2 2 2 2 2 2 2 2 2 2 2 2 2 2 2 2 2 2 2 2 2 2 2 2 2 2 2 2 2 2
left_child=1 5 4 11 13 6 8 12 -1 19 22 15 -4 14 -2 24 -17 18 -15 -6 21 -18 25 -5 -3 26 28 -27 -9 -30
right_child=2 3 7 23 9 -7 -8 10 -10 -11 -12 -13 -14 17 -16 16 20 -19 -20 -21 -22 -23 -24 -25 -26 27 -28 -29 29 -31
leaf_value=-1.1372960557220948 2.013958748263061 0.95314774394157498 1.7848537343461612 1.4617091254998587 1.6671080773021434 -1.8263488176115505 -0.22293684020048321 2.1638533835246396 -2.2493373704005459 4.9536138126852389 5.462302191192058 0.50910499922427022 4.3908622164723239 1.7701138667020755 0.38258951761562265 -0.88429737780796214 0.62679441157033899 1.4329519193569673 4.7689240673153668 4.0522999188275701 -1.4197959988950248 5.6882436093637505 5.2619751445630252 0.21939961482570972 -0.89488222326262523 2.3739151612002192 5.6422924557709582 -2.6834441859875957 0.21064336790641147 3.705890022358501
leaf_weight=5880 897 610 171 1401 414 7564 1818 1408 1220 264 164 1330 1527 211 1650 3208 118 673 194 211 83 59 111 662 295 191 211 62 75 648
leaf_count=5880 897 610 171 1401 414 7564 1818 1408 1220 264 164 1330 1527 211 1650 3208 118 673 194 211 83 59 111 662 295 191 211 62 75 648
internal_value=-0.000705335 -0.948893 2.53086 0.082737 1.67342 -1.43498 -1.10303 3.37816 -1.32838 3.20919 2.93428 -0.271885 4.12842 1.29678 0.957124 -0.509415 -0.733881 2.0993 3.20658 2.47235 1.12202 2.31394 2.78107 1.06306 0.350751 2.67495 2.84135 1.13456 2.56402 3.34331
internal_weight=33330 24248 9082 7766 4514 16482 8918 4568 7100 889 2870 5703 1698 3625 2547 4373 3468 1078 405 625 260 177 2706 2063 905 2595 2342 253 2131 723
internal_count=33330 24248 9082 7766 4514 16482 8918 4568 7100 889 2870 5703 1698 3625 2547 4373 3468 1078 405 625 260 177 2706 2063 905 2595 2342 253 2131 723
is_linear=0
shrinkage=0.1


Tree=6
num_leaves=31
num_cat=0
split_feature=6 0 6 7 7 3 6 4 3 7 3 4 3 4 7 0 3 4 4 4 3 4 6 3 4 4 0 4 6 7
split_gain=6.61055e+06 914484 633303 226297 223215 215393 190568 149735 143560 99358.7 98950.9 96579.1 106966 93908.7 72822.1 71997.1 69782.8 75827.5 84103.5 101102 68682.4 67487 71321.9 67152.1 62628.2 78220.6 61073.6 60034.9 103268 80285.4
threshold=6.560883082000001 8.1229920000000018 4.7311621390000012 7.0781341985000017 7.3497891280000012 16.500000000000004 11.945972960000002 11.500000000000002 9.5000000000000018 6.3598264640000011 1.5000000000000002 5.5000000000000009 16.500000000000004 11.500000000000002 9.3942998850000041 6.0271910025000013 13.500000000000002 3.5000000000000004 10.500000000000002 11.500000000000002 19.500000000000004 2.5000000000000004 9.8721174000000023 3.5000000000000004 3.5000000000000004 8.5000000000000018 11.511748650000003 11.500000000000002 11.707057765000002 9.4789813350000021
decision_type=2 2 2 2 2 2 2 2 2 2 2 2 2 2 2 2 2 2 2 2 2 2 2 2 2 2 2 2 2 2
left_child=2 5 9 13 6 7 16 10 -9 20 -2 21 -13 15 -7 -4 17 -3 -19 -20 -1 26 -23 -21 -12 -26 -6 -14 29 -29
right_child=1 4 3 -5 11 14 -8 8 -10 -11 24 12 27 -15 -16 -17 -18 18 19 23 -22 22 -24 -25 25 -27 -28 28 -30 -31
leaf_value=-1.701963967129845 1.9113969937091966 3.4980559297122307 -0.90808542243930601 0.55029921575799168 3.2348249071339765 1.6965192661408974 5.4985962837542361 4.3834504259355143 -0.011360406349687015 -0.85733189905591256 1.2214933345031909 2.3377225556000663 4.292508281625202 0.74300209609431134 3.3881213485659241 -0.15801227833917261 2.6268919592692379 0.77161112989314184 5.2292114363581526 5.3986028442382814 -1.0304422756240956 3.2956206499586309 4.7936328757098225 -0.50522022006057554 -0.2681923390453495 0.99730472751573007 -0.45963307986882596 -1.8666858863830567 -4.2647670579993209 5.651790011172392
leaf_weight=8641 417 155 5242 2069 240 1069 152 198 119 2296 567 1276 566 465 334 1693 724 1012 102 25 1849 517 825 84 1887 659 55 20 23 49
leaf_count=8641 417 155 5242 2069 240 1069 152 198 119 2296 567 1276 566 465 334 1693 724 1012 102 25 1849 517 825 84 1887 659 55 20 23 49
internal_value=-0.000634805 1.99574 -0.994115 -0.374235 2.85842 1.03858 2.07925 0.651769 2.73366 -1.45318 0.464811 3.35023 2.87177 -0.63273 2.09922 -0.724975 1.83199 1.41435 1.15027 2.96638 -1.5836 3.91549 4.21653 0.848868 0.271035 0.0593656 2.54603 3.90741 1.5382 3.47252
internal_weight=33330 11075 22255 9469 5825 5250 2254 3847 317 12786 3530 3571 1934 7400 1403 6935 2102 1378 1223 211 10490 1637 1342 109 3113 2546 295 658 92 69
internal_count=33330 11075 22255 9469 5825 5250 2254 3847 317 12786 3530 3571 1934 7400 1403 6935 2102 1378 1223 211 10490 1637 1342 109 3113 2546 295 658 92 69
is_linear=0
shrinkage=0.1


Tree=7
num_leaves=31
num_cat=0
split_feature=6 6 6 4 7 7 5 0 7 5 4 4 3 5 4 4 0 3 4 5 0 7 3 3 3 4 4 6 7 4
split_gain=5.37986e+06 939238 363174 206898 180379 154777 171904 149265 122834 110252 103374 106227 88041 87584.2 87454.1 100190 77865.2 73071.8 67726.9 90527.2 101957 64532.3 64045.6 73209.2 64032.8 94398.7 63338.7 75319.2 110350 71912.1
threshold=6.2645973505000017 8.1229920000000018 4.5199886550000006 9.5000000000000018 7.3497891280000012 5.8904470695000013 1.0000000180025095e-35 11.945972960000002 8.1229920000000018 1.0000000180025095e-35 3.5000000000000004 1.5000000000000002 13.500000000000002 1.0000000180025095e-35 2.5000000000000004 6.5000000000000009 7.3799259495000014 19.500000000000004 10.500000000000002 1.0000000180025095e-35 10.088430275000002 1.6841346145000002 19.500000000000004 3.5000000000000004 13.500000000000002 3.5000000000000004 11.500000000000002 10.756255752500001 8.9470991200000025 10.500000000000002
decision_type=2 2 2 2 2 2 2 2 2 2 2 2 2 2 2 2 2 2 2 2 2 2 2 2 2 2 2 2 2 2
left_child=2 3 14 8 7 -4 -7 18 10 -5 11 -2 16 -6 -1 17 -12 -16 24 -20 -21 -19 23 -10 25 -3 29 -28 -29 -15
right_child=1 4 5 9 13 6 -8 -9 22 -11 12 -13 -14 26 15 -17 -18 21 19 20 -22 -23 -24 -25 -26 -27 27 28 -30 -31
leaf_value=-1.9532727820063305 -0.48646673535021789 3.3070578639199137 -0.83314026509975525 2.6987621439478686 3.5631232804522841 0.54617666554984667 -0.8858301615160793 4.8718478349688787 2.7217462738995915 0.95775450360235992 -0.725728095713434 1.8882133377135419 0.80950266539874161 2.5618355994714581 -1.0949041266111752 -1.5231606976444585 0.52754382031877733 3.456488235116316 4.841054781541958 -0.12005264061253246 5.1616399477880739 -0.30202176141863729 2.918371765885114 0.36317711663080587 2.2249066156516437 0.58989631941356147 2.7393797286033634 5.7324999332427984 -2.2932733681573665 4.6330709678663764
leaf_weight=1997 261 147 5779 773 1592 2217 1348 153 186 687 1506 677 1014 1618 3410 5201 739 48 143 123 52 946 259 450 596 982 125 21 93 187
leaf_count=1997 261 147 5779 773 1592 2217 1348 153 186 687 1506 677 1014 1618 3410 5201 739 48 143 123 52 946 259 450 596 982 125 21 93 187
internal_value=-0.000571326 1.65173 -0.977466 0.83009 2.5748 -0.513478 0.00470536 1.85918 0.529189 1.87953 0.302382 1.22745 0.0361289 3.007 -1.35115 -1.22596 -0.313181 -0.874983 1.63356 2.97456 1.44936 -0.120524 1.59277 1.05295 1.38635 0.943681 2.57386 1.04406 -0.814841 2.77642
internal_weight=33330 12384 20946 6552 5832 9344 3565 2196 5092 1460 4197 938 3259 3636 11602 9605 2245 4404 2043 318 175 994 895 636 1725 1129 2044 239 114 1805
internal_count=33330 12384 20946 6552 5832 9344 3565 2196 5092 1460 4197 938 3259 3636 11602 9605 2245 4404 2043 318 175 994 895 636 1725 1129 2044 239 114 1805
is_linear=0
shrinkage=0.1


Tree=8
num_leaves=31
num_cat=0
split_feature=0 0 0 7 7 7 5 5 0 7 4 4 4 4 0 4 3 4 4 3 3 4 4 7 4 0 4 3 3 0
split_gain=4.3459e+06 596295 432111 165482 150112 130471 125219 112823 110627 94489.5 92717.2 82617.6 79613 78763.6 80179.8 72177.1 65730 65317.8 65169.9 77917.3 65308.5 57938.5 54711 53488.5 128288 88995.7 100512 73491.2 51121.3 52360
threshold=6.560883082000001 8.1229920000000018 5.1783869545000005 8.731685950000001 7.3497891280000012 6.2338411900000006 1.0000000180025095e-35 1.0000000180025095e-35 11.945972960000002 10.331924850000002 8.5000000000000018 9.5000000000000018 10.500000000000002 5.5000000000000009 13.891810335000001 2.5000000000000004 16.500000000000004 7.5000000000000009 3.5000000000000004 9.5000000000000018 11.500000000000002 2.5000000000000004 2.5000000000000004 10.881652330000001 10.500000000000002 8.9470991200000025 11.500000000000002 8.5000000000000018 6.5000000000000009 9.1560284400000018
decision_type=2 2 2 2 2 2 2 2 2 2 2 2 2 2 2 2 2 2 2 2 2 2 2 2 2 2 2 2 2 2
left_child=2 3 6 10 8 -4 9 -7 -3 11 18 15 -5 22 16 -1 23 -10 19 21 -20 -2 -6 24 -15 -25 -27 -26 -24 -30
right_child=1 4 5 12 13 7 -8 -9 17 -11 -12 -13 -14 14 -16 -17 -18 -19 20 -21 -22 -23 28 25 27 26 -28 -29 29 -31
leaf_value=-1.376247257288358 3.9498579591077609 1.4881555756044009 -0.47488940766549237 1.6608564731656523 1.9964274143465497 0.94226933263223467 -1.4053923910262673 -0.44641663693172906 2.6405392374311174 1.2758432228208165 1.3280243438009049 -1.5923238585505819 4.1383513189532275 1.2132521603217485 6.1236955840632605 -0.5738552133398066 3.0075496361971652 6.8299762900670373 -0.37684611397169049 0.42519302058197161 0.69623829799023795 0.83618114742467997 4.7656441120214241 4.4929599443078043 5.2365290050506594 1.5100013518875297 -3.4904460378595306 2.388961620903757 1.8711704942545666 3.5628449648640563
leaf_weight=1421 137 2111 4354 635 295 1586 7112 927 98 207 1254 1381 163 669 53 5311 636 60 1423 524 943 106 258 40 150 88 74 229 233 852
leaf_count=1421 137 2111 4354 635 295 1586 7112 927 98 207 1254 1381 163 669 53 5311 636 60 1423 524 943 106 258 40 150 88 74 229 233 852
internal_value=-0.000514196 1.623 -0.803646 0.842315 2.31542 -0.143739 -1.09729 0.430008 1.67918 -0.833929 0.60137 -0.887759 2.16691 2.71901 2.28772 -0.743225 2.17992 4.23146 0.310523 1.11156 0.0508456 2.59163 3.22955 1.75882 2.04601 0.268839 -0.774154 3.51597 3.50042 3.19956
internal_weight=33330 11031 22299 5185 5846 6867 15432 2513 2269 8320 4387 8113 798 3577 1939 6732 1886 158 3133 767 2366 243 1638 1250 1048 202 162 379 1343 1085
internal_count=33330 11031 22299 5185 5846 6867 15432 2513 2269 8320 4387 8113 798 3577 1939 6732 1886 158 3133 767 2366 243 1638 1250 1048 202 162 379 1343 1085
is_linear=0
shrinkage=0.1


Tree=9
num_leaves=31
num_cat=0
split_feature=6 6 6 7 3 1 4 7 4 4 3 7 4 1 7 4 3 7 4 7 4 3 4 4 3 3 7 4 3 3
split_gain=3.58338e+06 600865 271326 169717 151282 123235 113641 185533 127118 113232 134470 110678 94294.4 93442.6 85400.9 84483.7 72762.1 67524.1 65758.7 63198 68903.6 64368.8 60390.4 84706.7 100634 88376.6 72798.7 71820.8 58985.6 53450.2
threshold=7.1892604350000013 5.3617872610000008 9.5683044800000019 8.6737608100000028 16.500000000000004 13.192375786282712 11.500000000000002 10.756255752500001 10.500000000000002 11.500000000000002 10.500000000000002 5.9172160485000012 5.5000000000000009 192.98239448392755 10.474247675000003 9.5000000000000018 7.5000000000000009 4.6617328260000006 1.5000000000000002 8.029865013500002 3.5000000000000004 9.5000000000000018 3.5000000000000004 8.5000000000000018 12.500000000000002 8.5000000000000018 5.7047896725000005 10.500000000000002 19.500000000000004 19.500000000000004
decision_type=2 2 2 2 2 2 2 2 2 2 2 2 2 2 2 2 2 2 2 2 2 2 2 2 2 2 2 2 2 2
left_child=1 5 3 22 9 -1 8 -8 12 19 11 -11 16 17 28 29 -4 -14 -6 20 21 -3 -2 24 -24 26 -25 -28 -7 -5
right_child=2 4 6 15 18 14 7 -9 -10 10 -12 -13 13 -15 -16 -17 -18 -19 -20 -21 -22 -23 23 25 -26 -27 27 -29 -30 -31
leaf_value=-1.2634250665649729 1.8739726589705086 1.0208882342039611 4.6764623258581279 1.2967411827416333 -1.3711565929192764 -0.88792078014818543 2.5759290381578301 -2.5023930484788459 4.8067075651996545 0.26852463480395578 -1.3472218722831912 4.2302873655369408 -0.89951777725803606 5.535713717341423 1.7274625921925755 3.5098543883957527 2.7278150916857022 1.8569317299817969 0.94965618669825158 0.67557792406369366 -0.59420911815726551 -0.57652863584212977 -0.00011419268698013002 0.88178775065085468 1.3469190918407512 0.86154124569908097 1.6447994381522955 4.6488119368346368 -0.25812196518401825 2.926667115421131
leaf_weight=7494 719 579 234 657 130 6949 195 114 265 120 123 171 98 64 141 413 1058 954 2006 606 3977 447 1453 170 897 784 134 196 1892 290
leaf_count=7494 719 579 234 657 130 6949 195 114 265 120 123 171 98 64 141 413 1058 954 2006 606 3977 447 1453 170 897 784 134 196 1892 290
internal_value=-0.000462776 -0.616472 1.74484 1.34126 0.0853377 -0.964012 2.51803 0.702373 2.72793 -0.171092 1.42486 2.59657 2.49916 1.82585 -0.714201 2.31637 3.08074 1.60015 0.808408 -0.28889 -0.405713 0.324938 1.0366 0.870925 0.514051 1.52408 2.56295 3.429 -0.753142 1.79587
internal_weight=33330 24635 8695 5713 8159 16476 2982 309 2673 6023 414 291 2408 1116 8982 1360 1292 1052 2136 5609 5003 1026 4353 3634 2350 1284 500 330 8841 947
internal_count=33330 24635 8695 5713 8159 16476 2982 309 2673 6023 414 291 2408 1116 8982 1360 1292 1052 2136 5609 5003 1026 4353 3634 2350 1284 500 330 8841 947
is_linear=0
shrinkage=0.1


Tree=10
num_leaves=31
num_cat=0
split_feature=1 6 1 1 4 7 5 4 7 5 7 4 4 7 7 3 3 7 4 3 3 4 4 4 5 3 4 7 4 3
split_gain=3.00686e+06 449800 253742 150796 126921 99310.9 103578 87798.1 141114 90421.1 84899.2 71816.5 77211.8 61734.5 62894.6 60204.8 59589 52467.6 47923.3 45989.1 57521.3 45542 54033.6 42996.8 42549.2 42427 53716.3 52219.9 42864.2 58782.3
threshold=40.72073870112385 8.029865013500002 19.97643127990127 106.74867117557467 8.5000000000000018 5.9172160485000012 1.0000000180025095e-35 11.500000000000002 10.597539190000001 1.0000000180025095e-35 8.0709960550000019 2.5000000000000004 6.5000000000000009 1.9587740205000002 5.9172160485000012 15.500000000000002 16.500000000000004 9.0803836950000019 10.500000000000002 9.5000000000000018 18.500000000000004 3.5000000000000004 1.5000000000000002 10.500000000000002 1.0000000180025095e-35 14.500000000000002 3.5000000000000004 5.6068968245000006 6.5000000000000009 10.500000000000002
decision_type=2 2 2 2 2 2 2 2 2 2 2 2 2 2 2 2 2 2 2 2 2 2 2 2 2 2 2 2 2 2
left_child=2 4 11 10 16 -4 -7 -5 9 -9 25 -1 15 -6 -15 -13 21 -11 -16 -20 -21 22 -2 24 -12 26 -3 -28 29 -29
right_child=1 3 5 7 13 6 -8 8 -10 17 23 12 -14 14 18 -17 -18 -19 19 20 -22 -23 -24 -25 -26 -27 27 28 -30 -31
leaf_value=-1.5643365412161454 -0.67072122709711168 2.363826511661026 -0.57102118304010741 2.8032986505329611 5.0998424150727013 0.46788568980591072 -0.60253465657374072 7.0596655304367477 -2.1879356299837429 3.0776107790293517 2.3273773480582545 -0.89021659008975229 -1.1627420660248511 0.57181323465827993 1.0206261444484714 -0.12418418202796988 1.0503765787401453 -1.9835637389033132 3.7347002922367025 0.46037471914541223 3.0850219283275262 -0.046748139107473968 1.3217485604519157 3.20632719860432 1.2014790842111169 1.8103294890736799 -0.064723359163234948 -0.85434033819521327 1.6911360619529388 1.7750940734058021
leaf_weight=1964 179 214 6351 1855 44 2440 1436 37 96 54 793 2590 5089 678 402 1699 981 33 186 167 167 2471 568 282 582 693 587 198 556 149
leaf_count=1964 179 214 6351 1855 44 2440 1436 37 96 54 793 2590 5089 678 402 1699 981 33 186 167 167 2471 568 282 582 693 587 198 556 149
internal_value=0.01662 1.28749 -0.688783 1.88597 0.659714 -0.327579 0.071311 2.57929 0.690451 2.91888 1.5311 -1.01448 -0.899322 1.40457 1.30295 -0.586768 0.368087 1.15785 1.84059 2.47449 1.7727 0.160093 0.844303 2.08151 1.85082 1.15062 0.882317 0.669536 1.14685 0.274725
internal_weight=33541 11972 21569 6129 5843 10227 3876 2075 220 124 4054 11342 9378 1644 1600 4289 4199 87 922 520 334 3218 747 1657 1375 2397 1704 1490 903 347
internal_count=33541 11972 21569 6129 5843 10227 3876 2075 220 124 4054 11342 9378 1644 1600 4289 4199 87 922 520 334 3218 747 1657 1375 2397 1704 1490 903 347
is_linear=0
shrinkage=0.1


Tree=11
num_leaves=31
num_cat=0
split_feature=6 1 1 3 4 6 4 7 4 3 7 4 3 4 4 4 1 4 3 1 7 7 5 7 4 3 5 4 3 4
split_gain=2.452e+06 408953 178735 147973 101516 83564.3 82513 77672.7 102740 74309.9 70322.2 64938.1 64132.8 58112.7 63732.3 54306.3 59699.1 51915.6 48134.9 46593.8 46494.4 44360.9 49955.6 40679.4 42609.6 77888 40055.6 39447.3 52319.7 37356.9
threshold=6.2645973505000017 60.747828172600016 19.97643127990127 15.500000000000002 8.5000000000000018 9.3942998850000041 5.5000000000000009 10.881652330000001 10.500000000000002 10.500000000000002 7.2671856515000011 11.500000000000002 16.500000000000004 2.5000000000000004 6.5000000000000009 11.500000000000002 31.404709815005138 11.500000000000002 15.500000000000002 106.74867117557467 1.8252469835000003 4.7079233305000008 1.0000000180025095e-35 8.731685950000001 3.5000000000000004 8.5000000000000018 1.0000000180025095e-35 4.5000000000000009 18.500000000000004 9.5000000000000018
decision_type=2 2 2 2 2 2 2 2 2 2 2 2 2 2 2 2 2 2 2 2 2 2 2 2 2 2 2 2 2 2
left_child=2 4 13 5 12 -3 9 8 -8 -7 15 -9 23 -1 18 -4 26 -10 -15 29 -6 -22 -23 24 25 -2 -17 28 -21 -5
right_child=1 3 10 19 20 6 7 11 17 -11 -12 -13 -14 14 -16 16 -18 -19 -20 27 21 22 -24 -25 -26 -27 -28 -29 -30 -31
leaf_value=-1.4079029010034068 1.9652057939861702 0.91730706413593333 -0.51801242595887287 1.7062899381587435 4.9552861489355564 3.5541513929436657 0.89147878997781693 1.1002170939808307 4.1477921521863461 1.6366958356801289 0.25340604554925 -3.3403846320651827 0.91400874679737543 -0.79717112031095205 -1.0489727437742071 -1.2923241453156586 2.0529304634843557 1.7393432079746738 -0.11150079439912797 0.26259742489795096 -0.081509602995134378 1.9376876270823518 0.68789577583799255 1.1326190308094846 -0.32634223456248002 -0.28164521051741398 1.0557812254177408 3.2690481236201538 5.4773505369822182 2.8391922573146133
leaf_weight=1964 254 2425 7555 1165 32 394 766 69 179 415 1709 63 1048 2581 5083 168 175 179 1697 97 262 676 607 291 2127 393 128 627 24 388
leaf_count=1964 254 2425 7555 1165 32 394 766 69 179 415 1709 63 1048 2581 5083 168 175 179 1697 97 262 676 607 291 2127 393 128 627 24 388
internal_value=0.014958 1.12561 -0.643257 1.64957 0.500257 1.31541 1.78291 1.27559 1.54508 2.57054 -0.329042 -1.01916 0.238711 -0.913357 -0.809598 -0.453064 0.588731 2.94357 -0.525179 2.30163 1.1824 1.10426 1.3464 0.00781008 -0.110185 0.600426 -0.276927 2.95003 1.29693 1.98933
internal_weight=33541 12481 21060 6791 5690 4490 2065 1256 1124 809 9735 132 4113 11325 9361 8026 471 358 4278 2301 1577 1545 1283 3065 2774 647 296 748 121 1553
internal_count=33541 12481 21060 6791 5690 4490 2065 1256 1124 809 9735 132 4113 11325 9361 8026 471 358 4278 2301 1577 1545 1283 3065 2774 647 296 748 121 1553
is_linear=0
shrinkage=0.1


Tree=12
num_leaves=31
num_cat=0
split_feature=6 0 0 3 0 4 3 3 4 4 3 4 3 4 4 0 4 4 3 4 4 0 3 3 3 3 4 0 6 4
split_gain=2.00126e+06 385561 154231 95345.4 86610.3 78465.9 133171 90173.4 82928.5 68696.7 89320.6 62823.9 58496.7 62466.5 58345.1 50142 45067.8 41731 40535.8 34485 67879 34403.3 42960.7 32924.3 31295.7 31288.2 60174.3 30936.5 77772.9 33865
threshold=7.3048410095000014 5.6039905250000013 10.331924850000002 15.500000000000002 3.2824647700000003 11.500000000000002 9.5000000000000018 18.500000000000004 1.5000000000000002 10.500000000000002 8.5000000000000018 4.5000000000000009 18.500000000000004 9.5000000000000018 11.500000000000002 8.868155800000002 3.5000000000000004 2.5000000000000004 7.5000000000000009 9.5000000000000018 6.5000000000000009 11.511748650000003 14.500000000000002 22.500000000000004 22.500000000000004 9.5000000000000018 2.5000000000000004 9.0191388650000022 9.3942998850000041 3.5000000000000004
decision_type=2 2 2 2 2 2 2 2 2 2 2 2 2 2 2 2 2 2 2 2 2 2 2 2 2 2 2 2 2 2
left_child=1 4 3 9 -1 7 -7 -3 -9 11 -11 18 -6 -14 -4 -12 17 -10 27 20 -5 22 -16 -19 -18 26 -20 -2 29 -29
right_child=2 5 14 19 12 6 -8 8 16 10 15 -13 13 -15 21 -17 24 23 25 -21 -22 -23 -24 -25 -26 -27 -28 28 -30 -31
leaf_value=-0.99071380611443005 2.4656853265923551 -0.084059559507980913 2.2781910045518763 1.8379721986655841 -0.65346283480526601 3.0736312055196922 -0.0094762762085645047 -2.5589685328078993 1.1949671867851899 2.8497217085138598 -0.40210154728591441 0.39458836881580434 0.094525169336318784 -1.0571155385066897 0.70705006012604354 2.4293650399197588 1.1617009943152996 3.017474542680334 2.0178690657615661 2.3457825250645628 0.38918104922693031 -0.69450320135463373 5.3586843294019886 7.6083018893287289 -0.14883794462870037 1.1489704525921824 -2.4852314570178726 0.52213016318924288 4.0726365421947683 -4.0874958038330078
leaf_weight=6060 354 5537 1859 1112 8870 244 329 66 107 353 200 2564 2335 590 84 91 658 61 50 536 456 110 26 21 252 441 73 34 38 30
leaf_count=6060 354 5537 1859 1112 8870 244 329 66 107 353 200 2564 2335 590 84 91 658 61 50 536 456 110 26 21 252 441 73 34 38 30
internal_value=0.0134622 -0.433419 1.34863 1.10326 -0.683446 0.180222 1.3034 0.0841934 0.883864 0.829526 1.78044 0.658659 -0.525578 -0.137772 2.09595 0.48334 1.09062 2.49578 1.32246 1.65334 1.41664 0.556012 1.80653 4.19317 0.798783 0.755616 -0.654703 2.02355 0.489095 -1.63863
internal_weight=33541 25130 8411 6332 17855 7275 573 6702 1165 4228 644 3584 11795 2925 2079 291 1099 189 1020 2104 1568 220 110 82 910 564 123 456 102 64
internal_count=33541 25130 8411 6332 17855 7275 573 6702 1165 4228 644 3584 11795 2925 2079 291 1099 189 1020 2104 1568 220 110 82 910 564 123 456 102 64
is_linear=0
shrinkage=0.1


Tree=13
num_leaves=31
num_cat=0
split_feature=0 0 6 7 7 3 4 3 4 4 7 0 4 4 7 3 4 3 7 4 4 3 4 4 3 3 4 4 4 4
split_gain=1.63289e+06 288839 132656 83392.3 78254.9 63410.7 95819 91741.5 45454.2 57040.5 45660.8 44177 40404.7 40963.7 41004.8 40081.8 47133.5 70063.6 59966.1 99643.9 46614.8 35870.6 66813.4 35449.3 42490.1 64815 36171 34879 48220 36515.7
threshold=7.1892604350000013 5.6039905250000013 10.088430275000002 8.0709960550000019 6.6503522810000009 17.500000000000004 11.500000000000002 9.5000000000000018 9.5000000000000018 5.5000000000000009 9.2329292700000014 3.6321310240000004 1.5000000000000002 3.5000000000000004 3.9386452220000008 15.500000000000002 5.5000000000000009 10.500000000000002 8.8051491550000023 10.500000000000002 4.5000000000000009 13.500000000000002 10.500000000000002 2.5000000000000004 5.5000000000000009 10.500000000000002 4.5000000000000009 2.5000000000000004 3.5000000000000004 4.5000000000000009
decision_type=2 2 2 2 2 2 2 2 2 2 2 2 2 2 2 2 2 2 2 2 2 2 2 2 2 2 2 2 2 2
left_child=1 4 3 -2 11 6 -3 -8 9 23 21 -1 -7 14 -14 16 17 -4 19 -18 -17 22 -10 -5 26 -26 -25 -19 -29 -30
right_child=2 5 15 8 -6 12 7 -9 10 -11 -12 -13 13 -15 -16 20 18 27 -20 -21 -22 -23 -24 24 25 -27 -28 28 29 -31
leaf_value=-0.90459645106150577 0.70473435724484268 -0.13242887935337069 3.3042627554374051 0.46177541709485209 -0.16698852671101613 -1.3986130202925482 2.7753285133475929 -0.49884501617320265 -1.3561779034443391 0.36605424955014843 2.8812776161481741 -0.55595639838650734 5.280906793650459 0.60949905950158845 1.5055936272131569 0.7868608758340474 0.81629995769014629 -1.223901919465439 -0.046789359991026375 3.8829125874751322 2.7112472962934366 -0.12065837339443319 3.4553582423979101 5.3135937882386726 -0.53141333449970596 2.1927255361226723 1.8937328641697513 3.8120379880165078 -1.2176050951246356 1.684216149012248
leaf_weight=6622 4412 4958 291 188 3193 86 228 137 39 552 377 8056 34 1250 187 153 373 51 323 148 710 119 111 65 110 424 59 74 61 150
leaf_count=6622 4412 4958 291 188 3193 86 228 137 39 552 377 8056 34 1250 187 153 373 51 323 148 710 119 111 65 110 424 59 74 61 150
internal_value=0.012116 -0.403688 1.18294 0.949361 -0.615646 0.146881 -0.0173115 1.54639 1.47739 1.15683 2.17111 -0.713246 0.708214 0.831387 2.08641 1.82904 1.51163 2.16837 1.02374 1.68743 2.37008 1.17582 2.20436 1.6728 2.01881 1.63157 3.6864 1.18461 1.61561 0.845301
internal_weight=33541 24751 8790 6456 17871 6880 5323 365 2044 1398 646 14678 1557 1471 221 2334 1471 627 844 521 863 269 150 846 658 534 124 336 285 211
internal_count=33541 24751 8790 6456 17871 6880 5323 365 2044 1398 646 14678 1557 1471 221 2334 1471 627 844 521 863 269 150 846 658 534 124 336 285 211
is_linear=0
shrinkage=0.1


Tree=14
num_leaves=31
num_cat=0
split_feature=0 0 6 3 3 4 4 7 7 4 4 3 4 7 6 3 7 7 4 4 7 3 4 3 7 3 4 0 7 4
split_gain=1.33242e+06 218531 102481 86445.2 74916.7 73499.9 56041.5 61640.8 53934.1 46075.9 52643 45300.3 74786 115970 43690.5 43498.1 43376 39796 39017.7 56203.7 44456.8 51315.4 91132.3 38822.9 35650.9 34533.4 32778.8 42546.4 82122.5 67011.8
threshold=6.2645973505000017 7.7940893100000013 4.4461344620000007 15.500000000000002 16.500000000000004 8.5000000000000018 3.5000000000000004 4.9266822495000016 1.8252469835000003 2.5000000000000004 6.5000000000000009 6.5000000000000009 10.500000000000002 11.511748650000003 10.198420885000003 7.5000000000000009 6.2338411900000006 8.0709960550000019 3.5000000000000004 1.5000000000000002 3.1471175170000003 7.5000000000000009 2.5000000000000004 1.5000000000000002 4.7754797945000016 13.500000000000002 11.500000000000002 11.945972960000002 8.2237776545000028 9.5000000000000018
decision_type=2 2 2 2 2 2 2 2 2 2 2 2 2 2 2 2 2 2 2 2 2 2 2 2 2 2 2 2 2 2
left_child=2 5 9 6 15 17 -3 23 -7 -1 -11 12 14 -14 -9 16 -4 18 19 -2 -21 22 -22 -8 -10 -23 27 -13 -29 -30
right_child=1 3 4 -5 -6 8 7 11 24 10 -12 26 13 -15 -16 -17 -18 -19 -20 20 21 25 -24 -25 -26 -27 -28 28 29 -31
leaf_value=-1.1252859706571638 -0.78942191724635702 1.793191222777277 -0.40141898615800137 1.7071611906108008 0.18732152706628838 4.9501319383129934 -2.0474740671557052 0.4508809219466316 -0.11220177645699131 -0.32994415221804035 -0.80849206605615775 0.70849806624511236 3.5625121401594235 -3.4420817008385294 2.3054132458311902 -0.70754742950639238 0.34378294850705715 0.82591432898944095 -0.19272263556919683 2.8867234576661307 4.3077686068686578 -0.94177472526828465 -0.72171102234574613 0.22803307280390184 1.1004556683309221 0.99111754462907187 -0.27250818208875982 4.979974278261964 2.248413516887847 -1.7406799251915979
leaf_weight=1937 219 678 2915 2314 2901 33 86 450 301 4247 5011 1701 260 26 177 2967 1067 713 2534 111 88 180 61 585 1246 190 275 71 136 61
leaf_count=1937 219 678 2915 2314 2901 33 86 450 301 4247 5011 1701 260 26 177 2967 1067 713 2534 111 88 180 61 585 1246 190 275 71 136 61
internal_value=0.0109044 0.828845 -0.474768 1.21035 -0.239512 0.370448 0.955218 0.806799 0.949841 -0.68176 -0.588964 0.991799 1.58567 2.92573 0.974409 -0.417702 -0.201738 0.146951 0.00385335 0.590571 1.07028 0.681796 2.24872 -0.0636117 0.864509 0.0507916 0.750177 0.89301 2.06411 1.01321
internal_weight=33541 12496 21045 6820 9850 5676 4506 3828 1580 11195 9258 3157 913 286 627 6949 3982 4096 3383 849 630 519 149 671 1547 370 2244 1969 268 197
internal_count=33541 12496 21045 6820 9850 5676 4506 3828 1580 11195 9258 3157 913 286 627 6949 3982 4096 3383 849 630 519 149 671 1547 370 2244 1969 268 197
is_linear=0
shrinkage=0.1


Tree=15
num_leaves=31
num_cat=0
split_feature=6 0 3 5 4 3 4 4 0 3 0 4 4 3 0 3 3 4 6 4 4 3 3 0 3 4 4 4 0 3
split_gain=1.05292e+06 218368 118046 77163.6 72363.9 79081.8 54109.7 61859.8 55759.3 53411.3 47097.5 45982.9 81032.5 66061.4 77364.8 53396.2 72131 42190.1 41110.8 36003.1 33743.7 50860.8 33176.1 32870.4 40196.5 30946.4 37436.1 30150.9 38698.6 27694.7
threshold=5.9692898100000011 8.1748453415000011 16.500000000000004 1.0000000180025095e-35 11.500000000000002 9.5000000000000018 9.5000000000000018 5.5000000000000009 5.7012372540000005 1.0000000180025095e-35 5.2925985560000006 5.5000000000000009 7.5000000000000009 8.5000000000000018 11.945972960000002 16.500000000000004 8.5000000000000018 1.5000000000000002 3.6321310240000004 11.500000000000002 3.5000000000000004 8.5000000000000018 6.5000000000000009 5.388437275000002 8.5000000000000018 3.5000000000000004 2.5000000000000004 10.500000000000002 7.8873731655000006 17.500000000000004
decision_type=2 2 2 2 2 2 2 2 2 2 2 2 2 2 2 2 2 2 2 2 2 2 2 2 2 2 2 2 2 2
left_child=3 2 4 6 9 -6 7 10 -8 -2 -1 22 13 -13 -15 16 -14 -4 -9 -5 21 -11 -3 -21 -25 26 -12 -19 -29 -16
right_child=1 11 17 19 5 -7 8 18 -10 20 25 12 15 14 29 -17 -18 27 -20 23 -22 -23 -24 24 -26 -27 -28 28 -30 -31
leaf_value=-0.61341766905870987 1.2129504842000336 2.2113820678570262 -0.86137549756094822 -0.74778841234707061 2.3606549450430001 -0.45804069416645254 -0.93671411644184011 -0.33792292678551805 0.99529707810264423 1.44270166486767 0.18273077689085629 -1.2935920328599342 1.8372626166304284 0.30082316717329721 4.9277051700995527 2.1405517562490513 0.46546225618040388 0.87338663857620902 0.30753285308512435 -0.24770582249305148 -0.20307808709528757 -0.10103329215534801 1.2773997201539569 5.3455166161060337 0.52557353665751794 -0.41895615486816196 2.2026811889748075 1.5063849357328292 4.7112684931073874 0.98015245855958377
leaf_weight=3566 338 472 120 8540 275 156 1788 1535 163 337 291 235 605 814 52 508 1046 1602 2763 494 4259 582 1958 24 62 384 134 366 42 27
leaf_count=3566 338 472 120 8540 275 156 1788 1535 163 337 291 235 605 814 52 508 1046 1602 2763 494 4259 582 1958 24 62 384 134 366 42 27
internal_value=-0.0143029 0.656047 0.321307 -0.482638 0.0925143 1.34043 -0.299473 -0.192435 -0.775301 -0.00499333 -0.457141 1.12897 0.885123 0.19821 0.590789 1.24401 0.968151 0.960099 0.0770129 -0.696009 -0.084496 0.465059 1.45882 0.0663988 1.87067 0.231712 0.819609 1.06884 1.8363 3.57854
internal_weight=33538 13794 8077 19744 5947 431 10624 8673 1951 5516 4375 5717 3287 1128 893 2159 1651 2130 4298 9120 5178 919 2430 580 86 809 425 2010 408 79
internal_count=33538 13794 8077 19744 5947 431 10624 8673 1951 5516 4375 5717 3287 1128 893 2159 1651 2130 4298 9120 5178 919 2430 580 86 809 425 2010 408 79
is_linear=0
shrinkage=0.1


Tree=16
num_leaves=31
num_cat=0
split_feature=6 0 5 7 7 7 5 4 6 7 0 4 7 4 4 7 4 0 6 4 4 7 7 7 6 6 6 4 4 7
split_gain=852865 176878 95247.9 131262 86286.8 79560.4 57270.3 42607.5 41629.3 35282.9 41297.5 84789.5 32439.6 30693.7 29895.1 51425.2 39564.9 58518.6 28714.8 28399.2 37591.4 26689.5 26271.1 60661.3 56511.9 34136.9 33376.9 26246.2 55799 66089.8
threshold=5.9692898100000011 8.1748453415000011 1.0000000180025095e-35 5.3153226735000008 7.5848329650000013 5.2744772510000013 1.0000000180025095e-35 10.500000000000002 3.2824647700000003 8.3788131000000021 7.3048410095000014 11.500000000000002 3.7836778080000006 11.500000000000002 4.5000000000000009 2.2772303990000005 9.5000000000000018 9.4789813350000021 7.5788355325000012 11.500000000000002 10.500000000000002 5.9712535050000008 8.029865013500002 9.0803836950000019 10.198420885000003 8.8051491550000023 10.088430275000002 1.5000000000000002 3.5000000000000004 6.4441089950000006
decision_type=2 2 2 2 2 2 2 2 2 2 2 2 2 2 2 2 2 2 2 2 2 2 2 2 2 2 2 2 2 2
left_child=4 2 3 -2 8 14 -7 27 -1 21 11 -11 -4 18 15 -3 -16 -18 -14 20 -8 -9 26 25 -25 -24 -21 -5 29 -29
right_child=1 5 12 7 -6 6 19 9 -10 10 -12 -13 13 -15 16 -17 17 -19 -20 22 -22 -23 23 24 -26 -27 -28 28 -30 -31
leaf_value=-0.72657277152604649 -0.13835612141347783 5.4222128868103034 0.66966363872714174 -0.86173355085008285 0.17746990065409826 1.6296766966584106 0.90476836562998642 0.83297591047627584 -0.39914848324659552 2.5010801767816351 2.4379111658695134 -3.219082935506647 -0.42347076047420562 0.87354557005632116 -0.44298647145230929 0.68476156053842663 -0.61762129167715718 3.0724107735536315 0.25433465887293644 -2.1546398924977592 2.2579257570174005 3.0542785744206249 -0.68601290065617793 4.0017192792892464 -1.8870646022937514 3.9789254957629789 1.3536942048619192 4.4355836858461188 0.71001571596304558 1.2182991162081747
leaf_weight=5759 1422 26 539 85 2064 1814 2345 70 11921 49 86 55 2409 264 623 193 84 88 844 89 225 238 21 20 88 62 39 91 1711 214
leaf_count=5759 1422 26 539 85 2064 1814 2345 70 11921 49 86 55 2409 264 623 193 84 88 844 89 225 238 21 20 88 62 39 91 1711 214
internal_value=-0.0128726 0.590442 0.289176 0.634069 -0.434374 1.01607 1.18929 1.05669 -0.505802 1.88833 0.816651 -0.524006 -0.0527411 -0.163454 0.212671 1.2472 -0.0723127 1.2703 -0.247612 0.912775 1.02324 2.54944 0.0228556 0.765758 -0.796549 2.79864 -1.08569 0.859564 0.932138 2.17821
internal_weight=33538 13794 8077 4021 19744 5717 4703 2599 17680 498 190 104 4056 3517 1014 219 795 172 3253 2889 2570 308 319 191 108 83 128 2101 2016 305
internal_count=33538 13794 8077 4021 19744 5717 4703 2599 17680 498 190 104 4056 3517 1014 219 795 172 3253 2889 2570 308 319 191 108 83 128 2101 2016 305
is_linear=0
shrinkage=0.1


Tree=17
num_leaves=31
num_cat=0
split_feature=1 7 6 4 7 5 4 1 3 4 4 4 3 3 1 3 4 4 3 7 3 1 3 1 4 7 3 4 7 4
split_gain=697512 138744 86806 78987.2 64712.2 94504.7 59952.6 54999.7 53626 48119.2 41354.4 44751.6 38330.8 38826.7 38320.3 38043.3 37562.2 50756.6 44315.7 33622.3 55148 49879.6 30784.9 52890.4 30140.2 29476.1 29319.9 28392.2 96906 58159.7
threshold=53.360702174073943 8.0709960550000019 5.1555106030000006 11.500000000000002 5.2744772510000013 1.0000000180025095e-35 11.500000000000002 82.45336805956795 16.500000000000004 4.5000000000000009 2.5000000000000004 3.5000000000000004 21.500000000000004 12.500000000000002 34.671970562261059 14.500000000000002 3.5000000000000004 5.5000000000000009 9.5000000000000018 5.8904470695000013 10.500000000000002 40.061192972619452 8.5000000000000018 39.245179966911188 1.5000000000000002 2.1783726470000002 19.500000000000004 10.500000000000002 11.511748650000003 11.500000000000002
decision_type=2 2 2 2 2 2 2 2 2 2 2 2 2 2 2 2 2 2 2 2 2 2 2 2 2 2 2 2 2 2
left_child=1 2 -1 8 9 27 14 -7 16 25 -9 15 13 -11 -3 -12 18 -18 -4 -5 21 -21 23 -8 -10 -2 -16 -6 -29 -30
right_child=4 6 3 19 5 7 22 10 24 12 11 -13 -14 -15 26 -17 17 -19 -20 20 -22 -23 -24 -25 -26 -27 -28 28 29 -31
leaf_value=-0.50168468761913443 3.6034870681497786 0.24913908481016725 0.64010252536487167 0.28491189571343051 1.2308881275079178 0.22909365514418797 -1.5130594761332585 -0.84810401995976781 -1.0579829025308829 -0.31993303129167017 3.6175250808315833 0.92525084606676866 -2.6370539435633908 0.78924811574069387 0.70345237553967699 0.76274564354435404 -0.95061323270617049 -0.23625173311356848 -0.56568706043295591 4.9642217142941201 0.29030676442962972 1.3905873761290597 -2.23790818129874 4.7349935579299922 0.43401667976819286 0.89943485809080981 1.9487385049189403 2.7158495251807464 2.9298662594386511 -2.5344501912593844
leaf_weight=14365 45 1423 762 311 2094 1897 42 117 148 877 121 1725 54 493 615 76 1435 3241 508 73 134 84 121 20 1590 387 273 415 28 64
leaf_count=14365 45 1423 762 311 2094 1897 42 117 148 877 121 1725 54 493 615 76 1435 3241 508 73 134 84 121 20 1590 387 273 415 28 64
internal_value=-0.0115854 -0.275061 -0.353005 -0.0952476 0.777774 0.92573 0.432846 0.616644 -0.181667 0.256657 0.977204 1.08832 -0.0237941 0.0792103 0.570815 2.51619 -0.324493 -0.455479 0.157787 1.00782 1.78041 3.05221 -1.30948 0.502442 0.306965 1.18111 1.08629 1.39346 2.06491 -0.871397
internal_weight=33538 25145 22651 8286 8393 6537 2494 3936 7684 1856 2039 1922 1424 1370 2311 197 5946 4676 1270 602 291 157 183 62 1738 432 888 2601 507 92
internal_count=33538 25145 22651 8286 8393 6537 2494 3936 7684 1856 2039 1922 1424 1370 2311 197 5946 4676 1270 602 291 157 183 62 1738 432 888 2601 507 92
is_linear=0
shrinkage=0.1


Tree=18
num_leaves=31
num_cat=0
split_feature=0 7 0 5 7 5 3 7 3 0 7 0 0 0 7 6 3 0 7 3 3 6 0 3 6 3 6 7 3 3
split_gain=573272 117292 95398.8 62137.6 62170 37243.5 29845.2 39027.8 86008.7 35570.9 26141.1 35677 25760.6 25294 29163.4 24802.7 22013.2 21826 44192.4 42919.4 48724.4 30581.5 22572.4 21625.2 21250.7 40897.4 21043.8 20403.9 18098.7 23554.6
threshold=5.9692898100000011 7.8392906025000011 10.597539190000001 1.0000000180025095e-35 6.0867950425000013 1.0000000180025095e-35 13.500000000000002 4.9947707600000006 4.5000000000000009 7.3048410095000014 5.2257095835000014 11.945972960000002 8.4850431800000035 4.7066412380000004 10.597539190000001 5.5534039805000015 9.5000000000000018 11.144467645000001 12.523477995000002 11.500000000000002 15.500000000000002 13.891810335000001 12.208184180000002 15.500000000000002 7.3799259495000014 10.500000000000002 10.881652330000001 11.511748650000003 14.500000000000002 8.5000000000000018
decision_type=2 2 2 2 2 2 2 2 2 2 2 2 2 2 2 2 2 2 2 2 2 2 2 2 2 2 2 2 2 2
left_child=3 2 6 4 -1 -3 7 -2 -9 -10 -4 16 23 14 -6 -8 -12 18 -14 22 21 -21 -19 24 25 -7 -18 -22 29 -5
right_child=1 5 10 28 13 12 15 8 9 -11 11 -13 17 -15 -16 -17 26 19 -20 20 27 -23 -24 -25 -26 -27 -28 -29 -30 -31
leaf_value=-0.34858689996971243 -0.26685531361386811 1.1420991812767194 0.59985595911741263 -0.38700226810728439 -0.22777344600361632 1.3350856601422834 -1.7999958204983462 1.0915264972645342 -0.47213606274503972 0.29454025948675561 3.3516124086177097 3.61367189546801 1.0168429199651461 0.47412896816307076 1.2635455636928479 0.49262879265278681 2.0670359580034621 0.72174878083823024 5.7691619348526011 -1.5937519442576629 0.38766818173451001 0.7616244675318401 2.9466275500623809 0.94166211062202265 -0.89475484027318353 -1.577134880593845 -0.027698599031338325 2.7814087372476406 -0.29069996835360906 -0.76728060038853252
leaf_weight=7521 2248 2568 180 2590 1467 155 48 927 1070 1393 47 106 905 1521 144 2790 89 114 20 208 101 75 76 204 263 70 104 55 2090 4389
leaf_count=7521 2248 2568 180 2590 1467 155 48 927 1070 1393 47 106 905 1521 144 2790 89 114 20 208 101 75 76 204 263 70 104 55 2090 4389
internal_value=-0.0104268 0.483538 0.270466 -0.356468 -0.192694 0.881976 0.18937 0.0562368 0.270488 -0.0385266 1.57725 2.08572 0.584559 0.181659 -0.0944712 0.453853 1.41088 0.810555 1.1196 0.356083 -0.18735 -0.969536 1.6117 0.0770482 -0.284389 0.429061 0.938267 1.23162 -0.548847 -0.626154
internal_weight=33538 13816 9002 19722 10653 4814 8476 5638 3390 2463 526 346 2246 3132 1611 2838 240 1554 925 629 439 283 190 692 488 225 193 156 9069 6979
internal_count=33538 13816 9002 19722 10653 4814 8476 5638 3390 2463 526 346 2246 3132 1611 2838 240 1554 925 629 439 283 190 692 488 225 193 156 9069 6979
is_linear=0
shrinkage=0.1


Tree=19
num_leaves=31
num_cat=0
split_feature=0 7 0 7 3 3 4 4 7 4 7 3 7 3 3 0 3 0 7 3 4 4 4 4 3 0 7 4 7 7
split_gain=468234 74841.9 58025.5 57042 46464.6 56191.8 48021.3 34046.1 42373.3 32198.2 68269.5 31294.1 55368.5 39548 48106.7 30426.5 29778 28355 27037 25644 49118.1 37045.1 51798.4 37285.2 31329.9 28806.5 25060.9 25024.1 32673.5 24985.4
threshold=6.8149725975000015 6.1696521050000008 10.474247675000003 10.597539190000001 15.500000000000002 6.5000000000000009 5.5000000000000009 10.500000000000002 5.1801587090000014 11.500000000000002 8.9470991200000025 8.5000000000000018 8.868155800000002 21.500000000000004 17.500000000000004 3.2824647700000003 17.500000000000004 4.616858455500001 6.0308059935000005 12.500000000000002 3.5000000000000004 1.5000000000000002 6.5000000000000009 8.5000000000000018 22.500000000000004 7.5372263650000013 2.8431295485000008 9.5000000000000018 7.5848329650000013 2.8431295485000008
decision_type=2 2 2 2 2 2 2 2 2 2 2 2 2 2 2 2 2 2 2 2 2 2 2 2 2 2 2 2 2 2
left_child=1 15 3 7 5 6 -3 19 16 -4 -11 18 13 14 -13 -1 -9 -8 -10 20 25 -21 24 -24 -23 -2 -25 -28 -29 -22
right_child=2 4 9 -5 -6 -7 17 8 11 10 -12 12 -14 -15 -16 -17 -18 -19 -20 21 29 22 23 26 -26 -27 27 28 -30 -31
leaf_value=-0.56664352788355943 -0.13682410936668157 -0.42848908708421229 1.192364275925418 1.290822067222148 0.34927640791486253 -0.60754484062901792 -0.02174545784067634 -1.2389313347961592 0.20081311286269843 2.3522674070199332 -1.3684229557712875 0.13335788865963313 2.6411689285384981 2.4924896172114783 -3.8611653109391533 -0.27593193741139665 1.8303926008503613 0.99829613195122247 2.3103363498217528 -0.86233162392867124 -1.2610011746544811 1.08231446982171 -0.47306710074698261 3.5261891237894698 -0.69870206207599284 1.3488636400550604 1.5105108943158463 -1.600575675021161 0.7497088748278351 -0.0081716852697495974
leaf_weight=5163 187 776 1740 722 2733 1738 453 138 77 75 144 349 114 63 33 11894 41 684 288 187 169 1448 591 30 106 432 162 91 169 2741
leaf_count=5163 187 776 1740 722 2733 1738 453 138 77 75 144 349 114 63 33 11894 41 684 288 187 169 1448 591 30 106 432 162 91 169 2741
internal_value=-0.00938415 -0.254613 0.559934 0.442317 0.0374586 -0.195956 0.17798 0.359709 0.872309 1.04854 -0.0942139 1.14511 0.674854 0.171124 -0.211719 -0.363928 -0.535902 0.591894 1.86531 0.270148 0.0911349 0.497064 0.594949 0.0498123 0.960829 0.900037 0.733489 0.534955 -0.0728907 -0.0809305
internal_weight=33538 23441 10097 8138 6384 3651 1913 7416 1103 1959 219 924 559 445 382 17057 179 1137 365 6313 3529 2784 2597 1043 1554 619 452 422 260 2910
internal_count=33538 23441 10097 8138 6384 3651 1913 7416 1103 1959 219 924 559 445 382 17057 179 1137 365 6313 3529 2784 2597 1043 1554 619 452 422 260 2910
is_linear=0
shrinkage=0.1


end of trees

feature_importances:
month=189
hour=127
wind_lag_24h=110
wind_speed=77
wind_lag_1h=49
is_daytime=33
wind_speed_2=15

parameters:
[boosting: gbdt]
[objective: regression]
[metric: rmse]
[tree_learner: serial]
[device_type: cpu]
[data_sample_strategy: bagging]
[data: ]
[valid: ]
[num_iterations: 100]
[learning_rate: 0.1]
[num_leaves: 31]
[num_threads: 0]
[seed: 42]
[deterministic: 0]
[force_col_wise: 0]
[force_row_wise: 0]
[histogram_pool_size: -1]
[max_depth: -1]
[min_data_in_leaf: 20]
[min_sum_hessian_in_leaf: 0.001]
[bagging_fraction: 0.8]
[pos_bagging_fraction: 1]
[neg_bagging_fraction: 1]
[bagging_freq: 5]
[bagging_seed: 400]
[bagging_by_query: 0]
[feature_fraction: 0.9]
[feature_fraction_bynode: 1]
[feature_fraction_seed: 30056]
[extra_trees: 0]
[extra_seed: 12879]
[early_stopping_round: 0]
[early_stopping_min_delta: 0]
[first_metric_only: 0]
[max_delta_step: 0]
[lambda_l1: 0]
[lambda_l2: 0]
[linear_lambda: 0]
[min_gain_to_split: 0]
[drop_rate: 0.1]
[max_drop: 50]
[skip_drop: 0.5]
[xgboost_dart_mode: 0]
[uniform_drop: 0]
[drop_seed: 17869]
[top_rate: 0.2]
[other_rate: 0.1]
[min_data_per_group: 100]
[max_cat_threshold: 32]
[cat_l2: 10]
[cat_smooth: 10]
[max_cat_to_onehot: 4]
[top_k: 20]
[monotone_constraints: ]
[monotone_constraints_method: basic]
[monotone_penalty: 0]
[feature_contri: ]
[forcedsplits_filename: ]
[refit_decay_rate: 0.9]
[cegb_tradeoff: 1]
[cegb_penalty_split: 0]
[cegb_penalty_feature_lazy: ]
[cegb_penalty_feature_coupled: ]
[path_smooth: 0]
[interaction_constraints: ]
[verbosity: -1]
[saved_feature_importance_type: 0]
[use_quantized_grad: 0]
[num_grad_quant_bins: 4]
[quant_train_renew_leaf: 0]
[stochastic_rounding: 1]
[linear_tree: 0]
[max_bin: 255]
[max_bin_by_feature: ]
[min_data_in_bin: 3]
[bin_construct_sample_cnt: 200000]
[data_random_seed: 175]
[is_enable_sparse: 1]
[enable_bundle: 1]
[use_missing: 1]
[zero_as_missing: 0]
[feature_pre_filter: 1]
[pre_partition: 0]
[two_round: 0]
[header: 0]
[label_column: ]
[weight_column: ]
[group_column: ]
[ignore_column: ]
[categorical_feature: ]
[forcedbins_filename: ]
[precise_float_parser: 0]
[parser_config_file: ]
[objective_seed: 16083]
[num_class: 1]
[is_unbalance: 0]
[scale_pos_weight: 1]
[sigmoid: 1]
[boost_from_average: 1]
[reg_sqrt: 0]
[alpha: 0.9]
[fair_c: 1]
[poisson_max_delta_step: 0.7]
[tweedie_variance_power: 1.5]
[lambdarank_truncation_level: 30]
[lambdarank_norm: 1]
[label_gain: ]
[lambdarank_position_bias_regularization: 0]
[eval_at: ]
[multi_error_top_k: 1]
[auc_mu_weights: ]
[num_machines: 1]
[local_listen_port: 12400]
[time_out: 120]
[machine_list_filename: ]
[machines: ]
[gpu_platform_id: -1]
[gpu_device_id: -1]
[gpu_use_dp: 0]
[num_gpu: 1]

end of parameters

pandas_categorical:[]
