tree
version=v4
num_class=1
num_tree_per_iteration=1
label_index=0
max_feature_idx=4
objective=regression
feature_names=ec_gfs_mean hour_sin day_sin ec_wind_speed_10m gfs_wind_speed_10m
feature_infos=[0.45044810999999996:18.727169] [-1:1] [-0.99999073973619013:0.99999073973619013] [0.030067341000000001:18.775355999999999] [0.092054830000000004:19.379201999999999]
tree_sizes=2721 2851 2850 2858 2851 2875 2864 2882 2892 2887 2865 2882 2871 2856 2850 2888 2885 2867 2853 2861 2875 2853 2867 2888 2868 2877 2879 2858 2879 2861 2901 2906

Tree=0
num_leaves=31
num_cat=0
split_feature=0 0 0 0 0 1 0 0 1 0 1 2 2 1 0 2 2 1 2 2 4 4 2 2 2 2 2 2 3 2
split_gain=82572.7 16094.1 9649.06 5032.28 2466.22 1836.76 1200.46 1016.6 935.173 772.984 738.731 646.403 1497.02 613.399 454.871 449.338 434.084 368.137 362.41 346.658 283.964 281.1 274.448 1175.76 324.126 266.991 266.663 463.988 260.05 257.857
threshold=6.5177330000000007 9.5317339250000011 4.7157802500000008 13.542323250000001 7.7634296750000003 0.12940952255126045 11.359224000000003 3.4455587500000004 -1.0000000180025095e-35 5.7668503250000009 -0.37940952255126065 -0.081675638985454949 -0.10738035228456493 0.37940952255126054 6.0053277250000008 0.27609441636666071 0.98930504265984687 0.25881904510252091 0.48250327361223927 0.84753307444029569 2.5723609000000005 7.596551250000001 0.93535928755917841 0.95747632178960107 -0.9523687564627995 0.97109105924028427 -0.2008886948310977 0.65189295912203338 6.369789400000001 0.42109697129093554
decision_type=2 2 2 2 2 2 2 2 2 2 2 2 2 2 2 2 2 2 2 2 2 2 2 2 2 2 2 2 2 2
left_child=2 4 7 6 8 9 -3 17 -2 20 15 12 -8 28 -7 -6 22 -1 29 -10 -4 25 24 -24 -12 -21 -26 -28 -9 -17
right_child=1 3 5 -5 10 14 11 13 19 -11 16 -13 -14 -15 -16 18 -18 -19 -20 21 -22 -23 23 -25 26 -27 27 -29 -30 -31
leaf_value=5.6243626580387867 5.7912951378016233 5.8896491380772202 5.8195744870343118 6.1426662997127197 5.8266611546332152 5.6642852862179449 5.9801686603252833 5.6525623962136375 5.7519533786581372 5.7429040106696903 5.744354937672683 6.0139104224878368 5.7164444819696589 5.6247911844736569 5.7011396001636792 5.9208803824729035 5.9080023774186978 5.5996048703008316 5.8711364144846874 5.6367862945163445 5.6994471241649185 5.7739283597295064 5.4748856567011943 5.8062182981503847 5.8376797327632284 5.7399960355923341 5.7705341974677671 5.8431832934321992 5.7582495706690677 6.1319662248914675
leaf_weight=3839 1848 1614 50 266 780 3678 213 4314 1876 1754 201 367 72 3056 1084 39 95 2466 508 177 3055 93 34 126 610 97 639 335 59 23
leaf_count=3839 1848 1614 50 266 780 3678 213 4314 1876 1754 201 367 72 3056 1084 39 95 2466 508 177 3055 93 34 126 610 97 639 335 59 23
internal_value=5.70785 5.82797 5.65634 5.93693 5.79109 5.69474 5.91278 5.62945 5.76496 5.71637 5.82263 5.97004 5.91354 5.64198 5.67267 5.85132 5.80364 5.61468 5.88506 5.74326 5.70138 5.69882 5.79854 5.73581 5.80417 5.67332 5.81176 5.79552 5.65399 5.99919
internal_weight=33368 10013 23355 2532 7481 9621 2266 13734 4091 4859 3390 652 285 7429 4762 1350 2040 6305 570 2243 3105 367 1945 160 1785 274 1584 974 4373 62
internal_count=33368 10013 23355 2532 7481 9621 2266 13734 4091 4859 3390 652 285 7429 4762 1350 2040 6305 570 2243 3105 367 1945 160 1785 274 1584 974 4373 62
is_linear=0
shrinkage=1


Tree=1
num_leaves=31
num_cat=0
split_feature=0 0 0 0 0 1 1 0 0 3 2 2 0 1 2 2 2 3 4 2 2 1 2 2 3 2 2 1 2 3
split_gain=74521.9 14560.3 8708.28 4230 2634.34 1682.92 1038.27 917.482 903.068 590.799 583.379 1351.06 565.559 553.592 508.261 419.597 2032.09 539.12 410.5 394.352 390.977 332.244 248.327 243.099 234.695 228.317 215.378 213.699 222.959 206.784
threshold=6.5177330000000007 9.7118300000000026 4.7157802500000008 13.542323250000001 8.2025013500000021 -1.0000000180025095e-35 -0.37940952255126065 3.4455587500000004 11.359224000000003 5.3915998500000013 -0.081675638985454949 -0.10738035228456493 6.0053277250000008 0.37940952255126054 0.98801351631316348 0.93535928755917841 0.95747632178960107 9.3791115000000023 6.9734677500000002 0.29259762607704992 0.84753307444029569 0.25881904510252091 -0.2008886948310977 0.073094453017891456 6.369789400000001 0.75548631800528565 -0.84753307444029546 -0.60355339059327362 0.75548631800528565 10.288873000000001
decision_type=2 2 2 2 2 2 2 2 2 2 2 2 2 2 2 2 2 2 2 2 2 2 2 2 2 2 2 2 2 2
left_child=2 4 7 8 6 9 29 21 25 -4 11 -10 -7 24 15 17 -17 27 20 22 -8 -1 26 -14 -9 -3 -19 -6 -29 -2
right_child=1 3 5 -5 14 12 18 13 10 -11 -12 -13 23 -15 -16 16 -18 19 -20 -21 -22 -23 -24 -25 -26 -27 -28 28 -30 -31
leaf_value=-0.078799965735880301 0.087774825672859408 0.16625214809183053 -0.0081505987118944932 0.41358850280145054 0.13507891676604411 -0.038396964733186295 0.034246173705717191 -0.052010212864410078 0.25921574124428032 0.030183289310348589 0.29127042369881506 0.0086777694523334503 0.021631724038124384 -0.078392863225744056 0.21912024635535021 -0.26552732595946732 0.13057381877397464 0.090199138082275365 0.05823673255420795 0.21439479143695631 -0.038922902089396146 -0.102319862128188 0.059614034510191739 -0.022188961498421741 0.048392603912595977 0.21449432938414464 0.18174460355734601 0.088819470722835581 0.15836294521506017 0.21593256038613617
leaf_weight=3839 1919 1019 1857 266 531 4307 1050 4314 213 2191 367 72 630 3056 130 41 154 92 1899 235 221 2466 90 636 59 323 213 1016 130 32
leaf_count=3839 1919 1019 1857 266 531 4307 1050 4314 213 2191 367 72 630 3056 130 41 154 92 1899 235 221 2466 90 636 59 323 213 1016 130 32
internal_value=0.00050874 0.114627 -0.0484172 0.226301 0.0820738 -0.0119389 0.061179 -0.0739711 0.201317 0.0125978 0.249592 0.195922 -0.0297613 -0.0620656 0.122728 0.11772 0.047291 0.123673 0.0435167 0.163108 0.0215236 -0.087999 0.132595 -0.000382459 -0.0506556 0.177863 0.154131 0.108858 0.0967083 0.0898768
internal_weight=33368 10013 23355 2260 7753 9621 5121 13734 1994 4048 652 285 5573 7429 2632 2502 195 2307 3170 630 1271 6305 395 1266 4373 1342 305 1677 1146 1951
internal_count=33368 10013 23355 2260 7753 9621 5121 13734 1994 4048 652 285 5573 7429 2632 2502 195 2307 3170 630 1271 6305 395 1266 4373 1342 305 1677 1146 1951
is_linear=0
shrinkage=0.05


Tree=2
num_leaves=31
num_cat=0
split_feature=0 0 0 0 0 1 1 0 0 0 2 1 2 2 2 4 2 2 3 2 0 2 2 1 4 3 4 3 2 1
split_gain=67256 13140.7 7859.22 3817.58 2377.49 1519.79 937.597 828.027 815.105 669.676 652.426 499.617 458.705 423.222 999.416 394.21 378.686 1833.96 486.556 372.081 367.222 360.087 380.671 299.85 252.168 237.361 214.767 211.813 194.379 192.863
threshold=6.5177330000000007 9.7118300000000026 4.7157802500000008 13.542323250000001 8.2025013500000021 0.12940952255126045 -1.0000000180025095e-35 3.4455587500000004 11.097693750000003 5.7668503250000009 0.61188073503922691 0.37940952255126054 0.98801351631316348 -0.413274780713969 -0.081675638985454949 6.9734677500000002 0.93535928755917841 0.95747632178960107 9.3791115000000023 0.84753307444029569 6.0053277250000008 0.21772121422198085 -0.2008886948310977 0.25881904510252091 2.5723609000000005 7.5234772500000009 6.5225507500000015 6.369789400000001 -0.84753307444029546 -0.60355339059327362
decision_type=2 2 2 2 2 2 2 2 2 2 2 2 2 2 2 2 2 2 2 2 2 2 2 2 2 2 2 2 2 2
left_child=2 4 7 8 6 9 25 23 -3 24 13 27 16 -10 -15 19 18 -18 29 -8 26 22 28 -1 -4 -2 -7 -9 -20 -6
right_child=1 3 5 -5 12 20 15 11 10 -11 -12 -13 -14 14 -16 -17 17 -19 21 -21 -22 -23 -24 -25 -26 -27 -28 -29 -30 -31
leaf_value=-0.074859967691810261 0.068937887676401785 0.1655460677970613 0.10575933432579042 0.3929090749948545 0.12832497164550924 -0.04310881334259839 0.028954675026423633 -0.049409701272377989 0.24491361157265318 0.033028179868241241 0.29235105621344726 -0.074473222013116763 0.20816423282027247 0.032672908157110214 0.23201808359637954 0.054127542673100416 -0.25225096315872381 0.12404512786245965 0.08568918001635567 -0.046633164255128146 -0.0058398532504235177 0.19989904148425638 0.012296663643428475 -0.097203866942844788 -0.007443005218646534 0.10172757405755378 -0.0038214091450971934 0.045972977755433422 0.17265736940950857 0.091872928509055762
leaf_weight=3839 1445 1211 50 266 531 3289 938 4314 241 1754 279 3056 130 104 159 1648 41 154 92 197 1084 261 64 2466 3055 893 389 59 213 1146
leaf_count=3839 1445 1211 50 266 531 3289 938 4314 241 1754 279 3056 130 104 159 1648 41 154 92 197 1084 261 64 2466 3055 893 389 59 213 1146
internal_value=0.000483303 0.108896 -0.0459963 0.214986 0.0779701 -0.0113419 0.0581201 -0.0702726 0.191251 0.00833114 0.231008 -0.0589623 0.116592 0.19705 0.15319 0.0385106 0.111834 0.0449265 0.117489 0.015835 -0.0314158 0.154952 0.123161 -0.0835991 -0.0056201 0.0814619 -0.0389536 -0.0481228 0.146424 0.103415
internal_weight=33368 10013 23355 2260 7753 9621 5121 13734 1994 4859 783 7429 2632 504 263 2783 2502 195 2307 1135 4762 630 369 6305 3105 2338 3678 4373 305 1677
internal_count=33368 10013 23355 2260 7753 9621 5121 13734 1994 4859 783 7429 2632 504 263 2783 2502 195 2307 1135 4762 630 369 6305 3105 2338 3678 4373 305 1677
is_linear=0
shrinkage=0.05


Tree=3
num_leaves=31
num_cat=0
split_feature=0 0 0 0 0 1 0 1 3 1 2 1 0 0 2 2 2 2 2 2 2 2 0 0 2 2 3 4 2 4
split_gain=60698.5 11877.4 7118.52 3691.46 1882.88 1435.76 888.431 657.16 646.753 631.986 589.193 564.785 526.458 425.764 424.52 845.685 380.902 329.447 312.021 1050.35 304.39 303.452 287.91 277.778 260.81 377.322 251.086 250.387 238.706 232.239
threshold=6.5177330000000007 9.5317339250000011 4.5359012750000014 13.542323250000001 7.6529289250000003 -1.0000000180025095e-35 11.097693750000003 -1.0000000180025095e-35 6.0199200000000008 -0.37940952255126065 0.59817537509284302 1.0000000180025095e-35 6.0053277250000008 3.2123861500000004 -0.413274780713969 -0.081675638985454949 0.27609441636666071 0.48250327361223927 0.96683886033945965 0.93535928755917841 -0.9523687564627995 0.055916472294523401 5.0895049500000011 3.7315955250000008 -0.2008886948310977 0.6583954877256819 8.4773650000000007 8.0107480000000013 0.42109697129093554 6.9734677500000002
decision_type=2 2 2 2 2 2 2 2 2 2 2 2 2 2 2 2 2 2 2 2 2 2 2 2 2 2 2 2 2 2
left_child=2 4 11 6 7 8 -3 -2 22 16 14 13 -7 -1 -8 -16 26 28 19 20 -11 -9 -4 -13 -22 -26 -6 -21 -18 -23
right_child=1 3 5 -5 9 12 10 21 -10 18 -12 23 -14 -15 15 -17 17 -19 -20 27 24 29 -24 -25 25 -27 -28 -29 -30 -31
leaf_value=-0.073426747066381234 0.070245289898905799 0.15362173357208539 -0.022768497344905922 0.37326362043395078 0.078553444299642117 -0.03650106474342709 0.23266792079410614 0.049297288256123867 0.037021879290168092 0.024634842267038215 0.27493996921211783 -0.088257386790098979 -0.00035072656774652117 -0.047315178625822019 0.031039261545699377 0.218984473047527 0.18622779933417716 0.14044772489116006 0.139605443007393 -0.21876318871509284 0.11324876291450935 -0.0088025414747335169 0.0082067370365113204 -0.066952230705700763 0.053013364227685433 0.11730546240431133 0.13405062443374291 -0.028936105397971052 0.3847737605373065 0.036450582725994933
leaf_weight=2724 1717 1483 1268 266 498 4925 241 963 1349 210 297 3740 1266 3657 104 141 41 545 203 32 654 640 1837 2589 730 332 345 38 24 509
leaf_count=2724 1717 1483 1268 266 498 4925 241 963 1349 210 297 3740 1266 3657 104 141 41 545 203 32 654 640 1837 2589 730 332 345 38 24 509
internal_value=0.000459138 0.103451 -0.0436965 0.197055 0.0717696 -0.0135335 0.176371 0.0472719 0.00811581 0.0974546 0.219457 -0.0689589 -0.0291087 -0.058462 0.185551 0.139204 0.123043 0.153138 0.0805471 0.0745407 0.0814554 0.0285952 -0.00444273 -0.0795421 0.088409 0.0731122 0.101266 -0.115714 0.259537 0.0112443
internal_weight=33368 10013 23355 2532 7481 10645 2266 3829 4454 3652 783 12710 6191 6381 486 245 1453 610 2199 1996 1926 2112 3105 6329 1716 1062 843 70 65 1149
internal_count=33368 10013 23355 2532 7481 10645 2266 3829 4454 3652 783 12710 6191 6381 486 245 1453 610 2199 1996 1926 2112 3105 6329 1716 1062 843 70 65 1149
is_linear=0
shrinkage=0.05


Tree=4
num_leaves=31
num_cat=0
split_feature=0 0 0 0 0 1 1 0 0 0 2 1 2 2 2 3 2 2 2 2 2 0 1 4 3 2 2 4 4 4
split_gain=54780.4 10725 6429.71 3105.66 1965.13 1256.17 783.912 704.112 682.22 546.624 436.778 400.771 397.489 331.047 1580.26 427.046 325.553 324.602 340.66 321.225 716.288 289.239 268.193 257.656 229.357 209.851 196.95 193.807 188.497 184.065
threshold=6.5177330000000007 9.7118300000000026 4.7377269750000002 13.542323250000001 8.2025013500000021 0.12940952255126045 -0.37940952255126065 3.4697159750000002 11.359224000000003 5.7668503250000009 0.61188073503922691 0.37940952255126054 0.98801351631316348 0.93535928755917841 0.95747632178960107 9.3791115000000023 -0.030120025924939096 0.21772121422198085 -0.2008886948310977 -0.413274780713969 -0.081675638985454949 6.0053277250000008 0.25881904510252091 6.9734677500000002 6.6791780000000012 0.25118773779856129 0.75548631800528565 6.5225507500000015 2.1619116500000004 4.1954155000000002
decision_type=2 2 2 2 2 2 2 2 2 2 2 2 2 2 2 2 2 2 2 2 2 2 2 2 2 2 2 2 2 2
left_child=2 4 7 8 6 9 29 22 26 28 19 24 13 15 -15 -6 -8 18 -17 -10 -21 27 -1 -18 -9 -25 -3 -7 -4 -2
right_child=1 3 5 -5 12 21 16 11 10 -11 -12 -13 -14 14 -16 17 23 -19 -20 20 -22 -23 -24 25 -26 -27 -28 -29 -30 -31
leaf_value=-0.067135273691455916 0.1908582138163703 0.14154565891331397 0.14121513149955056 0.35460043271681418 0.093125581781512617 -0.038978950576590253 0.055418985485553289 -0.044115525057170805 0.23092733889818196 0.03044392942816514 0.26936999909643439 -0.066545892985928182 0.19069583261815404 -0.23739233060580928 0.11190869820775924 0.1332310383356955 0.0020679484569175199 0.1840830955269008 0.0063479991971689747 0.034132317437065976 0.21678210340048137 -0.0055303234166665027 -0.088050384856967798 -0.0052245897284307168 0.071934190845160298 0.051615368864726008 0.18635167112406748 -0.0013579264943981567 -0.0056734597496063272 0.075153211168269188
leaf_weight=3922 35 1019 22 266 1677 3224 1361 4316 195 1754 234 3074 130 41 154 305 809 261 64 90 133 1084 2516 204 43 796 323 383 3017 1916
leaf_count=3922 35 1019 22 266 1677 3224 1361 4316 195 1754 234 3074 130 41 154 305 809 261 64 90 133 1084 2516 204 43 796 323 383 3017 1916
internal_value=0.00043618 0.0982782 -0.0415117 0.194123 0.0703395 -0.00978432 0.0522929 -0.0632046 0.172715 0.00821793 0.214674 -0.0527205 0.105452 0.101023 0.0384659 0.106311 0.0369458 0.141409 0.111224 0.184054 0.143067 -0.028178 -0.075309 0.0230475 -0.0429707 0.04002 0.15233 -0.0349843 -0.0046101 0.0772289
internal_weight=33368 10013 23355 2260 7753 9484 5121 13871 1994 4793 652 7433 2632 2502 195 2307 3170 630 369 418 223 4691 6438 1809 4359 1000 1342 3607 3039 1951
internal_count=33368 10013 23355 2260 7753 9484 5121 13871 1994 4793 652 7433 2632 2502 195 2307 3170 630 369 418 223 4691 6438 1809 4359 1000 1342 3607 3039 1951
is_linear=0
shrinkage=0.05


Tree=5
num_leaves=31
num_cat=0
split_feature=0 0 0 0 0 1 0 3 2 1 1 1 0 2 0 0 2 2 2 2 2 4 2 2 1 2 2 2 2 2
split_gain=49128.4 9671.16 5343.5 3029.57 1301.81 1090.21 938.06 579.973 571.486 537.087 524.792 522.929 356.74 340.117 335.59 299.067 258.729 249.173 297.772 340.086 225.939 216.437 213.198 358.658 263.54 207.844 200.865 179.655 458.824 184.883
threshold=6.4280408500000012 9.1699711250000018 4.3825059500000014 13.542323250000001 7.7634296750000003 -1.0000000180025095e-35 10.883969250000002 6.1954178000000004 0.75548631800528565 -0.37940952255126065 -0.37940952255126065 0.25881904510252091 5.049102275000001 0.27609441636666071 6.0053277250000008 3.1013047400000002 -0.63209755774300591 0.84753307444029569 0.96683886033945965 0.92913280730858816 0.10738035228456499 7.0997076000000012 0.88606241628642846 0.96683886033945965 -0.9159756150367534 0.98930504265984687 -0.413274780713969 -0.3171883513140959 0.047320950113892181 0.03872192231363817
decision_type=2 2 2 2 2 2 2 2 2 2 2 2 2 2 2 2 2 2 2 2 2 2 2 2 2 2 2 2 2 2
left_child=2 4 11 6 10 7 25 12 -8 13 -2 15 -4 26 -7 27 -13 -12 19 21 -18 -19 -15 24 -24 -3 -6 -1 29 -29
right_child=1 3 5 -5 9 14 8 -9 -10 -11 17 16 -14 22 -16 -17 20 18 -20 -21 -22 -23 23 -25 -26 -27 -28 28 -30 -31
leaf_value=-0.087321086248438026 0.064924414748896209 0.1277125793325451 -0.024687034198087082 0.33738919970380715 0.11725767343665471 -0.034101405225723372 0.17135307986378334 0.035332417102903663 0.26471811116021565 0.068649354451479905 0.035946504333576067 -0.096541648745163355 0.0067414167771137779 0.16545616567758201 -0.0031983617418143498 -0.046544808190812838 -0.052439489836769299 -0.033121438520303102 0.045341094876122146 -0.11091845963895322 -0.078556376952770957 0.08681630245663903 -0.12884670221440805 0.16614270920732194 0.087555766768534396 0.21556596568918654 0.061495960892276151 -0.024398340530316819 -0.072981454563441781 0.10806318117039544
leaf_weight=823 1649 1760 1592 239 323 5432 711 1046 213 1747 2278 1202 2086 347 1048 4144 1241 119 180 100 2489 55 24 70 34 70 323 445 1512 28
leaf_count=823 1649 1760 1592 239 323 5432 711 1046 213 1747 2278 1202 2086 347 1048 4144 1241 119 180 100 2489 55 24 70 34 70 323 445 1512 28
internal_value=-0.000128529 0.0910137 -0.0405599 0.166628 0.0597938 -0.0157865 0.151809 0.00248064 0.192876 0.0859818 0.04265 -0.0639157 -0.0068622 0.112993 -0.0291035 -0.0550815 -0.0763681 0.0292054 -0.00461895 -0.0374394 -0.0698671 0.00478992 0.145111 0.0899575 -0.00199008 0.131073 0.0893768 -0.0676797 -0.0595362 -0.0165571
internal_weight=33330 10242 23088 2993 7249 11204 2754 4724 924 2868 4381 11884 3678 1121 6480 6952 4932 2732 454 274 3730 174 475 128 58 1830 646 2808 1985 473
internal_count=33330 10242 23088 2993 7249 11204 2754 4724 924 2868 4381 11884 3678 1121 6480 6952 4932 2732 454 274 3730 174 475 128 58 1830 646 2808 1985 473
is_linear=0
shrinkage=0.05


Tree=6
num_leaves=31
num_cat=0
split_feature=0 0 0 0 0 1 0 3 1 1 1 2 2 2 0 2 0 0 2 2 2 2 2 2 2 4 2 2 3 2
split_gain=44338.4 8740.27 4822.51 2519.34 1491.36 983.914 673.066 523.425 485.652 473.625 472.855 411.882 327.516 785.628 322.597 316.547 302.87 261.648 233.177 225.432 224.879 268.739 306.927 213.884 1015.67 284.68 228.967 213.618 218.939 205.652
threshold=6.4280408500000012 9.4335167500000008 4.3825059500000014 13.542323250000001 7.7634296750000003 -1.0000000180025095e-35 11.359224000000003 6.1954178000000004 -0.37940952255126065 -0.37940952255126065 1.0000000180025095e-35 0.61188073503922691 -0.10738035228456493 -0.081675638985454949 5.1092157500000015 0.27609441636666071 6.0053277250000008 3.1013047400000002 -0.67125374152323936 0.48250327361223927 0.84753307444029569 0.96683886033945965 0.92913280730858816 0.96683886033945965 0.93535928755917841 8.0107480000000013 -0.9523687564627995 -0.26781182513105617 10.030995000000003 0.88606241628642846
decision_type=2 2 2 2 2 2 2 2 2 2 2 2 2 2 2 2 2 2 2 2 2 2 2 2 2 2 2 2 2 2
left_child=2 4 10 6 9 7 -3 14 15 -2 17 12 -8 -14 -4 27 -7 -1 -12 -17 -11 22 29 24 26 -26 -10 -6 -29 -22
right_child=1 3 5 -5 8 16 11 -9 23 20 18 -13 13 -15 -16 19 -18 -19 -20 -21 21 -23 -24 -25 25 -27 -28 28 -30 -31
leaf_value=-0.0633989650020607 0.061678194265406418 0.13334798857466321 -0.022146830663171795 0.32051973163333397 0.10842523252542474 -0.032396335663602345 0.20625899246650503 0.033565795910138467 0.021120844486312525 0.034149179665369837 -0.089959993312980033 0.24651158282469057 -0.005380554431224171 0.19425542017885747 0.0075120129292855818 0.2330467856356076 -0.0030384433809343466 -0.042181837713241223 -0.065626807312151966 0.12710542529342322 -0.022726053392125981 0.043074040796847034 -0.10537253591697665 0.12194995666712016 -0.23297600493242498 -0.02932005322261437 0.078390418075411625 0.040249337212998393 0.20124393857043721 0.11287698194650667
leaf_weight=2459 1649 1687 1740 239 475 5432 222 1046 197 2278 1251 232 79 131 1938 56 1048 3552 4622 486 139 180 100 177 32 37 1530 258 23 35
leaf_count=2459 1649 1687 1740 239 475 5432 222 1046 197 2278 1251 232 79 131 1938 56 1048 3552 4622 486 139 180 100 177 32 37 1530 258 23 35
internal_value=-0.000122103 0.086463 -0.0385319 0.165855 0.0595908 -0.0149972 0.150132 0.00235661 0.0851367 0.0405175 -0.0607199 0.192775 0.163916 0.119154 -0.00651909 0.10889 -0.0276483 -0.0508614 -0.07081 0.138051 0.0277451 -0.004388 -0.0355674 0.06951 0.0643419 -0.123769 0.0718576 0.0879827 0.0534268 0.00455042
internal_weight=33330 10242 23088 2590 7652 11204 2351 4724 3271 4381 11884 664 432 210 3678 1298 6480 6011 5873 542 2732 454 274 1973 1796 69 1727 756 281 174
internal_count=33330 10242 23088 2590 7652 11204 2351 4724 3271 4381 11884 664 432 210 3678 1298 6480 6011 5873 542 2732 454 274 1973 1796 69 1727 756 281 174
is_linear=0
shrinkage=0.05


Tree=7
num_leaves=31
num_cat=0
split_feature=0 0 0 0 0 1 0 2 1 1 1 0 0 2 0 2 2 2 2 2 2 2 2 4 1 3 2 3 2 2
split_gain=40015.4 7919.78 4354.79 2522.22 955.499 929.733 823.434 484.684 442.402 427.446 414.719 384.316 376.833 255.807 252.913 239.571 228.89 210.839 202.953 242.537 277.002 202.694 192.868 191.702 188.96 195.85 277.949 177.471 176.338 173.426
threshold=6.4280408500000012 9.0907840000000011 4.4253036750000012 13.542323250000001 7.7634296750000003 -0.37940952255126065 10.883969250000002 0.75548631800528565 -0.37940952255126065 -0.37940952255126065 0.25881904510252091 5.7668503250000009 5.0271385000000004 0.2093127076542077 3.1013047400000002 -0.413274780713969 -0.030120025924939096 -0.63209755774300591 0.84753307444029569 0.96683886033945965 0.92913280730858816 0.98930504265984687 0.10738035228456499 7.1826925500000014 0.25881904510252091 4.3393205000000004 0.82876241254485883 6.616478250000001 0.81900730237416519 0.95236875646279973
decision_type=2 2 2 2 2 2 2 2 2 2 2 2 2 2 2 2 2 2 2 2 2 2 2 2 2 2 2 2 2 2
left_child=2 4 10 6 9 11 21 -8 13 -2 14 -4 -7 15 -1 -6 27 -12 28 20 23 -3 -19 -20 -18 26 -26 -14 -11 -22
right_child=1 3 5 -5 8 12 7 -9 -10 18 17 -13 16 -15 -16 -17 24 22 19 -21 29 -23 -24 -25 25 -27 -28 -29 -30 -31
leaf_value=-0.061085531684723249 0.058594286114569599 0.11397909789352188 -0.0033199040636729955 0.30449373323049511 0.10814342800552401 -0.040416947500921209 0.15460842896138913 0.24059110037597692 0.060175555194566549 0.029492208095012851 -0.086074229531773613 0.032702960994044718 -0.009784098639793749 0.12741409916674232 -0.041773967752140373 0.042234688230814131 -0.0064810224240912182 -0.046378713445789532 -0.029471242881372452 0.04092033831842451 -0.20837340112085695 0.19673669022786155 -0.070269557554722736 0.085826416814005851 -0.011173882346197185 -0.038620958004772721 0.16203849334269763 0.030324871000114152 0.098053331471675512 -0.060059030820960049
leaf_weight=2808 1649 1892 2640 239 303 2378 711 213 1672 2180 1241 1029 1679 501 4279 253 922 1264 123 180 27 77 2547 51 134 1809 28 330 98 73
leaf_count=2808 1649 1892 2640 239 303 2378 711 213 1672 2180 1241 1029 1679 501 4279 253 922 1264 123 180 27 77 2547 51 134 1809 28 330 98 73
internal_value=-0.000115998 0.0821398 -0.0366053 0.148386 0.0529582 -0.0137406 0.135489 0.174429 0.0761821 0.0384916 -0.0572285 0.00678299 -0.0240842 0.101502 -0.0494256 0.0781526 -0.016161 -0.0681745 0.0263579 -0.0041686 -0.0337891 0.117215 -0.0623456 0.0043229 -0.0251645 -0.0339044 0.0187641 -0.00319577 0.0324417 -0.100104
internal_weight=33330 10242 23088 3132 7110 10949 2893 924 2729 4381 12139 3669 7280 1057 7087 556 4902 5052 2732 454 274 1969 3811 174 2893 1971 162 2009 2278 100
internal_count=33330 10242 23088 3132 7110 10949 2893 924 2729 4381 12139 3669 7280 1057 7087 556 4902 5052 2732 454 274 1969 3811 174 2893 1971 162 2009 2278 100
is_linear=0
shrinkage=0.05


Tree=8
num_leaves=31
num_cat=0
split_feature=0 0 0 0 0 1 0 0 1 1 2 1 2 2 3 2 2 2 1 2 3 2 0 2 2 3 2 2 2 2
split_gain=36140.2 6709.13 4323.12 2047.89 1083.2 802.699 756.656 555.141 396.376 365.704 344.331 339.229 295.583 709.029 264.901 248.309 236.29 224.852 215.377 214.478 196.069 189.172 181.61 177.847 230.148 174.005 165.98 166.808 161.005 414.055
threshold=6.5494011250000002 9.4335167500000008 4.944033300000001 13.542323250000001 7.9762280000000016 -1.0000000180025095e-35 4.2101276000000007 11.359224000000003 0.25881904510252091 -0.37940952255126065 0.61188073503922691 1.0000000180025095e-35 -0.10738035228456493 -0.081675638985454949 5.9321476000000013 0.29259762607704992 -0.16705007855999712 -0.61866567420209784 -0.70710678118654735 0.48250327361223927 7.7058044000000008 0.10738035228456499 3.1013047400000002 -0.2008886948310977 0.0043034984443446715 8.9640090000000026 -0.26781182513105617 -0.21772121422198129 -0.3171883513140959 0.047320950113892181
decision_type=2 2 2 2 2 2 2 2 2 2 2 2 2 2 2 2 2 2 2 2 2 2 2 2 2 2 2 2 2 2
left_child=2 4 6 7 9 14 8 -3 22 -2 12 15 -9 -14 -4 23 20 -10 -8 -17 -7 -19 28 25 -25 -6 -11 -28 -1 -30
right_child=1 3 5 -5 11 16 18 10 17 26 -12 -13 13 -15 -16 19 -18 21 -20 -21 -22 -23 -24 24 -26 -27 27 -29 29 -31
leaf_value=-0.076625200141797578 0.058685027994823724 0.12040583908772642 0.0025669449135238775 0.28926905746489889 0.077699221353168979 -0.0062950213612483364 -0.011622526088806725 0.1882156186812633 -0.087911033706779509 0.047324247086123594 0.22350919596080124 0.062297931046140433 -0.012841947697385959 0.17681222325404183 0.030816984814165921 0.21140016678903925 -0.025989199366875666 -0.044893978412243872 -0.037951805381255949 0.11228815494782628 0.082205533966995203 -0.069988447420942831 -0.041035154315055888 -0.025275229073968938 0.080076476310690259 0.13696801790665311 -0.10038782139973981 0.02258670332271652 -0.0094934505098164639 -0.063094454607433556
leaf_weight=823 1713 1687 2086 239 449 1683 1004 222 1072 859 232 1314 79 131 1378 61 3103 1126 3431 519 65 2255 3570 81 144 171 28 1820 473 1512
leaf_count=823 1713 1687 2086 239 449 1683 1004 222 1072 859 232 1314 79 131 1378 61 3103 1126 3431 519 65 2255 3570 81 144 171 28 1820 473 1512
internal_value=-0.000110198 0.0808643 -0.0335872 0.149825 0.0559157 -0.0045791 -0.0493871 0.135649 -0.0565102 0.0406054 0.174376 0.0806224 0.14799 0.105466 0.013805 0.0975194 -0.0177068 -0.0679576 -0.0319914 0.122712 -0.0030041 -0.061631 -0.0485179 0.0802275 0.0421499 0.0940459 0.0291646 0.0207235 -0.0580313 -0.050322
internal_weight=33330 9749 23581 2590 7159 8315 15266 2351 10831 4420 664 2739 432 210 3464 1425 4851 4453 4435 580 1748 3381 6378 845 225 620 2707 1848 2808 1985
internal_count=33330 9749 23581 2590 7159 8315 15266 2351 10831 4420 664 2739 432 210 3464 1425 4851 4453 4435 580 1748 3381 6378 845 225 620 2707 1848 2808 1985
is_linear=0
shrinkage=0.05


Tree=9
num_leaves=31
num_cat=0
split_feature=0 0 0 0 0 1 0 2 1 1 0 1 0 2 2 0 3 2 2 2 2 2 2 2 2 2 3 2 3 2
split_gain=32640 6461.01 3551.48 2051.4 778.198 741.322 678.965 411.26 372.143 359.898 352.223 348.114 307.852 215.935 210.891 193.678 190.961 183.564 178.622 219.822 251.031 181.331 178.44 175.493 389.069 164.592 163.792 162.681 162.104 160.979
threshold=6.4280408500000012 9.0907840000000011 4.3825059500000014 13.542323250000001 7.7634296750000003 -0.37940952255126065 10.883969250000002 0.75548631800528565 -0.37940952255126065 1.0000000180025095e-35 5.7668503250000009 -0.37940952255126065 5.0271385000000004 0.2093127076542077 -0.26781182513105617 3.1013047400000002 7.6109617500000004 0.98930504265984687 0.84753307444029569 0.96683886033945965 0.92913280730858816 0.88606241628642846 -0.70862011619447618 -0.47494667389482609 -0.064507852084056697 -0.030120025924939096 7.4004326000000011 -0.98801351631316325 6.8655060000000008 -0.3171883513140959
decision_type=2 2 2 2 2 2 2 2 2 2 2 2 2 2 2 2 2 2 2 2 2 2 2 2 2 2 2 2 2 2
left_child=2 4 9 6 11 10 17 -8 13 15 28 -2 -7 14 -6 29 25 -3 -13 20 21 26 -18 -11 -25 -14 -20 -10 -4 -1
right_child=1 3 5 -5 8 12 7 -9 27 23 -12 18 16 -15 -16 -17 22 -19 19 -21 -22 -23 -24 24 -26 -27 -28 -29 -30 -31
leaf_value=-0.074385919097795558 0.052913451700421055 0.1027155279025857 -0.0070240945526662104 0.27480560911811547 0.092213099599679466 -0.036124315160750924 0.13949041555526911 0.21869302819058861 -0.024712750705934705 -0.07394698240912996 0.03016389296349388 0.029529449379622909 -0.0054469507030854812 0.11581589947686997 0.026771124004659693 -0.036032653866670837 0.1281591904256493 0.18147106803469845 0.032321032779156302 0.038109305848225229 -0.096145176630729121 0.10498545631766319 0.0094689534413383205 -0.020589152740103065 -0.062067434656956279 -0.024455649350744877 -0.076234138863427309 0.057191783338208527 0.047662122065683349 -0.046144161988190276
leaf_weight=709 1649 1892 2588 239 372 2542 711 213 63 1792 1029 2278 1928 501 184 3552 40 77 69 180 100 35 152 678 3403 2782 70 1609 143 1750
leaf_count=709 1649 1892 2588 239 372 2542 711 213 63 1792 1029 2278 1928 501 184 3552 40 77 69 180 100 35 152 678 3403 2782 70 1609 143 1750
internal_value=-0.000104688 0.074185 -0.0330601 0.134019 0.0478275 -0.0128636 0.122389 0.157748 0.0687862 -0.052101 0.00523297 0.0347719 -0.0220043 0.0920084 0.070556 -0.0435002 -0.0146821 0.105795 0.0238219 -0.00481628 -0.0330156 0.00326582 0.0341961 -0.0609038 -0.0551764 -0.0166746 -0.022347 0.0541057 -0.00416063 -0.0542871
internal_weight=33330 10242 23088 3132 7110 11204 2893 924 2729 11884 3760 4381 7444 1057 556 6011 4902 1969 2732 454 274 174 192 5873 4081 4710 139 1672 2731 2459
internal_count=33330 10242 23088 3132 7110 11204 2893 924 2729 11884 3760 4381 7444 1057 556 6011 4902 1969 2732 454 274 174 192 5873 4081 4710 139 1672 2731 2459
is_linear=0
shrinkage=0.05


Tree=10
num_leaves=31
num_cat=0
split_feature=0 0 0 3 0 0 1 2 1 1 1 0 2 2 2 3 2 3 4 1 2 2 2 2 1 3 4 4 2 3
split_gain=29533.6 5667.58 3690.27 1495.28 1224.82 844.498 540.97 499.582 432.825 385.34 344.719 273.414 249.661 312.101 1373.83 332.785 248.987 191.673 187.97 173.702 201.796 164.342 161.649 164.542 159.721 150.406 149.829 146.767 145.934 144.876
threshold=6.5828726500000014 9.9274498500000021 4.2986563250000005 13.487194500000001 8.2587936000000024 5.7668503250000009 0.25881904510252091 0.59817537509284302 0.12940952255126045 -0.5 0.25881904510252091 11.638685250000002 0.98801351631316348 0.93535928755917841 0.95747632178960107 9.794592500000002 0.29259762607704992 7.4398890000000009 7.0529203500000017 -1.0000000180025095e-35 -0.38168568572378597 -0.081675638985454949 -0.61866567420209784 0.10738035228456499 0.91597561503675362 7.2024768500000009 6.3533494500000005 3.8398189000000005 0.96683886033945965 6.7851498500000007
decision_type=2 2 2 2 2 2 2 2 2 2 2 2 2 2 2 2 2 2 2 2 2 2 2 2 2 2 2 2 2 2
left_child=2 4 10 7 8 9 -7 19 17 29 27 -9 13 15 -15 -6 -17 -2 -10 -3 -21 -22 -12 -24 -20 26 -11 -1 -16 -4
right_child=1 3 5 -5 12 6 -8 11 18 25 22 -13 -14 14 28 16 -18 -19 24 20 21 -23 23 -25 -26 -27 -28 -29 -30 -31
leaf_value=-0.047456229121832727 0.041884195579422814 0.12943083716087214 -0.0062334733923462022 0.26199914510686728 0.073938811814042757 0.026247599265769569 -0.012005514446310841 0.14181156411532175 0.0069531584944097849 -0.030265055847779943 -0.076818920015638448 0.21122723039099364 0.14765842640979424 -0.24417859349399806 -0.020402047436298996 0.091973442714531117 0.16703751664194796 0.068748150157289689 0.026609105033237698 0.11402908267670087 -0.0023679640101290297 0.098995699213087762 -0.040176055309528995 -0.062900891901903261 0.067209101785241282 0.025057648890149248 -0.0042554366867989307 -0.030630908305694444 0.10283149498647877 0.046930345245119603
leaf_weight=4804 1537 655 2524 258 1951 2050 1683 349 949 5321 1160 239 135 40 29 286 180 1169 1060 290 87 74 1193 2397 314 139 618 1775 140 135
leaf_count=4804 1537 655 2524 258 1951 2050 1683 349 949 5321 1160 239 135 40 29 286 180 1169 1060 290 87 74 1193 2397 314 139 618 1775 140 135
internal_value=0.000347 0.0736794 -0.0296712 0.149865 0.0545889 -0.0109048 0.00900142 0.132787 0.0398987 -0.01941 -0.0503277 0.170026 0.0813464 0.0779373 0.0193187 0.0830061 0.120968 0.0534895 0.0240671 0.112989 0.0891089 0.0442215 -0.0605923 -0.0553492 0.0358874 -0.0263552 -0.0275585 -0.0429168 0.0816849 -0.00353429
internal_weight=33541 9742 23799 1952 7790 12470 3733 1694 5029 8737 11329 588 2761 2626 209 2417 466 2706 2323 1106 451 161 4750 3590 1374 6078 5939 6579 169 2659
internal_count=33541 9742 23799 1952 7790 12470 3733 1694 5029 8737 11329 588 2761 2626 209 2417 466 2706 2323 1106 451 161 4750 3590 1374 6078 5939 6579 169 2659
is_linear=0
shrinkage=0.05


Tree=11
num_leaves=31
num_cat=0
split_feature=0 0 0 3 0 0 1 2 1 0 1 0 2 2 2 3 2 4 3 3 4 2 2 2 1 2 1 2 1 2
split_gain=26654.1 5114.99 3334.45 1349.49 1105.4 645.453 629.369 450.872 390.624 349.826 338.119 252.368 225.319 281.671 1239.88 300.339 224.711 187.756 186.261 172.985 169.643 166.754 163.372 161.8 156.766 182.121 149.602 148.319 144.148 143.866
threshold=6.5828726500000014 9.9274498500000021 4.9659193250000007 13.487194500000001 8.2587936000000024 4.1701743500000008 0.25881904510252091 0.59817537509284302 0.12940952255126045 5.7668503250000009 0.25881904510252091 10.688493000000003 0.98801351631316348 0.93535928755917841 0.95747632178960107 9.794592500000002 0.29259762607704992 5.8717973500000005 6.6455941500000018 7.4398890000000009 7.0529203500000017 -0.61866567420209784 -0.16705007855999712 0.10738035228456499 -1.0000000180025095e-35 -0.38168568572378597 -0.70710678118654735 -0.081675638985454949 0.91597561503675362 0.86529924138975423
decision_type=2 2 2 2 2 2 2 2 2 2 2 2 2 2 2 2 2 2 2 2 2 2 2 2 2 2 2 2 2 2
left_child=2 4 5 7 8 10 9 24 19 -4 -1 -9 13 15 -15 -6 -17 18 26 -2 29 -12 -8 -23 -3 -26 -7 -27 -22 -10
right_child=1 3 6 -5 12 17 22 11 20 -11 21 -13 -14 14 -16 16 -18 -19 -20 -21 28 23 -24 -25 25 27 -28 -29 -30 -31
leaf_value=-0.041376417922043544 0.039789985548802573 0.12295929608687062 -0.0026358716464629987 0.24889918868105082 0.070241871588417812 -0.014535472518804987 -0.0038111149608723305 0.11915976476453415 0.015073923728624851 0.024935219674234184 -0.07700037503257301 0.1868522251530996 0.14027550421379231 -0.23196965661365543 0.077600666197270338 0.087374770311944822 0.15868564108904037 0.00031862288378630522 0.030933693560461203 0.065310742913397196 0.025278650128978904 -0.038658706420335302 -0.025940126401289249 -0.0619697390645641 0.1083276307643873 -0.0022495653437471937 -0.037189647667605144 0.094045913547617266 0.063848646110180277 -0.038148152082541728
leaf_weight=6147 1537 655 2622 258 1951 933 1282 220 798 2050 1044 368 135 40 169 286 180 557 120 1169 1060 1124 2387 2204 290 87 3329 74 314 151
leaf_count=6147 1537 655 2622 258 1951 933 1282 220 798 2050 1044 368 135 40 169 286 180 557 120 1169 1060 1124 2387 2204 290 87 3329 74 314 151
internal_value=0.000329651 0.0699954 -0.0281877 0.142372 0.0518595 -0.0419355 -0.00270939 0.126147 0.0379037 0.00946189 -0.0489365 0.161525 0.077279 0.0740404 0.0183528 0.0788558 0.11492 -0.027025 -0.0305007 0.050815 0.0228637 -0.0595659 -0.0182079 -0.0540967 0.107339 0.0846534 -0.0322304 0.0420105 0.034093 0.0066055
internal_weight=33541 9742 23799 1952 7790 15458 8341 1694 5029 4672 10519 588 2761 2626 209 2417 466 4939 4382 2706 2323 4372 3669 3328 1106 451 4262 161 1374 949
internal_count=33541 9742 23799 1952 7790 15458 8341 1694 5029 4672 10519 588 2761 2626 209 2417 466 4939 4382 2706 2323 4372 3669 3328 1106 451 4262 161 1374 949
is_linear=0
shrinkage=0.05


Tree=12
num_leaves=31
num_cat=0
split_feature=0 0 0 0 2 2 1 1 0 0 1 3 0 0 0 2 2 3 2 4 2 2 0 2 2 2 2 2 2 2
split_gain=24083.2 5181.98 2462.04 1857.67 588.059 791.972 564.156 549.514 296.33 296.262 282.949 281.052 234.417 226.756 221.642 201.451 200.604 187.7 168.848 167.701 159.878 179.137 155.968 140.031 136.657 443.729 177.384 135.052 213.239 132.759
threshold=6.3355625750000009 8.8034145000000006 4.2986563250000005 11.638685250000002 -0.081675638985454949 -0.10738035228456493 -0.37940952255126065 -0.37940952255126065 7.232984000000001 15.074854250000003 0.60355339059327384 6.1954178000000004 2.8801143500000004 5.5417018000000011 7.8136880000000017 0.49750868180287655 0.055916472294523401 10.169172500000002 -0.98801351631316325 6.146936300000001 0.27609441636666071 -0.413274780713969 5.049102275000001 0.98801351631316348 -0.3171883513140959 0.047320950113892181 0.03872192231363817 0.90880922144842624 0.96683886033945965 -0.7775899462189082
decision_type=2 2 2 2 2 2 2 2 2 2 2 2 2 2 2 2 2 2 2 2 2 2 2 2 2 2 2 2 2 2
left_child=2 6 10 17 5 -5 14 11 16 -6 12 22 24 19 -2 -15 -8 23 -10 -9 21 29 -4 -3 -1 26 -26 -22 -29 -16
right_child=1 3 7 4 9 -7 8 13 18 -11 -12 -13 -14 15 20 -17 -18 -19 -20 -21 27 -23 -24 -25 25 -27 -28 28 -30 -31
leaf_value=-0.069146864464035243 0.045630558024309473 0.079098232121406584 -0.015348686649677519 0.16737938006080039 0.19275528070479631 -0.024740704116613971 0.028343122287749507 -0.029789296220957398 -0.031022951565682889 0.2896140494346619 -0.057646922099312992 0.030679092407467641 -0.034159587698522322 0.0028867229543823626 0.066510943717531565 -0.025889391070761172 -0.0020488818244296277 0.10874961841544091 0.041200658058704459 -0.00020483754021575194 0.12196097046091975 0.025642834106661586 0.0070246608382952234 0.14553307016641012 -0.0080428414861671623 -0.058253497881756912 0.14431832175701859 -0.034497969504445794 0.12776663834001961 0.15077246597577487
leaf_weight=830 1881 1788 1497 241 375 69 1061 4436 84 100 3343 734 5263 1567 190 994 1112 1015 2210 537 249 222 1624 83 426 1447 20 40 41 62
leaf_count=830 1881 1788 1497 241 375 69 1061 4436 84 100 3343 734 5263 1567 190 994 1112 1015 2210 537 249 222 1624 83 426 1447 20 40 41 62
internal_value=0.000313168 0.0616964 -0.0289302 0.109987 0.178186 0.124617 0.0369095 -0.0125135 0.0260222 0.213147 -0.0454339 0.00284034 -0.0403214 -0.0203698 0.0550226 -0.00828214 0.0127905 0.0914372 0.038556 -0.0265947 0.0769956 0.0583917 -0.0037068 0.0820454 -0.0522308 -0.0448139 -0.0012105 0.103718 0.047636 0.087242
internal_weight=33541 10823 22718 3671 785 310 7152 11389 4467 475 11329 3855 7986 7534 2685 2561 2173 2886 2294 4973 804 474 3121 1871 2723 1893 446 330 81 252
internal_count=33541 10823 22718 3671 785 310 7152 11389 4467 475 11329 3855 7986 7534 2685 2561 2173 2886 2294 4973 804 474 3121 1871 2723 1893 446 330 81 252
is_linear=0
shrinkage=0.05


Tree=13
num_leaves=31
num_cat=0
split_feature=0 0 0 3 0 1 2 2 0 1 3 1 1 2 2 2 2 2 0 2 4 2 2 2 2 2 3 3 2 0
split_gain=21735.1 4693.35 2222 1261.05 943.984 498.451 355.235 478.824 372.15 342.658 330.533 266.337 257.769 193.552 238.107 179.971 208.761 192.614 172.179 168.704 167.932 163.589 356.93 294.08 156.103 210.945 160.683 155.066 148.051 140.592
threshold=6.3355625750000009 9.6276505000000014 4.2986563250000005 13.487194500000001 7.9762280000000016 -1.0000000180025095e-35 0.14153898451656996 -0.20931270765420754 11.638685250000002 -0.70710678118654735 6.1954178000000004 1.0000000180025095e-35 0.25881904510252091 -0.081675638985454949 -0.05591647229452347 -0.26781182513105617 -0.86742422337961655 -0.21772121422198129 5.049102275000001 -0.81900730237416497 6.0508675000000007 0.29259762607704992 0.48250327361223927 0.43664718845046319 -0.2008886948310977 0.0043034984443446715 8.8893480000000018 10.992410000000001 0.67760851415498091 7.232984000000001
decision_type=2 2 2 2 2 2 2 2 2 2 2 2 2 2 2 2 2 2 2 2 2 2 2 2 2 2 2 2 2 2
left_child=2 4 12 6 9 10 7 19 -8 -2 18 21 -1 -9 -15 16 -11 -17 -4 27 28 24 23 -23 26 -26 -6 -3 -7 -19
right_child=1 3 5 -5 11 20 8 13 -10 15 -12 -13 -14 14 -16 17 -18 29 -20 -21 -22 22 -24 -25 25 -27 -28 -29 -30 -31
leaf_value=-0.036753663886499942 0.050765157860310176 0.060556522356547987 -0.017261383655512809 0.22548643028897836 0.058703170137745397 -0.019683018772981585 0.11120842281689353 -0.0201265083870194 0.1794557643530853 0.01465508132163809 0.026629302263764559 0.048038713019028276 -0.052038273391190694 0.18094572565134837 0.013759657668701389 -0.085166079609916789 0.053342925872337743 0.0070546439889375839 0.0038087935504055913 0.12509788479708445 -0.0051955263067770983 0.13205552978335686 0.083394618631224549 0.34301783442497258 -0.035703081828428483 0.06324263714494148 0.10973326575486585 0.13118940002664373 -0.038446700171758108 0.030924094829812877
leaf_weight=6579 1344 277 1847 258 449 3729 752 122 272 628 955 1434 4750 34 57 48 784 1665 2041 466 1353 53 594 24 82 157 235 108 1464 980
leaf_count=6579 1344 277 1847 258 449 3729 752 122 272 628 955 1434 4750 34 57 48 784 1665 2041 466 1353 53 594 24 82 157 235 108 1464 980
internal_value=0.00029751 0.0586116 -0.0274837 0.1212 0.0412903 -0.0118878 0.108314 0.088082 0.129337 0.0288523 0.000273169 0.063673 -0.0431622 0.0210377 0.0762248 0.0216779 0.0361362 0.0140971 -0.00620062 0.104863 -0.020885 0.0777379 0.0965243 0.19781 0.0640807 0.0292947 0.0762354 0.0803704 -0.0249728 0.0158985
internal_weight=33541 10823 22718 2346 8477 11389 2088 1064 1024 5449 4843 3028 11329 213 91 4105 1412 2693 3888 851 6546 1594 671 77 923 239 684 385 5193 2645
internal_count=33541 10823 22718 2346 8477 11389 2088 1064 1024 5449 4843 3028 11329 213 91 4105 1412 2693 3888 851 6546 1594 671 77 923 239 684 385 5193 2645
is_linear=0
shrinkage=0.05


Tree=14
num_leaves=31
num_cat=0
split_feature=0 0 0 3 0 0 1 2 1 1 3 4 1 4 2 2 2 2 2 2 3 2 3 0 2 2 2 2 3 4
split_gain=19644.2 3794.42 2471.61 1001.82 812.145 533.613 499.481 350.713 310.015 257.68 236.896 194.04 193.975 193.174 169.923 771.132 228.247 165.624 362.795 301.373 157.158 156.86 200.426 153.955 150.1 149.422 146.578 232.09 145.759 140.262
threshold=6.5828726500000014 9.9274498500000021 5.049102275000001 13.487194500000001 8.2587936000000024 4.1701743500000008 0.25881904510252091 0.59817537509284302 0.12940952255126045 0.25881904510252091 6.7851498500000007 5.8717973500000005 -0.70710678118654735 13.509008500000002 0.96683886033945965 0.94697898371965716 0.95747632178960107 0.29259762607704992 0.50495637864894027 0.42109697129093554 6.6791780000000012 0.75548631800528565 8.3008115000000018 5.7668503250000009 0.83827194252655779 -0.61866567420209784 -0.064507852084056697 -0.15855791680139872 7.4398890000000009 7.0529203500000017
decision_type=2 2 2 2 2 2 2 2 2 2 2 2 2 2 2 2 2 2 2 2 2 2 2 2 2 2 2 2 2 2
left_child=2 4 5 7 8 9 10 -3 28 -1 23 20 17 -9 15 21 -17 -6 19 -19 -7 22 -14 -4 -23 -11 27 -27 -2 -10
right_child=1 3 6 -5 12 11 -8 13 29 25 -12 -13 14 -15 -16 16 -18 18 -20 -21 -22 24 -24 -25 -26 26 -28 -29 -30 -31
leaf_value=-0.035450468023640998 0.033889422217550917 0.091859948809955877 -0.0036075865748552457 0.21421211222114489 0.067225231282774564 -0.027806091824846765 -0.015433430967925314 0.12722777171305033 0.0043255093165828372 -0.06783314757654578 0.036342630937029531 0.0030316277715193279 0.02643278516434704 0.20576751188885783 0.1028333554879676 -0.22922649213245938 -0.029087561523092206 0.12455772594972091 0.094635193274226245 0.39273411154747012 0.025405299942899768 0.15845914764536753 0.065560884048316281 0.017244704836807418 0.069621425903751519 -0.040589404768037594 -0.052065036793009722 0.027867581133792625 0.0573159188722277 0.02931960232798525
leaf_weight=6147 1537 1106 2170 258 407 4681 3433 495 949 1044 716 642 465 93 194 28 29 22 279 20 143 72 1105 1495 140 649 2526 153 1169 1374
leaf_count=6147 1537 1106 2170 258 407 4681 3433 495 949 1044 716 642 465 93 194 28 29 22 279 20 143 72 1105 1495 140 649 2526 153 1169 1374
internal_value=0.000282634 0.06009 -0.0241992 0.122427 0.0444697 -0.035465 -0.00115297 0.108448 0.0325075 -0.0420503 0.0100374 -0.022792 0.0662581 0.13965 0.0583275 0.0536325 -0.127401 0.088405 0.115259 0.252261 -0.0262287 0.0594232 0.053972 0.00489833 0.0997927 -0.0513296 -0.0461524 -0.0275297 0.0440097 0.0191089
internal_weight=33541 9742 23799 1952 7790 15985 7814 1694 5029 10519 4381 5466 2761 588 2033 1839 57 728 321 42 4824 1782 1570 3665 212 4372 3328 802 2706 2323
internal_count=33541 9742 23799 1952 7790 15985 7814 1694 5029 10519 4381 5466 2761 588 2033 1839 57 728 321 42 4824 1782 1570 3665 212 4372 3328 802 2706 2323
is_linear=0
shrinkage=0.05


Tree=15
num_leaves=31
num_cat=0
split_feature=0 0 0 0 2 1 0 1 0 2 1 1 2 2 4 2 2 2 4 2 2 2 2 2 4 2 0 2 2 4
split_gain=17877.5 3580.53 2119.94 1263.14 706.307 457.591 430.702 287.854 265.71 249.98 270.49 238.999 230.455 403.783 199.234 197.851 187.984 1099.67 211.506 188.184 325.983 179.301 177.894 299.343 174.907 218.013 172.284 168.098 463.988 152.435
threshold=6.5494011250000002 10.688493000000003 4.9852508250000005 8.4586504250000019 0.59817537509284302 0.12940952255126045 3.4697159750000002 -0.78656609248549292 15.074854250000003 0.97873101657557349 -1.0000000180025095e-35 -0.70710678118654735 -0.413274780713969 -0.081675638985454949 4.1954155000000002 0.030120025924939415 0.92263100495486416 0.95747632178960107 6.672997650000001 0.6254047815183511 0.055916472294523401 0.098819223632317002 -0.9523687564627995 -0.50495637864893983 6.5629120000000016 0.74409704927257569 5.7668503250000009 -0.3171883513140959 0.047320950113892181 2.5723609000000005
decision_type=2 2 2 2 2 2 2 2 2 2 2 2 2 2 2 2 2 2 2 2 2 2 2 2 2 2 2 2 2 2
left_child=2 3 6 7 12 26 27 14 -6 10 -5 -8 -3 -14 -2 -7 19 18 -18 20 -9 -22 -12 -24 -17 -26 29 -1 -29 -4
right_child=1 4 5 9 8 15 11 16 -10 -11 22 -13 13 -15 -16 24 17 -19 -20 -21 21 -23 23 -25 25 -27 -28 28 -30 -31
leaf_value=-0.056403618180099285 0.20087345100261947 0.12563179962504348 0.10779197895608378 0.08147226376211246 0.16013454121498114 -0.0027621438469829182 -0.012556778632826058 0.033554480529231517 0.25079474899233606 0.12927195261129074 0.0053401593497411455 -0.032003694780021887 0.00071912698913365611 0.11597775892518901 0.049032540654433854 -0.031337513264602539 -0.069613975746443083 0.038429413860137256 -0.21070872419032047 0.04830171638853191 -0.062116122014467028 0.0060358735708090604 0.10306869824605379 0.043393686025957258 -0.026239991294707929 0.05253107342872898 0.020131651931156725 -0.0067859881854050105 -0.047101591383493818 -0.0021196871126244218
leaf_weight=2037 22 423 32 1513 461 1788 2035 2007 98 171 187 7065 128 187 1199 1851 49 329 58 867 108 907 278 861 210 151 1818 891 3586 2221
leaf_count=2037 22 423 32 1513 461 1788 2035 2007 98 171 187 7065 128 187 1199 1851 49 329 58 867 108 907 278 861 210 151 1818 891 3586 2221
internal_value=-0.000380799 0.0562181 -0.023926 0.0444828 0.133633 -0.00312003 -0.0346808 0.0303296 0.176028 0.0705604 0.067024 -0.0276549 0.101521 0.0691425 0.0517684 -0.0151307 0.0242771 -0.00685531 -0.146095 0.0277674 0.0218762 -0.00121577 0.0505382 0.0579588 -0.0251284 0.00670857 0.00868113 -0.044496 -0.0390781 -0.00055858
internal_weight=33538 9853 23685 8556 1297 8071 15614 5546 559 3010 2839 9100 738 315 1221 4000 4325 436 107 3889 3022 1015 1326 1139 2212 361 4071 6514 4477 2253
internal_count=33538 9853 23685 8556 1297 8071 15614 5546 559 3010 2839 9100 738 315 1221 4000 4325 436 107 3889 3022 1015 1326 1139 2212 361 4071 6514 4477 2253
is_linear=0
shrinkage=0.05


Tree=16
num_leaves=31
num_cat=0
split_feature=0 0 0 0 2 1 0 0 1 2 1 1 1 4 2 2 2 2 2 4 2 2 2 4 2 3 1 2 2 0
split_gain=16134.5 3232.84 1913.24 993.343 709.369 412.976 388.709 289.11 259.788 227.381 233.893 215.697 189.593 179.809 178.56 175.839 268.049 169.655 992.451 190.884 169.836 294.199 161.819 157.854 196.757 156.316 154.503 150.987 171.324 138.277
threshold=6.5494011250000002 10.347925125000002 4.9852508250000005 8.4586504250000019 0.59817537509284302 0.12940952255126045 3.4697159750000002 13.542323250000001 -0.78656609248549292 0.98801351631316348 -1.0000000180025095e-35 -0.70710678118654735 -0.60355339059327362 4.1954155000000002 0.030120025924939415 -0.9523687564627995 -0.49002412863433376 0.92263100495486416 0.95747632178960107 6.672997650000001 0.6254047815183511 0.055916472294523401 0.098819223632317002 6.5629120000000016 0.74409704927257569 5.7167873500000006 -0.37940952255126065 -0.39753913293122006 -0.081675638985454949 7.3705255750000012
decision_type=2 2 2 2 2 2 2 2 2 2 2 2 2 2 2 2 2 2 2 2 2 2 2 2 2 2 2 2 2 2
left_child=2 3 6 8 12 25 26 -6 13 10 -5 -8 -3 -2 -7 -12 -17 20 19 -19 21 -10 -23 -16 -25 -4 -1 -14 -29 -22
right_child=1 4 5 9 7 14 11 -9 17 -11 15 -13 27 -15 23 16 -18 18 -20 -21 29 22 -24 24 -26 -27 -28 28 -30 -31
leaf_value=-0.033279230699206894 0.19082978327165745 0.11777353114518688 -0.0016303003228737155 0.07665083175425555 0.13776152953783843 -0.0026240362262017862 -0.011928940001750453 0.21102879567024035 0.031876756384187785 0.12812045685730983 -0.0024370166071860482 -0.030403510461408673 0.092635779210097829 0.046580912415704716 -0.029770637818157031 0.098053685241732108 0.039993137453751958 -0.066133277863264089 0.03650794321504644 -0.20017328498852921 0.027957061290605153 -0.059010315924900136 0.0057340796749377598 -0.02492799152376219 0.04990452017499418 0.017965592662054393 -0.048865592100796086 -0.0075870878556195433 0.085727786737935324 0.06812485540303756
leaf_weight=2756 22 398 2019 1357 435 1788 2035 195 2007 138 159 7065 333 1199 1851 261 834 49 329 58 480 108 907 210 151 2052 3758 102 95 387
leaf_count=2756 22 398 2019 1357 435 1788 2035 195 2007 138 159 7065 333 1199 1851 261 834 49 329 58 480 108 907 210 151 2052 3758 102 95 387
internal_value=-0.000361759 0.0534072 -0.0227297 0.0409948 0.119492 -0.00296403 -0.0329468 0.160439 0.0288131 0.065571 0.062265 -0.0262721 0.0916938 0.04918 -0.0143741 0.0466976 0.0538322 0.0230633 -0.00651254 -0.13879 0.026379 0.0207824 -0.00115498 -0.0238719 0.00637314 0.00824707 -0.0422712 0.0721094 0.0374125 0.0458866
internal_weight=33538 9853 23685 8295 1558 8071 15614 630 5546 2749 2611 9100 928 1221 4000 1254 1095 4325 436 107 3889 3022 1015 2212 361 4071 6514 530 197 867
internal_count=33538 9853 23685 8295 1558 8071 15614 630 5546 2749 2611 9100 928 1221 4000 1254 1095 4325 436 107 3889 3022 1015 2212 361 4071 6514 530 197 867
is_linear=0
shrinkage=0.05


Tree=17
num_leaves=31
num_cat=0
split_feature=0 0 0 0 2 1 0 0 2 3 3 1 2 1 2 2 2 2 2 2 2 2 2 2 2 2 0 2 2 2
split_gain=14598.1 2600.91 2215.5 774.836 573.612 408.938 364.623 223.967 216.973 233.224 215.874 215.551 207.222 221.089 204.8 318.352 234.973 197.139 340.322 188.616 220.219 160.408 830.544 350.097 248.02 156.413 152.488 138.953 138.777 729.457
threshold=6.8594916500000016 10.688493000000003 4.9852508250000005 8.4586504250000019 0.59817537509284302 -0.5 4.1701743500000008 15.074854250000003 0.030120025924939415 6.9458980500000012 6.0821333500000012 0.12940952255126045 0.97873101657557349 -0.9159756150367534 -0.47494667389482609 0.11593352601052392 0.22611359161738889 -0.413274780713969 -0.081675638985454949 -0.7775899462189082 -0.60505046667002438 0.90880922144842624 0.96683886033945965 0.94697898371965716 0.59125596962661842 0.18399664778440331 2.8103698750000006 -0.10738035228456493 0.93535928755917841 0.95747632178960107
decision_type=2 2 2 2 2 2 2 2 2 2 2 2 2 2 2 2 2 2 2 2 2 2 2 2 2 2 2 2 2 2
left_child=2 3 6 11 17 19 10 -6 9 -7 14 21 13 -5 -1 -16 -17 -3 27 -4 -21 24 23 -23 -2 -10 -18 -19 -15 -30
right_child=1 4 5 12 7 8 -8 -9 25 -11 -12 -13 -14 28 15 16 26 18 -20 20 -22 22 -24 -25 -26 -27 -28 -29 29 -31
leaf_value=-0.04794977051211731 0.036201887868930901 0.11421626011698438 -0.011793620609166285 0.092716027284747385 0.14446892078820447 -0.0031714815947222865 -0.020125923827552981 0.22770357473316244 -0.046184298416040839 0.036134894290186348 0.073996367085386414 0.018381747924565508 0.11702756690547655 0.057820820270175557 -0.016232772472648448 -0.070380775451112265 -0.04839964581092903 0.076422695964574822 0.1049670960320867 0.077035855426497407 0.017514580718991871 -0.017165380318959554 0.079484456199426942 -0.194419432273851 0.077495007088699053 -0.012025108919129172 -0.029481826946494441 -0.035969974642450157 -0.22743813914281352 0.053781327852224815
leaf_weight=3037 1643 423 507 445 461 2548 4975 98 375 443 44 1977 171 2209 2137 538 1570 40 187 168 2072 60 154 52 467 3151 3313 88 27 158
leaf_count=3037 1643 423 507 445 461 2548 4975 98 375 443 44 1977 171 2209 2137 538 1570 40 187 168 2072 60 154 52 467 3151 3313 88 27 158
internal_value=-0.000343671 0.0555674 -0.0198062 0.0440669 0.120855 -0.000435075 -0.0312994 0.159061 -0.00725539 0.00265023 -0.0365244 0.0305792 0.0635725 0.0603527 -0.0369833 -0.0325767 -0.0390197 0.0919158 0.0619695 0.0157455 0.0219787 0.0407284 0.00413862 -0.0994619 0.0453412 -0.015658 -0.0355644 -0.000847265 0.054337 0.0127385
internal_weight=33538 8660 24878 7363 1297 9264 15614 559 6517 2991 10639 4353 3010 2839 10595 7558 5421 738 315 2747 2240 2376 266 112 2110 3526 4883 128 2394 185
internal_count=33538 8660 24878 7363 1297 9264 15614 559 6517 2991 10639 4353 3010 2839 10595 7558 5421 738 315 2747 2240 2376 266 112 2110 3526 4883 128 2394 185
is_linear=0
shrinkage=0.05


Tree=18
num_leaves=31
num_cat=0
split_feature=0 3 0 3 0 1 2 2 4 2 0 0 1 2 2 2 1 4 1 1 2 2 2 2 2 2 2 2 3 2
split_gain=13181.8 2704.66 1566.99 681.991 668.004 430.029 269.483 280.846 534.228 407.962 212.25 205.697 204.048 217.849 374.633 533.305 194.341 190.17 186.279 180.912 166.489 260.142 157.703 149.057 148.177 144.934 861.402 168.369 130.441 128.046
threshold=6.5494011250000002 10.169172500000002 4.2101276000000007 13.487194500000001 8.4586504250000019 -0.5 0.59817537509284302 0.90880922144842624 8.3375910000000015 0.94697898371965716 5.7668503250000009 5.8431000500000012 0.37940952255126054 0.29259762607704992 0.49750868180287655 0.43664718845046319 -0.78656609248549292 2.4966441500000003 -1.0000000180025095e-35 1.0000000180025095e-35 0.92263100495486416 0.99551215362393841 -0.26781182513105617 0.97873101657557349 0.064507852084056461 0.92263100495486416 0.96683886033945965 0.89391031859722891 3.4029246500000006 -0.10738035228456493
decision_type=2 2 2 2 2 2 2 2 2 2 2 2 2 2 2 2 2 2 2 2 2 2 2 2 2 2 2 2 2 2
left_child=2 4 18 6 16 10 19 -8 9 -9 -4 17 13 22 15 -15 -2 -7 20 29 -1 23 -6 -22 -13 27 -27 -18 -25 -3
right_child=1 3 5 -5 12 11 7 8 -10 -11 -12 24 -14 14 -16 -17 25 -19 -20 -21 21 -23 -24 28 -26 26 -28 -29 -30 -31
leaf_value=-0.0308605381276265 0.043302905767896881 0.10927760468732162 -0.0020480388937801977 0.17789326427404636 0.064224098477456165 0.04565215350926987 0.14415895786586699 0.079988832416988564 0.1113423398311652 -0.22177736970285575 0.024099361891605296 0.011995428109884678 0.035670046265921553 0.11286620119655576 0.075435305947652048 0.41511316657066344 0.022212126691782574 -0.020045759805201437 -0.040576576122105502 0.048709349201145086 -0.0066516950373014389 -0.056004468659212929 0.020497633913590916 0.087027928106504213 -0.013929260665341506 -0.10100268589523741 0.045611123540022946 0.10400174412061461 -1.7557196810634601e-05 0.065654675223874151
leaf_weight=4449 1193 395 2720 252 726 112 364 21 183 24 1086 1068 783 54 611 20 3737 6663 5825 409 274 170 288 107 1139 156 280 64 72 293
leaf_count=4449 1193 395 2720 252 726 112 364 21 183 24 1086 1068 783 54 611 20 3737 6663 5825 409 274 170 288 107 1139 156 280 64 72 293
internal_value=-0.000326487 0.0482741 -0.0205444 0.101164 0.035299 -0.00867258 0.0897159 0.116903 0.0733893 -0.0809531 0.00541283 -0.0146411 0.0567879 0.0665203 0.0883037 0.194555 0.0254766 -0.0189597 -0.0344764 0.0750443 -0.0274706 -0.0032626 0.0518047 0.0165302 -0.00138392 0.0204573 -0.00684703 0.0235893 0.0520152 0.0906998
internal_weight=33538 9853 23685 1941 7912 12788 1689 592 228 45 3806 8982 2482 1699 685 74 5430 6775 10897 1097 5072 623 1014 453 2207 4237 436 3801 179 688
internal_count=33538 9853 23685 1941 7912 12788 1689 592 228 45 3806 8982 2482 1699 685 74 5430 6775 10897 1097 5072 623 1014 453 2207 4237 436 3801 179 688
is_linear=0
shrinkage=0.05


Tree=19
num_leaves=31
num_cat=0
split_feature=0 0 0 0 2 1 0 3 0 2 1 4 2 2 2 2 2 2 2 2 2 2 3 0 2 2 2 2 2 2
split_gain=11927.9 2138.07 1826.42 621.04 468.73 352.491 315.9 216.188 191.755 191.642 183.63 179.874 188.731 176.79 219.443 208.159 168 307.954 154.99 152.082 193.67 818.826 277.9 150.469 141.102 726.919 302.736 222.923 141.08 395.088
threshold=6.8594916500000016 10.688493000000003 5.0271385000000004 8.4586504250000019 0.59817537509284302 0.12940952255126045 3.4697159750000002 6.3389490000000004 15.074854250000003 -0.92913280730858783 0.12940952255126045 5.7938688000000012 0.50495637864894027 0.030120025924939415 1.0000000180025095e-35 0.0043034984443446715 -0.413274780713969 -0.081675638985454949 0.63209755774300602 0.97873101657557349 0.93535928755917841 0.95747632178960107 9.794592500000002 5.7668503250000009 0.90880922144842624 0.96683886033945965 0.94697898371965716 0.59125596962661842 -0.3171883513140959 0.047320950113892181
decision_type=2 2 2 2 2 2 2 2 2 2 2 2 2 2 2 2 2 2 2 2 2 2 2 2 2 2 2 2 2 2
left_child=2 3 6 10 16 23 28 11 -6 -5 24 -8 -13 14 -7 -16 -3 -18 -14 20 22 -22 -11 -4 27 26 -26 -2 -1 -30
right_child=1 4 5 9 8 13 7 -9 -10 19 -12 12 18 -15 15 -17 17 -19 -20 -21 21 -23 -24 -25 25 -27 -28 -29 29 -31
leaf_value=-0.047462264389579428 0.03275651159599989 0.10385002061918965 9.6637911506012179e-05 0.025848349867918882 0.13045855015384966 -0.001908638216855719 -0.025802011220066791 0.021706687536446709 0.2074753579284464 0.051759554274214296 0.016469088257829809 -0.017020505793536828 0.097624480282621731 -0.019011123790091029 0.19137353311324945 0.0077586935099327216 -0.0041360109811648732 0.096520671366967944 0.010340151388037911 0.10790275755986485 -0.21940361270681025 0.054095568484257145 0.090277199885813453 0.018318314036847329 -0.017617098540067672 0.073266398881610448 -0.18244605954969303 0.071904710822936133 -0.0017918842975517962 -0.038993922137787518
leaf_weight=2037 1643 423 2112 418 461 1948 8239 272 98 1524 1977 604 70 2427 29 33 128 187 186 171 32 189 676 2444 60 154 52 467 891 3586
leaf_count=2037 1643 423 2112 418 461 1948 8239 272 98 1524 1977 604 70 2427 29 33 128 187 186 171 32 189 676 2444 60 154 52 467 891 3586
internal_value=-0.000310163 0.0502295 -0.0179029 0.0398024 0.109424 0.000102513 -0.0280964 -0.0222177 0.143961 0.0572651 0.0277272 -0.0235307 -0.0017714 -0.00992836 0.00103873 0.0936431 0.0832636 0.0556189 0.034207 0.0623316 0.0591128 0.0144939 0.063595 0.00987139 0.0370948 0.00277746 -0.0941448 0.0414211 -0.0365535 -0.0315901
internal_weight=33538 8660 24878 7363 1297 8993 15885 9371 559 3010 4353 9099 860 4437 2010 62 738 315 256 2592 2421 221 2200 4556 2376 266 112 2110 6514 4477
internal_count=33538 8660 24878 7363 1297 8993 15885 9371 559 3010 4353 9099 860 4437 2010 62 738 315 256 2592 2421 221 2200 4556 2376 266 112 2110 6514 4477
is_linear=0
shrinkage=0.05


Tree=20
num_leaves=31
num_cat=0
split_feature=0 0 0 1 0 0 2 2 2 2 0 1 1 2 3 2 0 2 2 2 2 2 2 1 2 2 2 2 3 4
split_gain=10922.8 2056.5 1707.42 434.116 427.056 325.915 277.097 500.57 273.656 240.317 207.31 187.589 178.32 177.172 173.988 172.668 166.967 150.66 253.917 473.636 457.677 147.573 145.874 145.372 141.339 157.47 140.597 170.497 140.01 139.343
threshold=7.1954337250000009 5.0271385000000004 11.638685250000002 -0.37940952255126065 8.8034145000000006 3.4455587500000004 -0.081675638985454949 -0.10738035228456493 -0.7775899462189082 -0.26781182513105617 6.0360527500000005 1.0000000180025095e-35 0.78656609248549325 0.064507852084056461 3.6163259000000005 -0.98801351631316325 15.074854250000003 0.27609441636666071 0.90880922144842624 0.95747632178960107 0.94697898371965716 -0.92913280730858783 -0.23448921811828094 -0.60355339059327362 0.23448921811828119 0.37371625404731906 0.82876241254485883 0.7086201161944764 6.4808162000000005 5.8717973500000005
decision_type=2 2 2 2 2 2 2 2 2 2 2 2 2 2 2 2 2 2 2 2 2 2 2 2 2 2 2 2 2 2
left_child=1 5 4 8 11 -1 7 -4 -3 -10 -5 17 28 -12 -11 -13 -8 22 23 20 -20 -6 -2 26 -15 -26 27 -19 29 -7
right_child=2 3 6 10 21 12 16 -9 9 14 13 15 -14 24 -16 -17 -18 18 19 -21 -22 -23 -24 -25 25 -27 -28 -29 -30 -31
leaf_value=-0.035388552997360566 0.045893536147735101 -0.012558954000058097 0.11892296982232511 -0.012962146960100014 0.030942913586014167 -0.020117119212681733 0.12994556044293082 -0.030174022484315582 0.052905283565463673 -0.045548303977270194 0.017428244013377132 -0.050352976790496287 -0.03290967855291687 -0.047248435674828219 0.019180383327975368 0.026056696550746078 0.20183876857604133 0.11393566062617196 0.003435673392735995 0.064930701878001082 -0.27778618128403376 0.063998715848253146 0.0065513136241080435 0.047518070166238477 0.049412340509712049 -0.0072169916312171626 0.17906350220243139 0.034036300012307001 0.026075745502839216 0.0053712760454489514
leaf_weight=6302 734 658 246 3780 391 6430 403 73 550 109 1421 77 2278 192 2183 1858 101 197 39 141 23 2474 347 218 137 1181 48 101 185 585
leaf_count=6302 734 658 246 3780 391 6430 403 73 550 109 1421 77 2278 192 2183 1858 101 197 39 141 23 2474 347 218 137 1181 48 101 185 585
internal_value=5.31815e-05 -0.0152626 0.0533356 0.00222145 0.0449254 -0.0265763 0.121271 0.0848036 0.0164972 0.0232245 -0.00522379 0.033897 -0.0207169 0.00475608 0.0161021 0.0230161 0.144353 0.0452902 0.0622387 0.0142864 -0.100889 0.0594874 0.0332647 0.0794982 -0.00716919 -0.00133063 0.0996475 0.0868557 -0.0168593 -0.0179916
internal_weight=33462 25991 7471 10211 6648 15780 823 319 3500 2842 6711 3783 9478 2931 2292 1935 504 1848 767 203 62 2865 1081 564 1510 1318 346 298 7200 7015
internal_count=33462 25991 7471 10211 6648 15780 823 319 3500 2842 6711 3783 9478 2931 2292 1935 504 1848 767 203 62 2865 1081 564 1510 1318 346 298 7200 7015
is_linear=0
shrinkage=0.05


Tree=21
num_leaves=31
num_cat=0
split_feature=0 0 0 0 1 0 1 2 2 2 2 2 2 0 3 2 2 2 2 2 2 1 2 2 0 4 2 2 3 4
split_gain=9857.85 1855.99 1540.95 393.694 391.789 294.138 252.843 250.08 451.765 246.975 223.145 192.411 251.538 187.097 186.691 175.278 251.493 163.129 204.292 161.575 199.178 160.934 159.898 151.25 150.688 145.663 133.39 340.105 159.272 164.926
threshold=7.1954337250000009 5.0271385000000004 11.638685250000002 9.1699711250000018 -0.37940952255126065 3.4455587500000004 1.0000000180025095e-35 -0.081675638985454949 -0.10738035228456493 -0.7775899462189082 -0.60505046667002438 0.27609441636666071 0.7086201161944764 6.0360527500000005 7.4398890000000009 0.6254047815183511 0.55601228778889811 -0.9523687564627995 -0.49002412863433376 -0.23448921811828094 -0.24284747324344261 0.78656609248549325 0.064507852084056461 0.6583954877256819 15.074854250000003 6.3823387500000006 0.92913280730858816 0.96683886033945965 9.2896160000000005 8.0107480000000013
decision_type=2 2 2 2 2 2 2 2 2 2 2 2 2 2 2 2 2 2 2 2 2 2 2 2 2 2 2 2 2 2
left_child=1 5 3 6 9 -1 11 8 -4 -3 -11 19 15 -6 -12 16 -13 -8 -19 20 -2 -7 -15 -20 -9 -14 28 -28 29 -25
right_child=2 4 7 -5 13 21 17 24 -10 10 14 12 25 22 -16 -17 -18 18 23 -21 -22 -23 -24 26 -26 -27 27 -29 -30 -31
leaf_value=-0.033619125374139157 0.041503379106902452 -0.011931006449437842 0.11297682178596213 0.059898313912246481 -0.012314039497273154 -0.01601632277911914 -0.019802143500502887 0.12344828153283437 -0.028665321636689851 0.070550649992448644 0.013293710434307658 0.1020116582937186 -0.090303178504109391 0.016556831568196571 0.055703734189641911 0.1407180469248582 -0.01185829750919605 0.061582665974301204 0.0077855456719772998 0.0075347744811819321 0.18204660644898049 -0.031264194230777163 -0.0068107298513471973 0.0073306008326512783 0.1917468281665651 0.04710967784678495 -0.062831369783614102 0.054502153187332786 0.16492600513156505 0.078480756500277526
leaf_weight=6302 829 658 246 2214 3780 7200 209 403 73 219 2331 169 20 1421 292 135 68 346 1052 408 26 2278 1510 142 101 540 97 170 32 191
leaf_count=6302 829 658 246 2214 3780 7200 209 403 73 219 2331 169 20 1421 292 135 68 346 1052 408 26 2278 1510 142 101 540 97 170 32 191
internal_value=5.05225e-05 -0.0144995 0.0506688 0.0426791 0.00211038 -0.0252475 0.0340812 0.115208 0.0805634 0.0156723 0.0220632 0.04614 0.0633731 -0.0049626 0.0180149 0.0952434 0.0693401 0.0222593 0.0265897 0.0334234 0.0457772 -0.0196811 0.00451827 0.0194 0.137135 0.0422021 0.0387328 0.0118754 0.0583792 0.0481404
internal_weight=33462 25991 7471 6648 10211 15780 4434 823 319 3500 2842 2195 932 6711 2623 372 237 2239 2030 1263 855 9478 2931 1684 504 560 632 267 365 333
internal_count=33462 25991 7471 6648 10211 15780 4434 823 319 3500 2842 2195 932 6711 2623 372 237 2239 2030 1263 855 9478 2931 1684 504 560 632 267 365 333
is_linear=0
shrinkage=0.05


Tree=22
num_leaves=31
num_cat=0
split_feature=0 0 0 1 3 0 2 2 1 2 2 2 3 4 0 3 2 2 2 4 2 2 0 2 2 2 2 2 2 3
split_gain=8896.71 1675.03 1390.71 357.455 356.918 265.46 263.468 306.493 253.619 251.767 225.697 407.718 220.64 171.783 168.195 152.408 157.427 165.232 151.785 146.178 141.813 139.306 135.996 132.111 179.737 131.068 451.417 171.372 206.369 159.299
threshold=7.1954337250000009 5.0271385000000004 11.638685250000002 -1.0000000180025095e-35 8.9640090000000026 3.4455587500000004 -0.81900730237416497 -0.51973899919070132 0.12940952255126045 0.68391308835034159 -0.081675638985454949 -0.10738035228456493 5.7430247500000009 7.1826925500000014 6.0360527500000005 6.4808162000000005 0.68391308835034159 0.35769492645306972 0.6254047815183511 6.116127650000001 -0.70862011619447618 0.69636977696931257 15.074854250000003 0.090250774277322809 0.14153898451656996 0.96683886033945965 0.93535928755917841 0.61188073503922691 0.58429276287313725 7.0920786500000004
decision_type=2 2 2 2 2 2 2 2 2 2 2 2 2 2 2 2 2 2 2 2 2 2 2 2 2 2 2 2 2 2
left_child=1 5 4 12 25 -1 13 -8 -9 18 11 -4 20 -6 -5 19 17 -17 -10 -7 -3 -11 -12 -16 -25 26 27 28 -2 -29
right_child=2 3 10 14 6 15 7 8 9 21 22 -13 -14 -15 23 16 -18 -19 -20 -21 -22 -23 -24 24 -26 -27 -28 29 -30 -31
leaf_value=-0.031938169040316169 0.028616332934915684 -0.024062137865957112 0.10732797985064524 -0.013573395759063304 -0.062705900604432485 -0.021287332031967796 0.10882162994443585 0.068361704099782858 0.0093445546127799341 0.16721182852983474 0.11727586782100628 -0.027232055692640068 0.02261460837966859 0.032475119231829844 0.015020595653417358 0.0308173316246751 -0.03511347956955433 0.18007229493761606 -0.12928974497176351 0.0046597609673634764 0.0078102735272962192 0.052712836799388429 0.18215948514419028 -0.096930073870828859 -0.00378005071046802 0.061640999387546892 -0.068507157502182087 0.091723238469664167 -0.040365468469588502 0.039592854671333721
leaf_weight=6302 2676 465 246 3278 53 8683 308 1183 330 30 403 73 2486 449 1266 118 76 22 21 579 1399 232 101 54 1263 326 116 192 113 619
leaf_count=6302 2676 465 246 3278 53 8683 308 1183 330 30 403 73 2486 449 1266 118 76 22 21 579 1399 232 101 54 1263 326 116 192 113 619
internal_value=4.79963e-05 -0.0137745 0.0481354 0.00200486 0.0405452 -0.0239851 0.0549736 0.0627392 0.0548364 0.0287347 0.109447 0.0765352 0.0128638 0.0224261 -0.00605459 -0.018697 0.0228213 0.0542717 0.00105019 -0.0196653 -0.00014073 0.0658234 0.130278 0.00348728 -0.00759941 0.0312427 0.0285759 0.0317041 0.0258214 0.0519344
internal_weight=33462 25991 7471 10211 6648 15780 2606 2104 1796 613 823 319 4350 502 5861 9478 216 140 351 9262 1864 262 504 2583 1317 4042 3716 3600 2789 811
internal_count=33462 25991 7471 10211 6648 15780 2606 2104 1796 613 823 319 4350 502 5861 9478 216 140 351 9262 1864 262 504 2583 1317 4042 3716 3600 2789 811
is_linear=0
shrinkage=0.05


Tree=23
num_leaves=31
num_cat=0
split_feature=0 0 0 0 0 1 1 2 2 2 4 2 2 2 2 2 3 1 2 2 3 2 2 2 3 1 0 2 4 3
split_gain=8049.25 1935.52 753.212 434.426 426.564 233.509 210.28 213.85 275.942 208.599 184.248 174.444 392.71 297.228 502.171 850.38 179.188 171.317 157.796 152.909 148.632 145.386 305.292 227.54 140.478 134.462 225.381 129.198 144.506 163.312
threshold=6.2410988500000011 10.044610750000002 4.2986563250000005 13.542323250000001 7.3705255750000012 -1.0000000180025095e-35 -1.0000000180025095e-35 -0.9523687564627995 -0.49002412863433376 0.75548631800528565 2.4185861000000002 0.18399664778440331 -0.2008886948310977 0.88606241628642846 0.95747632178960107 0.94697898371965716 9.1206795000000032 -0.37940952255126065 -0.95747632178960107 1.0000000180025095e-35 9.5845800000000008 0.96683886033945965 0.93535928755917841 0.74409704927257569 6.5140264000000014 -0.78656609248549292 1.9979454825000003 -0.81900730237416497 4.9866527500000011 5.9070296000000004
decision_type=2 2 2 2 2 2 2 2 2 2 2 2 2 2 2 2 2 2 2 2 2 2 2 2 2 2 2 2 2 2
left_child=2 4 18 9 17 10 11 -8 -9 -3 -4 12 20 16 15 -15 -13 27 -1 -14 -6 22 23 -10 25 -20 -27 28 -2 -30
right_child=1 3 5 -5 6 -7 7 8 21 -11 -12 13 19 14 -16 -17 -18 -19 24 -21 -22 -23 -24 -25 -26 26 -28 -29 29 -31
leaf_value=-0.047343368370019775 -0.13073568698905766 0.06111371062731287 0.081668046996186405 0.1395321169124466 0.037941437819694467 -0.014171132907843496 -0.01762318256691468 0.064674764545886929 0.013131582922958615 0.10358063785609911 -0.00065505950799235461 0.061578205834681238 -0.056034547979490729 0.024593745318657542 0.067474616054283162 -0.25569638233435782 0.11379219085241842 0.0058615385060053708 -0.014010894076135039 0.019711822860183255 0.087032882318827054 0.058928019778901025 -0.068796418539913973 0.064244148552858538 0.079882954247295856 -0.054709930366950481 -0.025405705611462777 0.033281942186391696 -0.056956751601234694 0.032070863210429838
leaf_weight=832 21 1220 69 272 837 6425 262 461 1289 379 4540 602 144 94 218 38 226 2648 2184 124 189 228 99 262 32 719 7505 1295 73 175
leaf_count=832 21 1220 69 272 837 6425 262 461 1289 379 4540 602 144 94 218 38 226 2648 2184 124 189 228 99 262 32 719 7505 1295 73 175
internal_value=4.55965e-05 0.0347216 -0.017297 0.0811163 0.0253727 -0.00801055 0.0351379 0.0252138 0.0300121 0.0711794 0.000577376 0.0455799 0.0329069 0.0595008 0.0208709 -0.0560958 0.0758298 0.0136112 -0.0263875 -0.0209877 0.0469846 0.0215034 0.016332 0.0217657 -0.0247174 -0.025039 -0.0279677 0.0267322 -0.00479885 0.00586515
internal_weight=33462 11156 22306 1871 9285 11034 5073 2601 2339 1599 4609 2472 1294 1178 350 132 828 4212 11272 268 1026 1878 1650 1551 10440 10408 8224 1564 269 248
internal_count=33462 11156 22306 1871 9285 11034 5073 2601 2339 1599 4609 2472 1294 1178 350 132 828 4212 11272 268 1026 1878 1650 1551 10440 10408 8224 1564 269 248
is_linear=0
shrinkage=0.05


Tree=24
num_leaves=31
num_cat=0
split_feature=0 0 0 0 0 3 1 2 2 2 1 2 2 2 2 2 2 3 1 2 1 2 4 3 2 2 2 2 3 4
split_gain=7264.45 1746.81 679.774 392.069 384.974 224.413 189.778 193 249.038 188.261 185.759 166.756 157.436 354.421 268.248 453.209 767.468 161.717 155.173 154.009 153.246 138 137.907 136.889 131.211 275.526 205.355 121.9 121.671 121.08
threshold=6.2410988500000011 10.044610750000002 4.2986563250000005 13.542323250000001 7.3705255750000012 7.4849312500000007 -1.0000000180025095e-35 -0.9523687564627995 -0.49002412863433376 0.75548631800528565 -0.37940952255126065 0.84753307444029569 0.18399664778440331 -0.2008886948310977 0.88606241628642846 0.95747632178960107 0.94697898371965716 9.1206795000000032 0.12940952255126045 0.27609441636666071 0.78656609248549325 1.0000000180025095e-35 3.8154160000000004 8.1347700000000014 0.96683886033945965 0.93535928755917841 0.74409704927257569 0.95236875646279973 6.5140264000000014 8.1137340000000027
decision_type=2 2 2 2 2 2 2 2 2 2 2 2 2 2 2 2 2 2 2 2 2 2 2 2 2 2 2 2 2 2
left_child=2 4 20 9 18 10 12 -8 -9 -3 -4 19 13 23 17 16 -16 -14 -2 -7 22 -15 28 29 25 26 -10 -27 -1 -6
right_child=1 3 5 -5 6 11 7 8 24 -11 -12 -13 14 21 15 -17 -18 -19 -20 -21 -22 -23 -24 -25 -26 27 -28 -29 -30 -31
leaf_value=-0.026477491677286885 0.022034476374238804 0.058058024990051742 0.00049287611487674879 0.13255551177118083 0.066869102051806836 0.024336531974369705 -0.016742023301332166 0.061441026700694935 0.012475004078795919 0.098401604710751295 -0.013472602670010651 -0.041406530324937935 0.058499295580466952 -0.053232820505379808 0.023364058125050779 0.064100885263498913 -0.24291156279413323 0.10810258177199723 0.0028138420804909065 0.10725463737201478 -0.036318836466307097 0.018726231997472146 -0.012287647957397313 0.061526135811674834 0.055981618912661818 -0.13875267584290771 0.061031941302611227 -0.023415982510362351 0.07989100068807603 0.0096438859121723685
leaf_weight=6287 2217 1220 3569 272 126 168 262 461 1289 379 7154 59 602 144 94 218 38 226 1995 84 2386 124 2572 553 228 36 262 63 27 347
leaf_count=6287 2217 1220 3569 272 126 168 262 461 1289 379 7154 59 602 144 94 218 38 226 1995 84 2386 124 2572 553 228 36 262 63 27 347
internal_value=4.33167e-05 0.0329855 -0.0164322 0.0770604 0.024104 -0.00761002 0.033381 0.0239531 0.0285115 0.0676204 -0.00882439 0.0342603 0.0433009 0.0312615 0.0565258 0.0198274 -0.053291 0.0720384 0.0129307 0.0519759 -0.0250681 -0.0199383 -0.0220471 0.0446354 0.0204282 0.0155154 0.0206774 -0.0653566 -0.0260226 0.0248878
internal_weight=33462 11156 22306 1871 9285 11034 5073 2601 2339 1599 10723 311 2472 1294 1178 350 132 828 4212 252 11272 268 8886 1026 1878 1650 1551 99 6314 473
internal_count=33462 11156 22306 1871 9285 11034 5073 2601 2339 1599 10723 311 2472 1294 1178 350 132 828 4212 252 11272 268 8886 1026 1878 1650 1551 99 6314 473
is_linear=0
shrinkage=0.05


Tree=25
num_leaves=31
num_cat=0
split_feature=0 0 0 1 2 0 1 0 1 4 2 2 2 3 1 0 2 2 2 4 3 2 4 3 4 2 2 2 1 2
split_gain=6303.25 1188.86 1093.63 283.816 256.621 226.875 177.459 182.284 175.09 165.354 150.806 375.182 167.923 145.782 148.321 140.722 120.582 115.756 123.158 596.369 178.051 115.565 115.235 113.885 113.067 110.194 109.118 107.648 105.958 99.0894
threshold=6.9999331000000007 10.688493000000003 4.9659193250000007 0.25881904510252091 0.59817537509284302 8.6585499250000009 0.60355339059327384 2.9125607000000007 -0.60355339059327362 10.778590000000001 0.92913280730858816 0.95747632178960107 0.90880922144842624 5.3915998500000013 -0.70710678118654735 15.074854250000003 -0.94697898371965705 0.98930504265984687 0.94697898371965716 8.3954585000000019 9.9013795000000027 -0.11593352601052358 7.6847767000000013 6.369789400000001 3.4395571000000005 -0.081675638985454949 -0.98801351631316325 -0.97109105924028405 1.0000000180025095e-35 0.92263100495486416
decision_type=2 2 2 2 2 2 2 2 2 2 2 2 2 2 2 2 2 2 2 2 2 2 2 2 2 2 2 2 2 2
left_child=2 5 6 13 8 29 7 24 27 -10 12 -12 -5 16 -15 -6 -4 18 20 -20 -7 -11 23 -9 -1 -23 -16 -3 -22 -2
right_child=1 4 3 10 15 17 -8 22 9 21 11 -13 -14 14 26 -17 -18 -19 19 -21 28 25 -24 -25 -26 -27 -28 -29 -30 -31
leaf_value=-0.031468172767655948 0.025288334177365784 0.19051697654556485 -0.035232689369877335 -0.0070619621797852446 0.096019299245024448 0.033078570344961249 -0.028700585906427281 -0.014424890011514572 -0.043417708382010464 0.07270727619091194 -0.13515316716395318 -0.013373699180287656 0.092283407910618676 0.026499995423273821 0.064076984298821443 0.16304698028462999 0.0017983268815928303 0.087876469677123509 -0.19278181538437353 0.038047793533366098 0.079803625034001735 -0.033392310166551219 0.078684478264082883 0.028592146561142937 0.00053247709660941074 0.058143617627377221 0.0039011142634564535 0.082413004351499147 0.040584146940843169 0.00065252530552100145
leaf_weight=2519 3751 25 256 3940 469 1591 4731 7693 50 257 80 302 43 1429 78 94 1556 127 33 184 408 62 34 157 310 70 2204 292 298 458
leaf_count=2519 3751 25 256 3940 469 1591 4731 7693 50 257 80 302 43 1429 78 94 1556 127 33 184 408 62 34 157 310 70 2204 292 298 458
internal_value=-6.50057e-06 0.0381856 -0.0123226 0.000661016 0.081654 0.0298156 -0.0206353 -0.0170736 0.0626219 0.0421745 -0.0088676 -0.0388773 -0.00598944 0.00819178 0.0138681 0.10721 -0.00343343 0.041303 0.0389503 0.00294467 0.0423517 0.0531761 -0.0131667 -0.0135645 -0.0279616 0.0151495 0.00595796 0.0909386 0.0632492 0.0226076
internal_weight=33501 8169 25332 9888 1319 6850 15444 10713 756 439 4365 382 3983 5523 3711 563 1812 2641 2514 217 2297 389 7884 7850 2829 132 2282 317 706 4209
internal_count=33501 8169 25332 9888 1319 6850 15444 10713 756 439 4365 382 3983 5523 3711 563 1812 2641 2514 217 2297 389 7884 7850 2829 132 2282 317 706 4209
is_linear=0
shrinkage=0.05


Tree=26
num_leaves=31
num_cat=0
split_feature=0 0 0 1 2 3 1 1 0 1 4 3 2 2 2 4 2 2 2 2 2 2 2 2 2 1 3 2 2 4
split_gain=5688.68 1072.94 986.999 256.144 231.6 211.456 165.798 162.097 211.394 158.019 149.232 138.198 136.103 338.602 151.55 127.018 124.417 170.583 147.964 145.139 138.837 754.549 169.963 124.165 134.856 114.794 113.615 113.074 278.569 112.353
threshold=6.9999331000000007 10.688493000000003 4.9659193250000007 0.25881904510252091 0.59817537509284302 8.3640965000000005 -1.0000000180025095e-35 -0.70710678118654735 1.9979454825000003 -0.60355339059327362 10.778590000000001 6.9458980500000012 0.92913280730858816 0.95747632178960107 0.90880922144842624 15.864275500000002 0.61188073503922691 -0.26781182513105617 -0.22611359161738934 -0.2008886948310977 0.92263100495486416 0.95747632178960107 0.94697898371965716 -0.30901413279605799 -0.33346569090932177 0.78656609248549325 6.369789400000001 -0.89391031859722869 -0.42888796625999276 8.2258275000000012
decision_type=2 2 2 2 2 2 2 2 2 2 2 2 2 2 2 2 2 2 2 2 2 2 2 2 2 2 2 2 2 2
left_child=2 5 7 11 9 16 -7 26 -9 -3 -11 -4 14 -14 -5 -6 17 23 29 -20 -18 22 -22 24 -2 -10 -1 -8 -29 -19
right_child=1 4 3 12 15 6 27 8 25 10 -12 -13 13 -15 -16 -17 20 18 19 -21 21 -23 -24 -25 -26 -27 -28 28 -30 -31
leaf_value=-0.011763457571419467 0.025451078097728376 0.086391626950188136 0.0040859674132109744 -0.0067088641535153056 0.091765771879936231 0.048730207117796624 -0.0061883722336027501 -0.049593744483227432 -0.017554537933581766 -0.041246823132038118 0.050517287670220505 0.024706396939411686 -0.12839550836244598 -0.01270501428408647 0.087669235992050454 0.1577816393486289 0.046899844895121619 0.0086104106605052952 0.091028257744743477 0.0013831447900998169 -0.03834730163216591 0.039965996772172538 -0.21842276301038896 0.086701117844585285 -0.080171929492104443 -0.028823079979308316 0.066445453903895432 0.078130550157051365 0.020048786120061897 -0.12787005999370624
leaf_weight=3877 1201 317 4533 3940 477 1654 233 682 7626 50 389 990 80 302 43 86 729 25 47 1148 20 314 38 81 31 3212 47 258 1033 38
leaf_count=3877 1201 317 4533 3940 477 1654 233 682 7626 50 389 990 80 302 43 86 729 25 47 1148 20 314 38 81 31 3212 47 258 1033 38
internal_value=-6.17554e-06 0.0362763 -0.0117065 0.000627965 0.0775713 0.0283248 0.0377678 -0.0196036 -0.0225932 0.0594908 0.0400658 0.00778219 -0.00842422 -0.0369334 -0.00568997 0.10185 0.0201522 0.0141294 0.000971682 0.00490894 0.0342164 0.00936105 -0.156328 0.0267359 0.0227934 -0.0208941 -0.0108267 0.0258702 0.0316561 -0.0737111
internal_weight=33501 8169 25332 9888 1319 6850 3178 15444 11520 756 439 5523 4365 382 3983 563 3672 2571 1258 1195 1101 372 58 1313 1232 10838 3924 1524 1291 63
internal_count=33501 8169 25332 9888 1319 6850 3178 15444 11520 756 439 5523 4365 382 3983 563 3672 2571 1258 1195 1101 372 58 1313 1232 10838 3924 1524 1291 63
is_linear=0
shrinkage=0.05


Tree=27
num_leaves=31
num_cat=0
split_feature=0 0 0 3 1 0 3 1 2 2 2 2 2 2 2 4 2 4 4 3 4 1 2 2 4 4 2 2 2 2
split_gain=5155.81 1233.85 550.793 371.577 214.508 212.302 174.946 172.965 154.813 753.065 387.36 149.426 138.634 402.733 331.188 196.843 135.396 161.377 134.361 133.966 122.924 122.596 120.153 108.181 252.157 129.536 120.648 266.816 250.932 258.874
threshold=6.3355625750000009 10.688493000000003 4.5359012750000014 8.421127000000002 1.0000000180025095e-35 13.542323250000001 6.369789400000001 -0.98296291314453399 0.96683886033945965 0.94697898371965716 0.95747632178960107 -0.92263100495486394 -0.81900730237416497 -0.2008886948310977 0.14153898451656996 6.7541353500000012 -0.78829775591774587 7.6847767000000013 4.1954155000000002 5.299433500000001 6.672997650000001 0.12940952255126045 0.75548631800528565 0.81900730237416519 7.551508000000001 5.8462612500000013 -0.26781182513105617 -0.30901413279605799 -0.22611359161738934 -0.23448921811828094
decision_type=2 2 2 2 2 2 2 2 2 2 2 2 2 2 2 2 2 2 2 2 2 2 2 2 2 2 2 2 2 2
left_child=2 3 6 8 19 22 11 -5 9 23 -11 -1 15 18 -15 -9 17 -6 -14 -4 -20 -16 -3 26 25 -25 27 -2 29 -28
right_child=1 5 4 7 16 -7 -8 12 -10 10 -12 -13 13 14 21 -17 -18 -19 20 -21 -22 -23 -24 24 -26 -27 28 -29 -30 -31
leaf_value=-0.038500558652517322 0.017596331204657294 0.054268371058498445 -0.0057115165376562726 0.083636646504358703 0.0019428228114253888 0.11417699225246908 0.054250476862757635 -0.074202398716884319 0.043727362848640171 -0.1870785374523086 -0.021226404227112253 -0.019196435455096549 0.16518488474604157 -0.023698336768134591 0.047119271940718348 0.021053510240125823 -0.015485670075999639 0.13595408885942206 0.0113956706420508 0.01132290614555558 0.07474944030068964 0.017986404588339323 0.093658469320621857 -0.092119159333167541 0.073691279155015943 0.01648940365140637 -0.020809745288162092 0.085543317096007446 0.0095450225603489966 -0.20419281367902406
leaf_weight=1097 2129 804 2215 180 965 260 78 61 439 68 73 11632 36 284 883 489 4251 23 89 2410 548 611 255 31 250 240 67 155 2851 27
leaf_count=1097 2129 804 2215 180 965 260 78 61 439 68 73 11632 36 284 883 489 4251 23 89 2410 548 611 255 31 250 240 67 155 2851 27
internal_value=-5.86675e-06 0.028374 -0.013563 0.0220891 -0.00468275 0.0736927 -0.0204026 0.0360304 0.0150833 0.0129487 -0.101212 -0.0208601 0.033175 0.0382657 0.0257962 0.0104888 -0.0116106 0.00506252 0.0712089 0.0031648 0.0658978 0.0352048 0.0637532 0.0157481 0.0374752 0.00406555 0.0135833 0.0222074 0.00689487 -0.0734836
internal_weight=33501 10830 22671 9511 9864 1319 12807 3181 6330 5891 141 12729 3001 2451 1778 550 5239 988 673 4625 637 1494 1059 5750 521 271 5229 2284 2945 94
internal_count=33501 10830 22671 9511 9864 1319 12807 3181 6330 5891 141 12729 3001 2451 1778 550 5239 988 673 4625 637 1494 1059 5750 521 271 5229 2284 2945 94
is_linear=0
shrinkage=0.05


Tree=28
num_leaves=31
num_cat=0
split_feature=0 0 0 1 0 2 2 2 3 2 4 4 2 2 2 2 2 2 2 2 3 2 4 2 4 2 1 2 0 2
split_gain=4663.64 898.822 807.228 239.367 171.724 154.473 1058.59 304.285 223.544 166.791 154.081 142.275 205.392 141.193 162.974 352.68 266.019 625.826 217.309 196.792 196.619 191.097 155.871 139.288 164.377 153.223 178.536 241.93 142.481 138.806
threshold=7.1954337250000009 4.9659193250000007 10.883969250000002 0.12940952255126045 13.542323250000001 0.96683886033945965 0.94697898371965716 0.95236875646279973 9.794592500000002 -0.81900730237416497 5.7938688000000012 7.0114400000000012 0.37371625404731906 -0.92263100495486394 0.11593352601052392 0.23448921811828119 -0.3171883513140959 -0.29259762607704992 0.2843565540399125 0.27609441636666071 3.7947292500000001 0.30901413279605805 3.1998544000000004 -0.61866567420209784 5.0740914000000013 0.14153898451656996 0.60355339059327384 -0.2008886948310977 7.4633527500000003 -0.76665171983724034
decision_type=2 2 2 2 2 2 2 2 2 2 2 2 2 2 2 2 2 2 2 2 2 2 2 2 2 2 2 2 2 2
left_child=1 10 5 -3 -4 6 8 -8 -2 -10 13 12 -5 -1 16 -16 20 -18 19 -17 -15 -20 -21 -11 28 26 27 -26 -25 -22
right_child=2 3 4 11 -6 -7 7 -9 9 23 -12 -13 -14 14 15 18 17 -19 21 22 29 -23 -24 24 25 -27 -28 -29 -30 -31
leaf_value=-0.034638101038977895 0.024086690146716369 0.0085723263027160292 0.062475563491254139 -0.0006282551398090622 0.10846813979809387 0.052945814760722465 -0.20334474626852544 -0.055299954521743688 0.012865680773941233 0.11161900754004979 0.0038628043164795709 0.011608313771167949 -0.022787371434039187 -0.030382171584564372 -0.054360153093409816 -0.00194490947204191 0.22594893666044361 -0.00034411179005235218 -0.074377581458421632 0.21631490685045721 0.012203162680727755 -0.018888731819016708 0.052066263517078305 0.067613074022599237 0.083747433573007582 0.077016418510050116 -0.08336429793853313 -0.033212934551176743 -0.096658278155055913 -0.017466200642673305
leaf_weight=1295 4553 5399 925 2392 260 549 49 119 239 114 785 896 1858 1900 765 159 31 2118 159 20 606 6426 52 22 130 420 32 67 33 1128
leaf_count=1295 4553 5399 925 2392 260 549 49 119 239 114 785 896 1858 1900 765 159 31 2118 159 20 606 6426 52 22 130 420 32 67 33 1128
internal_value=-5.57337e-06 -0.0100352 0.0346937 0.00121776 0.0725668 0.0276004 0.0251922 -0.0984797 0.0288957 0.0496106 -0.0177187 -0.00649838 -0.0103157 -0.0188744 -0.0173469 -0.0221694 -0.011025 0.00292024 -0.0185564 0.0291104 -0.0192716 -0.0202286 0.0976909 0.0603465 0.0520439 0.0590773 0.0261757 0.043969 -0.0309497 -0.00709732
internal_weight=33501 25989 7512 10545 1185 6327 5778 168 5610 1057 15444 5146 4250 14659 13364 7581 5783 2149 6816 231 3634 6585 72 818 704 649 229 197 55 1734
internal_count=33501 25989 7512 10545 1185 6327 5778 168 5610 1057 15444 5146 4250 14659 13364 7581 5783 2149 6816 231 3634 6585 72 818 704 649 229 197 55 1734
is_linear=0
shrinkage=0.05


Tree=29
num_leaves=31
num_cat=0
split_feature=0 0 0 3 1 2 1 3 1 2 2 2 4 2 3 2 2 2 2 4 4 2 2 2 2 2 4 2 2 0
split_gain=4229.6 1002.04 447.206 309.241 188.363 184.273 154.776 154.158 138.849 132.865 645.923 346.644 132.302 129.989 129.171 123.306 119.621 350.088 287.409 176.95 121.883 118.319 117.811 127.326 299.224 110.76 108.402 106.253 106.185 105.798
threshold=6.3355625750000009 10.688493000000003 4.5359012750000014 8.421127000000002 -0.70710678118654735 0.59817537509284302 -0.98296291314453399 6.369789400000001 -0.60355339059327362 0.96683886033945965 0.94697898371965716 0.95747632178960107 10.778590000000001 0.67760851415498091 3.8871768500000008 -0.92263100495486394 -0.81900730237416497 -0.2008886948310977 0.14153898451656996 6.7541353500000012 4.1954155000000002 0.61866567420209762 0.55601228778889811 0.59125596962661842 0.58429276287313725 -0.99762106698677366 6.672997650000001 0.65189295912203338 0.27609441636666071 15.074854250000003
decision_type=2 2 2 2 2 2 2 2 2 2 2 2 2 2 2 2 2 2 2 2 2 2 2 2 2 2 2 2 2 2
left_child=2 3 7 9 -4 8 -5 15 -3 10 -2 -12 -10 21 -15 -1 19 20 -19 -8 -18 25 28 24 -24 -6 -22 -23 -20 -7
right_child=1 5 4 6 13 29 16 -9 12 -11 11 -13 -14 14 -16 -17 17 18 22 -21 26 27 23 -25 -26 -27 -28 -29 -30 -31
leaf_value=-0.034901534989668283 0.014259495987134744 0.075628305981023838 0.0086474038991813159 0.077787453197718903 0.036471883935461705 0.07849236733303952 -0.071318393389953938 0.051630138710905354 -0.044358200550079351 0.040180304540153637 -0.1752899057012709 -0.01839610602043263 0.042044130185018069 0.031415995840302649 -0.021829661553517052 -0.017365626312577178 0.15500200895799532 -0.022951852683548515 0.024066614411545523 0.018996137753295655 0.0092559600322182928 0.062975573264535706 0.025436668898552086 0.027974070190621786 -0.19453736204992644 -0.0068280263327562306 0.068750004556852595 -0.0021127836675232672 0.076171921132408893 0.13661070350319782
leaf_weight=1097 5750 317 2191 180 152 469 61 78 50 439 68 73 389 121 1942 11632 36 284 165 489 89 122 52 1015 22 5207 548 129 240 94
leaf_count=1097 5750 317 2191 180 152 469 61 78 50 439 68 73 389 121 1942 11632 36 284 165 489 89 122 52 1015 22 5207 548 129 240 94
internal_value=-5.29473e-06 0.0256994 -0.0122845 0.0200356 -0.00428272 0.0665396 0.0327538 -0.0184475 0.0504119 0.0136443 0.0116669 -0.0940612 0.0322033 -0.00797487 -0.0187067 -0.0188769 0.0300527 0.0347815 0.0231555 0.00897944 0.0654961 -0.0040284 0.0319202 0.0233577 -0.039961 -0.00559989 0.0604376 0.0295238 0.0549438 0.088196
internal_weight=33501 10830 22671 9511 9864 1319 3181 12807 756 6330 5891 141 439 7673 2063 12729 3001 2451 1778 550 673 5610 1494 1089 74 5359 637 251 405 563
internal_count=33501 10830 22671 9511 9864 1319 3181 12807 756 6330 5891 141 439 7673 2063 12729 3001 2451 1778 550 673 5610 1494 1089 74 5359 637 251 405 563
is_linear=0
shrinkage=0.05


Tree=30
num_leaves=31
num_cat=0
split_feature=3 3 4 0 1 2 3 2 1 2 2 2 2 1 4 2 2 2 4 2 2 0 2 2 2 4 1 2 2 1
split_gain=3936.88 703.156 620.942 270.725 238.305 215.851 195.069 184.43 171.053 170.137 204.931 312.489 184.286 130.068 138.892 120.791 121.341 116.76 207.83 114.381 194.135 105.611 116.681 127.691 113.129 102.311 100.408 90.8114 115.994 87.4987
threshold=6.7851498500000007 8.9640090000000026 5.4632740000000011 13.542323250000001 -0.78656609248549292 -0.2008886948310977 5.205154900000001 -0.37371625404731884 -1.0000000180025095e-35 0.9821165111257959 0.93535928755917841 0.95747632178960107 0.99551215362393841 0.60355339059327384 2.2927364000000003 0.67760851415498091 0.63874350706337069 0.90880922144842624 7.9187987000000009 0.97505550290239451 0.96683886033945965 7.1954337250000009 0.84753307444029569 0.89391031859722891 0.098819223632317002 6.2643327500000003 1.0000000180025095e-35 -0.99762106698677366 -0.92913280730858783 -0.9159756150367534
decision_type=2 2 2 2 2 2 2 2 2 2 2 2 2 2 2 2 2 2 2 2 2 2 2 2 2 2 2 2 2 2
left_child=2 4 6 8 -2 7 13 -6 -3 10 -4 -12 -11 14 29 16 -10 -17 -19 20 -13 22 -7 25 -23 -24 27 -8 -29 -1
right_child=1 3 9 -5 5 21 26 -9 15 12 11 19 -14 -15 -16 17 -18 18 -20 -21 -22 24 23 -25 -26 -27 -28 28 -30 -31
leaf_value=-0.0077542548908011892 0.035781539674842509 0.051446794486705555 0.0014910165810471138 0.095515282212300337 0.019056372245048286 0.0016320662884309143 0.088895762860774996 0.066104868067072595 0.022578709209552073 0.07378951987981365 -0.11118118951856658 -0.02300558072484081 -0.0043133121898530852 -0.026707035366181749 -0.012627422984501119 0.087489778870007112 -0.079436687616010512 -0.083755990983370485 0.050973976702713641 -0.065655217120616602 0.093469365775861124 -0.017540456907152731 -0.098919456480171086 -0.009372672772454755 0.017201665980774782 0.010099798494151661 -0.013663480639440746 -0.040679638282648777 0.0052507128255531096 -0.033325848573399736
leaf_weight=429 1283 1796 6659 247 1359 961 30 246 1027 164 103 106 140 3979 7121 147 30 34 181 58 54 279 93 213 1463 28 2087 151 1533 1519
leaf_count=429 1283 1796 6659 247 1359 961 30 246 1027 164 103 106 140 3979 7121 147 30 34 181 58 54 279 93 213 1463 28 2087 151 1533 1519
internal_value=-0.00030645 0.0271684 -0.0109933 0.0450709 0.016708 0.0114362 -0.0162667 0.0262675 0.0411954 0.00120475 -0.000390005 -0.0394109 0.0378211 -0.0191704 -0.0158638 0.0282204 0.0196833 0.053148 0.0296678 -0.00550114 0.0163047 0.00359815 -0.00721597 -0.0326739 0.0116373 -0.0736919 -0.00629889 0.00266837 0.00113225 -0.0276943
internal_weight=33520 9387 24133 3462 5925 4642 16849 1605 3215 7284 6980 321 304 13048 9069 1419 1057 362 215 218 160 3037 1295 334 1742 121 3801 1714 1684 1948
internal_count=33520 9387 24133 3462 5925 4642 16849 1605 3215 7284 6980 321 304 13048 9069 1419 1057 362 215 218 160 3037 1295 334 1742 121 3801 1714 1684 1948
is_linear=0
shrinkage=0.05


Tree=31
num_leaves=31
num_cat=0
split_feature=0 3 0 0 1 1 1 2 2 2 2 2 4 1 4 0 2 2 2 2 2 2 4 2 2 2 2 2 4 2
split_gain=3565.07 880.348 297.572 242.419 181.321 152.68 136.938 129.21 226.836 150.541 131.731 124.065 175.993 120.309 111.698 106.22 117.173 139.402 158.402 101.552 112.033 105.376 187.566 99.402 98.4911 107.21 119.441 91.4329 89.3999 88.7976
threshold=6.0670378750000005 8.9640090000000026 4.1701743500000008 13.542323250000001 -0.70710678118654735 -1.0000000180025095e-35 -1.0000000180025095e-35 0.92263100495486416 0.99551215362393841 0.97873101657557349 0.6583954877256819 0.55601228778889811 3.9667301000000008 -0.70710678118654735 2.0811179500000008 7.2796118250000008 0.064507852084056461 0.23448921811828119 0.37371625404731906 0.67760851415498091 0.63874350706337069 0.90880922144842624 7.9187987000000009 -0.86742422337961655 -0.99984258031731421 -0.74409704927257525 -0.73248728852523659 0.76665171983724034 6.2643327500000003 -0.9523687564627995
decision_type=2 2 2 2 2 2 2 2 2 2 2 2 2 2 2 2 2 2 2 2 2 2 2 2 2 2 2 2 2 2
left_child=2 4 5 6 -2 7 -3 10 9 -9 11 -1 -13 14 -4 16 23 -18 -19 20 -8 -21 -23 -6 -7 -26 -27 -12 -25 -17
right_child=1 3 13 -5 15 24 19 8 -10 -11 27 12 -14 -15 -16 29 17 18 -20 21 -22 22 -24 28 25 26 -28 -29 -30 -31
leaf_value=-0.013118984232903426 0.025752176270108645 0.048550149194875512 0.10632642854291659 0.090739518636283628 -0.005888541318686857 0.067917192855785638 0.022576177768143163 0.0040057746880111924 -0.042165401917431622 0.063495100530738521 -0.057106296106126941 -0.0024846521150455095 0.10490398528054357 -0.0094119018170655423 0.0021255135706229884 -0.011252914481129389 -0.044110101618076991 0.047950700605288152 -0.0060927615116675759 0.083115290761703542 -0.075464852694422005 -0.079568191918352738 0.048425277632542819 0.038859611954629142 -0.039458054320359259 0.062644845916933964 -0.022056762735000939 -0.020915909337828387 0.010189715443941547 0.0187044701982946
leaf_weight=3408 2103 1776 26 247 525 29 1015 262 155 179 272 130 54 8576 2373 273 212 150 1411 147 30 34 181 418 984 42 4609 487 778 2634
leaf_count=3408 2103 1776 26 247 525 29 1015 262 155 179 272 130 54 8576 2373 273 212 150 1411 147 30 34 181 418 984 42 4609 487 778 2634
internal_value=-0.000291127 0.0216392 -0.0124155 0.0430222 0.0130146 -0.0183859 0.0393194 -0.0119683 0.00986493 0.0281522 -0.014959 -0.0109598 0.0290316 -0.00664311 0.00325483 0.00882977 0.00295473 -0.00606634 -0.000899604 0.0276677 0.0197616 0.0504906 0.0281844 0.0122484 -0.0239911 -0.0244641 -0.0212919 -0.0338853 0.0202098 0.0158911
internal_weight=33520 11934 21586 3430 8504 10611 3183 4947 596 441 4351 3592 184 10975 2399 6401 3494 1773 1561 1407 1045 362 215 1721 5664 5635 4651 759 1196 2907
internal_count=33520 11934 21586 3430 8504 10611 3183 4947 596 441 4351 3592 184 10975 2399 6401 3494 1773 1561 1407 1045 362 215 1721 5664 5635 4651 759 1196 2907
is_linear=0
shrinkage=0.05


end of trees

feature_importances:
day_sin=451
ec_gfs_mean=218
hour_sin=133
ec_wind_speed_10m=85
gfs_wind_speed_10m=73

parameters:
[boosting: gbdt]
[objective: regression]
[metric: rmse]
[tree_learner: serial]
[device_type: cpu]
[data_sample_strategy: bagging]
[data: ]
[valid: ]
[num_iterations: 1000]
[learning_rate: 0.05]
[num_leaves: 31]
[num_threads: 0]
[seed: 42]
[deterministic: 0]
[force_col_wise: 0]
[force_row_wise: 0]
[histogram_pool_size: -1]
[max_depth: -1]
[min_data_in_leaf: 20]
[min_sum_hessian_in_leaf: 0.001]
[bagging_fraction: 0.8]
[pos_bagging_fraction: 1]
[neg_bagging_fraction: 1]
[bagging_freq: 5]
[bagging_seed: 400]
[bagging_by_query: 0]
[feature_fraction: 0.9]
[feature_fraction_bynode: 1]
[feature_fraction_seed: 30056]
[extra_trees: 0]
[extra_seed: 12879]
[early_stopping_round: 0]
[early_stopping_min_delta: 0]
[first_metric_only: 0]
[max_delta_step: 0]
[lambda_l1: 0]
[lambda_l2: 0]
[linear_lambda: 0]
[min_gain_to_split: 0]
[drop_rate: 0.1]
[max_drop: 50]
[skip_drop: 0.5]
[xgboost_dart_mode: 0]
[uniform_drop: 0]
[drop_seed: 17869]
[top_rate: 0.2]
[other_rate: 0.1]
[min_data_per_group: 100]
[max_cat_threshold: 32]
[cat_l2: 10]
[cat_smooth: 10]
[max_cat_to_onehot: 4]
[top_k: 20]
[monotone_constraints: ]
[monotone_constraints_method: basic]
[monotone_penalty: 0]
[feature_contri: ]
[forcedsplits_filename: ]
[refit_decay_rate: 0.9]
[cegb_tradeoff: 1]
[cegb_penalty_split: 0]
[cegb_penalty_feature_lazy: ]
[cegb_penalty_feature_coupled: ]
[path_smooth: 0]
[interaction_constraints: ]
[verbosity: -1]
[saved_feature_importance_type: 0]
[use_quantized_grad: 0]
[num_grad_quant_bins: 4]
[quant_train_renew_leaf: 0]
[stochastic_rounding: 1]
[linear_tree: 0]
[max_bin: 255]
[max_bin_by_feature: ]
[min_data_in_bin: 3]
[bin_construct_sample_cnt: 200000]
[data_random_seed: 175]
[is_enable_sparse: 1]
[enable_bundle: 1]
[use_missing: 1]
[zero_as_missing: 0]
[feature_pre_filter: 1]
[pre_partition: 0]
[two_round: 0]
[header: 0]
[label_column: ]
[weight_column: ]
[group_column: ]
[ignore_column: ]
[categorical_feature: ]
[forcedbins_filename: ]
[precise_float_parser: 0]
[parser_config_file: ]
[objective_seed: 16083]
[num_class: 1]
[is_unbalance: 0]
[scale_pos_weight: 1]
[sigmoid: 1]
[boost_from_average: 1]
[reg_sqrt: 0]
[alpha: 0.9]
[fair_c: 1]
[poisson_max_delta_step: 0.7]
[tweedie_variance_power: 1.5]
[lambdarank_truncation_level: 30]
[lambdarank_norm: 1]
[label_gain: ]
[lambdarank_position_bias_regularization: 0]
[eval_at: ]
[multi_error_top_k: 1]
[auc_mu_weights: ]
[num_machines: 1]
[local_listen_port: 12400]
[time_out: 120]
[machine_list_filename: ]
[machines: ]
[gpu_platform_id: -1]
[gpu_device_id: -1]
[gpu_use_dp: 0]
[num_gpu: 1]

end of parameters

pandas_categorical:[]
