tree
version=v4
num_class=1
num_tree_per_iteration=1
label_index=0
max_feature_idx=7
objective=regression
feature_names=wind_speed wind_speed_2 wind_speed_3 hour month is_daytime wind_lag_1h wind_lag_24h
feature_infos=[0.39886671554999997:20.310744369999998] [0.15909465677364459:412.52633686348662] [0.063457563208858175:8378.7169739267847] [0:23] [1:12] [0:1] [0.39886671554999997:20.310744369999998] [0.39886671554999997:20.310744369999998]
tree_sizes=2671 2712 2717 2731 2730 2739 2722 2733 2753 2768 2759 2737 2734 2766 2774 2746 2728 2765 2745

Tree=0
num_leaves=31
num_cat=0
split_feature=6 0 6 3 0 4 7 3 4 0 7 4 6 4 0 3 0 4 3 7 3 0 0 3 6 4 3 7 3 3
split_gain=2.66745e+07 3.69415e+06 2.68428e+06 618286 524307 413761 553128 401021 372721 297747 292992 281315 252645 208912 192575 188368 187348 153205 148921 146947 143584 142349 141364 140077 133576 111259 180360 100817 97087.9 96807.6
threshold=7.5499389575000011 5.5388547340000018 9.191350872500001 13.500000000000002 10.420738775000002 11.500000000000002 12.609465410000004 14.500000000000002 10.500000000000002 4.0048001485000011 9.244398309000001 11.500000000000002 6.5307524100000007 10.500000000000002 6.6199748250000008 5.5000000000000009 8.0299101365000016 3.5000000000000004 18.500000000000004 10.420738775000002 11.500000000000002 6.7388736125000008 12.926553235 17.500000000000004 8.4766293500000014 5.5000000000000009 14.500000000000002 9.3595947575000018 13.500000000000002 7.5000000000000009
decision_type=2 2 2 2 2 2 2 2 2 2 2 2 2 2 2 2 2 2 2 2 2 2 2 2 2 2 2 2 2 2
left_child=1 9 7 11 10 13 15 8 16 -1 -4 14 -5 22 -3 -7 -2 -18 19 27 -10 -13 25 -11 -9 29 -27 28 -17 -6
right_child=2 3 4 12 5 6 -8 24 20 23 -12 21 -14 -15 -16 18 17 -19 -20 -21 -22 -23 -24 -25 -26 26 -28 -29 -30 -31
leaf_value=45.95584902650576 49.707918835795532 47.617452601696471 53.153134247112746 49.165048310937664 58.568829970899607 61.658985101142292 45.739652986657241 52.413683672434082 54.602246537647773 46.595798397159555 55.511033364117992 49.353466271625969 50.865246904188908 59.22110314229085 48.829726386602871 46.000154561145486 53.466895408030609 50.988939055578619 61.221528285046325 46.974093009915194 50.006819010267378 53.817951618221969 57.640545741637425 47.630907386106166 54.208542234135919 53.67581489493616 56.596585260551507 57.724434664938236 55.853473683042708 56.009538775877928
leaf_weight=7628 1001 3023 1356 1778 192 39 85 1015 398 4978 862 160 1719 260 2313 20 304 1392 23 35 82 129 536 1773 701 475 381 48 20 642
leaf_count=7628 1001 3023 1356 1778 192 39 85 1015 398 4978 862 160 1719 260 2313 20 304 1392 23 35 82 129 536 1773 701 475 381 48 20 642
internal_value=49.2146 47.3825 53.5781 48.9567 55.214 56.135 52.4171 51.9151 51.2497 46.3839 54.0695 48.3075 50.0008 56.5388 48.1429 55.4851 50.7928 51.4331 53.8358 52.4548 53.8172 51.3463 56.2255 46.8676 53.1469 55.7767 54.9758 54.6346 50.9268 56.5987
internal_weight=33368 23501 9867 9122 4974 2756 270 4893 3177 14379 2218 5625 3497 2486 5336 185 2697 1696 146 123 480 289 2226 6751 1716 1690 856 88 40 834
internal_count=33368 23501 9867 9122 4974 2756 270 4893 3177 14379 2218 5625 3497 2486 5336 185 2697 1696 146 123 480 289 2226 6751 1716 1690 856 88 40 834
is_linear=0
shrinkage=1


Tree=1
num_leaves=31
num_cat=0
split_feature=0 0 0 3 3 0 4 7 5 7 0 0 4 0 4 3 4 0 0 4 0 7 3 4 3 3 3 4 7 4
split_gain=2.15823e+07 3.01192e+06 2.17288e+06 587664 387237 325634 329038 448034 272980 249634 231284 221317 217143 215581 205718 178656 175097 161402 138593 120954 120755 119372 102653 99781.5 137192 91118.3 88048.8 86847.7 81785.4 80553.5
threshold=7.5498919000000013 5.4789743850000008 9.3595947575000018 13.500000000000002 15.500000000000002 10.420738775000002 11.500000000000002 12.609465410000004 1.0000000180025095e-35 9.4227685620000035 6.6199748250000008 4.2286315150000009 10.500000000000002 6.6199748250000008 11.500000000000002 9.5000000000000018 10.500000000000002 8.1597108030000012 8.3818270900000016 2.5000000000000004 12.926553235 10.503670050000002 17.500000000000004 5.5000000000000009 14.500000000000002 9.5000000000000018 12.500000000000002 10.500000000000002 10.059495 3.5000000000000004
decision_type=2 2 2 2 2 2 2 2 2 2 2 2 2 2 2 2 2 2 2 2 2 2 2 2 2 2 2 2 2 2
left_child=1 11 4 13 12 9 16 8 -8 27 -5 -1 17 -3 -15 -14 20 -2 -6 -19 23 -10 -13 -7 -25 -16 28 29 -21 -4
right_child=2 3 5 10 18 6 7 -9 21 -11 -12 22 15 14 25 -17 -18 19 -20 26 -22 -23 -24 24 -26 -27 -28 -29 -30 -31
leaf_value=-2.8673870010615539 0.78467115278801514 -1.3858248010396466 5.0073268600794831 0.051669902911612602 2.8849940638143394 6.6589755610084982 11.075139174922821 -3.1062060335103205 4.8629121126753567 6.1659148047554 1.6622952383993597 -2.3127311423234662 5.1473902529729934 -0.38257338604746016 4.7715102111471115 1.4043655617752266 9.0291781924236787 4.3756555595296502 4.7121749500702697 1.3292161470847703 7.5988639784983762 -2.1028611800249886 -1.335158750843199 3.9962304516849039 6.5242580408302251 -1.1838758439728707 3.6293530237305074 5.6300044485801806 3.8720089717650077 2.8439606862777467
leaf_weight=8561 1262 3334 219 2020 806 838 62 85 89 600 1596 4112 355 2282 116 199 261 235 856 1158 538 34 1454 479 389 33 258 191 142 804
leaf_count=8561 1262 3334 219 2020 806 838 62 85 89 600 1596 4112 355 2282 116 199 261 235 856 1158 538 34 1454 479 389 33 258 191 142 804
internal_value=0.0212264 -1.62585 3.94815 -0.236814 2.56302 5.53914 6.22021 2.90346 5.66465 4.49726 0.762554 -2.54824 1.98137 -0.86365 -0.147513 3.80287 6.57771 1.65105 3.82607 2.26085 6.29258 2.93741 -2.05736 5.88063 5.12918 3.45253 1.94187 3.67255 1.60697 3.30709
internal_weight=33368 23508 9860 9381 5271 4589 2775 270 185 1814 3616 14127 3609 5765 2431 554 2505 3055 1662 1793 2244 123 5566 1706 868 149 1558 1214 1300 1023
internal_count=33368 23508 9860 9381 5271 4589 2775 270 185 1814 3616 14127 3609 5765 2431 554 2505 3055 1662 1793 2244 123 5566 1706 868 149 1558 1214 1300 1023
is_linear=0
shrinkage=0.1


Tree=2
num_leaves=31
num_cat=0
split_feature=6 6 1 3 3 6 4 7 1 6 7 4 5 4 1 6 4 3 4 6 7 6 3 4 4 4 6 3 3 4
split_gain=1.75651e+07 2.44986e+06 1.76793e+06 434062 364953 288993 260176 366670 205241 200856 198130 187646 183814 176272 162278 145572 143162 139117 120174 114981 109886 100701 149279 116098 91459.5 86806.5 151434 82830.6 75367.2 70542.4
threshold=7.5499389575000011 5.5388547340000018 87.602014038228148 15.500000000000002 15.500000000000002 10.331894222500001 11.500000000000002 12.609465410000004 43.41716634102626 4.4724374120000006 9.3595947575000018 10.500000000000002 1.0000000180025095e-35 11.500000000000002 64.479456857835942 6.6200986300000011 10.500000000000002 9.5000000000000018 3.5000000000000004 8.4766293500000014 10.420738775000002 11.321290800000002 15.500000000000002 2.5000000000000004 1.5000000000000002 5.5000000000000009 14.706042875000001 17.500000000000004 12.500000000000002 10.500000000000002
decision_type=2 2 2 2 2 2 2 2 2 2 2 2 2 2 2 2 2 2 2 2 2 2 2 2 2 2 2 2 2 2
left_child=1 9 4 8 11 10 16 12 -3 -1 29 14 -8 -10 -2 -5 21 -13 -16 -6 -14 22 -7 -23 -17 -25 -27 -11 -20 -4
right_child=2 3 5 15 19 6 7 -9 13 27 -12 17 20 -15 18 24 -18 -19 28 -21 -22 23 -24 25 -26 26 -28 -29 -30 -31
leaf_value=-2.5441183837225547 0.45097641116803722 -1.1735466282999973 2.8751032725038246 0.18578906517467331 2.7301962057184577 3.887424324648344 9.5258198142051693 -2.671712196010283 -0.2239544206388609 -1.9956745691167261 5.5217863737328656 4.6400305027487105 4.7140355129434601 3.0540375390052796 3.6492043096688249 -1.9303134845650716 8.0797472183921126 1.2976395952579243 1.312446992833896 4.377153436804357 -1.8048258835928781 2.7927265119986893 6.4313313780107393 7.1997137604171746 1.8109120669080943 4.9227401084370088 10.062143848125752 -1.044485521081693 3.165235892656252 5.0415077484055857
leaf_weight=9590 1077 3424 966 1586 881 587 64 87 2621 3572 550 351 99 175 353 69 275 193 1355 817 35 92 380 714 1233 486 65 1231 262 178
leaf_count=9590 1077 3424 966 1586 881 587 64 87 2621 3572 550 351 99 175 353 69 275 193 1355 817 35 92 380 714 1233 486 65 1231 262 178
internal_value=0.0191037 -1.46755 3.55998 -0.184061 2.31463 4.99874 5.60767 2.73942 -0.654462 -2.27975 3.96205 1.74342 5.11704 -0.0187868 1.43798 0.82906 5.92219 3.45422 1.97758 3.52264 3.01135 5.66689 4.8871 6.22256 1.61264 6.47201 5.52902 -1.75189 1.61265 3.21218
internal_weight=33368 23501 9867 9108 5289 4578 2884 285 6220 14393 1694 3591 198 2796 3047 2888 2599 544 1970 1698 134 2324 967 1357 1302 1265 551 4803 1617 1144
internal_count=33368 23501 9867 9108 5289 4578 2884 285 6220 14393 1694 3591 198 2796 3047 2888 2599 544 1970 1698 134 2324 967 1357 1302 1265 551 4803 1617 1144
is_linear=0
shrinkage=0.1


Tree=3
num_leaves=31
num_cat=0
split_feature=0 6 0 4 6 6 6 4 7 5 7 4 7 5 6 5 6 4 7 5 7 7 4 7 5 7 4 0 4 4
split_gain=1.42744e+07 2.03726e+06 1.46795e+06 320884 269514 266573 224151 208939 297002 148889 148542 117452 114153 122944 107839 90280.3 101645 132525 89100.7 87512.9 124767 87001.5 84754.5 70890.8 69146.4 60952.4 60730.8 114795 54835 50530.3
threshold=7.1937613135000014 9.191350872500001 5.145281788000001 10.500000000000002 8.1600929905000008 10.331894222500001 6.1137514790000003 11.500000000000002 12.609465410000004 1.0000000180025095e-35 9.244398309000001 10.500000000000002 7.8051121050000001 1.0000000180025095e-35 2.9237726340000001 1.0000000180025095e-35 10.925283800000001 2.5000000000000004 10.503670050000002 1.0000000180025095e-35 6.1902346375000006 8.2451992300000025 11.500000000000002 8.717739368500002 1.0000000180025095e-35 8.5256105500000015 6.5000000000000009 14.706042875000001 10.500000000000002 2.5000000000000004
decision_type=2 2 2 2 2 2 2 2 2 2 2 2 2 2 2 2 2 2 2 2 2 2 2 2 2 2 2 2 2 2
left_child=2 3 14 4 23 10 -4 11 9 -9 29 15 22 -14 -1 -7 -17 -18 25 20 -5 -16 -8 -2 -12 -11 -19 -28 -26 -3
right_child=1 5 6 19 -6 7 12 8 -10 18 24 -13 13 -15 21 16 17 26 -20 -21 -22 -23 -24 -25 28 -27 27 -29 -30 -31
leaf_value=-2.6430485387004392 0.56481424037423478 5.0212966285862972 -1.0312035554168106 1.7211741833702516 2.2209819213127391 5.8037485641104531 -0.44582381459559794 8.5732379972934734 -2.4045410419332569 0.92199094825320782 5.4133453543962036 7.271772343028676 1.5760395104370153 -0.58987815913808817 -2.0778178450488562 3.0646739827213763 0.80021539229680505 5.9752530099022234 -1.7120923883774701 2.3270919942664876 5.0743849412948263 -0.87346364875488425 1.5235022079919029 1.8385531145207841 2.8058283509301747 6.0654377043247223 3.5588635695863751 9.100549705638441 6.2293101076422071 2.7126675108947711
leaf_weight=3537 2511 103 4548 152 2301 1004 3521 64 87 36 467 275 746 404 8390 343 68 597 34 476 411 646 233 529 242 64 286 43 58 1192
leaf_count=3537 2511 103 4548 152 2301 1004 3521 64 87 36 467 275 746 404 8390 343 68 597 34 476 411 646 233 529 242 64 286 43 58 1192
internal_value=0.0171934 2.89928 -1.4671 1.71727 1.40448 4.41877 -0.525526 5.03666 2.46548 4.60533 3.54948 5.31678 -0.0565569 0.815143 -2.17495 5.08712 4.54898 5.06117 2.71021 3.3252 4.16908 -1.99172 -0.323593 0.786462 4.65234 4.2138 5.37407 4.28316 3.4677 2.89629
internal_weight=33368 11343 22025 6380 5341 4963 9452 2901 285 198 2062 2616 4904 1150 12573 2341 1337 994 134 1039 563 9036 3754 3040 767 100 926 329 300 1295
internal_count=33368 11343 22025 6380 5341 4963 9452 2901 285 198 2062 2616 4904 1150 12573 2341 1337 994 134 1039 563 9036 3754 3040 767 100 926 329 300 1295
is_linear=0
shrinkage=0.1


Tree=4
num_leaves=31
num_cat=0
split_feature=6 0 0 3 3 6 4 0 3 4 6 4 6 5 4 4 0 0 4 3 4 6 3 4 3 6 3 4 4 4
split_gain=1.15923e+07 1.65962e+06 1.1502e+06 311804 299351 225316 177240 186790 170412 170194 153484 113436 103097 102333 94346.7 89724.1 89378.7 89262.1 83777.3 90013.8 82184 76928.4 75867.6 112478 115983 89194.7 64637.8 61019 59489.7 61447.1
threshold=7.1610822610000007 9.191350872500001 5.145281788000001 14.500000000000002 16.500000000000004 10.331894222500001 10.500000000000002 8.0299101365000016 11.500000000000002 11.500000000000002 12.609465410000004 1.5000000000000002 6.4449226405000006 1.0000000180025095e-35 10.500000000000002 10.500000000000002 6.1134657970000008 3.2313431280000002 3.5000000000000004 12.500000000000002 11.500000000000002 8.5753913805000028 16.500000000000004 5.5000000000000009 11.500000000000002 14.706042875000001 17.500000000000004 3.5000000000000004 2.5000000000000004 3.5000000000000004
decision_type=2 2 2 2 2 2 2 2 2 2 2 2 2 2 2 2 2 2 2 2 2 2 2 2 2 2 2 2 2 2
left_child=2 4 17 16 6 15 7 -2 -8 14 13 -6 -5 -11 22 26 -4 -1 -9 -20 -18 -13 23 24 -7 -25 27 -3 -26 -30
right_child=1 5 3 12 11 9 8 18 -10 10 -12 21 -14 -15 -16 -17 20 -19 19 -21 -22 -23 -24 25 28 -27 -28 -29 29 -31
leaf_value=-2.3094901362597819 0.21948492865592015 3.7619526405489041 -1.3055005398970458 -0.11842780350090804 -0.61376032137870795 5.9488141027430901 3.5546717385100388 2.9531002907998327 0.11670928386906487 7.6185423437154514 -0.98672589574541369 2.4199153994762521 1.0568477501069644 2.4276941153985354 6.5445954999246387 4.6752839122703689 -0.65596572525756347 -1.7557275704051094 0.87599223237093504 2.7459508481615296 1.7293121057121379 3.9257260381279266 5.3714916442417957 2.9587319529058878 0.74521722959690406 8.7247302191598077 4.0224259660464945 2.1853426926636788 6.4521792518391328 3.2962236484686538
leaf_weight=4583 2106 322 3002 2137 100 485 510 362 201 53 98 1175 1147 134 275 334 2907 7978 1238 325 152 477 805 641 61 28 389 1033 85 225
leaf_count=4583 2106 322 3002 2137 100 485 510 362 201 53 98 1175 1147 134 275 334 2907 7978 1238 325 152 477 805 641 61 28 389 1033 85 225
internal_value=0.015474 2.59221 -1.33277 -0.492673 1.53975 3.96796 1.12706 0.870298 2.58276 4.53902 2.21893 2.65673 0.29206 3.8989 4.79285 3.17376 -0.91786 -1.95777 1.5823 1.26482 -0.537443 2.8547 4.5861 4.17151 4.93075 3.20006 2.8862 2.56001 3.59985 4.16157
internal_weight=33368 11462 21906 9345 6494 4968 4742 4031 711 2890 285 1752 3284 187 2605 2078 6061 12561 1925 1563 3059 1652 2330 1525 856 669 1744 1355 371 310
internal_count=33368 11462 21906 9345 6494 4968 4742 4031 711 2890 285 1752 3284 187 2605 2078 6061 12561 1925 1563 3059 1652 2330 1525 856 669 1744 1355 371 310
is_linear=0
shrinkage=0.1


Tree=5
num_leaves=31
num_cat=0
split_feature=0 0 0 3 7 4 0 4 7 4 0 0 4 4 0 7 7 3 5 3 4 4 4 0 7 0 4 3 7 3
split_gain=9.29231e+06 1.13948e+06 963347 262345 242521 129804 115058 104906 244211 163072 150419 101435 99012.4 94957.2 94389.2 92689.7 87064.8 82931.5 81900.2 67756.1 68410.1 58060.7 67126.8 97200.5 64215.6 54025.1 53004.9 62629.1 52139.6 51849
threshold=7.4475042200000017 5.3473617970000014 9.8380665725000025 14.500000000000002 9.191350872500001 10.500000000000002 8.2366855760000011 11.500000000000002 12.609465410000004 10.500000000000002 10.925283800000001 3.8283112995000006 10.500000000000002 2.5000000000000004 6.7098950000000013 9.4227685620000035 7.2595823000000008 19.500000000000004 1.0000000180025095e-35 11.500000000000002 3.5000000000000004 2.5000000000000004 5.5000000000000009 14.706042875000001 5.4019328000000009 6.5617299345000015 10.500000000000002 5.5000000000000009 11.936915759000003 13.500000000000002
decision_type=2 2 2 2 2 2 2 2 2 2 2 2 2 2 2 2 2 2 2 2 2 2 2 2 2 2 2 2 2 2
left_child=1 11 4 14 6 18 12 9 -9 10 15 -1 19 -8 -3 -4 25 -13 -6 20 -2 -12 -23 24 -24 -5 -16 -28 -7 -15
right_child=2 3 7 16 5 28 13 8 -10 -11 21 17 -14 29 26 -17 -18 -19 -20 -21 -22 22 23 -25 -26 -27 27 -29 -30 -31
leaf_value=-1.96247905316454 1.8542456071979059 -0.92684133177454009 2.2519779103482707 -0.27288439281530574 3.1477184823276154 5.4439680543870246 3.5936720347665378 3.7022535285883253 -2.194212257990273 6.1965909155730099 2.2253739305038369 -1.5817983712460779 2.4412758930915128 1.3597884821938648 -0.27902647602220987 3.976316112435867 1.1732501662130275 -0.67529518965100088 1.4811198233471252 1.336026855335755 -0.22436312291263741 5.186481906705513 -1.1747000030108861 7.6841050765553467 3.7196896261128409 0.73593355728576215 3.300413062007804 -0.03588497621425684 1.6578379054402195 2.3308734418006516
leaf_weight=6835 192 4168 747 1476 725 236 297 287 93 310 113 5520 371 1574 1790 535 1094 1235 497 835 903 829 28 61 629 829 95 138 43 845
leaf_count=6835 192 4168 747 1476 725 236 297 287 93 310 113 5520 371 1574 1790 535 1094 1235 497 835 903 829 28 61 629 829 95 138 43 845
internal_value=0.0029887 -1.10191 2.52628 -0.267268 1.79905 2.91424 1.4654 3.83138 2.25917 4.01509 3.78523 -1.69088 0.945116 1.90619 -0.654813 2.97157 0.438613 -1.41606 2.4699 0.657512 0.140105 4.41361 4.57344 3.86563 3.5111 0.0899399 -0.0943501 1.32441 4.86044 1.69901
internal_weight=33330 23180 10150 9590 6518 1501 5017 3632 380 3252 2942 13590 2301 2716 6191 1282 3399 6755 1222 1930 1095 1660 1547 718 657 2305 2023 233 279 2419
internal_count=33330 23180 10150 9590 6518 1501 5017 3632 380 3252 2942 13590 2301 2716 6191 1282 3399 6755 1222 1930 1095 1660 1547 718 657 2305 2023 233 279 2419
is_linear=0
shrinkage=0.1


Tree=6
num_leaves=31
num_cat=0
split_feature=6 6 6 3 7 7 4 3 7 0 4 6 3 4 3 3 4 0 4 7 3 3 4 6 7 0 7 3 3 3
split_gain=7.6517e+06 890706 834223 194546 164930 148579 105239 135041 97571.1 90609.7 89553.9 81015.9 75187.8 65790.6 62352.8 108058 61908.3 60375.6 53892 88326 51130.5 83921.8 50335.9 81133 73488.3 49955.2 57805.1 47740.4 47226 46743.8
threshold=7.3186749700000009 9.191350872500001 5.4789743850000008 13.500000000000002 10.331894222500001 7.2917051750000015 10.500000000000002 12.500000000000002 8.2970242625000008 11.176014935000001 3.5000000000000004 3.9165626855000006 17.500000000000004 1.5000000000000002 16.500000000000004 6.5000000000000009 9.5000000000000018 9.9174750800000027 11.500000000000002 9.6199552720000003 10.500000000000002 16.500000000000004 11.500000000000002 10.808549262500001 9.9812980700000029 7.9062552495000018 5.6560283775000011 19.500000000000004 12.500000000000002 18.500000000000004
decision_type=2 2 2 2 2 2 2 2 2 2 2 2 2 2 2 2 2 2 2 2 2 2 2 2 2 2 2 2 2 2
left_child=2 4 8 18 6 9 7 10 11 28 25 -1 -6 29 15 -7 -11 -17 -4 -20 -8 -22 -19 -24 -25 26 -2 -13 -3 -9
right_child=1 5 3 -5 12 14 20 13 -10 16 -12 27 -14 -15 -16 17 -18 22 19 -21 21 -23 23 24 -26 -27 -28 -29 -30 -31
leaf_value=-1.8096729766236412 2.8594840424401422 0.9776900385193299 -0.70669005309893507 0.35622309152837017 2.0828145654267152 4.1237709971160008 3.019844841132465 0.76992080573891775 -0.49208963712389836 2.7429909694109034 0.29380127010025997 -1.4406557409902554 4.5424643171006354 1.8742104020627761 4.0553766236270192 1.6296883436779184 6.3557748910453586 3.2897943327482562 1.4195903311550366 -4.1023924654180357 -0.0037632445690079864 2.8509658130019475 4.4891042857873638 3.3491387300713118 -1.7882347154466414 2.7941142079968668 -0.81005724383904054 -0.72025682585997952 2.5071784853150971 -3.1235487869807654
leaf_weight=6892 70 458 4878 3265 311 857 412 116 894 139 2217 5348 207 1595 1265 375 72 1221 237 33 203 209 61 43 79 248 111 1111 361 42
leaf_count=6892 70 458 4878 3265 311 857 412 116 894 139 2217 5348 207 1595 1265 375 72 1221 237 33 203 209 61 43 79 248 111 1111 361 42
internal_value=0.00268982 2.21044 -1.03717 -0.247605 1.36376 3.1962 1.19496 1.00069 -1.50348 2.12793 0.549715 -1.5712 3.06572 1.6814 3.47826 3.2013 3.97579 2.75691 -0.630569 0.744681 2.23212 1.44439 3.05799 1.51135 0.0224789 1.87223 0.609102 -1.31674 1.65186 -0.265052
internal_weight=33330 10672 22658 8413 5741 4931 5223 4399 14245 1030 2646 13351 518 1753 3901 2636 211 1779 5148 270 824 412 1404 183 122 429 181 6459 819 158
internal_count=33330 10672 22658 8413 5741 4931 5223 4399 14245 1030 2646 13351 518 1753 3901 2636 211 1779 5148 270 824 412 1404 183 122 429 181 6459 819 158
is_linear=0
shrinkage=0.1


Tree=7
num_leaves=31
num_cat=0
split_feature=6 0 6 7 6 3 4 3 5 4 0 7 3 4 4 3 3 0 7 4 0 4 4 7 0 7 4 7 7 7
split_gain=6.221e+06 850357 580752 192378 233312 167625 123437 109269 88316.4 69151.8 65315 60385.1 60155.4 68385.2 75173.1 80321.6 56934 55394.5 54377.9 148908 83481.2 73244.1 53117.6 48884.3 53438.7 47585.7 47565 51539.6 47439.4 46135.7
threshold=7.1610822610000007 8.717739368500002 5.1738766375000003 9.191350872500001 11.321290800000002 14.500000000000002 10.500000000000002 12.500000000000002 1.0000000180025095e-35 9.5000000000000018 2.9237726340000001 8.2970242625000008 13.500000000000002 3.5000000000000004 10.500000000000002 5.5000000000000009 15.500000000000002 6.1134657970000008 11.936915759000003 11.500000000000002 12.609465410000004 10.500000000000002 11.500000000000002 7.8442012750000005 10.503670050000002 12.146429315000002 3.5000000000000004 10.141152170000002 4.999081770000001 7.4528174650000016
decision_type=2 2 2 2 2 2 2 2 2 2 2 2 2 2 2 2 2 2 2 2 2 2 2 2 2 2 2 2 2 2
left_child=2 6 10 4 12 17 7 26 18 -6 16 -12 13 -3 -15 -16 -1 -4 21 -20 -21 -5 -19 24 -17 -9 28 -28 -2 -7
right_child=1 3 5 8 9 29 -8 25 -10 -11 11 -13 -14 14 15 23 -18 22 19 20 -22 -23 -24 -25 -26 -27 27 -29 -30 -31
leaf_value=-2.0800248605696083 3.254529085147138 2.9668130177212513 -0.99754358047939962 3.9233750295559542 3.4986925560865028 -0.032023371816953049 2.0881653421828537 1.2818474878452719 2.7265033308465725 6.2757710828230939 -1.3401291900390626 -0.2871097475279078 2.4213901041307753 0.82774284198919179 4.5412777788162231 4.2068276497106707 -1.2437103708600736 -0.48626920617525332 3.643099337898859 3.5594073419985564 -3.8465069919162325 6.4243791902152303 1.3865038920938968 -0.79701878554384475 -1.7262747573852542 4.7283224129095309 0.014861440187957651 1.7546839185459639 0.73237846678075114 0.80346912735506248
leaf_weight=2264 98 254 2935 806 289 2347 831 1750 1441 130 8686 581 1045 1147 125 63 1271 2834 505 23 45 137 160 71 20 41 2013 186 312 920
leaf_count=2264 98 254 2935 806 289 2347 831 1750 1441 130 8686 581 1045 1147 125 63 1271 2834 505 23 45 137 160 71 20 41 2013 186 312 920
internal_value=0.00242085 1.90591 -0.978139 2.70803 2.16345 -0.371901 0.970387 0.759279 3.28705 4.36032 -1.41362 -1.27411 1.82566 1.4551 1.18583 2.65798 -1.77933 -0.688824 3.81987 3.05155 -1.34157 4.28672 -0.386188 1.12933 2.77716 1.36075 0.346391 0.162022 1.33523 0.203255
internal_weight=33330 11332 21998 6101 3144 9196 5231 4400 2957 419 12802 9267 2725 1680 1426 279 3535 5929 1516 573 68 943 2994 154 83 1791 2609 2199 410 3267
internal_count=33330 11332 21998 6101 3144 9196 5231 4400 2957 419 12802 9267 2725 1680 1426 279 3535 5929 1516 573 68 943 2994 154 83 1791 2609 2199 410 3267
is_linear=0
shrinkage=0.1


Tree=8
num_leaves=31
num_cat=0
split_feature=0 0 0 3 7 0 4 7 4 0 0 4 7 3 4 4 3 4 4 7 5 4 4 0 7 5 0 3 7 3
split_gain=5.01573e+06 722092 432926 145842 117113 85106.4 71341 159737 113825 102391 67147.4 65529.3 88083.5 63890.1 57285.7 80381.9 67379.7 50683.3 71021.7 49830.1 48436.3 46585.9 55077.7 76877.6 49590.3 47477.6 41611.9 41269.7 51744.9 38839.7
threshold=7.6553044925000009 5.6818223475000007 9.8380665725000025 15.500000000000002 10.420738775000002 4.4724374120000006 11.500000000000002 12.609465410000004 10.500000000000002 10.925283800000001 8.6189747325000017 11.500000000000002 9.6199552720000003 17.500000000000004 2.5000000000000004 6.5000000000000009 15.500000000000002 8.5000000000000018 5.5000000000000009 7.2595823000000008 1.0000000180025095e-35 2.5000000000000004 5.5000000000000009 14.706042875000001 5.4019328000000009 1.0000000180025095e-35 6.5891703825000016 10.500000000000002 6.8334357450000001 18.500000000000004
decision_type=2 2 2 2 2 2 2 2 2 2 2 2 2 2 2 2 2 2 2 2 2 2 2 2 2 2 2 2 2 2
left_child=1 5 4 11 10 14 8 -8 9 13 17 26 27 -4 -1 16 -16 18 -2 -5 -6 25 -23 24 -24 -11 -3 28 -13 -7
right_child=2 3 6 19 20 29 7 -9 -10 21 -12 12 -14 -15 15 -17 -18 -19 -20 -21 -22 22 23 -25 -26 -27 -28 -29 -30 -31
leaf_value=-1.880301077671974 1.1540402464858726 -0.67872573523817159 1.6831172407888886 0.23762267604047849 3.2297199633236859 -1.0128319378670931 2.6879741194044673 -2.0808647082697962 4.7914529592183328 4.2729013327005747 1.6520675330244463 0.59788625038768117 -3.7786162656896254 3.2853161079996442 -1.2396755207121315 -1.5478971202675311 -0.35637609733988129 1.5872180419194855 -0.077784452931454251 1.1165977423299986 1.3846217785812005 3.993757420244421 -1.6357575310128079 6.1932143481051334 2.6653160780336598 -0.095029552535791151 -0.1352209651571652 -0.28238708972930909 3.7334856235374838 -0.37599089405462327
leaf_weight=1753 1130 2797 944 1830 465 4313 287 93 310 37 2338 95 34 338 2294 4185 1385 808 799 996 205 829 28 61 629 76 2838 84 118 1231
leaf_count=1753 1130 2797 944 1830 465 4313 287 93 310 37 2338 95 34 338 2294 4185 1385 808 799 996 205 829 28 61 629 76 2838 84 118 1231
internal_value=0.00217876 -0.765362 1.96282 -0.0443602 1.42256 -1.18348 2.81739 1.52086 2.96889 2.77684 1.25851 -0.324672 1.04277 2.10554 -1.36337 -1.24814 -0.907148 0.922319 0.643813 0.54741 2.66517 3.29528 3.43846 2.79731 2.48201 1.33518 -0.404996 1.59471 2.33498 -0.871427
internal_weight=33330 23953 9377 8792 5745 15161 3632 380 3252 2942 5075 5966 331 1282 9617 7864 3679 2737 1929 2826 670 1660 1547 718 657 113 5635 297 213 5544
internal_count=33330 23953 9377 8792 5745 15161 3632 380 3252 2942 5075 5966 331 1282 9617 7864 3679 2737 1929 2826 670 1660 1547 718 657 113 5635 297 213 5544
is_linear=0
shrinkage=0.1


Tree=9
num_leaves=31
num_cat=0
split_feature=6 6 1 3 4 3 4 5 7 3 7 3 7 3 4 4 4 6 1 4 7 7 7 7 4 4 3 4 6 7
split_gain=4.11942e+06 541806 379183 126099 104437 100257 113839 95920.8 88193.1 70791.4 64267.1 58685.5 76057.3 79499.7 52854.7 65648.8 65596.6 51777.9 48062.7 44843.9 66798.3 44137.5 44125.3 42916.3 49243.5 42650 41312.4 40705.9 45987.5 95132.6
threshold=7.5499389575000011 5.4789743850000008 96.787553885692262 12.500000000000002 10.500000000000002 13.500000000000002 3.5000000000000004 1.0000000180025095e-35 10.141152170000002 8.5000000000000018 8.2451992300000025 14.500000000000002 7.2917051750000015 8.5000000000000018 6.5000000000000009 1.5000000000000002 8.5000000000000018 6.5307524100000007 8.0302167168211991 11.500000000000002 9.6199552720000003 6.167661207500001 6.6841896000000007 8.6694868450000016 3.5000000000000004 5.5000000000000009 15.500000000000002 9.5000000000000018 11.449290625000001 9.9812980700000029
decision_type=2 2 2 2 2 2 2 2 2 2 2 2 2 2 2 2 2 2 2 2 2 2 2 2 2 2 2 2 2 2
left_child=1 10 4 19 5 6 -2 21 -8 -9 18 12 -4 -14 15 -7 -16 -5 26 23 22 -6 -21 24 -3 -26 -1 -15 -29 -30
right_child=2 3 11 17 7 14 8 9 -10 -11 -12 -13 13 27 16 -17 -18 -19 -20 20 -22 -23 -24 -25 25 -27 -28 28 29 -31
leaf_value=-1.7771780458926689 1.9921122167428789 0.035461257319130669 0.91842050408454323 -0.032895799925529344 1.1866455330167498 -0.02128442631545642 0.23741376597914032 3.3559449080091257 2.1934741510398452 0.37244295633904989 -0.29193247347392454 3.0146768102043455 3.19277938625202 2.3382032008115301 -0.0057399558667965839 2.2677090228994685 1.911528802605776 0.6936161327476531 -1.0518276704276353 -0.24538511148520878 -3.4544901038661147 3.4570663917103204 2.4274589913487437 0.36296636341529237 -1.2877030960903371 -0.54247332254130864 -1.0233856707500375 1.9642983093299968 3.8277683527846089 -2.0419808898821916
leaf_weight=1977 572 962 380 2082 105 141 2314 104 256 338 918 1519 822 577 363 1125 351 1855 10200 105 33 464 150 514 1104 2523 1150 187 38 101
leaf_count=1977 572 962 380 2082 105 141 2314 104 256 338 918 1519 822 577 363 1125 351 1855 10200 105 33 464 150 514 1104 2523 1150 187 38 101
internal_value=0.00196088 -0.713278 1.72998 -0.120828 1.25078 1.06744 0.716229 2.1796 0.432259 1.07444 -1.10123 2.54096 2.19912 2.48124 1.62476 2.01277 0.936783 0.309416 -1.15698 -0.435031 0.779011 3.0381 1.32688 -0.503548 -0.600604 -0.769309 -1.49996 1.83354 0.940303 -0.437301
internal_weight=33330 23573 9757 9328 6133 5122 3142 1011 2570 442 14245 3624 2105 1725 1980 1266 714 3937 13327 5391 288 569 255 5103 4589 3627 3127 903 326 139
internal_count=33330 23573 9757 9328 6133 5122 3142 1011 2570 442 14245 3624 2105 1725 1980 1266 714 3937 13327 5391 288 569 255 5103 4589 3627 3127 903 326 139
is_linear=0
shrinkage=0.1


Tree=10
num_leaves=31
num_cat=0
split_feature=1 1 1 7 4 3 5 3 4 4 3 1 4 4 4 6 3 7 5 3 3 4 4 4 7 4 7 4 7 6
split_gain=3.40664e+06 460258 326937 108987 101737 101117 98923.6 67140.7 60291.3 73355.3 76263.1 58205.2 101807 81319.4 56773.1 48756.7 48545.9 40264.2 41716.6 71495.1 37881.3 52653.6 36293.1 36130.5 38573.9 36058.1 35614 33625.2 54858.9 45094
threshold=51.277724777770445 81.443576043402913 26.187327652205337 6.5080917825000002 10.500000000000002 13.500000000000002 1.0000000180025095e-35 13.500000000000002 2.5000000000000004 6.5000000000000009 15.500000000000002 116.82473718540537 11.500000000000002 2.5000000000000004 1.5000000000000002 6.6200986300000011 1.5000000000000002 6.1902346375000006 1.0000000180025095e-35 11.500000000000002 9.5000000000000018 10.500000000000002 5.5000000000000009 4.5000000000000009 2.6651619700000007 4.5000000000000009 8.1208467075000019 2.5000000000000004 8.8779590950000014 7.7241513100000008
decision_type=2 2 2 2 2 2 2 2 2 2 2 2 2 2 2 2 2 2 2 2 2 2 2 2 2 2 2 2 2 2
left_child=2 4 8 20 7 -4 -5 16 -1 10 -10 -8 13 -13 -9 -7 -2 -6 -19 -20 22 25 -3 24 -16 -22 -11 28 29 -18
right_child=1 3 5 6 17 15 11 14 9 26 -12 12 -14 -15 23 -17 27 18 19 -21 21 -23 -24 -25 -26 -27 -28 -29 -30 -31
leaf_value=-1.5198837184469187 1.2753634715972511 1.356814177853338 -0.53248846758982105 2.8316193252322326 0.62817124525705981 -0.0824185800628362 1.4081623494018967 -0.75770134882628914 -0.96389493991680042 -1.2572589440211193 -0.14246718753305651 -0.4579647717634579 -0.30085880914703012 2.9105149878820087 6.1899908338274274 0.72997974605556737 0.25278778825838544 2.8363387896896093 2.6827516602521597 -0.27276838959432115 2.6198520315544949 4.0538316509940406 -0.61565277758909742 0.98777110913512756 1.8096343352726312 0.66951762105027834 -0.17961034360084616 0.072207160030652362 -1.6191755273667248 3.0837049148309585
leaf_weight=2199 491 178 5764 1942 234 2804 1278 150 3052 5171 1795 77 128 1035 21 1003 97 391 176 153 133 77 196 1275 471 330 326 2405 55 134
leaf_count=2199 491 178 5764 1942 234 2804 1278 150 3052 5171 1795 77 128 1035 21 1003 97 391 176 153 133 77 196 1275 471 330 326 2405 55 134
internal_value=0.015947 1.41793 -0.708501 2.09148 0.819933 -0.268331 2.29535 0.642601 -1.04438 -0.943288 -0.659694 1.88175 2.36985 2.67727 1.11011 0.131618 0.36095 1.76775 2.13811 1.3083 1.09669 1.63246 0.323115 1.26867 1.9966 1.22976 -1.19335 0.194106 1.21917 1.89496
internal_weight=33541 11427 22114 5374 6053 9571 4460 5099 12543 10344 4847 2518 1240 1112 1917 3807 3182 954 720 329 914 540 374 1767 492 463 5497 2691 286 231
internal_count=33541 11427 22114 5374 6053 9571 4460 5099 12543 10344 4847 2518 1240 1112 1917 3807 3182 954 720 329 914 540 374 1767 492 463 5497 2691 286 231
is_linear=0
shrinkage=0.1


Tree=11
num_leaves=31
num_cat=0
split_feature=6 1 1 7 4 3 4 3 4 7 5 4 4 3 4 4 7 4 4 3 4 4 4 3 1 4 4 3 7 7
split_gain=2.77231e+06 398328 255967 131821 97383.3 95348.4 87731.3 66316.5 63097.9 107110 77571.3 45282.7 56729.3 58034.8 43700.7 63203.8 53467.4 43101.6 69315.9 41701.3 51775.3 45818.7 49926.8 62740.5 50105.7 72852.7 42303.3 40846 46870.3 38832.1
threshold=7.1287835700000004 106.74803890332407 25.309824538289991 10.420738775000002 10.500000000000002 10.500000000000002 3.5000000000000004 12.500000000000002 11.500000000000002 12.609465410000004 1.0000000180025095e-35 2.5000000000000004 6.5000000000000009 15.500000000000002 1.5000000000000002 4.5000000000000009 2.6180537420000003 2.5000000000000004 1.5000000000000002 15.500000000000002 3.5000000000000004 10.500000000000002 5.5000000000000009 10.500000000000002 128.17162550989738 4.5000000000000009 9.5000000000000018 9.5000000000000018 6.1902346375000006 8.1208467075000019
decision_type=2 2 2 2 2 2 2 2 2 2 2 2 2 2 2 2 2 2 2 2 2 2 2 2 2 2 2 2 2 2
left_child=2 3 11 4 5 6 -2 -4 17 10 -10 -1 13 -13 -7 16 -16 18 -3 20 29 22 23 -22 25 -25 -21 28 -6 -19
right_child=1 8 7 -5 27 14 -8 -9 9 -11 -12 12 -14 -15 15 -17 -18 19 -20 26 21 -23 -24 24 -26 -27 -28 -29 -30 -31
leaf_value=-1.3703303702019021 1.3756704865696117 4.544046512464198 -0.4932479756969701 2.0151579651485387 0.57176569454253667 -0.30013366574381556 0.015306233174156102 0.030796890438922083 5.018735864427355 -2.1561522462281837 0.72678023151994697 -0.88165238845377858 -1.0872720769261823 -0.15363465464957382 6.7700585885481406 0.85885730624802192 1.7670756457859409 1.5184530977932913 -0.14272935918573101 2.7494210089215647 3.4607389873905579 3.3581700704467132 1.1713578625721932 -4.8256441860363406 2.3316494841043278 1.6600404295810436 4.4735747180752838 1.0783940548193456 2.7714225716977818 4.7264253902696929
leaf_weight=2141 576 41 5582 991 126 233 2679 4256 63 83 127 2931 5309 1748 22 2291 736 53 137 726 289 213 633 29 131 43 177 625 419 131
leaf_count=2141 576 41 5582 991 126 233 2679 4256 63 83 127 2931 5309 1748 22 2291 736 53 137 726 289 213 633 29 131 43 177 625 419 131
internal_value=0.0143523 1.26685 -0.645565 0.929512 0.789915 0.639531 0.256034 -0.266542 2.28707 0.840736 2.1499 -0.952995 -0.863537 -0.609677 1.01987 1.12074 1.91228 2.43876 0.936809 2.54901 2.22959 2.0133 1.75867 2.5143 1.16692 -0.952249 3.08738 1.63014 2.26288 3.80239
internal_weight=33541 11574 21967 8698 7707 6537 3255 9838 2876 273 190 12129 9988 4679 3282 3049 758 2603 178 2425 1522 1338 1125 492 203 72 903 1170 545 184
internal_count=33541 11574 21967 8698 7707 6537 3255 9838 2876 273 190 12129 9988 4679 3282 3049 758 2603 178 2425 1522 1338 1125 492 203 72 903 1170 545 184
is_linear=0
shrinkage=0.1


Tree=12
num_leaves=31
num_cat=0
split_feature=0 6 0 4 3 3 4 0 4 0 4 6 4 4 3 3 4 3 3 4 3 0 4 5 3 0 6 4 3 4
split_gain=2.25534e+06 312805 237776 85096 71438.8 70607.8 69931.9 53146.5 50284.1 66520.5 48187.8 59602 47951 44574.4 44196.2 35691.5 34482.2 32085.8 30156.3 58866.2 60113.5 38157.3 32332.6 30111.5 53709.2 29766.8 29240.9 35024.1 27605.6 45556.4
threshold=7.5498919000000013 5.7347298315000002 10.331894222500001 10.500000000000002 12.500000000000002 12.500000000000002 3.5000000000000004 3.2313431280000002 11.500000000000002 12.609465410000004 6.5000000000000009 8.9817536680000014 8.5000000000000018 11.500000000000002 14.500000000000002 5.5000000000000009 10.500000000000002 1.5000000000000002 15.500000000000002 5.5000000000000009 10.500000000000002 14.706042875000001 4.5000000000000009 1.0000000180025095e-35 8.5000000000000018 9.8380665725000025 6.8609252800000018 1.5000000000000002 18.500000000000004 9.5000000000000018
decision_type=2 2 2 2 2 2 2 2 2 2 2 2 2 2 2 2 2 2 2 2 2 2 2 2 2 2 2 2 2 2
left_child=1 7 3 5 13 6 -2 -1 16 14 11 -7 -12 -3 15 -10 18 -8 19 20 -4 -21 -20 -5 -25 -26 -6 -28 -9 -30
right_child=2 4 8 23 26 10 17 28 9 -11 12 -13 -14 -15 -16 -17 -18 -19 22 21 -22 -23 -24 24 25 -27 27 -29 29 -31
leaf_value=-1.0657266850981715 1.4537031603671018 -0.34715290895273165 3.1492783690550752 2.21779515799575 0.10475982268424069 1.0575926059147662 1.0734678687460797 -0.74534263619394359 3.9409058570861819 -1.3459877581940485 -0.06471162014022952 2.313542795220267 1.3845926806969784 1.0464666536031675 4.2051741040066668 -0.14187626930383535 3.2597755654251084 0.13823987748119171 1.4600666467688586 0.89920279581771523 1.3667810152495101 4.9642259120941166 2.8274252352372393 3.0034505559772744 0.27912785728417694 3.1332660113166018 -1.523121625807748 0.82574346998507719 -0.17365438902447092 -1.3834417779565507
leaf_weight=4614 639 4446 425 635 2284 965 438 8439 28 97 471 621 443 242 57 91 267 2258 228 610 341 24 716 122 336 41 67 1209 2019 368
leaf_count=4614 639 4446 425 635 2284 965 438 8439 28 97 471 621 443 242 57 91 267 2258 228 610 341 24 716 122 336 41 67 1209 2019 368
internal_value=0.0129171 -0.51594 1.28436 0.968345 -0.0187501 0.814297 0.513116 -0.781537 2.048 0.756662 1.21607 1.54936 0.637741 -0.275213 1.91551 0.818778 2.18302 0.29018 2.06037 1.76584 2.35576 1.05308 2.49717 1.761 1.1797 0.589525 0.318974 0.70241 -0.660416 -0.360165
internal_weight=33541 23688 9853 6969 8248 5835 3335 15440 2884 273 2500 1586 914 4688 176 119 2611 2696 2344 1400 766 634 944 1134 499 377 3560 1276 10826 2387
internal_count=33541 23688 9853 6969 8248 5835 3335 15440 2884 273 2500 1586 914 4688 176 119 2611 2696 2344 1400 766 634 944 1134 499 377 3560 1276 10826 2387
is_linear=0
shrinkage=0.1


Tree=13
num_leaves=31
num_cat=0
split_feature=0 6 6 4 3 7 5 7 4 7 3 7 4 3 0 4 4 7 4 4 4 3 4 4 7 7 4 6 4 4
split_gain=1.83431e+06 258260 179862 70729.4 67940.7 61518.8 71021.1 43727.8 66185.9 68830.3 43995.6 55595.8 49731.9 45481.9 38438.6 57374.7 54366.5 35813.4 97878.2 34948.2 46081.7 45199.3 34736.4 45487.8 35864.5 35240 40771.1 32896.1 31848.8 38715.6
threshold=7.1608466510000008 9.0246094675000013 4.9173785545000017 8.5000000000000018 14.500000000000002 6.5080917825000002 1.0000000180025095e-35 6.6532266000000009 4.5000000000000009 5.5967033425000006 4.5000000000000009 7.9489322100000006 3.5000000000000004 14.500000000000002 10.808549262500001 11.500000000000002 2.5000000000000004 12.146429315000002 11.500000000000002 2.5000000000000004 6.5000000000000009 15.500000000000002 10.500000000000002 5.5000000000000009 10.420738775000002 7.4181793175000008 9.5000000000000018 6.6200986300000011 1.5000000000000002 7.5000000000000009
decision_type=2 2 2 2 2 2 2 2 2 2 2 2 2 2 2 2 2 2 2 2 2 2 2 2 2 2 2 2 2 2
left_child=2 3 19 7 -4 -3 17 8 9 -2 11 12 -9 -12 -8 16 -16 22 -19 -1 21 -21 23 -7 -24 26 -25 -6 -29 -30
right_child=1 5 4 -5 27 6 14 10 -10 -11 13 -13 -14 -15 15 -17 -18 18 -20 20 -22 -23 24 25 -26 -27 -28 28 29 -31
leaf_value=-1.1646177426587305 1.5451578344208201 0.77447329423678624 -0.4109325295220928 1.1213428657230322 -0.049740875082941706 2.7555052015804442 0.96040164839967268 6.4066498184204113 -0.38289311480059318 -0.55071434611805314 0.0066023784022265081 0.7588694623934471 2.1225578420360884 1.0197573091571301 -0.59262500449821542 -0.26479763821698726 2.1616200332610829 1.9131490058488976 -2.4898108164469406 -0.72319524998614149 -0.91767927787907311 -0.067346979262820322 2.8195797438399737 1.2940821003082188 5.6409510160747329 1.8104540004255705 -3.7221784472465518 -1.9016870970421651 1.3351649051484764 -0.0048337668819657606
leaf_weight=2063 455 869 6729 1783 2851 621 1290 35 1320 239 1009 301 120 790 77 128 1035 442 57 2803 5056 1681 215 43 57 515 26 47 511 373
leaf_count=2063 455 869 6729 1783 2851 621 1290 35 1320 239 1009 301 120 790 77 128 1035 442 57 2803 5056 1681 215 43 57 515 26 47 511 373
internal_value=0.0116254 1.04039 -0.51997 0.592365 -0.22033 1.54485 1.69341 0.37143 0.0327742 0.823381 0.673893 1.55123 3.08993 0.451512 1.34256 1.74012 1.9709 2.14264 1.41021 -0.791409 -0.710704 -0.477325 2.39009 2.15969 3.41082 1.52612 -0.596103 0.118793 0.634895 0.769758
internal_weight=33541 11427 22114 6052 10511 5375 4506 4269 2014 694 2255 456 155 1799 2530 1240 1112 1976 499 11603 9540 4484 1477 1205 272 584 69 3782 931 884
internal_count=33541 11427 22114 6052 10511 5375 4506 4269 2014 694 2255 456 155 1799 2530 1240 1112 1976 499 11603 9540 4484 1477 1205 272 584 69 3782 931 884
is_linear=0
shrinkage=0.1


Tree=14
num_leaves=31
num_cat=0
split_feature=0 0 0 7 7 7 3 3 4 4 7 7 4 4 7 4 4 3 4 0 4 7 3 4 4 5 4 7 5 4
split_gain=1.49747e+06 245757 134672 73896.4 53904.3 41373.3 54556.7 51193.1 62818.5 57381.2 57692 54054.3 46456.8 49787.8 40552.3 38589.1 37941.8 34148.5 54166.7 36867.2 32775.7 49607.4 42048.1 36002.7 50691.4 34943.7 32336.5 69125.4 45750.7 31186.8
threshold=7.7629027250000009 5.875006592500001 10.331894222500001 10.420738775000002 8.1208467075000019 6.4483599000000007 4.5000000000000009 10.500000000000002 7.5000000000000009 2.5000000000000004 9.682338310000004 8.5256105500000015 4.5000000000000009 9.5000000000000018 5.5678515025000008 2.5000000000000004 3.5000000000000004 16.500000000000004 9.5000000000000018 2.0717026715000002 10.500000000000002 8.1208467075000019 8.5000000000000018 3.5000000000000004 5.5000000000000009 1.0000000180025095e-35 11.500000000000002 12.609465410000004 1.0000000180025095e-35 10.500000000000002
decision_type=2 2 2 2 2 2 2 2 2 2 2 2 2 2 2 2 2 2 2 2 2 2 2 2 2 2 2 2 2 2
left_child=1 4 3 5 17 12 -7 8 9 10 -8 -11 14 -14 -2 -5 -17 19 -19 -1 21 22 23 -3 -25 -23 -4 28 -28 -18
right_child=2 20 26 15 -6 6 7 -9 -10 11 -12 -13 13 -15 -16 16 29 18 -20 -21 -22 25 -24 24 -26 -27 27 -29 -30 -31
leaf_value=-1.404510958009896 1.6813119165848676 0.2537193886277912 1.7823145896744244 -0.48042109095387997 -0.018620716082139607 1.7468466477939324 2.6650434953825819 1.0384164049519244 1.1910649108243925 -0.1584534881936169 -3.0413945615291595 -2.3321539583152897 -0.28947567666133472 1.1621322460792247 -0.24607988880837667 4.0769670967012646 1.2966431099876221 -0.291739893873871 -1.2611032024396269 -0.72127854654922396 0.5473409149096029 0.8867546376682921 0.076009943700847737 -1.3532660194965036 -0.29821992575701911 -0.19901476606838905 3.8934083060612759 -1.7690608646496235 0.59728351277629221 2.8404615873366263
leaf_weight=861 381 555 2611 72 1347 645 91 1821 357 317 22 179 1073 303 153 75 494 3666 684 9547 1118 876 3359 688 1347 448 63 83 127 178
leaf_count=861 381 555 2611 72 1347 645 91 1821 357 317 22 179 1073 303 153 75 494 3666 684 9547 1118 876 3359 688 1347 448 63 83 127 178
internal_value=0.0104628 -0.395558 1.11006 0.846061 -0.624187 0.710456 0.918067 0.726261 0.137819 -0.479601 1.55406 -0.942914 0.337407 0.0301735 1.12908 1.73056 1.94366 -0.679458 -0.444164 -0.777799 0.0432544 -0.0342333 -0.157441 -0.460207 -0.654914 0.519364 1.67404 0.63849 1.69021 1.70557
internal_weight=33541 24496 9045 6161 16105 5342 3432 2787 966 609 113 496 1910 1376 534 819 747 14758 4350 10408 8391 7273 5949 2590 2035 1324 2884 273 190 672
internal_count=33541 24496 9045 6161 16105 5342 3432 2787 966 609 113 496 1910 1376 534 819 747 14758 4350 10408 8391 7273 5949 2590 2035 1324 2884 273 190 672
is_linear=0
shrinkage=0.1


Tree=15
num_leaves=31
num_cat=0
split_feature=6 6 0 4 3 3 4 4 4 5 4 4 4 4 0 4 0 3 6 3 6 3 3 6 3 3 5 3 4 4
split_gain=1.20095e+06 266680 73095.2 65874.2 60658.7 50082 45849.2 69940 44826.2 42137 57981.7 40143.5 38328 37182.3 48003.7 29851.1 29321.1 27698.3 43436.8 40596.4 27239.1 30168.8 26997.6 30198.6 26451.3 57585 26426.4 34822.7 25768 25441.4
threshold=8.1600929905000008 6.1137514790000003 11.054326225000002 10.500000000000002 14.500000000000002 16.500000000000004 10.500000000000002 5.5000000000000009 7.5000000000000009 1.0000000180025095e-35 9.5000000000000018 1.5000000000000002 2.5000000000000004 11.500000000000002 12.609465410000004 2.5000000000000004 9.486145607500001 5.5000000000000009 9.3595947575000018 10.500000000000002 9.7656942450000024 1.5000000000000002 9.5000000000000018 8.9817536680000014 15.500000000000002 8.5000000000000018 1.0000000180025095e-35 21.500000000000004 2.5000000000000004 6.5000000000000009
decision_type=2 2 2 2 2 2 2 2 2 2 2 2 2 2 2 2 2 2 2 2 2 2 2 2 2 2 2 2 2 2
left_child=1 9 4 5 6 -3 7 17 11 10 12 -7 -1 15 24 -4 22 18 -2 28 -18 -22 -8 -24 25 -15 27 -5 -19 -9
right_child=2 3 13 26 -6 8 16 29 -10 -11 -12 -13 -14 14 -16 -17 20 19 -20 -21 21 -23 23 -25 -26 -27 -28 -29 -30 -31
leaf_value=-0.73528756122975469 0.81295909164242508 -0.14913900457233267 0.14630451865285357 1.5694894060633497 1.3184990442523414 -0.9024809319884689 1.4770156439316149 -0.58793141127384285 -0.34135764456038947 -0.72133576600239213 -0.97183908202286995 0.9105873619540944 -0.17224342352791644 4.1808944609857379 -1.2764849879078031 1.870925681345966 3.8620502910680248 1.1682610777954712 2.5238522440551288 1.3824923883152822 -1.5781127177751983 2.0515790953300894 0.86074178831508519 -2.5552301173813121 4.2486118747342019 -1.3261795005019832 0.27379722825884822 -0.35939811942851652 -0.52216271508449141 0.29357860581652551
leaf_weight=1535 363 5317 107 545 2184 135 192 456 529 8620 1517 1280 5693 31 97 1618 72 127 251 378 26 192 65 43 31 49 500 113 311 1161
leaf_count=1535 363 5317 107 545 2184 135 192 456 529 8620 1517 1280 5693 31 97 1618 72 127 251 378 26 192 65 43 31 49 500 113 311 1161
internal_value=-0.0123499 -0.340506 1.07885 0.121371 0.901924 0.00966349 0.651773 0.495536 0.444001 -0.564437 -0.40978 0.737609 -0.291816 1.61165 0.34862 1.76395 1.45864 1.005 1.51236 0.623234 2.17565 1.61868 0.765534 -0.499321 1.76876 0.807812 0.821812 1.23824 -0.032017 0.0449895
internal_weight=33538 25784 7754 8419 5821 7261 3637 3047 1944 17365 8745 1415 7228 1933 208 1725 590 1430 614 816 290 218 300 108 111 80 1158 658 438 1617
internal_count=33538 25784 7754 8419 5821 7261 3637 3047 1944 17365 8745 1415 7228 1933 208 1725 590 1430 614 816 290 218 300 108 111 80 1158 658 438 1617
is_linear=0
shrinkage=0.1


Tree=16
num_leaves=31
num_cat=0
split_feature=6 6 7 5 7 4 0 5 0 4 7 0 4 0 4 4 6 0 4 7 5 7 4 0 4 7 4 6 4 0
split_gain=980095 200898 72846 51908.1 75269.3 47593.2 47500.7 41390.2 39154.6 38541.8 34412.4 71323.2 58707.1 74196.1 39358.7 32145.9 31373.8 30710.3 28128.5 27130.1 27411.2 41625.6 45692.8 56594.4 26690.6 80793.1 54429.9 58145.5 27328.4 36598.7
threshold=6.7390870950000012 8.717739368500002 7.9120437800000003 1.0000000180025095e-35 5.2587025949999999 10.500000000000002 4.9173785545000017 1.0000000180025095e-35 10.709051005000005 4.5000000000000009 9.9812980700000029 12.609465410000004 8.5000000000000018 13.305352095000002 4.5000000000000009 2.5000000000000004 10.224987465000002 11.449290625000001 10.500000000000002 5.7645950075000014 1.0000000180025095e-35 8.8779590950000014 11.500000000000002 8.2914896590000016 10.500000000000002 13.305352095000002 5.5000000000000009 13.305352095000002 7.5000000000000009 12.146429315000002
decision_type=2 2 2 2 2 2 2 2 2 2 2 2 2 2 2 2 2 2 2 2 2 2 2 2 2 2 2 2 2 2
left_child=2 5 6 4 9 -2 -1 -4 -5 -3 11 18 15 17 -13 -12 -11 -14 -10 -7 21 -21 -23 -24 26 -26 -6 28 29 -28
right_child=1 3 7 8 24 19 -8 -9 10 16 12 14 13 -15 -16 -17 -18 -19 -20 20 -22 22 23 -25 25 -27 27 -29 -30 -31
leaf_value=-0.64731649366768151 0.18641651966939063 1.3491255316919495 0.45331044149090283 0.53257089009859482 1.9269527084477263 -0.12016136645010994 -0.31800731112539049 -0.45488487070501948 0.87132825267501168 -1.9257487516249381 -1.3786007367902333 0.94077492371583604 1.7945918756392267 -3.8969062328338624 4.647025399627509 1.7508626064866464 1.1567970299058492 -0.57307555530752452 2.6442215642062106 2.3178066126305921 0.48791432369944138 2.183741351208055 -2.2261084371805189 3.4024382342462958 2.7586774731429378 -1.812818287694177 0.37146803425133823 4.5274198699565167 1.2234141344697056 -3.4998132843810783
leaf_weight=10761 6043 103 1311 2006 1046 207 7387 813 480 124 36 39 90 50 108 372 45 140 110 321 361 83 80 23 383 43 402 42 503 26
leaf_count=10761 6043 103 1311 2006 1046 207 7387 813 480 124 36 39 90 50 108 372 45 140 110 321 361 83 80 23 383 43 402 42 503 26
internal_value=-0.0111149 0.657142 -0.448423 1.07587 1.40239 0.295478 -0.513274 0.105682 0.817294 -0.175651 1.2181 1.6929 0.709489 -0.405581 3.66373 1.47473 -1.10495 0.353403 1.20187 0.908556 1.15388 1.62807 0.437731 -0.969249 1.57795 2.29724 1.42618 0.887836 0.723644 0.136297
internal_weight=33538 13266 20272 6148 2717 7118 18148 2124 3431 272 1425 737 688 280 147 408 169 230 590 1075 868 507 186 103 2445 426 2019 973 931 428
internal_count=33538 13266 20272 6148 2717 7118 18148 2124 3431 272 1425 737 688 280 147 408 169 230 590 1075 868 507 186 103 2445 426 2019 973 931 428
is_linear=0
shrinkage=0.1


Tree=17
num_leaves=31
num_cat=0
split_feature=6 6 7 5 4 7 3 4 4 3 3 4 4 3 7 4 7 7 3 4 3 7 1 7 4 3 3 7 1 7
split_gain=796389 177116 67856.7 57363.4 46773.1 45047 43261.3 40193.2 48922.4 36490.8 35090.8 36671.7 47430.8 35549.4 32574.1 36342.7 31230.2 29497.3 30189.7 36001 28968.4 48460.7 28727.5 27986.8 30223 26643.6 35241.3 26043.5 42138.4 32167.9
threshold=8.1600929905000008 6.1137514790000003 6.5080917825000002 1.0000000180025095e-35 10.500000000000002 8.1208467075000019 19.500000000000004 4.5000000000000009 9.5000000000000018 15.500000000000002 8.5000000000000018 3.5000000000000004 5.5000000000000009 1.0000000180025095e-35 8.5753913805000028 2.5000000000000004 5.5678515025000008 3.1122812045000008 12.500000000000002 5.5000000000000009 20.500000000000004 5.5392392175000014 15.102960468257827 5.6267044000000004 1.5000000000000002 14.500000000000002 1.0000000180025095e-35 12.356532070000002 191.48748361986807 10.141152170000002
decision_type=2 2 2 2 2 2 2 2 2 2 2 2 2 2 2 2 2 2 2 2 2 2 2 2 2 2 2 2 2 2
left_child=1 14 7 -4 5 10 -7 16 17 -5 11 -3 13 -13 22 -16 -2 -9 19 -19 21 -12 -1 -22 -25 26 -17 29 -29 -11
right_child=2 4 3 9 -6 6 -8 8 -10 27 20 12 -14 -15 15 25 -18 18 -20 -21 23 -23 -24 24 -26 -27 -28 28 -30 -31
leaf_value=-0.6504339157648803 1.6733664875880028 0.39341492119853649 1.3686752480377526 0.58875054997717335 0.68939600105241383 0.18875457145653621 1.4361160430751863 -1.9883029924084743 1.1762370226646233 1.7147438750276571 0.73566873925096465 0.8023910503834486 -0.23450228829418923 -1.4855688057419463 -2.0471391896943789 2.077924866061057 -0.19285227282652781 0.64222773432731639 0.59030462357927771 -1.186815517158671 -1.2056318269974919 -0.13545951647513729 -0.38162320191993604 -2.8438253138462706 0.50567504062571311 0.90944424518148104 -0.44616857518026243 7.1512110686302179 1.5742784456837746 0.11783299521426034
leaf_weight=6832 311 473 2774 2668 1158 1157 366 96 281 406 1125 76 1352 638 74 62 126 155 340 352 303 1477 9509 30 264 375 513 20 42 183
leaf_count=6832 311 473 2774 2668 1158 1157 366 96 281 406 1125 76 1352 638 74 62 126 155 340 352 303 1477 9509 30 264 375 513 20 42 183
internal_value=-0.0100035 -0.277231 0.878597 1.03305 0.0991787 0.0050496 0.488514 0.312013 0.0180844 0.75254 -0.123273 -0.400856 -0.5827 -1.24203 -0.459725 0.0874025 1.13528 -0.327028 -0.138737 -0.627641 0.0970399 0.241181 -0.49401 -0.531194 0.163889 0.253672 -0.174005 1.4238 3.37329 1.21859
internal_weight=33538 25784 7754 6093 8419 7261 1523 1661 1224 3319 5738 2539 2066 714 17365 1024 437 943 847 507 3199 2602 16341 597 294 950 575 651 62 589
internal_count=33538 25784 7754 6093 8419 7261 1523 1661 1224 3319 5738 2539 2066 714 17365 1024 437 943 847 507 3199 2602 16341 597 294 950 575 651 62 589
is_linear=0
shrinkage=0.1


Tree=18
num_leaves=31
num_cat=0
split_feature=6 6 7 3 3 3 3 0 3 7 0 0 7 0 7 6 7 7 3 3 7 0 7 3 3 7 7 6 0 7
split_gain=649571 135129 49700.3 37877 37509.4 35529.3 35118.8 34798.9 32592.6 62059.2 34523.9 32552.2 31466.6 26431 26225.1 22209.2 22985.3 22075.8 90207.7 42731.3 35510.3 30699.5 24147.2 19422.4 19319.9 69846 24772.4 32864.5 26900.2 22675.5
threshold=6.7390870950000012 8.717739368500002 7.9120437800000003 16.500000000000004 16.500000000000004 1.0000000180025095e-35 14.500000000000002 11.054326225000002 10.500000000000002 9.682338310000004 12.609465410000004 4.3558221025000003 12.926553235 16.137617772500004 9.3049365260000005 12.356532070000002 7.1985590750000013 6.0068275050000013 5.5000000000000009 8.5000000000000018 3.3052539285000004 7.9440054700000013 9.4227685620000035 7.5000000000000009 20.500000000000004 5.6267044000000004 4.498762912500001 7.4128695500000008 7.9062552495000018 10.141152170000002
decision_type=2 2 2 2 2 2 2 2 2 2 2 2 2 2 2 2 2 2 2 2 2 2 2 2 2 2 2 2 2 2
left_child=2 3 11 17 7 -4 -7 14 12 10 -10 -1 15 -11 -3 -9 -17 19 22 -2 -21 -20 -19 -23 26 -26 27 -5 -28 -30
right_child=1 4 5 24 -6 6 -8 8 9 13 -12 -13 -14 -15 -16 16 -18 18 21 20 -22 23 -24 -25 25 -27 28 -29 29 -31
leaf_value=-0.56090771360611313 -0.56824365640034324 0.33598081865601193 1.7640473984678586 0.71040724062470983 1.2641510888975807 -0.37333703542360935 0.47149363022108787 1.6162812712741279 0.9725078402494276 -0.43446214022088792 3.144147322736345 -0.29255395597461731 0.47908638206923881 2.1123454446377963 0.97936441991437173 -0.051280078887939451 3.5940442012622955 1.2172155030979432 -0.42538182336761943 2.278532425517386 0.15241467134589382 -0.62962907520466604 0.17732402951546936 0.65359566832494398 -1.3002802055242451 0.79316509413939618 1.0360399231474151 3.4748007474839691 -0.59691409668231976 1.6400914012340078
leaf_weight=8523 1127 2096 120 93 1788 1136 868 315 215 357 111 9625 164 46 908 20 128 882 1339 88 732 149 299 566 215 616 654 80 221 57
leaf_count=8523 1127 2096 120 93 1788 1136 868 315 215 357 111 9625 164 46 908 20 128 882 1339 88 732 149 299 566 215 616 654 80 221 57
internal_value=-0.00900311 0.535027 -0.365017 0.238413 0.87844 0.0926701 -0.00741238 0.720262 1.14076 0.686083 1.71193 -0.418583 1.6694 -0.14376 0.530452 2.09102 3.10143 0.0974153 0.257539 -0.168635 0.380583 -0.142875 0.953941 0.386182 0.615815 0.25154 0.889764 1.98874 0.68577 -0.138248
internal_weight=33538 13266 20272 7118 6148 2124 2004 4360 1356 729 326 18148 627 403 3004 463 148 5182 3235 1947 820 2054 1181 715 1936 831 1105 173 932 278
internal_count=33538 13266 20272 7118 6148 2124 2004 4360 1356 729 326 18148 627 403 3004 463 148 5182 3235 1947 820 2054 1181 715 1936 831 1105 173 932 278
is_linear=0
shrinkage=0.1


end of trees

feature_importances:
month=173
hour=115
wind_lag_24h=104
wind_speed=78
wind_lag_1h=60
is_daytime=26
wind_speed_2=14

parameters:
[boosting: gbdt]
[objective: regression]
[metric: rmse]
[tree_learner: serial]
[device_type: cpu]
[data_sample_strategy: bagging]
[data: ]
[valid: ]
[num_iterations: 100]
[learning_rate: 0.1]
[num_leaves: 31]
[num_threads: 0]
[seed: 42]
[deterministic: 0]
[force_col_wise: 0]
[force_row_wise: 0]
[histogram_pool_size: -1]
[max_depth: -1]
[min_data_in_leaf: 20]
[min_sum_hessian_in_leaf: 0.001]
[bagging_fraction: 0.8]
[pos_bagging_fraction: 1]
[neg_bagging_fraction: 1]
[bagging_freq: 5]
[bagging_seed: 400]
[bagging_by_query: 0]
[feature_fraction: 0.9]
[feature_fraction_bynode: 1]
[feature_fraction_seed: 30056]
[extra_trees: 0]
[extra_seed: 12879]
[early_stopping_round: 0]
[early_stopping_min_delta: 0]
[first_metric_only: 0]
[max_delta_step: 0]
[lambda_l1: 0]
[lambda_l2: 0]
[linear_lambda: 0]
[min_gain_to_split: 0]
[drop_rate: 0.1]
[max_drop: 50]
[skip_drop: 0.5]
[xgboost_dart_mode: 0]
[uniform_drop: 0]
[drop_seed: 17869]
[top_rate: 0.2]
[other_rate: 0.1]
[min_data_per_group: 100]
[max_cat_threshold: 32]
[cat_l2: 10]
[cat_smooth: 10]
[max_cat_to_onehot: 4]
[top_k: 20]
[monotone_constraints: ]
[monotone_constraints_method: basic]
[monotone_penalty: 0]
[feature_contri: ]
[forcedsplits_filename: ]
[refit_decay_rate: 0.9]
[cegb_tradeoff: 1]
[cegb_penalty_split: 0]
[cegb_penalty_feature_lazy: ]
[cegb_penalty_feature_coupled: ]
[path_smooth: 0]
[interaction_constraints: ]
[verbosity: -1]
[saved_feature_importance_type: 0]
[use_quantized_grad: 0]
[num_grad_quant_bins: 4]
[quant_train_renew_leaf: 0]
[stochastic_rounding: 1]
[linear_tree: 0]
[max_bin: 255]
[max_bin_by_feature: ]
[min_data_in_bin: 3]
[bin_construct_sample_cnt: 200000]
[data_random_seed: 175]
[is_enable_sparse: 1]
[enable_bundle: 1]
[use_missing: 1]
[zero_as_missing: 0]
[feature_pre_filter: 1]
[pre_partition: 0]
[two_round: 0]
[header: 0]
[label_column: ]
[weight_column: ]
[group_column: ]
[ignore_column: ]
[categorical_feature: ]
[forcedbins_filename: ]
[precise_float_parser: 0]
[parser_config_file: ]
[objective_seed: 16083]
[num_class: 1]
[is_unbalance: 0]
[scale_pos_weight: 1]
[sigmoid: 1]
[boost_from_average: 1]
[reg_sqrt: 0]
[alpha: 0.9]
[fair_c: 1]
[poisson_max_delta_step: 0.7]
[tweedie_variance_power: 1.5]
[lambdarank_truncation_level: 30]
[lambdarank_norm: 1]
[label_gain: ]
[lambdarank_position_bias_regularization: 0]
[eval_at: ]
[multi_error_top_k: 1]
[auc_mu_weights: ]
[num_machines: 1]
[local_listen_port: 12400]
[time_out: 120]
[machine_list_filename: ]
[machines: ]
[gpu_platform_id: -1]
[gpu_device_id: -1]
[gpu_use_dp: 0]
[num_gpu: 1]

end of parameters

pandas_categorical:[]
