tree
version=v4
num_class=1
num_tree_per_iteration=1
label_index=0
max_feature_idx=7
objective=regression
feature_names=wind_speed wind_speed_2 wind_speed_3 hour month is_daytime wind_lag_1h wind_lag_24h
feature_infos=[0.08187419650000001:21.8970555] [0.0067033840525206135:479.48103957008027] [0.00054883418313103908:10499.222934663743] [0:23] [1:12] [0:1] [0.08187419650000001:21.8970555] [0.08187419650000001:21.8970555]
tree_sizes=2682 2730 2736 2717 2731 2731 2729 2748 2744 2730 2758 2757 2769 2757 2739 2752 2752 2767 2759 2716 2743 2700 2779 2749 2752 2806

Tree=0
num_leaves=31
num_cat=0
split_feature=6 6 6 3 4 4 0 6 0 0 4 7 4 6 3 3 7 4 4 3 3 7 3 4 7 3 3 7 3 3
split_gain=2.24231e+07 3.23838e+06 2.56321e+06 744589 576069 486648 353780 331965 292510 282117 328468 441207 247498 209314 199478 185816 164172 140953 192212 169860 159794 135826 132035 109165 101948 101224 98224.3 105433 97718 146900
threshold=8.071911367500002 5.4277708775000013 10.085450800000002 13.500000000000002 10.500000000000002 5.5000000000000009 3.915290450000001 8.9562210800000024 7.3441488975000011 11.196832462500003 11.500000000000002 13.891357375000004 10.500000000000002 6.9139703950000015 15.500000000000002 13.500000000000002 10.779029900000003 4.5000000000000009 10.500000000000002 14.500000000000002 5.5000000000000009 9.0026175125000023 17.500000000000004 1.5000000000000002 8.1447639625000026 9.5000000000000018 15.500000000000002 6.8854265800000007 16.500000000000004 7.5000000000000009
decision_type=2 2 2 2 2 2 2 2 2 2 2 2 2 2 2 2 2 2 2 2 2 2 2 2 2 2 2 2 2 2
left_child=1 6 4 8 5 7 24 14 -3 17 16 28 -10 21 -2 -7 -11 -4 19 -19 -20 -5 -22 -15 -1 -14 -8 -28 29 -12
right_child=2 3 9 13 -6 15 26 -9 12 10 11 -13 25 23 -16 -17 -18 18 20 -21 22 -23 -24 -25 -26 -27 27 -29 -30 -31
leaf_value=45.974570817827427 50.427673225593296 47.825296524331563 55.787268515479468 49.11660880521562 54.382526772850703 49.833969327734067 46.82280452434884 54.02835113954076 48.903603847407012 55.30657351606925 61.597150067432111 45.791392424958616 53.675846032232776 47.406645637685351 53.445830266741083 51.575757747667843 57.085413645423785 51.764573643437643 59.87837079090216 54.449471515945334 53.532067403370128 51.420183111085294 59.634699676682914 51.030302651364778 47.499547855246398 47.891757165599117 47.31277241054277 49.095063509370242 58.778847931781179 52.317409662369961
leaf_weight=6715 680 4867 446 2301 795 1492 3999 922 1517 888 20 70 166 88 323 1039 1248 510 75 438 202 288 43 1504 469 37 1642 416 52 116
leaf_count=6715 680 4867 446 2301 795 1492 3999 922 1517 888 20 70 166 88 323 1039 1248 510 75 438 202 288 43 1504 469 37 1642 416 52 116
internal_value=49.2146 47.5961 53.3666 48.8839 51.9028 51.4604 46.5488 52.6587 48.2214 55.2376 55.9388 52.5684 49.3424 49.9277 51.3996 50.549 56.3459 54.2582 53.7204 53.0051 55.8395 49.3729 54.6031 50.83 46.0741 52.6216 47.1117 47.673 55.0918 53.6821
internal_weight=33368 24009 9359 10768 5251 4456 13241 1925 6587 4108 2394 258 1720 4181 1003 2531 2136 1714 1268 948 320 2589 245 1592 7184 203 6057 2058 188 136
internal_count=33368 24009 9359 10768 5251 4456 13241 1925 6587 4108 2394 258 1720 4181 1003 2531 2136 1714 1268 948 320 2589 245 1592 7184 203 6057 2058 188 136
is_linear=0
shrinkage=1


Tree=1
num_leaves=31
num_cat=0
split_feature=0 0 0 3 4 0 4 0 4 5 4 3 0 0 0 4 7 0 7 3 3 7 3 4 3 4 7 0 3 4
split_gain=1.80768e+07 2.66773e+06 2.10137e+06 599637 506021 421200 359114 298694 236953 211156 234259 194404 182337 172656 161824 159609 154804 132792 124849 158575 122639 114044 105997 97840.1 117673 88434.2 85544.6 85540.9 85519.1 84135.3
threshold=8.0719700250000024 5.4922758325000016 10.291431975000004 13.500000000000002 10.500000000000002 8.9562210800000024 5.5000000000000009 3.915290450000001 11.500000000000002 1.0000000180025095e-35 11.500000000000002 14.500000000000002 6.9779486125000014 13.891357375000004 12.902588575000003 10.500000000000002 9.0026175125000023 7.3113686675000009 2.9910237475000008 3.5000000000000004 18.500000000000004 6.241538212500001 10.500000000000002 4.5000000000000009 14.500000000000002 6.5000000000000009 8.554397370000002 11.543413850000002 15.500000000000002 6.5000000000000009
decision_type=2 2 2 2 2 2 2 2 2 2 2 2 2 2 2 2 2 2 2 2 2 2 2 2 2 2 2 2 2 2
left_child=1 7 4 8 5 11 -7 26 17 21 14 -2 16 28 15 23 -5 -3 -10 -20 -9 -4 -8 -11 -25 -13 -1 -17 -12 -24
right_child=2 3 9 12 -6 6 22 20 18 10 13 25 -14 -15 -16 27 -18 -19 19 -21 -22 -23 29 24 -26 -27 -28 -29 -30 -31
leaf_value=-2.8798965737772262 0.53498168280949232 -1.2625471797385062 3.0179965255081012 -0.076951989992204262 4.7663102203053098 4.4539887805167195 0.89246886183505991 -2.1006789641490968 -2.6670699047107327 5.5851176790115797 2.1818885115864739 3.3164889503902986 1.5906986944792778 -4.9999643141223542 6.9499705203662678 5.7921714220867786 2.3204913962375922 -0.21181017034890548 6.2861862113896541 1.0165171129265052 -1.0517838898985725 6.6205994072796432 4.6396461467830132 2.8184717557520016 5.5286089151320255 1.1872187601797508 -1.2727514632388779 10.138691775004069 8.0379800138802366 2.1793081317102585
leaf_weight=6858 1565 4452 93 2303 860 1048 533 4843 51 393 178 477 1488 31 446 122 305 1648 85 174 1448 1593 176 528 230 330 348 72 29 661
leaf_count=6858 1565 4452 93 2303 860 1048 533 4843 51 393 178 477 1488 31 446 122 305 1648 85 174 1448 1593 176 528 230 330 348 72 29 661
internal_value=0.0212264 -1.43262 3.7475 -0.237698 2.53285 2.13185 3.06061 -2.36273 -0.841614 5.59482 4.90758 1.18507 0.707395 1.95999 5.29928 4.75191 0.203424 -0.978676 1.85542 2.74595 -1.85925 6.42188 1.99473 4.30468 3.64081 2.44578 -2.80228 7.40531 3.00231 2.69666
internal_weight=33368 24003 9365 10506 5650 4790 2418 13497 6410 3715 2029 2372 4096 238 1791 1345 2608 6100 310 259 6291 1686 1370 1151 758 807 7206 194 207 837
internal_count=33368 24003 9365 10506 5650 4790 2418 13497 6410 3715 2029 2372 4096 238 1791 1345 2608 6100 310 259 6291 1686 1370 1151 758 807 7206 194 207 837
is_linear=0
shrinkage=0.1


Tree=2
num_leaves=31
num_cat=0
split_feature=6 1 6 3 1 4 6 4 7 3 1 4 4 4 5 3 6 4 1 7 5 6 3 4 3 7 4 4 4 1
split_gain=1.47591e+07 2.19258e+06 1.69391e+06 494716 359091 326413 250579 226956 362124 213931 199243 220440 163209 252728 207670 186117 158813 146558 122889 114932 111054 113128 94104.5 93566.7 91339.8 91294.8 90311.7 85055.8 84495.8 84296.7
threshold=8.1068848250000034 29.460696700024126 9.5177857375000006 13.500000000000002 125.36905719366875 10.500000000000002 3.915290450000001 11.500000000000002 13.891357375000004 14.500000000000002 50.001242724191066 10.500000000000002 4.5000000000000009 10.500000000000002 1.0000000180025095e-35 13.500000000000002 6.5873449875000007 6.5000000000000009 166.47679193583136 5.9419326275000008 1.0000000180025095e-35 13.497500300000004 9.5000000000000018 1.5000000000000002 17.500000000000004 9.6365592575000019 9.5000000000000018 10.500000000000002 5.5000000000000009 80.213896060420069
decision_type=2 2 2 2 2 2 2 2 2 2 2 2 2 2 2 2 2 2 2 2 2 2 2 2 2 2 2 2 2 2
left_child=1 6 5 10 12 9 -1 18 20 28 -3 -12 -4 15 -15 -14 19 -11 27 -5 -9 25 -13 -18 -8 -22 -19 -6 29 -2
right_child=2 3 4 16 7 -7 24 8 -10 17 11 22 13 14 -16 -17 23 26 -20 -21 21 -23 -24 -25 -26 -27 -28 -29 -30 -31
leaf_value=-2.5456807043024292 0.91757320650112606 -1.1862644603436412 5.0624950790841226 -0.707137985683016 4.8638156193026001 4.0013805067023407 -1.9041867596797761 8.5293029769261679 -3.4463984680175788 3.4685057055413253 -0.3899362598284794 3.4985384112157463 1.7082726323509743 7.7239401361388618 3.6063939236691347 3.8672337810875002 -1.2975776223838329 0.47913023869543303 6.6964311581805234 0.81368453688723152 1.4544505441903461 -3.3952341715494789 -1.187256104991121 1.3738758696463815 -1.0223014768499505 7.3172209739685066 3.5635028036163443 7.4852308615616394 0.33106667042090754 2.992602301049395
leaf_weight=7176 586 4195 793 1108 1068 598 4470 60 70 698 2219 224 817 211 292 781 140 385 931 901 49 21 53 2064 1593 58 126 140 1247 294
leaf_count=7176 586 4195 793 1108 1068 598 4470 60 70 698 2219 224 817 211 292 781 140 385 931 901 49 21 53 2064 1593 58 126 140 1247 294
internal_value=0.0191037 -1.28092 3.42144 -0.230857 4.58989 1.84994 -2.14578 5.49509 2.69332 1.46428 -0.765341 -0.0579009 3.84013 3.37877 5.33363 2.76343 0.618001 2.52645 5.83304 -0.0250767 4.97939 3.31537 2.60198 1.20418 -1.67248 4.6324 1.23966 5.16762 0.860537 1.61082
internal_weight=33368 24143 9225 10904 5291 3934 13239 2397 258 3336 6691 2496 2894 2101 503 1598 4213 1209 2139 2009 188 128 277 2204 6063 107 511 1208 2127 880
internal_count=33368 24143 9225 10904 5291 3934 13239 2397 258 3336 6691 2496 2894 2101 503 1598 4213 1209 2139 2009 188 128 277 2204 6063 107 511 1208 2127 880
is_linear=0
shrinkage=0.1


Tree=3
num_leaves=31
num_cat=0
split_feature=6 6 6 6 4 4 4 6 5 4 7 0 0 4 4 4 4 4 4 6 4 7 4 6 7 7 7 4 7 4
split_gain=1.19697e+07 2.21358e+06 914150 385206 247860 227258 277095 212004 152036 172271 146893 111330 101480 116794 100046 112447 101977 89286.1 120831 87670.5 87540.5 107068 81621.9 79503 77747.8 113836 73128.1 82886.2 76938.2 71295
threshold=8.5082679950000024 5.5247414350000019 10.291431975000004 7.245267547500001 10.500000000000002 10.500000000000002 5.5000000000000009 3.915290450000001 1.0000000180025095e-35 11.500000000000002 9.0026175125000023 13.891357375000004 13.891357375000004 10.500000000000002 5.5000000000000009 6.5000000000000009 2.5000000000000004 4.5000000000000009 2.5000000000000004 9.0029502900000029 10.500000000000002 2.8535808325000005 6.5000000000000009 11.543413850000002 13.891357375000004 9.7007228750000021 3.915290450000001 11.500000000000002 5.311846182500001 7.5000000000000009
decision_type=2 2 2 2 2 2 2 2 2 2 2 2 2 2 2 2 2 2 2 2 2 2 2 2 2 2 2 2 2 2
left_child=1 7 5 10 -5 6 19 -1 14 12 20 24 13 17 16 -16 -4 18 -10 -2 -3 -22 -12 -15 25 -11 -9 -28 -29 -8
right_child=2 3 8 4 -6 -7 29 26 9 11 22 -13 -14 23 15 -17 -18 -19 -20 -21 21 -23 -24 -25 -26 -27 27 28 -30 -31
leaf_value=-2.2794738952197475 2.0147560190515428 -0.76745730041630134 3.7461209828278115 0.41803370986735361 2.7043948492930312 4.0697581034382111 0.76728778345746607 -2.0418447143454266 2.5295011871709274 0.86347655002366419 1.7971372808556301 -4.1584637918779928 6.1615376029695783 4.6384251691278866 2.1302906957116856 5.0532368380548913 6.7036137932225941 3.0501427304338327 5.9646564745663007 3.6431502605226664 -2.7410610355592024 0.83421489184742159 -0.27763082019040286 8.7103176358379901 -3.651513557434082 5.9158916258811951 -1.3809649642563206 3.1332947861064566 -0.70613873655229442 1.9583687347376963
leaf_weight=7216 492 5819 145 3941 539 685 1092 1745 156 110 407 31 252 122 157 814 595 858 298 1008 96 657 355 79 20 75 4434 77 162 931
leaf_count=7216 492 5819 145 3941 539 685 1092 1745 156 110 407 31 252 122 157 814 595 858 298 1008 96 657 355 79 20 75 4434 77 162 931
internal_value=0.0171934 -1.03941 3.4122 -0.0374878 0.693112 2.40315 2.0791 -1.90759 4.55608 3.96429 -0.483777 1.42683 4.30357 3.99411 5.24818 4.58063 6.12411 3.65022 4.78429 3.10904 -0.636168 0.378403 0.830546 6.23882 2.27143 2.91175 -1.48946 -1.28319 0.530834 1.31543
internal_weight=33368 25448 7920 11814 4480 4208 3523 13634 3712 2001 7334 236 1765 1513 1711 971 740 1312 454 1500 6572 753 762 201 205 185 6418 4673 239 2023
internal_count=33368 25448 7920 11814 4480 4208 3523 13634 3712 2001 7334 236 1765 1513 1711 971 740 1312 454 1500 6572 753 762 201 205 185 6418 4673 239 2023
is_linear=0
shrinkage=0.1


Tree=4
num_leaves=31
num_cat=0
split_feature=6 0 6 3 6 4 3 6 4 4 0 4 3 6 3 0 4 4 3 5 4 0 4 4 3 5 4 4 4 3
split_gain=9.72796e+06 1.413e+06 1.17578e+06 354325 236026 211316 187578 182523 155429 136908 244373 127776 105202 103298 100657 100632 94279.8 162498 146813 145703 74817.5 68232.5 66868.8 118051 64432.4 63188.2 62486.2 93823.2 144943 115483
threshold=8.071911367500002 5.5551670725000015 9.5177857375000006 12.500000000000002 11.078370425000003 10.500000000000002 14.500000000000002 3.915290450000001 11.500000000000002 11.500000000000002 13.891357375000004 6.5000000000000009 15.500000000000002 6.5873449875000007 2.5000000000000004 12.902588575000003 4.5000000000000009 10.500000000000002 13.500000000000002 1.0000000180025095e-35 9.5000000000000018 6.9139703950000015 6.5000000000000009 7.5000000000000009 10.500000000000002 1.0000000180025095e-35 10.500000000000002 4.5000000000000009 2.5000000000000004 15.500000000000002
decision_type=2 2 2 2 2 2 2 2 2 2 2 2 2 2 2 2 2 2 2 2 2 2 2 2 2 2 2 2 2 2
left_child=1 7 5 8 16 6 -2 -1 14 15 25 -8 -9 -5 -3 26 -4 18 -18 -19 -13 -10 -20 -24 -21 -11 27 28 -6 -29
right_child=2 3 4 13 9 -7 11 12 21 10 -12 20 -14 -15 -16 -17 17 19 22 24 -22 -23 23 -25 -26 -27 -28 29 -30 -31
leaf_value=-2.0616962981068907 0.61407854627929326 -0.046919655218741835 4.0524988884633819 -0.0085177981305934892 2.5241643271098537 3.184664619852807 3.0119587260641549 -1.6168841510698191 -0.12539277808232741 7.4034871191370728 -1.9927357020003074 0.28822214310629324 -0.76894894024129767 0.96990381633184097 -1.02708355810547 5.4790187958191323 1.2618154206768026 6.3465394978384371 4.4662104581052615 4.3761729507774545 3.0585884028511456 2.9290532567152163 0.52478861062402804 3.7630845949660734 1.336650692697958 3.2267792258739472 6.042212636423427 2.2138109212125774 6.2737073411844904 4.813081960599213
leaf_weight=7185 2206 1393 745 1988 156 612 722 4357 132 51 89 399 2203 2360 4227 930 774 206 275 138 129 164 184 290 141 125 151 460 304 272
leaf_count=7185 2206 1393 745 1988 156 612 722 4357 132 51 89 399 2203 2360 4227 930 774 206 275 138 129 164 184 290 141 125 151 460 304 272
internal_value=0.015474 -1.05057 2.75023 -0.162801 3.73304 1.47194 1.16865 -1.7135 -0.666502 4.42865 2.27763 2.14735 -1.33213 0.522548 -0.784135 4.67943 3.09175 2.7353 2.22765 4.32942 0.965073 1.56694 3.22572 2.50602 2.84007 4.43708 4.12573 3.88296 5.00212 3.17966
internal_weight=33368 24009 9359 10264 5291 4068 3456 13745 5916 2538 265 1250 6560 4348 5620 2273 2753 2008 1523 485 528 296 749 474 279 176 1343 1192 460 732
internal_count=33368 24009 9359 10264 5291 4068 3456 13745 5916 2538 265 1250 6560 4348 5620 2273 2753 2008 1523 485 528 296 749 474 279 176 1343 1192 460 732
is_linear=0
shrinkage=0.1


Tree=5
num_leaves=31
num_cat=0
split_feature=0 0 0 3 0 4 7 4 7 3 4 4 7 5 7 4 7 4 7 3 4 7 7 3 5 4 4 0 7 4
split_gain=7.7653e+06 1.44138e+06 507634 303742 241921 238391 132233 243838 325381 131320 128306 218417 110916 107920 90844.9 95050.2 90177.7 77710.4 73403.8 75513.4 93767.8 70556.5 68234.9 89332.6 71828 65234.1 82976.7 106763 64641.6 64311.5
threshold=8.5082679950000024 6.1591075050000006 10.291431975000004 14.500000000000002 3.9953287900000007 10.500000000000002 10.873956025000002 11.500000000000002 13.891357375000004 15.500000000000002 10.500000000000002 5.5000000000000009 6.8309460350000011 1.0000000180025095e-35 7.8792852100000017 1.5000000000000002 7.9212194900000013 2.5000000000000004 9.1113605600000032 18.500000000000004 5.5000000000000009 8.1447639625000026 6.241538212500001 14.500000000000002 1.0000000180025095e-35 4.5000000000000009 10.500000000000002 12.902588575000003 8.184269525000003 11.500000000000002
decision_type=2 2 2 2 2 2 2 2 2 2 2 2 2 2 2 2 2 2 2 2 2 2 2 2 2 2 2 2 2 2
left_child=1 4 10 5 21 14 22 17 13 29 11 16 -11 -9 -3 -16 -2 -8 -5 20 -20 -1 23 -4 -24 -19 27 -27 -13 -6
right_child=2 3 6 18 9 -7 7 8 -10 12 -12 28 -14 -15 15 -17 -18 25 19 -21 -22 -23 24 -25 -26 26 -28 -29 -30 -31
leaf_value=-1.9064308099804927 1.9122419694486081 -0.72598573512124898 0.225474567959706 0.72529342317304857 -1.4029165124757468 1.5616019608315916 2.4702139165330603 7.8707327804565423 -4.010165009317519 -0.87749635380348989 3.2680742895211399 0.53562819038671949 0.50318397884162591 1.1591734056887419 3.5644202920794488 0.01198242731441591 3.47344224436348 6.4131628839801458 2.9265961626742749 2.9372298391881642 -1.2611495210038077 -0.67568346324837769 4.1483552949472928 4.4562526474536304 2.8010441889979623 3.1301674319849511 7.5833260633224668 5.1989629028463051 1.6661383056344972 0.1691463863197373
leaf_weight=7001 745 3948 168 2664 5561 639 143 50 79 2224 677 1033 788 46 80 1287 735 241 94 334 124 499 618 71 1100 423 86 608 991 273
leaf_count=7001 745 3948 168 2664 5561 639 143 50 79 2224 677 1033 788 46 80 1287 735 241 94 334 124 499 618 71 1100 423 86 608 991 273
internal_value=0.000879456 -0.8438 2.75911 0.159671 -1.40674 -0.263311 3.62377 4.27569 0.743175 -1.05251 2.00778 1.76428 -0.516283 4.65478 -0.482712 0.219879 2.68757 4.68755 0.942766 1.9923 0.544576 -1.82455 3.06546 1.48232 3.2857 4.92104 4.5991 4.35017 1.08915 -1.32935
internal_weight=33330 25516 7814 9170 16346 5954 3633 1676 175 8846 4181 3504 3012 96 5315 1367 1480 1501 3216 552 218 7500 1957 239 1718 1358 1117 1031 2024 5834
internal_count=33330 25516 7814 9170 16346 5954 3633 1676 175 8846 4181 3504 3012 96 5315 1367 1480 1501 3216 552 218 7500 1957 239 1718 1358 1117 1031 2024 5834
is_linear=0
shrinkage=0.1


Tree=6
num_leaves=31
num_cat=0
split_feature=6 6 0 3 7 4 3 4 0 4 7 4 4 3 3 7 0 4 4 7 4 4 7 4 7 4 7 4 4 7
split_gain=6.3183e+06 962147 728609 223317 178436 166969 148888 161722 116785 91573.7 107141 89254.1 161893 93652.9 87253.3 82778.4 81658.1 84991.6 170594 202516 198263 92511.4 82453.4 81350.9 74148.5 83046.2 72704.8 69666 66924.7 68215.3
threshold=7.7200664125000014 9.3418851000000025 5.4277708775000013 14.500000000000002 8.5083571000000031 10.500000000000002 12.500000000000002 6.5000000000000009 2.9910237475000008 1.5000000000000002 8.4627796375000006 6.5000000000000009 9.5000000000000018 15.500000000000002 18.500000000000004 5.8433070250000014 16.109414475000005 5.5000000000000009 7.5000000000000009 13.891357375000004 11.500000000000002 2.5000000000000004 13.165188800000001 11.500000000000002 9.0026175125000023 6.5000000000000009 9.8742487500000014 7.5000000000000009 2.5000000000000004 9.9411420500000016
decision_type=2 2 2 2 2 2 2 2 2 2 2 2 2 2 2 2 2 2 2 2 2 2 2 2 2 2 2 2 2 2
left_child=2 5 8 23 11 6 9 -8 -1 10 -2 13 -13 -3 -10 -11 17 21 22 -20 -21 -6 -19 26 -5 28 -4 -9 -26 -30
right_child=1 4 3 24 16 -7 7 27 14 15 -12 12 -14 -15 -16 -17 -18 18 19 20 -22 -23 -24 -25 25 -27 -28 -29 29 -31
leaf_value=-1.822840426604456 0.97192966866272479 2.1521702988270048 -0.79079992424021928 0.20219264047221849 2.395187032337931 2.4535539894041665 2.2593109615552733 -0.77672752297927294 -1.3668102955432795 -0.84174532105899158 6.9242459932963065 -0.038365737863787566 2.762137441892683 4.4517840506118018 -0.61381196130265747 0.48884926566210291 5.0827524071030412 0.97162934933802581 3.719226270599469 4.224376875920254 -3.4736675380188746 4.2479459149482128 4.300492732122887 0.97700271535393424 -0.080419452917777898 0.13626305796730687 0.75484901368618018 1.161624316651807 6.0057904065409797 2.0996818704512514
leaf_weight=4503 108 653 5545 2953 359 686 1047 321 6811 671 42 421 405 243 1988 1542 243 552 1415 57 81 1081 86 302 59 213 322 439 79 103
leaf_count=4503 108 653 5545 2953 359 686 1047 321 6811 671 42 421 405 243 1988 1542 243 552 1415 57 81 1081 86 302 59 213 322 439 79 103
internal_value=0.000791525 2.03779 -0.92983 -0.264702 2.93156 1.00783 0.770001 1.4533 -1.40865 0.247474 2.63858 2.08459 1.33476 2.77584 -1.19668 0.0854019 3.30803 3.18926 2.79704 3.36261 -0.29404 3.78604 1.42035 -0.623581 0.385113 1.5749 -0.70597 0.342926 2.84639 3.79519
internal_weight=33330 10452 22878 9576 5596 4856 4170 1807 13302 2363 150 1722 826 896 8799 2213 3874 3631 2191 1553 138 1440 638 6169 3407 454 5867 760 241 182
internal_count=33330 10452 22878 9576 5596 4856 4170 1807 13302 2363 150 1722 826 896 8799 2213 3874 3631 2191 1553 138 1440 638 6169 3407 454 5867 760 241 182
is_linear=0
shrinkage=0.1


Tree=7
num_leaves=31
num_cat=0
split_feature=0 6 6 3 4 0 5 4 5 7 7 4 0 7 3 4 4 3 7 4 4 0 3 0 7 7 4 3 7 4
split_gain=5.15736e+06 1.04846e+06 280326 238874 165588 158760 97588.3 101814 81003.6 76990.9 73562.6 73078.5 83411.5 73035.1 85636.9 64261 98622 61544.5 59848.8 59094.7 81941.8 58049.7 67959.3 60672.6 59091.1 101201 57489.4 69412.5 57161.3 56162.2
threshold=8.6344743175000023 6.1861559925000007 10.291431975000004 14.500000000000002 10.500000000000002 4.3285324775000014 1.0000000180025095e-35 11.500000000000002 1.0000000180025095e-35 7.5759479775000012 7.7216464225000019 10.500000000000002 13.165188800000001 5.7400035500000017 2.5000000000000004 5.5000000000000009 6.5000000000000009 14.500000000000002 3.8735252300000007 5.5000000000000009 7.5000000000000009 13.891357375000004 15.500000000000002 10.873956025000002 8.7263408650000027 11.078370425000003 6.5000000000000009 3.5000000000000004 12.246462175000003 2.5000000000000004
decision_type=2 2 2 2 2 2 2 2 2 2 2 2 2 2 2 2 2 2 2 2 2 2 2 2 2 2 2 2 2 2
left_child=1 5 9 4 13 10 15 11 18 17 -1 12 -8 -3 -15 29 -17 -2 -7 -11 26 22 23 -9 -25 -26 -21 -28 -5 -4
right_child=2 3 6 28 -6 8 7 21 -10 19 -12 -13 -14 14 -16 16 -18 -19 -20 20 -22 -23 -24 24 25 -27 27 -29 -30 -31
leaf_value=-1.5328822927407253 0.76620972022257561 -0.85195900587524476 2.4622810388771481 0.80829827954092959 1.2944019705068315 -1.1716360465686486 2.0868312649441694 -2.7341985002477123 -1.1592748414706904 2.8215758790568319 -0.51428328742762131 4.5766086314595187 3.8201266250458277 0.85114822785689614 -0.35688876618947352 0.64313146142990563 3.408576429448317 2.164401871147188 -0.29196614922392178 2.1462726843778523 2.3008866399958401 -3.6903892517089845 5.4855377415815987 -2.0666185224757476 5.4396475583314903 -1.4767511043478461 3.4947891550064085 -0.51595472792311325 4.0888236304676093 4.6321754842647742
leaf_weight=7891 1082 2021 149 3240 667 1034 1160 47 3692 745 779 191 365 749 2710 154 793 444 3069 199 949 29 30 34 56 34 50 315 54 598
leaf_count=7891 1082 2021 149 3240 667 1034 1160 47 3692 745 779 191 365 749 2710 154 793 444 3069 199 949 29 30 34 56 34 50 315 54 598
internal_value=0.000712357 -0.665196 2.3244 0.174937 -0.193282 -1.14693 2.95092 2.46782 -0.819443 1.72172 -1.44136 2.73264 2.50169 -0.374355 -0.0953046 3.50588 2.95886 1.17302 -0.513652 2.09253 1.73355 0.492101 1.09554 0.325371 1.48505 2.82679 0.77894 0.0334622 0.862077 4.19936
internal_weight=33330 25906 7424 9441 6147 16465 3640 1946 7795 3784 8670 1716 1525 5480 3459 1694 947 1526 4103 2258 1513 230 201 171 124 90 564 365 3294 747
internal_count=33330 25906 7424 9441 6147 16465 3640 1946 7795 3784 8670 1716 1525 5480 3459 1694 947 1526 4103 2258 1513 230 201 171 124 90 564 365 3294 747
is_linear=0
shrinkage=0.1


Tree=8
num_leaves=31
num_cat=0
split_feature=0 0 0 3 7 3 0 4 4 7 3 3 7 4 7 3 5 4 3 4 0 7 4 7 4 4 7 4 4 7
split_gain=4.19692e+06 609618 463446 178129 119584 100743 90521.6 83760 104755 94545.6 78246.6 66726.4 63171.4 63114.8 72150 108146 61579.1 61675.2 76150.5 65994.4 65202.5 58491.5 93487.1 80417.6 64201.8 66391.4 65959.1 61138.7 56165 165815
threshold=8.0719700250000024 5.5551670725000015 9.5177857375000006 11.500000000000002 8.2593196750000022 2.5000000000000004 2.9910237475000008 10.500000000000002 5.5000000000000009 7.9212194900000013 18.500000000000004 14.500000000000002 3.2736649675000007 4.5000000000000009 6.241538212500001 3.5000000000000004 1.0000000180025095e-35 11.500000000000002 10.500000000000002 10.500000000000002 13.165188800000001 8.8620402500000015 6.5000000000000009 10.779029900000003 10.500000000000002 7.5000000000000009 3.7475511500000005 2.5000000000000004 11.500000000000002 2.9910237475000008
decision_type=2 2 2 2 2 2 2 2 2 2 2 2 2 2 2 2 2 2 2 2 2 2 2 2 2 2 2 2 2 2
left_child=1 6 7 5 11 28 -1 8 9 -2 -8 13 -12 -4 -15 -16 -6 19 -19 20 -18 24 27 -24 25 -5 -26 -23 -3 -30
right_child=2 3 4 21 16 -7 10 -9 -10 -11 12 -13 -14 14 15 -17 17 18 -20 -21 -22 22 23 -25 26 -27 -28 -29 29 -31
leaf_value=-1.4960588274538971 0.75781471074949358 0.049184117154864065 2.4530476667331631 0.30251856078358319 3.1438765045340364 -0.76034443527623241 -1.1061125296083594 2.0811254636552095 0.33793807160961059 2.3789012135846304 -1.3896261753784733 2.653536014366463 -0.10434390302572319 -0.68621920445357942 5.2089952797156123 0.79409316742994229 1.9900065852032314 3.4192511410780355 -0.58245455324649809 4.4830883036685902 3.5400664654065461 0.16879829872222174 -0.84427166637656414 2.8781937247998006 -1.3494196436827697 -0.67104668185778005 1.8185736274475333 2.9969586233810599 -3.6557288930333898 5.4819644307333331
leaf_weight=4504 837 1370 281 2628 1842 3996 7235 617 1964 631 503 457 1595 249 65 379 1208 71 144 158 350 105 269 74 79 955 391 281 29 63
leaf_count=4504 837 1370 281 2628 1842 3996 7235 617 1964 631 503 457 1595 249 65 379 1208 71 144 158 350 105 269 74 79 955 391 281 29 63
internal_value=0.000641131 -0.695004 1.81076 -0.110081 2.43502 -0.500478 -1.12787 1.00843 0.815585 1.45462 -0.950191 1.65664 -0.412493 1.1889 0.676302 1.44042 2.73024 2.33567 0.739039 2.53571 2.33822 0.335503 1.16015 -0.0411742 0.187177 0.043028 1.28608 2.22764 0.209802 2.6016
internal_weight=33330 24077 9253 10240 5204 5458 13837 4049 3432 1468 9333 1431 2098 974 693 444 3773 1931 215 1716 1558 4782 729 343 4053 3583 470 386 1462 92
internal_count=33330 24077 9253 10240 5204 5458 13837 4049 3432 1468 9333 1431 2098 974 693 444 3773 1931 215 1716 1558 4782 729 343 4053 3583 470 386 1462 92
is_linear=0
shrinkage=0.1


Tree=9
num_leaves=31
num_cat=0
split_feature=6 6 6 3 4 3 4 7 7 7 4 4 7 4 4 4 1 3 3 4 7 3 6 4 4 4 7 4 4 7
split_gain=3.45076e+06 558612 343761 132319 114475 103143 109170 98776.8 80752 71136.4 82008.3 68044.2 67265.1 78896.8 66579.3 124598 65702 65038.7 60362.6 57611.6 66662.9 55407.3 51155.4 61842.8 55730.3 123893 163270 142706 65099.2 60113.8
threshold=7.5747935500000008 9.3418851000000025 5.4277708775000013 15.500000000000002 10.500000000000002 12.500000000000002 6.5000000000000009 8.5083571000000031 8.554397370000002 7.8792852100000017 1.5000000000000002 9.5000000000000018 8.7687720075000026 6.5000000000000009 6.5000000000000009 9.5000000000000018 8.9462230581278046 15.500000000000002 1.5000000000000002 2.5000000000000004 10.779029900000003 1.5000000000000002 16.109414475000005 6.5000000000000009 5.5000000000000009 7.5000000000000009 13.891357375000004 11.500000000000002 2.5000000000000004 13.165188800000001
decision_type=2 2 2 2 2 2 2 2 2 2 2 2 2 2 2 2 2 2 2 2 2 2 2 2 2 2 2 2 2 2
left_child=2 4 8 18 5 9 -7 14 16 -2 -11 -8 -5 19 17 -16 -1 -3 -4 -14 -21 -12 24 -24 28 29 -27 -28 -9 -26
right_child=1 7 3 12 -6 6 11 22 -10 10 21 -13 13 -15 15 -17 -18 -19 -20 20 -22 -23 23 -25 25 26 27 -29 -30 -31
leaf_value=-1.4160640707428187 -0.2670207522426768 1.5991004269547293 0.26756249260918369 0.10717838066319119 1.8721446790557121 1.7284911547889505 -0.27958437534306974 1.6549168574973985 -0.085247749279571045 4.6701047401875257 2.4084945027677107 1.797416879514758 0.072487292867718323 0.010415498526008041 -0.33042804882585153 2.1264098791959181 -0.93312036620426897 3.5154738243960555 -0.62978392329117239 4.6808430727654038 0.46684618087915281 0.263175225427419 2.8056701789012539 6.2933638248178703 0.46320660216598841 2.8205644940510184 3.1242319650812584 -3.4761151372650527 3.2094829864116372 3.2913942056140684
leaf_weight=4295 1665 653 875 2456 749 1132 643 359 838 52 142 209 66 216 421 405 8186 243 5232 135 52 791 173 72 552 1416 55 81 1079 87
leaf_count=4295 1665 653 875 2456 749 1132 643 359 838 52 142 209 66 216 421 405 8186 243 5232 135 52 791 173 72 552 1416 55 81 1079 87
internal_value=0.000577014 1.45238 -0.712559 -0.236322 0.725099 0.539701 1.08495 2.15197 -1.03551 0.131484 0.8051 0.229915 0.316736 1.41412 1.52181 0.874196 -1.09931 2.11883 -0.501214 2.61255 3.50904 0.589687 2.43208 3.83063 2.33766 2.02019 2.5027 -0.806857 2.82138 0.848265
internal_weight=33330 10979 22351 9032 5383 4634 1984 5596 13319 2650 985 852 2925 469 1722 826 12481 896 6107 253 187 933 3874 245 3629 2191 1552 136 1438 639
internal_count=33330 10979 22351 9032 5383 4634 1984 5596 13319 2650 985 852 2925 469 1722 826 12481 896 6107 253 187 933 3874 245 3629 2191 1552 136 1438 639
is_linear=0
shrinkage=0.1


Tree=10
num_leaves=31
num_cat=0
split_feature=1 1 1 3 4 3 7 4 3 6 4 7 5 7 7 4 3 4 7 1 4 4 7 3 4 7 4 4 7 6
split_gain=2.86774e+06 457010 343664 104568 98014.4 105631 89729.9 88452.8 90007.4 86098.3 81966.8 80825.5 70975.5 65623.5 65172.7 63366.7 58218.9 58109.9 221404 81402 70260.2 56884.4 51000.4 49651.7 55194.6 49620.6 59134.7 48025.3 101322 76649.7
threshold=59.602657477129782 94.11789233270143 37.934605275647975 15.500000000000002 10.500000000000002 12.500000000000002 6.3038813225000014 10.500000000000002 10.500000000000002 4.8544429750000013 6.5000000000000009 2.9910237475000008 1.0000000180025095e-35 5.3971898575000017 3.9550838900000009 6.5000000000000009 1.5000000000000002 10.500000000000002 13.891357375000004 120.69643334374325 5.5000000000000009 1.5000000000000002 8.0016215675000009 19.500000000000004 1.5000000000000002 8.9085177875000028 11.500000000000002 4.5000000000000009 8.9560063175000035 8.1834829000000031
decision_type=2 2 2 2 2 2 2 2 2 2 2 2 2 2 2 2 2 2 2 2 2 2 2 2 2 2 2 2 2 2
left_child=2 4 3 21 5 13 -3 8 -4 -5 14 -9 17 -2 -7 22 -15 19 -19 20 -8 -1 23 24 -10 -13 -27 28 -16 -30
right_child=1 6 7 9 -6 10 12 11 15 -11 -12 25 -14 16 27 -17 -18 18 -20 -21 -22 -23 -24 -25 -26 26 -28 -29 29 -31
leaf_value=-1.7399836633708383 -0.69502993452887751 0.78489133407651512 -0.5186384845520795 -0.78864896073684387 1.7810937200934107 4.1884278297107276 2.8138756938704423 -2.2099242775780814 -1.4137117377916972 0.044143824732481761 0.41096055780285257 1.7822674515755617 1.8528781976077813 1.8647848773443283 0.018118934880045276 -0.3152033138698947 0.25615464498795332 5.0846398007402236 -2.5234780036078561 3.0440094404940985 0.86927312341319285 -0.96926628662874004 1.5655912694385214 -0.60140636249026291 1.0273631289338281 2.4617634192756985 -2.0178463126101147 2.1655728826442027 -0.59783323903878527 4.0592923634143459
leaf_weight=1063 651 479 3040 3745 813 94 315 70 105 1857 927 539 2362 257 432 1148 1806 255 45 973 453 9662 445 400 786 46 82 509 48 134
leaf_count=1063 651 479 3040 3745 813 94 315 70 105 1857 927 539 2362 257 432 1148 1806 255 45 973 453 9662 445 400 786 46 82 509 48 134
internal_value=0.0107078 1.37543 -0.615789 -0.862753 0.764848 0.594777 2.08469 -0.0104483 -0.138981 -0.512588 1.11942 1.02269 2.2261 0.180324 1.65905 0.261214 0.456551 2.65801 3.94342 2.43652 1.66686 -1.04566 0.642392 0.324171 0.739694 1.36195 -0.407987 1.44733 0.851916 2.83104
internal_weight=33541 10553 22988 16327 5671 4858 4882 6661 5924 5602 2144 737 4403 2714 1217 2884 2063 2041 300 1741 768 10725 1736 1291 891 667 128 1123 614 182
internal_count=33541 10553 22988 16327 5671 4858 4882 6661 5924 5602 2144 737 4403 2714 1217 2884 2063 2041 300 1741 768 10725 1736 1291 891 667 128 1123 614 182
is_linear=0
shrinkage=0.1


Tree=11
num_leaves=31
num_cat=0
split_feature=6 1 6 3 4 3 7 7 7 5 7 7 3 4 7 1 3 4 7 7 4 1 3 4 4 4 7 3 4 1
split_gain=2.33566e+06 431568 211508 106978 96799.2 90219.3 87686.5 69983.9 65812 65346.8 62342.6 60648 59528.7 58526.3 179569 73055.3 57674.4 75931.8 77799.2 57103 56311.1 55171 51211.7 47081.9 55007.9 84183.8 77230.8 46041.8 41551.9 54671.9
threshold=7.4714583925000015 90.588245344983804 4.8544429750000013 12.500000000000002 10.500000000000002 10.500000000000002 6.2137569100000016 3.9550838900000009 5.3971898575000017 1.0000000180025095e-35 11.851031200000003 7.7216464225000019 14.500000000000002 10.500000000000002 13.891357375000004 122.73029194989759 12.500000000000002 9.5000000000000018 8.3002015000000018 9.0026175125000023 5.5000000000000009 41.967444824710427 21.500000000000004 2.5000000000000004 7.5000000000000009 10.500000000000002 3.9953287900000007 19.500000000000004 11.500000000000002 192.96981048589822
decision_type=2 2 2 2 2 2 2 2 2 2 2 2 2 2 2 2 2 2 2 2 2 2 2 2 2 2 2 2 2 2
left_child=2 4 11 21 5 8 12 -7 -2 13 -9 -1 -3 15 -15 20 -13 -18 -19 23 -8 -4 -14 -5 -25 -26 -27 -21 -11 -30
right_child=1 6 3 19 -6 7 9 10 -10 28 -12 16 22 14 -16 -17 17 18 -20 27 -22 -23 -24 24 25 26 -28 -29 29 -31
leaf_value=-0.9880921807843065 -0.86329307823131485 -0.013197881703827588 -0.79704250360937745 -0.91644657078911274 1.5828499378714092 2.609068485115456 2.4493440309491183 0.6155591472307782 0.30672976382567219 1.7642951686528254 3.7760069003328685 -0.8851370157232028 3.3793270955302499 4.5279276949419103 -2.2711304389105904 2.7793328106580173 0.054285697146969028 7.2342296640388675 0.8416329995114753 0.098331244191984191 0.87071591343948573 -0.19242352940154955 -1.3445274879192484 0.37402698915692212 -0.97189371376599731 -1.6934549527884533 1.1752406943998477 1.9249498548053152 0.95671981200916556 -3.5650500806172687
leaf_weight=9710 642 394 3870 561 864 206 386 2520 1914 2282 64 569 110 284 45 927 424 32 47 274 545 2474 29 2293 958 119 444 278 246 30
leaf_count=9710 642 394 3870 561 864 206 386 2520 1914 2282 64 569 110 284 45 927 424 32 47 274 545 2474 29 2293 958 119 444 278 246 30
internal_value=0.00963705 1.16582 -0.592652 -0.289753 0.600768 0.442048 1.83066 0.835248 0.0128508 1.96727 0.693836 -0.909289 0.614512 2.36861 3.59797 2.15093 -0.195498 0.584631 3.43104 0.0598351 1.52523 -0.561256 2.39377 -0.0610905 0.0647235 -0.40157 0.568891 1.01826 1.62413 0.465223
internal_weight=33541 11488 22053 11271 6210 5346 5278 2790 2556 4745 2584 10782 533 2187 329 1858 1072 503 79 4927 931 6344 139 4375 3814 1521 563 552 2558 276
internal_count=33541 11488 22053 11271 6210 5346 5278 2790 2556 4745 2584 10782 533 2187 329 1858 1072 503 79 4927 931 6344 139 4375 3814 1521 563 552 2558 276
is_linear=0
shrinkage=0.1


Tree=12
num_leaves=31
num_cat=0
split_feature=6 0 0 4 3 3 4 4 4 3 4 4 4 4 4 3 6 4 0 6 4 4 3 3 6 4 3 4 4 0
split_gain=1.91082e+06 387863 159761 122450 87657.4 82704.3 76152.1 66309.4 68554 80678.2 65043 62046.9 110193 60188.4 62904.6 59054.1 55719.5 53828 58844.1 52481.7 51452.5 49440.3 48342.2 46850.1 44864.5 54995.4 71709 44389 44013.4 53995.9
threshold=8.5082679950000024 6.4497717425000012 10.697955175000002 10.500000000000002 14.500000000000002 10.500000000000002 2.5000000000000004 2.5000000000000004 4.5000000000000009 15.500000000000002 7.5000000000000009 5.5000000000000009 10.500000000000002 6.5000000000000009 4.5000000000000009 10.500000000000002 5.0101980875000018 6.5000000000000009 9.0029502900000029 7.1454206750000013 1.5000000000000002 5.5000000000000009 5.5000000000000009 2.5000000000000004 12.902588575000003 10.500000000000002 8.5000000000000018 7.5000000000000009 11.500000000000002 13.891357375000004
decision_type=2 2 2 2 2 2 2 2 2 2 2 2 2 2 2 2 2 2 2 2 2 2 2 2 2 2 2 2 2 2
left_child=1 4 11 5 20 23 -6 -4 -9 24 16 -2 15 14 -7 27 -8 18 -17 -16 -1 -21 -22 -3 25 -10 -27 -13 -26 -30
right_child=2 3 7 -5 6 13 10 8 9 -11 -12 12 -14 -15 19 17 -18 -19 -20 21 22 -23 -24 -25 28 26 -28 -29 29 -31
leaf_value=-1.5102925993308483 1.4974985407125567 0.28427890556894175 0.34863667474381599 1.2654945487540603 -1.1752208470126699 0.1675448474930081 -0.27883195767779906 3.1790412578904679 0.41356664581596853 2.6198085701338787 -0.66822148090593614 -0.80414340763160874 1.7691039171473475 -0.13056834384603461 0.42134179291337043 -0.15724006217458975 0.55125267906957121 0.49670547616563782 2.8389212108233521 2.692820423947591 -0.50697118597289481 0.88443815628580724 -0.95886181065186671 -0.52914143426038407 2.4637447130737278 4.8924246079581124 1.1375000248993599 0.52197728869361792 4.4026476782560353 -1.609825050224692
leaf_weight=1058 1746 971 239 902 1043 1042 2223 474 600 859 2229 524 803 1405 430 92 1271 1054 228 330 3971 279 5862 2615 469 70 186 487 20 59
leaf_count=1058 1746 971 239 902 1043 1042 2223 474 600 859 2229 524 803 1405 430 92 1271 1054 228 330 3971 279 5862 2615 469 70 186 487 20 59
internal_value=0.00867334 -0.410629 1.36735 0.168235 -0.672047 0.0282847 -0.389362 1.94602 2.08551 1.85646 -0.246141 1.01832 0.755884 0.375129 0.716553 0.414745 0.023125 0.841583 1.97752 1.26715 -0.847665 1.86435 -0.776368 -0.308887 1.38943 0.937132 2.16424 -0.165349 2.09593 -0.0876801
internal_weight=33541 25631 7910 7974 17657 7072 6766 2976 2737 2263 5723 4934 3188 3486 2081 2385 3494 1374 320 1039 10891 609 9833 3586 1404 856 256 1011 548 79
internal_count=33541 25631 7910 7974 17657 7072 6766 2976 2737 2263 5723 4934 3188 3486 2081 2385 3494 1374 320 1039 10891 609 9833 3586 1404 856 256 1011 548 79
is_linear=0
shrinkage=0.1


Tree=13
num_leaves=31
num_cat=0
split_feature=0 0 0 4 7 3 3 7 4 4 4 4 3 4 7 3 4 4 4 3 4 3 7 6 7 0 7 7 7 6
split_gain=1.54968e+06 360932 94011.8 91721.8 83582.2 76829.6 69731.4 68970.7 66421.1 60831 59041.8 57673 51714.7 49897.6 50737.7 45982.6 52161.4 45694.1 89126.9 70278.3 55402.2 44057 101869 51962.3 42571 44073.4 42474.5 41696.9 41374.8 41280.7
threshold=8.7691891850000019 6.2133534625000015 10.873956025000002 10.500000000000002 3.1827556025000008 11.500000000000002 14.500000000000002 7.8792852100000017 6.5000000000000009 2.5000000000000004 4.5000000000000009 1.5000000000000002 15.500000000000002 2.5000000000000004 6.951680125000002 2.5000000000000004 6.5000000000000009 10.500000000000002 5.5000000000000009 12.500000000000002 6.5000000000000009 8.5000000000000018 6.097464082500001 9.4599733075000021 11.196832462500003 7.4075859575000012 12.902588575000003 3.5312684450000007 9.8742487500000014 1.9218242750000003
decision_type=2 2 2 2 2 2 2 2 2 2 2 2 2 2 2 2 2 2 2 2 2 2 2 2 2 2 2 2 2 2
left_child=1 4 17 5 -1 7 28 -3 -7 -4 -11 -9 -12 -8 -15 16 24 18 26 -20 -21 22 -19 -24 25 -13 -2 -5 -6 -16
right_child=2 3 9 27 6 8 13 11 -10 10 12 15 -14 14 29 -17 -18 21 19 20 -22 -23 23 -25 -26 -27 -28 -29 -30 -31
leaf_value=-1.0345667622750925 1.3663836379480285 -0.47229116285454942 0.1650631767771272 -0.72661029435987556 -0.72918804009874694 0.68947492954485745 -0.97847648810006371 2.9583641394972804 -0.14701730399413007 2.9828747020796667 1.3040988837044312 1.2888898746590867 2.3305370955850999 -0.28305169033493549 2.9991574932658485 -0.21315533240592344 -0.26132905928332822 -1.1944033590952556 -0.13357462201674936 2.3543120045843438 0.63246661109852109 1.0096424329637861 1.6864745720193306 4.4126267983493479 -1.1956220969557763 4.4331125286363422 4.5529959129732713 1.1961177160992982 0.46589738010766102 0.36319796085671979
leaf_weight=3893 1535 3509 215 127 7712 2349 699 82 1593 431 1283 95 795 2891 63 793 153 60 1024 243 809 384 116 176 32 84 43 1008 301 1043
leaf_count=3893 1535 3509 215 127 7712 2349 699 82 1593 431 1283 95 795 2891 63 793 153 60 1024 243 809 384 116 176 32 84 43 1008 301 1043
internal_value=0.00780601 -0.344862 1.31789 0.135537 -0.629161 0.0251145 -0.504977 -0.245816 0.35144 1.77938 1.91772 0.39559 1.69679 -0.198998 -0.062682 0.213959 1.14446 1.03154 0.886743 0.456157 1.03019 1.7504 2.55849 3.32963 2.16382 2.76439 1.45322 0.980975 -0.684296 0.513348
internal_weight=33541 26427 7114 9825 16602 8690 12709 4748 3942 2724 2509 1239 2078 4696 3997 1157 364 4390 3654 2076 1052 736 352 292 211 179 1578 1135 8013 1106
internal_count=33541 26427 7114 9825 16602 8690 12709 4748 3942 2724 2509 1239 2078 4696 3997 1157 364 4390 3654 2076 1052 736 352 292 211 179 1578 1135 8013 1106
is_linear=0
shrinkage=0.1


Tree=14
num_leaves=31
num_cat=0
split_feature=0 6 6 4 7 4 3 3 5 4 7 3 7 3 4 7 3 7 7 3 7 4 4 4 4 7 4 4 4 7
split_gain=1.268e+06 229866 128770 59400.3 56757.9 57116.2 67570.3 55648.7 51104.9 49379.6 48858.4 46223.4 46041.8 51523.7 69147.9 58922.6 43297.5 73639.8 60942.8 71890.6 52718.8 43206.9 41554.9 48187.7 64281.5 54256.3 40376 41791.3 39720.4 134661
threshold=7.4717120175000016 9.5177857375000006 4.496195697500001 10.500000000000002 6.241538212500001 4.5000000000000009 3.5000000000000004 15.500000000000002 1.0000000180025095e-35 3.5000000000000004 6.7026758100000015 5.5000000000000009 7.7216464225000019 12.500000000000002 9.5000000000000018 8.554397370000002 12.500000000000002 3.9550838900000009 7.4079228775000017 1.5000000000000002 12.246462175000003 2.5000000000000004 2.5000000000000004 7.5000000000000009 10.500000000000002 3.4936633950000004 9.5000000000000018 6.5000000000000009 10.500000000000002 13.891357375000004
decision_type=2 2 2 2 2 2 2 2 2 2 2 2 2 2 2 2 2 2 2 2 2 2 2 2 2 2 2 2 2 2
left_child=2 3 12 16 5 6 -3 -4 28 -8 22 -7 -1 -14 21 -16 18 -18 -2 -20 -19 -15 -9 -24 -25 -26 27 -13 -6 -30
right_child=1 4 7 -5 8 11 9 10 -10 -11 -12 26 13 14 15 -17 17 20 19 -21 -22 -23 23 24 25 -27 -28 -29 29 -31
leaf_value=-0.78965615560389213 -0.32434427918783615 -2.1530662207139861 -0.37647181983456801 1.2179506605019981 1.625038616837237 -3.2910909458082553 1.3496197126045519 -1.2821659508251377 1.1467166610119643 5.1620750317206756 0.51150817490939937 0.9108830593050794 -0.74356470413159115 -2.712807914822601 7.1703614662433495 1.034538184194004 2.5895406169950634 0.41461995864807344 2.3495713946299674 0.27923627522485867 3.9525520018193614 0.68702096398789569 0.31626077050971518 -1.2855868640885801 -1.6285517077332223 1.1887119997379392 2.1773307067244803 -1.9429250295183302 3.5967971927749702 -2.2826702880859377
leaf_weight=8466 1690 36 8554 862 1879 49 98 310 2542 52 1561 94 451 43 29 34 181 2053 195 1199 43 286 1411 557 93 258 67 113 290 45
leaf_count=8466 1690 36 8554 862 1879 49 98 310 2542 52 1561 94 451 43 29 34 181 2053 195 1199 43 286 1411 557 93 258 67 113 290 45
internal_value=0.00702541 0.858914 -0.436746 0.447466 1.34523 0.341592 1.73753 -0.230221 1.45264 2.67127 0.0683526 -0.46226 -0.719478 -0.0147042 0.823857 3.85896 0.32358 0.654318 0.0793868 0.568846 0.487202 0.242666 -0.194776 -0.0494159 -0.617665 0.442258 0.0436264 -0.646993 1.80388 2.80702
internal_weight=33541 11488 22053 6223 5265 509 186 12744 4756 150 4190 323 9309 843 392 63 5361 2277 3084 1394 2096 329 2629 2319 908 351 274 207 2214 335
internal_count=33541 11488 22053 6223 5265 509 186 12744 4756 150 4190 323 9309 843 392 63 5361 2277 3084 1394 2096 329 2629 2319 908 351 274 207 2214 335
is_linear=0
shrinkage=0.1


Tree=15
num_leaves=31
num_cat=0
split_feature=0 6 4 6 4 0 4 3 4 6 0 5 3 3 4 4 0 3 3 4 6 0 0 6 3 0 6 3 4 0
split_gain=1.01603e+06 179536 103259 90553.5 68158.1 99925.2 72542.6 66828.9 67616.4 73310.6 62228.3 49562.3 44355.1 44037.3 41250.6 41274.9 36320.3 35784.4 46587.9 55605.9 51412.2 67766.9 36846.3 42054.6 35055.6 33709.3 30880.2 29974.6 29604.5 28364.1
threshold=7.3113686675000009 8.9562210800000024 10.500000000000002 4.4655419125000018 5.5000000000000009 16.109414475000005 7.5000000000000009 11.500000000000002 6.5000000000000009 12.660742025000003 13.165188800000001 1.0000000180025095e-35 6.5000000000000009 1.5000000000000002 4.5000000000000009 7.5000000000000009 12.902588575000003 16.500000000000004 8.5000000000000018 10.500000000000002 9.7014376375000015 14.390437925000002 14.390437925000002 10.615307575000001 11.500000000000002 5.9733203250000004 11.303476950000002 6.5000000000000009 11.500000000000002 9.7581548250000019
decision_type=2 2 2 2 2 2 2 2 2 2 2 2 2 2 2 2 2 2 2 2 2 2 2 2 2 2 2 2 2 2
left_child=3 2 -2 14 12 6 7 10 9 -9 13 -5 -3 -6 -1 -16 29 18 19 -8 -21 26 23 -19 28 -26 27 -22 -13 -14
right_child=1 4 -4 11 5 -7 17 8 -10 -11 -12 24 16 -15 15 -17 -18 22 -20 20 21 -23 -24 -25 25 -27 -28 -29 -30 -31
leaf_value=-0.95627253235449783 0.13541940895579138 2.1785713832169171 1.4013461360147084 -0.05347848848945172 1.606769425868988 4.533127284385789 0.60096531819312948 2.3242367203136944 -0.071170992927638566 -2.0359462410888889 2.9242100185818143 -0.76708203832840105 1.6259860434603355 -1.2673964515453104 -0.24697296852808145 -0.76303792711368912 2.0532868132065825 1.0994893500762171 0.36495107849512032 0.66732063371202222 3.7879253631830219 -0.68740264846057431 -1.4246258229017259 2.7196251999500758 -0.52599661806824127 0.1730231929843799 5.6114302521660218 0.62698704183101661 0.78803588673472413 0.70266370241367682
leaf_weight=3097 4810 667 744 6442 60 71 436 312 437 44 45 2805 494 478 3048 3153 422 340 969 138 120 41 36 303 1495 1281 63 40 128 1019
leaf_count=3097 4810 667 744 6442 60 71 436 312 437 44 45 2805 494 478 3048 3153 422 340 969 138 120 41 36 303 1495 1281 63 40 128 1019
internal_value=-0.0101261 0.723023 0.305 -0.423341 1.0783 0.815615 0.747271 0.164723 0.762268 1.78534 -0.648062 -0.243604 1.47534 -0.946858 -0.658228 -0.509375 1.23294 1.06971 0.837142 1.38315 2.23149 3.04912 1.68864 1.86294 -0.45814 -0.20343 3.7361 2.99769 -0.699215 1.00413
internal_weight=33538 12089 5554 21449 6535 3933 3862 1376 793 356 583 12151 2602 538 9298 6201 1935 2486 1807 838 402 264 679 643 5709 2776 223 160 2933 1513
internal_count=33538 12089 5554 21449 6535 3933 3862 1376 793 356 583 12151 2602 538 9298 6201 1935 2486 1807 838 402 264 679 643 5709 2776 223 160 2933 1513
is_linear=0
shrinkage=0.1


Tree=16
num_leaves=31
num_cat=0
split_feature=0 6 7 4 0 4 0 4 7 7 4 5 7 4 7 6 4 7 0 4 7 6 4 7 7 7 4 7 6 7
split_gain=824148 151594 92082.6 82689 60293 55208.1 80939.4 58759.5 57842.7 58943 57038.4 44144.8 49300.3 40082 39182.3 37698.8 37141.6 41030.4 35796.6 35049.9 61821.4 50157.8 36927.2 46362.6 30981.3 33055.7 30688.7 73112.3 42753 60557.4
threshold=7.245267547500001 8.9562210800000024 9.7578674000000021 10.500000000000002 2.9910237475000008 5.5000000000000009 16.109414475000005 7.5000000000000009 5.9419326275000008 13.891357375000004 11.500000000000002 1.0000000180025095e-35 5.8760643775000014 11.500000000000002 1.2594698135000002 11.417312200000001 2.5000000000000004 10.367170850000003 6.3033805350000014 10.500000000000002 8.554397370000002 4.1847415900000007 6.5000000000000009 8.8620402500000015 8.8135919550000015 2.1726541350000006 4.5000000000000009 11.543413850000002 12.902588575000003 10.697955175000002
decision_type=2 2 2 2 2 2 2 2 2 2 2 2 2 2 2 2 2 2 2 2 2 2 2 2 2 2 2 2 2 2
left_child=2 3 4 14 -1 16 7 -7 -9 15 -11 12 -6 18 -2 -10 17 -3 -13 22 21 -21 23 -14 25 -15 27 -18 29 -28
right_child=1 5 -4 -5 11 6 -8 8 9 10 -12 13 19 24 -16 -17 26 -19 -20 20 -22 -23 -24 -25 -26 -27 28 -29 -30 -31
leaf_value=-0.75627117811142985 2.8797032216015985 1.2144842320509506 0.61191126841198473 1.2356036631072735 -0.37738797708412225 0.14825054854560688 4.0798144662883926 -0.61705643646067609 0.96499781497646231 1.3362527243296307 -2.838481050067478 -0.68873495908625193 0.093628242733085426 -1.9561314787183488 0.093827751244594762 1.8848681407747792 1.5128275578381831 -0.52709842567145826 -0.16392858492270948 6.4318778719220848 -1.9405629409443248 1.3411661034231246 -0.42749702707069387 1.5604381515566572 -2.6468025628725691 1.0175265709705215 1.2029639316633243 3.6987365127508038 1.9254032810639732 -1.1086921782275432
leaf_weight=4455 51 418 883 768 4921 1376 71 212 1510 60 72 5573 1523 42 5004 632 786 200 1695 21 55 247 1144 251 30 340 437 190 418 153
leaf_count=4455 51 418 883 768 4921 1376 71 212 1510 60 72 5573 1523 42 5004 632 786 200 1695 21 55 247 1144 251 30 340 437 190 418 153
internal_value=-0.00911346 0.639854 -0.38777 0.268817 -0.43126 0.970466 0.734053 0.672544 0.96274 1.11002 -0.940875 -0.339862 -0.177936 -0.511951 0.121935 1.23641 1.32781 0.650865 -0.566343 0.124905 1.11333 1.74007 0.0154932 0.301164 0.447567 0.69058 1.53867 1.93836 1.15167 0.603501
internal_weight=33538 12358 21180 5823 20297 6535 3933 3862 2486 2274 132 15842 8162 7680 5055 2142 2602 618 7268 3241 323 268 2918 1774 412 382 1984 976 1008 590
internal_count=33538 12358 21180 5823 20297 6535 3933 3862 2486 2274 132 15842 8162 7680 5055 2142 2602 618 7268 3241 323 268 2918 1774 412 382 1984 976 1008 590
is_linear=0
shrinkage=0.1


Tree=17
num_leaves=31
num_cat=0
split_feature=1 1 7 4 4 4 5 6 4 3 4 3 1 7 7 4 4 3 7 7 7 3 7 3 3 4 7 3 7 1
split_gain=669226 107138 82935.4 61470.5 74990.8 56672.9 52533.2 45098.9 50505.3 104947 54422.6 44882 50196.3 42627.8 41041.7 40850.6 41181.5 58462.2 37931.5 37609.9 36814.1 49301.3 36467.6 44570.7 61135 53708.7 64076.9 57761.3 47199.8 37457.2
threshold=56.272188575944845 112.68475492709847 9.7578674000000021 10.500000000000002 5.5000000000000009 1.5000000000000002 1.0000000180025095e-35 8.7691891850000019 4.5000000000000009 10.500000000000002 3.5000000000000004 11.500000000000002 35.680555705259046 8.073220850000002 3.9550838900000009 7.5000000000000009 6.5000000000000009 13.500000000000002 5.6464251050000014 11.196832462500003 8.073220850000002 3.5000000000000004 5.9419326275000008 9.5000000000000018 20.500000000000004 11.500000000000002 10.291431975000004 14.500000000000002 8.9085177875000028 88.332156158413326
decision_type=2 2 2 2 2 2 2 2 2 2 2 2 2 2 2 2 2 2 2 2 2 2 2 2 2 2 2 2 2 2
left_child=2 3 5 4 7 -1 18 8 10 13 14 -8 -13 -10 -2 16 17 -6 -7 -19 -16 -22 -5 29 25 -25 27 28 -27 -24
right_child=1 -3 -4 22 15 6 11 -9 9 -11 -12 12 -14 -15 20 -17 -18 19 -20 -21 21 -23 23 24 -26 26 -28 -29 -30 -31
leaf_value=-0.88668799346818583 2.1923564278105698 1.1126157459402777 0.57345828520291697 -0.094896801984366119 -0.34485874531782312 -0.32081597136443119 -0.69888504902571791 1.0985856660932072 -0.60310934634977276 2.5956198982598764 -1.3469808325556372 -0.46580837272024811 0.2671222508086587 1.6941670055551965 -0.60230533644890927 0.38425184371549703 -0.66846750557806356 1.5015275925127762 0.077757200442578556 -2.9640295600891116 4.9127354293033996 0.43985971008859032 1.4305024519461698 1.6704082359512935 2.5320799042852666 -4.4084763401746754 -2.881666559499243 2.7584841188043359 0.36415733187945926 3.3670839532716386
leaf_weight=1919 101 3156 978 213 673 5731 4817 1421 304 252 271 3397 1289 110 357 1770 1165 331 4093 20 29 164 295 139 139 30 92 64 67 151
leaf_count=1919 101 3156 978 213 673 5731 4817 1421 304 252 271 3397 1289 110 357 1770 1165 331 4093 20 29 164 295 139 139 30 92 64 67 151
internal_value=-0.00820212 0.617865 -0.326926 0.426466 0.313027 -0.368373 -0.316909 0.689325 0.323104 0.986651 -0.156204 -0.484537 -0.264198 0.00727809 0.339495 0.0270261 -0.261823 0.200816 -0.154757 1.24708 -0.000757609 1.11195 1.0907 1.34918 0.730169 0.0912262 -0.776388 0.426629 -1.11191 2.08616
internal_weight=33538 11314 22224 8158 6968 21246 19327 3009 1588 666 922 9503 4686 414 651 3959 2189 1024 9824 351 550 193 1190 977 531 392 253 161 97 446
internal_count=33538 11314 22224 8158 6968 21246 19327 3009 1588 666 922 9503 4686 414 651 3959 2189 1024 9824 351 550 193 1190 977 531 392 253 161 97 446
is_linear=0
shrinkage=0.1


Tree=18
num_leaves=31
num_cat=0
split_feature=0 7 7 6 7 3 7 3 7 3 0 7 3 3 7 0 3 0 3 3 7 7 3 5 7 7 6 7 3 3
split_gain=545066 100967 60259.6 57481.3 46902.6 40209.7 62620.9 31845.2 32618.8 38212.4 30743.6 24786.8 24285.7 23566.7 23267.5 27212.9 22669.4 22352.5 21670.5 20918.1 21377 28108.5 19474.2 18643.7 18119.3 27397.4 19432 18090.1 17935.3 18719
threshold=7.245267547500001 11.417312200000001 9.7578674000000021 8.9562210800000024 3.1827556025000008 16.500000000000004 6.6443381750000015 15.500000000000002 6.7026758100000015 8.5000000000000018 9.3418851000000025 9.9411420500000016 19.500000000000004 1.0000000180025095e-35 10.615307575000001 11.303476950000002 19.500000000000004 2.4699002850000005 3.5000000000000004 1.0000000180025095e-35 7.5759479775000012 8.6341031125000036 4.5000000000000009 1.0000000180025095e-35 17.504360125000002 16.109414475000005 16.109414475000005 7.8398418000000012 4.5000000000000009 7.5000000000000009
decision_type=2 2 2 2 2 2 2 2 2 2 2 2 2 2 2 2 2 2 2 2 2 2 2 2 2 2 2 2 2 2
left_child=2 3 4 19 17 18 -7 8 28 10 -10 12 -9 -4 -12 22 -13 -1 27 20 -2 -22 -16 24 25 -3 -27 -6 -5 -30
right_child=1 23 13 7 5 6 -8 11 9 -11 14 16 -14 -15 15 -17 -18 -19 -20 -21 21 -23 -24 -25 -26 26 -28 -29 29 -31
leaf_value=-1.0485963743859033 0.43783998555465509 1.4328093721017163 2.1648144170835422 -0.98144218043957143 -0.002551142319009222 -0.27280438022795955 0.52526040899214355 1.6773159675079623 0.042502458338384279 0.32018756552345956 1.6048822867803734 -0.22825417138460113 0.73528853766385871 0.33369579389876236 0.5922959527799061 2.0162385207302869 1.1853650130549582 -0.51515121277058196 -0.44717349305193999 0.14490942532918996 5.0222768170492991 1.0036558052767879 -2.4529322272255309 0.7957149704161226 0.15676372062642963 1.8032419746120771 4.960004151173127 -0.69895297729209038 1.1021590990386902 -0.15114582297442047
leaf_weight=1015 146 960 77 173 2204 3072 1446 642 216 1459 716 254 477 806 42 50 205 3474 8637 5415 28 46 42 684 98 39 39 449 160 467
leaf_count=1015 146 960 77 173 2204 3072 1446 642 216 1459 716 254 477 806 42 50 205 3474 8637 5415 28 46 42 684 98 39 39 449 160 467
internal_value=-0.00738191 0.520388 -0.315322 0.4016 -0.350504 -0.269498 -0.0173813 0.65198 0.476411 0.652711 1.10783 1.02192 1.27575 0.493374 1.37854 0.169143 0.403101 -0.635768 -0.370389 0.183745 1.13962 2.52422 -0.930318 1.20818 1.45654 1.57925 3.38162 -0.120412 -0.0800364 0.168677
internal_weight=33538 12358 21180 10538 20297 15808 4518 4903 3325 2525 1066 1578 1119 883 850 134 459 4489 11290 5635 220 74 84 1820 1136 1038 78 2653 800 627
internal_count=33538 12358 21180 10538 20297 15808 4518 4903 3325 2525 1066 1578 1119 883 850 134 459 4489 11290 5635 220 74 84 1820 1136 1038 78 2653 800 627
is_linear=0
shrinkage=0.1


Tree=19
num_leaves=31
num_cat=0
split_feature=6 6 3 4 3 7 7 0 7 4 4 7 4 3 4 7 6 4 7 7 4 4 4 7 3 7 6 4 4 4
split_gain=443155 84282.6 54362.2 54330.1 54774.6 64091.6 59790.8 50943.7 49645.5 64318.7 45930.8 41506.4 44216.5 46042 41356.3 100238 40652.3 43948 78851.2 73578.3 38820 82322.9 69799 69934.9 47912.1 41954.2 41050 42001.9 37467.6 42256.4
threshold=7.245267547500001 10.873956025000002 15.500000000000002 10.500000000000002 9.5000000000000018 4.2581139575000018 6.097464082500001 9.0029502900000029 8.554397370000002 6.5000000000000009 2.5000000000000004 4.0744408225000015 6.5000000000000009 20.500000000000004 1.5000000000000002 9.0026175125000023 4.4655419125000018 11.500000000000002 2.9910237475000008 5.2811161225000012 9.5000000000000018 6.5000000000000009 4.5000000000000009 9.2819024000000017 20.500000000000004 6.770900225000001 8.1426408400000039 1.5000000000000002 2.5000000000000004 4.5000000000000009
decision_type=2 2 2 2 2 2 2 2 2 2 2 2 2 2 2 2 2 2 2 2 2 2 2 2 2 2 2 2 2 2
left_child=8 2 3 14 6 -6 7 -5 16 10 -10 12 -4 -14 15 -2 -1 -18 -19 -20 21 22 23 -13 -24 -23 27 -25 -3 -30
right_child=1 28 11 4 5 -7 -8 -9 9 -11 -12 20 13 -15 -16 -17 17 18 19 -21 -22 25 24 26 -26 -27 -28 -29 29 -31
leaf_value=-0.49013744389493863 0.49086628195815796 -0.32773614596043316 3.2851015627876787 0.893517232876198 5.1836083817481997 -0.68320955341612855 1.884825847632601 -3.0296380685300246 -0.6222477065258889 -0.41901899042895585 1.0701306970826108 -0.48262140787758556 1.8182350331086381 -3.0946031764701565 -0.013347246099814034 5.9169282815395263 -0.24623677373869032 -1.7669109690757026 3.2117099314928055 0.39260453331059425 1.23838141746764 0.79413673233720339 2.2135698383053142 -3.823646468465979 0.34365426522891712 -0.88001660194028819 2.8165251519736345 1.5079160489638648 1.972186870077077 0.87997137003529646
leaf_weight=8846 268 210 121 102 20 270 512 49 199 894 826 491 65 27 5345 39 9892 105 136 290 677 202 426 22 202 578 127 45 425 2127
leaf_count=8846 268 210 121 102 20 270 512 49 199 894 826 491 65 27 5345 39 9892 105 136 290 677 202 426 22 202 578 127 45 425 2127
internal_value=-0.00664371 0.469481 0.32927 0.16925 0.867705 -0.278601 1.36911 -0.37956 -0.284166 0.200885 0.741562 0.683589 2.02877 0.376424 0.0514811 1.18017 -0.332472 -0.198662 0.687612 1.2926 0.58015 0.36724 0.850622 0.152507 1.6121 -0.446454 1.75997 -0.242746 0.956211 1.06186
internal_weight=33538 12350 9588 6605 953 290 663 151 21188 1919 1025 2983 213 92 5652 307 19269 10423 531 426 2770 2093 1313 685 628 780 194 67 2762 2552
internal_count=33538 12350 9588 6605 953 290 663 151 21188 1919 1025 2983 213 92 5652 307 19269 10423 531 426 2770 2093 1313 685 628 780 194 67 2762 2552
is_linear=0
shrinkage=0.1


Tree=20
num_leaves=31
num_cat=0
split_feature=6 0 4 7 4 7 0 4 5 7 6 0 4 4 7 5 0 7 0 7 0 7 7 4 7 6 5 0 7 5
split_gain=382618 84151.2 38157.4 42234.2 40914.6 52234 42707.5 33777.8 31287.4 64976 30619.2 27934.8 54860.5 73755.4 50593.9 36087.4 41786.8 51620.9 26756.4 26698.6 45822.3 24543.6 23511.7 34418.4 36976 31785.2 26193.4 26016.4 24837.8 40078.6
threshold=8.7691891850000019 4.496195697500001 4.5000000000000009 6.1868267650000011 3.5000000000000004 5.2811161225000012 10.291431975000004 9.5000000000000018 1.0000000180025095e-35 6.0719498350000007 4.0744408225000015 11.417312200000001 11.500000000000002 10.500000000000002 13.891357375000004 1.0000000180025095e-35 13.891357375000004 9.8201219375000033 12.428936675000001 8.7687720075000026 6.5873449875000007 2.3300502950000008 7.4719288150000009 2.5000000000000004 11.543413850000002 12.027509212500002 1.0000000180025095e-35 10.150644575000003 11.196832462500003 1.0000000180025095e-35
decision_type=2 2 2 2 2 2 2 2 2 2 2 2 2 2 2 2 2 2 2 2 2 2 2 2 2 2 2 2 2 2
left_child=1 21 4 7 22 -6 -7 -4 9 -3 -10 -5 13 18 15 -14 17 -17 -13 20 -12 -1 -2 25 -25 28 -27 -26 29 -24
right_child=2 8 3 11 5 6 -8 -9 10 -11 19 12 14 -15 -16 16 -18 -19 -20 -21 -22 -23 23 24 27 26 -28 -29 -30 -31
leaf_value=-0.80935811146211067 0.13098385701317114 -0.19447143260653194 -0.64388521795198328 0.43753586085003349 4.475500163747304 0.31219743288665835 2.5278404956204552 1.0024325178509736 2.436540730306032 0.34644538142852022 -0.37673511131525272 0.19393980433975444 2.6139743211134423 3.4923721518278121 -2.7412843350001745 -2.7026745423674585 -4.7020310974121093 2.4824842716237376 1.2180737944070605 -0.70873835052690481 0.1310506810015816 -0.35761961196569225 2.6225812778544073 1.1276067227439981 6.0975520477294927 0.84172700153929858 -2.4143582201004032 2.4638172320140308 -0.62249810555613194 0.30989859513500156
leaf_weight=1418 392 4423 500 3064 67 173 175 166 44 4460 3855 345 53 125 70 32 20 48 979 943 3297 7922 134 284 25 42 60 93 83 170
leaf_count=1418 392 4423 500 3064 67 173 175 166 44 4460 3855 345 53 125 70 32 20 48 979 943 3297 7922 134 284 25 42 60 93 83 170
internal_value=-0.00951729 -0.185005 0.642062 0.512089 1.05556 1.91865 1.42639 -0.233542 -0.0526597 0.0771135 -0.194296 0.616943 0.945714 1.17043 -0.514423 0.504403 -0.61367 0.408421 0.951211 -0.208595 -0.142651 -0.426203 0.776377 1.06032 1.74581 0.496794 -1.07362 3.23368 0.910701 1.3293
internal_weight=33462 26362 7100 5402 1698 415 348 666 17022 8883 8139 4736 1672 1449 223 153 100 80 1324 8095 7152 9340 1283 891 402 489 102 118 387 304
internal_count=33462 26362 7100 5402 1698 415 348 666 17022 8883 8139 4736 1672 1449 223 153 100 80 1324 8095 7152 9340 1283 891 402 489 102 118 387 304
is_linear=0
shrinkage=0.1


Tree=21
num_leaves=31
num_cat=0
split_feature=6 1 3 7 4 7 7 3 4 3 6 7 4 3 4 1 3 7 1 4 3 7 4 4 1 3 7 4 1 1
split_gain=309921 69152.3 41983.1 31859.3 71664.1 67436.1 43601 42680.2 40278 40275.5 54174.1 39643.7 30907.5 39161.1 65843.9 66379.1 48662 45547.5 53447.7 40562.3 37315.5 69109.4 45149.8 36557.4 43436 36537.3 39955.4 34751.7 72383 31984.2
threshold=8.7691891850000019 24.230366526844403 16.500000000000004 8.6341031125000036 11.500000000000002 10.986192850000004 9.581146900000002 18.500000000000004 5.5000000000000009 20.500000000000004 6.9779486125000014 4.3285324775000014 4.5000000000000009 14.500000000000002 10.500000000000002 173.32219824069571 8.5000000000000018 9.1634657000000015 207.08470379280413 11.500000000000002 9.5000000000000018 10.779029900000003 2.5000000000000004 11.500000000000002 97.505226420408704 3.5000000000000004 10.779029900000003 3.5000000000000004 108.99807008543334 136.3478777865636
decision_type=2 2 2 2 2 2 2 2 2 2 2 2 2 2 2 2 2 2 2 2 2 2 2 2 2 2 2 2 2 2
left_child=1 -1 -3 9 7 6 -6 8 -5 10 -4 -12 20 14 15 -14 17 -16 19 -19 25 -22 -23 29 -25 -2 -27 28 -28 -18
right_child=12 2 3 4 5 -7 -8 -9 -10 -11 11 -13 13 -15 16 -17 23 18 -20 -21 21 22 -24 24 -26 26 27 -29 -30 -31
leaf_value=-0.35724909223389872 0.59619849051814533 -0.1317529834403777 0.018935814171589828 1.2590384095907212 -1.5363780761587211 2.717612566947937 -7.3666234555451773 1.4948464591223105 -1.8109210656977248 -0.28237718902737713 2.68517087296103 0.75192252672967264 -0.25649504686023544 0.78224314935271311 0.79077721965230507 1.1931061536967753 0.63454689129539155 2.1178405472500756 -0.44232287755826621 5.2498754342397058 0.059357137263475648 0.20427618249534418 2.800988427196887 2.1592096853256226 -1.5369125563290813 2.7990618057468599 -4.7482286269848162 3.6780584367116291 1.3643548068247344 4.5810560379028322
leaf_weight=11044 256 11057 1254 84 29 20 23 580 87 1512 132 540 2004 2228 253 375 115 88 41 78 740 104 188 40 155 278 26 30 76 25
leaf_count=11044 256 11057 1254 84 29 20 23 580 87 1512 132 540 2004 2228 253 375 115 88 41 78 740 104 188 40 155 278 26 30 76 25
internal_value=-0.00856556 -0.166505 -0.0289813 0.237704 0.79658 -2.21715 -4.11514 1.08551 -0.302871 0.103919 0.407179 1.13167 0.577855 0.46088 0.235298 -0.0279955 1.02319 1.69085 2.79094 3.58952 0.95 0.573406 1.87613 0.106407 -0.778734 1.53355 2.11882 0.686203 -0.193755 1.33928
internal_weight=33462 26362 15318 4261 823 72 52 751 171 3438 1926 672 7100 5402 3174 2379 795 460 207 166 1698 1032 292 335 195 666 410 132 102 140
internal_count=33462 26362 15318 4261 823 72 52 751 171 3438 1926 672 7100 5402 3174 2379 795 460 207 166 1698 1032 292 335 195 666 410 132 102 140
is_linear=0
shrinkage=0.1


Tree=22
num_leaves=31
num_cat=0
split_feature=6 0 4 4 7 5 7 7 4 7 4 7 7 3 4 7 4 4 7 4 7 4 5 7 3 4 3 3 6 4
split_gain=251036 57252.2 36798.8 40443.3 54832.2 69496.2 55718.6 38198 37743.8 36731.1 54450.3 48771.3 44154.8 35213.3 34401.6 29826.8 29147.4 30599.2 39059.1 32003.9 39224.5 38336.2 65949 29248 28591.6 48052.1 28551.3 52468.9 41745.8 27689.1
threshold=8.7691891850000019 5.7118502675000018 10.500000000000002 6.5000000000000009 7.9212194900000013 1.0000000180025095e-35 10.779029900000003 13.497500300000004 4.5000000000000009 8.9560063175000035 11.500000000000002 3.5312684450000007 11.078370425000003 16.500000000000004 1.5000000000000002 2.1123655025000008 1.5000000000000002 6.5000000000000009 3.3207260200000008 5.5000000000000009 8.554397370000002 3.5000000000000004 1.0000000180025095e-35 8.9560063175000035 4.5000000000000009 11.500000000000002 20.500000000000004 9.5000000000000018 7.1803448250000015 3.5000000000000004
decision_type=2 2 2 2 2 2 2 2 2 2 2 2 2 2 2 2 2 2 2 2 2 2 2 2 2 2 2 2 2 2
left_child=1 16 3 4 14 6 8 -5 29 11 -11 -4 13 -12 -3 -16 -1 19 -19 20 -18 -22 -23 -24 25 -13 27 28 -17 -6
right_child=-2 2 9 7 5 -7 -8 -9 -10 10 12 24 -14 -15 15 26 17 18 -20 -21 21 22 23 -25 -26 -27 -28 -29 -30 -31
leaf_value=-0.71053942133243797 0.52006993319790706 -0.82028695922613837 -0.76721197425989818 -0.32306084663469559 1.2162930140529222 -0.097133704608182769 -0.47816837820006008 3.2583603962262475 2.1882228782380579 1.5739328961774528 -1.2738931048023809 0.65454182704289765 1.81575123031031 -4.6445761403372128 1.1038557992037004 0.11456170240566628 -0.3165614943472832 -0.80960667887801674 -0.24210083611854333 0.22664224908061092 -0.14311571311516066 0.62041105678112352 7.2077911553559479 2.1623361587524417 0.72301303125746985 3.5989580149789462 -0.77439326881591619 0.48397714087400767 -0.84016173541213512 -1.1186562011484058
leaf_weight=1438 7100 539 181 4067 246 769 162 30 421 83 111 120 33 43 243 1059 4557 1692 4282 2148 210 116 27 20 741 103 464 1586 807 64
leaf_count=1438 7100 539 181 4067 246 769 162 30 421 83 111 120 33 43 243 1059 4557 1692 4282 2148 210 116 27 20 741 103 464 1586 807 64
internal_value=-0.00770901 -0.149854 0.0129551 -0.0518083 0.106034 0.599697 1.19977 -0.296836 1.57162 0.491563 -0.55764 0.738974 -1.50374 -2.21506 -0.0686075 0.028809 -0.283248 -0.236171 -0.402834 -0.0955034 -0.235862 0.750055 1.90077 5.06079 1.02177 2.01452 -0.037901 0.0610945 -0.298333 0.734239
internal_weight=33462 26362 11872 10457 6360 1662 893 4097 731 1415 270 1145 187 154 4698 4159 14490 13052 5974 7078 4930 373 163 47 964 223 3916 3452 1866 310
internal_count=33462 26362 11872 10457 6360 1662 893 4097 731 1415 270 1145 187 154 4698 4159 14490 13052 5974 7078 4930 373 163 47 964 223 3916 3452 1866 310
is_linear=0
shrinkage=0.1


Tree=23
num_leaves=31
num_cat=0
split_feature=6 0 4 4 4 7 7 4 3 7 6 6 3 3 3 4 4 7 4 0 7 4 6 7 7 4 7 3 7 7
split_gain=207261 46470.7 38333.5 40881.4 46031.2 37775.9 35277.2 40734.2 33563.2 35484.2 40946 30671.6 61960.9 27900.1 50053.9 36901.6 90228.6 46500.2 37924.3 37281.6 36790.7 27339.9 48894.1 44313.7 41235.8 33403.7 45137.5 35845.8 36370 31509.8
threshold=7.5014024975000018 9.3418851000000025 1.5000000000000002 6.5000000000000009 5.5000000000000009 3.1827556025000008 8.554397370000002 2.5000000000000004 7.5000000000000009 9.9411420500000016 4.5321520225000009 5.3971423825000011 16.500000000000004 7.5000000000000009 15.500000000000002 10.500000000000002 5.5000000000000009 6.0719498350000007 6.5000000000000009 14.390437925000002 14.390437925000002 10.500000000000002 3.8735252300000007 8.554397370000002 10.440214075000002 11.500000000000002 5.2509309775000013 17.500000000000004 5.1583780075000005 3.915290450000001
decision_type=2 2 2 2 2 2 2 2 2 2 2 2 2 2 2 2 2 2 2 2 2 2 2 2 2 2 2 2 2 2
left_child=2 -2 -1 4 6 -5 -4 -8 -9 10 -10 -12 -13 15 -15 16 -3 -17 -18 -19 -21 24 -23 25 -7 27 29 -24 -29 -27
right_child=1 13 3 5 -6 21 7 8 9 -11 11 12 -14 14 -16 17 18 19 -20 20 -22 22 23 -25 -26 26 -28 28 -30 -31
leaf_value=-0.60923239658288741 0.13907481651974657 1.4579676378438842 -0.21684810519769626 -0.67330958362583559 0.30428057958919852 -0.36904236814919922 -1.0078255062830364 -0.25821436720199131 4.1257224434042632 0.21896389842599251 -1.2077463915473539 -0.22502726829968966 4.0480655381377311 0.073205048564720085 0.77109112373095767 -1.4396962082063831 -1.9542377455366982 2.8670072631679675 0.13200429889420978 2.5718841049982153 -3.0842530996903132 -0.66280096425281143 -0.15609913864915356 -0.97671168488056515 1.0545027650295282 -0.15259014538356239 0.58182151892746825 -0.26853109232462502 2.5656975560156363 3.1973041259906663
leaf_weight=1938 5635 656 6801 2066 3247 5066 141 178 73 158 38 65 71 2131 1985 37 108 226 451 23 23 589 621 201 212 35 357 76 112 142
leaf_count=1938 5635 656 6801 2066 3247 5066 141 178 73 158 38 65 71 2131 1985 37 108 226 451 23 23 589 621 201 212 35 357 76 112 142
internal_value=-0.00693811 0.342181 -0.184354 -0.143689 -0.0104145 -0.295176 -0.146204 0.517403 0.886284 1.3893 2.13793 1.30397 2.00578 0.545108 0.409771 0.910626 0.662472 1.88638 -0.271062 2.33882 -0.256184 -0.189762 0.112372 0.408083 -0.311863 0.615338 1.22919 0.210151 1.41995 2.5349
internal_weight=33462 11275 22187 20249 10772 9477 7525 724 583 405 247 174 136 5640 4116 1524 1215 309 559 272 46 7411 2133 1544 5278 1343 534 809 188 177
internal_count=33462 11275 22187 20249 10772 9477 7525 724 583 405 247 174 136 5640 4116 1524 1215 309 559 272 46 7411 2133 1544 5278 1343 534 809 188 177
is_linear=0
shrinkage=0.1


Tree=24
num_leaves=31
num_cat=0
split_feature=6 0 3 4 4 3 4 3 4 4 3 4 4 4 3 4 3 0 0 3 0 3 0 4 4 6 4 4 0 0
split_gain=167882 40157.4 35531.3 38621.6 37824.7 35535.9 25433.1 19435.3 31926.8 36908.4 31432.3 28831.2 71657.5 34773.6 30690.7 30016.4 33011.3 21936 21590.9 19912.3 18644.5 18024.5 17874.8 49353.1 17751.5 37558.7 17622.4 17571.6 27148.2 17399
threshold=7.5014024975000018 10.873956025000002 12.500000000000002 2.5000000000000004 7.5000000000000009 3.5000000000000004 1.5000000000000002 14.500000000000002 1.5000000000000002 10.500000000000002 11.500000000000002 6.5000000000000009 9.5000000000000018 11.500000000000002 22.500000000000004 4.5000000000000009 20.500000000000004 8.1070006350000039 7.3113686675000009 5.5000000000000009 9.6377233575000023 2.5000000000000004 9.8744734750000038 11.500000000000002 6.5000000000000009 6.612361270000001 11.500000000000002 3.5000000000000004 9.2246185500000024 8.0008539475000031
decision_type=2 2 2 2 2 2 2 2 2 2 2 2 2 2 2 2 2 2 2 2 2 2 2 2 2 2 2 2 2 2
left_child=2 7 5 -4 -5 6 -1 8 19 -10 20 15 -13 14 -14 18 -17 -12 -9 29 21 -11 -19 -24 -8 -26 -27 -20 -29 -2
right_child=1 -3 3 4 -6 -7 24 11 9 10 17 12 13 -15 -16 16 -18 22 27 -21 -22 -23 23 -25 25 26 -28 28 -30 -31
leaf_value=-0.84081691561193128 0.0037924698420933318 0.64000477145611701 -0.4924527024696877 0.22800368364700355 -0.20195877809131835 -0.39865530161664919 0.25983298877463079 3.5161304432898763 -0.079179853984478979 -0.54619483678169289 -3.8199155664443971 -0.50440446823975771 1.672424836242848 -0.061319144252273777 -0.82560403240578517 1.6036566789047075 0.097318713617796954 0.79165113708552193 0.46482399978729733 0.55293215139720009 1.677997593486418 0.90127479607224315 1.7099122836476282 -4.995260321575663 -0.41040015994059464 0.47954729034035815 2.5327273734807969 -1.6307077689750775 0.96833471646384595 3.3410839174614582
leaf_weight=354 21 2753 1512 5113 3411 8244 1872 20 4395 112 20 869 404 270 56 520 202 68 544 152 219 371 21 23 1376 255 50 111 63 61
leaf_count=354 21 2753 1512 5113 3411 8244 1872 20 4395 112 20 869 404 270 56 520 202 68 544 152 219 371 21 23 1376 255 50 111 63 61
internal_value=-0.0062443 0.307963 -0.165918 -0.0266727 0.0559481 -0.280927 -0.0325138 0.200699 0.0876932 0.0365531 0.646441 0.402512 0.109157 0.839547 1.36832 0.723797 1.18222 -0.76931 0.275316 1.23048 0.91265 0.56563 -0.224559 -1.79506 0.0480207 -0.187858 0.816134 0.185043 -0.689675 2.48641
internal_weight=33462 11275 22187 10036 8524 12151 3907 8522 5463 5229 834 3059 1599 730 460 1460 722 132 738 234 702 483 112 44 3553 1681 305 718 174 82
internal_count=33462 11275 22187 10036 8524 12151 3907 8522 5463 5229 834 3059 1599 730 460 1460 722 132 738 234 702 483 112 44 3553 1681 305 718 174 82
is_linear=0
shrinkage=0.1


Tree=25
num_leaves=31
num_cat=0
split_feature=0 6 7 4 4 4 7 4 6 5 7 7 4 6 0 7 7 5 7 4 4 7 7 7 7 4 5 4 4 0
split_gain=138900 36063.1 29846.2 24282.6 24850.2 31932.7 35715.1 49606.9 34997.9 33033.5 28605.5 34337.1 49844.9 43360.7 25146.7 23587.9 23238.1 21620.8 21452.3 20648.1 90511.1 27651.4 24086.3 29869.5 32774.9 54301.9 73356.6 34615.7 61423.5 51544.7
threshold=7.5014790925000012 11.196832462500003 9.7578674000000021 1.5000000000000002 6.5000000000000009 5.5000000000000009 8.554397370000002 3.5000000000000004 4.496195697500001 1.0000000180025095e-35 8.9560063175000035 3.2736649675000007 10.500000000000002 2.9445437625000004 4.3285324775000014 3.3605750800000007 4.0744408225000015 1.0000000180025095e-35 9.2243765875000019 8.5000000000000018 6.5000000000000009 12.027509212500002 2.5178038325000007 7.4079228775000017 10.367170850000003 4.5000000000000009 1.0000000180025095e-35 4.5000000000000009 3.5000000000000004 9.5177857375000006
decision_type=2 2 2 2 2 2 2 2 2 2 2 2 2 2 2 2 2 2 2 2 2 2 2 2 2 2 2 2 2 2
left_child=2 19 3 -1 5 6 14 9 -9 -8 11 -6 -13 -14 -5 -7 -3 -15 -10 20 22 -22 -2 -24 27 -26 -27 28 -25 -30
right_child=1 16 -4 4 10 15 7 8 18 -11 -12 12 13 17 -16 -17 -18 -19 -20 -21 21 -23 23 24 25 26 -28 -29 29 -31
leaf_value=-0.49680210674295333 1.5290332800575666 -2.3335613039823677 0.40305598436089157 -0.42043028066699811 -0.56011392773031365 0.82519573838852356 0.56937728304238555 4.5333026465891697 0.51529752769253478 -2.2814631090561548 -1.1405184869778295 -0.27697112769433352 -0.62530650085423112 0.94211856077501288 -0.029023490817720449 0.11576101916646984 0.67255223997219293 0.18850382594292628 3.2196055257320406 0.41947516361670756 -0.61958085796420159 1.7929219343224352 -0.0097819703262736896 0.86405969010203665 0.70183561915192161 0.036299034391130719 -3.4271812743328987 1.1647650475376139 -2.0157633151401555 0.89933206630831075
leaf_weight=1965 161 26 978 2761 2145 581 126 41 110 60 346 4591 379 771 4048 2424 2348 752 40 2932 1562 49 1924 564 362 175 94 921 171 94
leaf_count=1965 161 26 978 2761 2145 581 126 41 110 60 346 4591 379 771 4048 2424 2348 752 40 2932 1562 49 1924 564 362 175 94 921 171 94
internal_value=0.00905617 0.292892 -0.137019 -0.162005 -0.127696 -0.0208091 -0.135278 0.812165 1.94415 -0.350249 -0.248943 -0.21323 -0.098635 0.331828 -0.187736 0.252926 0.639629 0.570012 1.23645 0.201521 0.0963639 -0.546202 0.328154 0.283243 0.520026 -0.0978419 -1.17399 0.742811 0.274031 -0.981729
internal_weight=33501 11383 22118 21140 19175 10191 7186 377 191 186 8984 8638 6493 1902 6809 3005 2374 1523 150 9009 6077 1611 4466 4305 2381 631 269 1750 829 265
internal_count=33501 11383 22118 21140 19175 10191 7186 377 191 186 8984 8638 6493 1902 6809 3005 2374 1523 150 9009 6077 1611 4466 4305 2381 631 269 1750 829 265
is_linear=0
shrinkage=0.1


end of trees

feature_importances:
month=254
wind_lag_24h=181
hour=136
wind_speed=83
wind_lag_1h=75
is_daytime=27
wind_speed_2=24

parameters:
[boosting: gbdt]
[objective: regression]
[metric: rmse]
[tree_learner: serial]
[device_type: cpu]
[data_sample_strategy: bagging]
[data: ]
[valid: ]
[num_iterations: 100]
[learning_rate: 0.1]
[num_leaves: 31]
[num_threads: 0]
[seed: 42]
[deterministic: 0]
[force_col_wise: 0]
[force_row_wise: 0]
[histogram_pool_size: -1]
[max_depth: -1]
[min_data_in_leaf: 20]
[min_sum_hessian_in_leaf: 0.001]
[bagging_fraction: 0.8]
[pos_bagging_fraction: 1]
[neg_bagging_fraction: 1]
[bagging_freq: 5]
[bagging_seed: 400]
[bagging_by_query: 0]
[feature_fraction: 0.9]
[feature_fraction_bynode: 1]
[feature_fraction_seed: 30056]
[extra_trees: 0]
[extra_seed: 12879]
[early_stopping_round: 0]
[early_stopping_min_delta: 0]
[first_metric_only: 0]
[max_delta_step: 0]
[lambda_l1: 0]
[lambda_l2: 0]
[linear_lambda: 0]
[min_gain_to_split: 0]
[drop_rate: 0.1]
[max_drop: 50]
[skip_drop: 0.5]
[xgboost_dart_mode: 0]
[uniform_drop: 0]
[drop_seed: 17869]
[top_rate: 0.2]
[other_rate: 0.1]
[min_data_per_group: 100]
[max_cat_threshold: 32]
[cat_l2: 10]
[cat_smooth: 10]
[max_cat_to_onehot: 4]
[top_k: 20]
[monotone_constraints: ]
[monotone_constraints_method: basic]
[monotone_penalty: 0]
[feature_contri: ]
[forcedsplits_filename: ]
[refit_decay_rate: 0.9]
[cegb_tradeoff: 1]
[cegb_penalty_split: 0]
[cegb_penalty_feature_lazy: ]
[cegb_penalty_feature_coupled: ]
[path_smooth: 0]
[interaction_constraints: ]
[verbosity: -1]
[saved_feature_importance_type: 0]
[use_quantized_grad: 0]
[num_grad_quant_bins: 4]
[quant_train_renew_leaf: 0]
[stochastic_rounding: 1]
[linear_tree: 0]
[max_bin: 255]
[max_bin_by_feature: ]
[min_data_in_bin: 3]
[bin_construct_sample_cnt: 200000]
[data_random_seed: 175]
[is_enable_sparse: 1]
[enable_bundle: 1]
[use_missing: 1]
[zero_as_missing: 0]
[feature_pre_filter: 1]
[pre_partition: 0]
[two_round: 0]
[header: 0]
[label_column: ]
[weight_column: ]
[group_column: ]
[ignore_column: ]
[categorical_feature: ]
[forcedbins_filename: ]
[precise_float_parser: 0]
[parser_config_file: ]
[objective_seed: 16083]
[num_class: 1]
[is_unbalance: 0]
[scale_pos_weight: 1]
[sigmoid: 1]
[boost_from_average: 1]
[reg_sqrt: 0]
[alpha: 0.9]
[fair_c: 1]
[poisson_max_delta_step: 0.7]
[tweedie_variance_power: 1.5]
[lambdarank_truncation_level: 30]
[lambdarank_norm: 1]
[label_gain: ]
[lambdarank_position_bias_regularization: 0]
[eval_at: ]
[multi_error_top_k: 1]
[auc_mu_weights: ]
[num_machines: 1]
[local_listen_port: 12400]
[time_out: 120]
[machine_list_filename: ]
[machines: ]
[gpu_platform_id: -1]
[gpu_device_id: -1]
[gpu_use_dp: 0]
[num_gpu: 1]

end of parameters

pandas_categorical:[]
